tree
version=v4
num_class=5
num_tree_per_iteration=5
label_index=0
max_feature_idx=20
objective=multiclass num_class:5
feature_names=day_of_week day_of_month month lag_inc_1d inc_3d_sum inc_7d_sum inc_30d_sum succ_7d_sum succ_30d_sum had_incident_prev_1d had_incident_prev_3d had_incident_prev_7d days_since_last_incident days_since_last_success type_inc_7d_sum type_inc_30d_sum avg_inter_attack_interval attack_rate_trend streak_active_days streak_quiet_days success_ratio_7d
feature_infos=[0:6] [1:31] [1:12] [0:2] [0:2] [0:3] [0:6] [0:2] [0:3] [0:1] [0:1] [0:1] [1:999] [1:999] [0:4] [1:9] [4.4000000000000004:999] [-1.1666666666666667:2.2999999999999998] [0:2] [0:67] [0:1]
tree_sizes=1346 1446 1453 1450 1439

Tree=0
num_leaves=12
num_cat=0
split_feature=0 15 13 16 14 13 0 16 16 13 15
split_gain=8.03247 9.30018 5.36291 6.40035 4.72137 4.05846 3.55793 7.32989 4.66335 2.64479 0.712444
threshold=3.5000000000000004 4.5000000000000009 33.500000000000007 9.1666666666666679 1.5000000000000002 41.500000000000007 4.5000000000000009 10.783333333333335 23.533333333333335 57.500000000000007 4.5000000000000009
decision_type=2 2 2 2 2 2 2 2 2 2 2
left_child=2 6 3 4 -1 -4 -2 -8 -9 -7 -5
right_child=1 -3 5 10 -6 9 7 8 -10 -11 -12
leaf_value=-1.5882365254355466 -1.6299482528852003 -1.56770950144942 -1.5781873535791282 -1.6485145798951779 -1.6336771870624862 -1.6345768225726758 -1.5645524371919166 -1.6387338459412195 -1.5939537608039172 -1.5972558444529241 -1.6223954163961001
leaf_weight=11.464372873306276 11.258042648434637 17.874306693673134 8.5863215178251284 19.290626108646396 6.451914742588996 6.7939460575580579 6.921382904052737 8.7604014426469821 8.6733337342739087 6.447123259305954 8.3508787751197797
leaf_count=53 57 83 38 112 32 34 30 48 42 26 38
internal_value=-1.60826 -1.59421 -1.61952 -1.62891 -1.60597 -1.60014 -1.60959 -1.59915 -1.61721 -1.6172 -1.64283
internal_weight=120.873 53.4875 67.3852 45.5578 17.9163 21.8274 35.6132 24.3551 17.4337 13.2411 27.6415
internal_count=593 260 333 235 85 98 177 120 90 60 150
is_linear=0
shrinkage=1


Tree=1
num_leaves=13
num_cat=0
split_feature=13 0 13 16 1 0 2 6 2 13 1 16
split_gain=7.69167 8.93779 6.86112 6.51539 20.9142 4.91135 10.4726 4.85133 4.10993 1.05628 0.349232 0.254605
threshold=37.500000000000007 4.5000000000000009 29.500000000000004 24.433333333333337 21.500000000000004 1.5000000000000002 9.5000000000000018 3.5000000000000004 5.5000000000000009 13.500000000000002 25.500000000000004 8.4166666666666696
decision_type=2 2 2 2 2 2 2 2 2 2 2 2
left_child=1 2 5 -2 -5 7 8 9 -7 -1 11 -3
right_child=3 10 -4 4 -6 6 -8 -9 -10 -11 -12 -13
leaf_value=-1.614529365451332 -1.5658540897239819 -1.6235552494342034 -1.6394645354906145 -1.6486576871476748 -1.5572878642686405 -1.5924228199713402 -1.5550708562059545 -1.5866498335445944 -1.6310543484237445 -1.6436503806348024 -1.6196047777229141 -1.6494472547358092
leaf_weight=7.0536257177591342 13.334412030875681 6.828215613961226 9.7084889933466894 11.378206700086595 8.0945804789662343 12.436535499989988 11.64673565328121 5.7810537666082373 9.4248880147933942 6.8178874254226685 5.8534967303276053 12.514527313411234
leaf_count=40 58 31 49 59 28 62 48 24 54 43 26 71
internal_value=-1.6088 -1.6165 -1.60622 -1.58915 -1.60901 -1.59878 -1.58779 -1.61769 -1.60948 -1.63268 -1.63992 -1.64365
internal_weight=120.873 88.0655 62.8692 32.8072 19.4728 53.1607 33.5082 19.6526 21.8614 13.8715 25.1962 19.3427
internal_count=593 448 320 145 87 271 164 107 116 83 128 102
is_linear=0
shrinkage=1


Tree=2
num_leaves=13
num_cat=0
split_feature=0 6 12 19 2 13 6 14 2 13 12 8
split_gain=6.16047 4.5612 7.06855 5.24144 3.41257 5.27491 4.18818 1.43741 3.50031 1.10731 1.39824 0.0992625
threshold=1.5000000000000002 3.5000000000000004 29.500000000000004 36.500000000000007 9.5000000000000018 13.500000000000002 1.0000000180025095e-35 1.0000000180025095e-35 6.5000000000000009 29.500000000000004 3.5000000000000004 1.5000000000000002
decision_type=2 2 2 2 2 2 2 2 2 2 2 2
left_child=4 2 7 -4 5 -1 -7 8 -2 10 -9 -3
right_child=1 11 3 -5 -6 6 -8 9 -10 -11 -12 -13
leaf_value=-1.6302276170260459 -1.6385635218351735 -1.6029284339383441 -1.5770661822590979 -1.6203679804822058 -1.5689971427854008 -1.6141195480453645 -1.5670371760755772 -1.6155485270295926 -1.5998045010941675 -1.6157741085344606 -1.6473540455543365 -1.5883701039397029
leaf_weight=8.558934688568117 7.3418545424938229 7.1073291748762113 10.585727170109751 11.874862372875212 8.7004739642143232 7.1371686905622465 7.7934191823005676 6.0800978839397457 10.661466687917708 7.5212981998920432 19.903248324990273 7.6067698746919632
leaf_count=46 39 28 53 50 41 33 45 32 59 36 98 33
internal_value=-1.60912 -1.61591 -1.62104 -1.59875 -1.59131 -1.6034 -1.58684 -1.63091 -1.61728 -1.63685 -1.64149 -1.59283
internal_weight=120.873 88.6827 73.9686 22.4606 32.19 23.4895 14.9306 51.508 18.0033 33.5046 25.9833 14.7141
internal_count=593 428 367 103 165 124 78 264 98 166 130 61
is_linear=0
shrinkage=1


Tree=3
num_leaves=13
num_cat=0
split_feature=16 13 13 15 1 16 19 15 1 2 14 14
split_gain=7.43146 11.1295 10.3308 9.03784 22.9361 8.10638 7.04977 4.9374 5.51569 4.51939 1.67698 1.19849
threshold=7.4166666666666679 33.500000000000007 20.500000000000004 2.5000000000000004 18.500000000000004 14.266666666666667 14.500000000000002 2.5000000000000004 24.500000000000004 6.5000000000000009 1.5000000000000002 1.5000000000000002
decision_type=2 2 2 2 2 2 2 2 2 2 2 2
left_child=10 2 7 4 -3 6 -4 -2 9 -9 -1 -5
right_child=1 3 5 11 -6 -7 -8 8 -10 -11 -12 -13
leaf_value=-1.6432682299067651 -1.6380450813128704 -1.5421014017281838 -1.5699842685940775 -1.6502519327370369 -1.6411991821350556 -1.5380807249582416 -1.6346948193039603 -1.6127595321726258 -1.6283636494649472 -1.571205738865133 -1.6131482384056757 -1.6199006186450096
leaf_weight=12.325288556516172 6.4144876748323432 7.3314494043588665 5.8831960111856478 13.873561024665834 10.586747929453848 10.812784329056738 5.1397475078701973 9.2673942297697085 7.9611571803688994 14.946694053709505 8.3679703772068006 7.9621756598353377
leaf_count=56 39 40 28 69 38 59 33 44 36 85 34 32
internal_value=-1.60807 -1.60227 -1.58911 -1.62217 -1.59705 -1.56392 -1.59946 -1.60574 -1.59727 -1.58591 -1.63331 -1.64199
internal_weight=120.873 100.179 60.4255 39.7539 17.9182 21.8357 11.0229 38.5897 32.1752 24.2141 20.6933 21.8357
internal_count=593 503 324 179 78 120 61 204 165 129 90 101
is_linear=0
shrinkage=1


Tree=4
num_leaves=13
num_cat=0
split_feature=2 12 16 15 13 6 16 8 16 16 2 12
split_gain=7.82362 26.9704 5.89 4.95336 8.48355 9.62155 12.9454 10.9177 2.92153 1.09003 1.03844 0.962765
threshold=2.5000000000000004 39.500000000000007 38.600000000000009 5.5000000000000009 26.500000000000004 1.5000000000000002 20.950000000000003 1.5000000000000002 10.866666666666669 8.9166666666666696 10.500000000000002 38.500000000000007
decision_type=2 2 2 2 2 2 2 2 2 2 2 2
left_child=1 2 -1 4 5 6 -2 10 -6 -5 -7 -10
right_child=3 -3 -4 9 8 7 -8 -9 11 -11 -12 -13
leaf_value=-1.5178182171655454 -1.5245409950183355 -1.6416151606835356 -1.5999995698023153 -1.6485322881896898 -1.6045927379982208 -1.6451485469686724 -1.6097156134443971 -1.5730465942253364 -1.6415134112138901 -1.6211599908014407 -1.618410929519122 -1.6169240724059024
leaf_weight=6.5450259894132632 5.560173586010932 9.8422054797410947 3.9972696453332901 11.21284455060959 8.1756183952093107 9.5707317143678718 9.0328488051891309 7.5156713873147956 20.761109843850139 10.70025812089443 9.7822562903165799 8.1766369491815549
leaf_count=55 46 40 22 40 40 34 48 50 88 50 44 36
internal_value=-1.61306 -1.58689 -1.53962 -1.61891 -1.61255 -1.59746 -1.5686 -1.6155 -1.62917 -1.63839 -1.63488 -1.63608
internal_weight=120.873 20.3845 10.5423 100.488 78.575 41.4617 14.593 26.8687 37.1134 21.9131 19.353 28.9377
internal_count=593 117 77 476 386 222 94 128 164 90 78 124
is_linear=0
shrinkage=1


end of trees

feature_importances:
days_since_last_success=11
avg_inter_attack_interval=11
month=7
day_of_week=5
type_inc_30d_sum=5
day_of_month=4
inc_30d_sum=4
days_since_last_incident=4
type_inc_7d_sum=4
succ_30d_sum=2
streak_quiet_days=2

parameters:
[boosting: gbdt]
[objective: multiclass]
[metric: multi_logloss]
[tree_learner: serial]
[device_type: cpu]
[data_sample_strategy: bagging]
[data: ]
[valid: ]
[num_iterations: 500]
[learning_rate: 0.05]
[num_leaves: 31]
[num_threads: 18]
[seed: 42]
[deterministic: 1]
[force_col_wise: 1]
[force_row_wise: 0]
[histogram_pool_size: -1]
[max_depth: 6]
[min_data_in_leaf: 30]
[min_sum_hessian_in_leaf: 0.01]
[bagging_fraction: 0.8]
[pos_bagging_fraction: 1]
[neg_bagging_fraction: 1]
[bagging_freq: 1]
[bagging_seed: 400]
[bagging_by_query: 0]
[feature_fraction: 0.8]
[feature_fraction_bynode: 1]
[feature_fraction_seed: 30056]
[extra_trees: 0]
[extra_seed: 12879]
[early_stopping_round: 0]
[early_stopping_min_delta: 0]
[first_metric_only: 0]
[max_delta_step: 0]
[lambda_l1: 0.1]
[lambda_l2: 3]
[linear_lambda: 0]
[min_gain_to_split: 0.01]
[drop_rate: 0.1]
[max_drop: 50]
[skip_drop: 0.5]
[xgboost_dart_mode: 0]
[uniform_drop: 0]
[drop_seed: 17869]
[top_rate: 0.2]
[other_rate: 0.1]
[min_data_per_group: 100]
[max_cat_threshold: 32]
[cat_l2: 10]
[cat_smooth: 10]
[max_cat_to_onehot: 4]
[top_k: 20]
[monotone_constraints: ]
[monotone_constraints_method: basic]
[monotone_penalty: 0]
[feature_contri: ]
[forcedsplits_filename: ]
[refit_decay_rate: 0.9]
[cegb_tradeoff: 1]
[cegb_penalty_split: 0]
[cegb_penalty_feature_lazy: ]
[cegb_penalty_feature_coupled: ]
[path_smooth: 0]
[interaction_constraints: ]
[verbosity: -1]
[saved_feature_importance_type: 0]
[use_quantized_grad: 0]
[num_grad_quant_bins: 4]
[quant_train_renew_leaf: 0]
[stochastic_rounding: 1]
[linear_tree: 0]
[max_bin: 255]
[max_bin_by_feature: ]
[min_data_in_bin: 3]
[bin_construct_sample_cnt: 200000]
[data_random_seed: 175]
[is_enable_sparse: 1]
[enable_bundle: 1]
[use_missing: 1]
[zero_as_missing: 0]
[feature_pre_filter: 1]
[pre_partition: 0]
[two_round: 0]
[header: 0]
[label_column: ]
[weight_column: ]
[group_column: ]
[ignore_column: ]
[categorical_feature: ]
[forcedbins_filename: ]
[precise_float_parser: 0]
[parser_config_file: ]
[objective_seed: 16083]
[num_class: 5]
[is_unbalance: 0]
[scale_pos_weight: 1]
[sigmoid: 1]
[boost_from_average: 1]
[reg_sqrt: 0]
[alpha: 0.9]
[fair_c: 1]
[poisson_max_delta_step: 0.7]
[tweedie_variance_power: 1.5]
[lambdarank_truncation_level: 30]
[lambdarank_norm: 1]
[label_gain: ]
[lambdarank_position_bias_regularization: 0]
[eval_at: ]
[multi_error_top_k: 1]
[auc_mu_weights: ]
[num_machines: 1]
[local_listen_port: 12400]
[time_out: 120]
[machine_list_filename: ]
[machines: ]
[gpu_platform_id: -1]
[gpu_device_id: -1]
[gpu_use_dp: 0]
[num_gpu: 1]

end of parameters

pandas_categorical:[]
