tree
version=v4
num_class=5
num_tree_per_iteration=5
label_index=0
max_feature_idx=20
objective=multiclass num_class:5
feature_names=day_of_week day_of_month month lag_inc_1d inc_3d_sum inc_7d_sum inc_30d_sum succ_7d_sum succ_30d_sum had_incident_prev_1d had_incident_prev_3d had_incident_prev_7d days_since_last_incident days_since_last_success type_inc_7d_sum type_inc_30d_sum avg_inter_attack_interval attack_rate_trend streak_active_days streak_quiet_days success_ratio_7d
feature_infos=[0:6] [1:31] [1:12] [0:2] [0:2] [0:3] [0:5] [0:2] [0:4] [0:1] [0:1] [0:1] [1:999] [1:999] [0:4] [0:9] [4.333333333333333:999] [-0.93333333333333335:2.2999999999999998] [0:2] [0:94] [0:1]
tree_sizes=1351 1349 1448 1251 1344 1502 1187 1369 1283 1386 1289 1717 1499 1300 1404 1607 1271 1500 1492 1378 1591 1284 1504 1501 1597 1579 1721 1288 1299 1296 1492 1377 1294 1402 1181 1468 1281 1178 1294 1383 1387 1605 1271 1494 1440 1480 1499 1076 1297 1289

Tree=0
num_leaves=12
num_cat=0
split_feature=13 13 12 16 13 0 12 15 16 16 13
split_gain=12.1717 6.46044 11.0482 7.30078 4.87549 5.4754 2.27167 2.34188 2.08799 3.92683 0.666099
threshold=66.500000000000014 16.500000000000004 19.500000000000004 5.9000000000000012 20.500000000000004 2.5000000000000004 37.500000000000007 3.5000000000000004 12.750000000000002 9.6666666666666679 43.500000000000007
decision_type=2 2 2 2 2 2 2 2 2 2 2
left_child=1 3 4 -1 -3 -6 7 -4 9 -5 -7
right_child=-2 2 6 8 5 10 -8 -9 -10 -11 -12
leaf_value=-1.5797897551363596 -1.5713531212132208 -1.5553641519519523 -1.6149055146246176 -1.6415466643902512 -1.5755424145916759 -1.6264338935769769 -1.6074426812270211 -1.6480681309769518 -1.6463237559428263 -1.5949902174582133 -1.6078876852390178
leaf_weight=3.6582416594028464 15.050077706575392 6.7235110551118877 11.296244308352472 5.6634691506624204 10.210382163524629 7.5338252931833249 10.904643297195433 10.632666036486624 23.510212600231171 6.7233251482248306 7.2873803526163101
leaf_count=16 63 34 57 33 45 34 59 63 129 32 28
internal_value=-1.60937 -1.61574 -1.60598 -1.6309 -1.58597 -1.59928 -1.62554 -1.6339 -1.63812 -1.61806 -1.61831
internal_weight=119.194 104.144 64.5887 39.5552 31.7551 25.0316 32.8336 21.9289 35.897 12.3868 14.8212
internal_count=593 530 320 210 141 107 179 120 194 65 62
is_linear=0
shrinkage=1


Tree=1
num_leaves=12
num_cat=0
split_feature=1 16 13 16 13 1 16 0 16 16 16
split_gain=7.17228 4.5107 15.2024 13.9706 10.8142 9.66981 2.48533 1.18016 0.640798 0.809198 0.526401
threshold=26.500000000000004 19.050000000000004 13.500000000000002 22.283333333333335 8.5000000000000018 23.500000000000004 49.583333333333336 2.5000000000000004 9.0000000000000018 7.5500000000000007 7.6500000000000012
decision_type=2 2 2 2 2 2 2 2 2 2 2
left_child=1 4 -3 -4 -1 8 7 -5 9 -6 -2
right_child=10 2 3 6 5 -7 -8 -9 -10 -11 -12
leaf_value=-1.5791235273339432 -1.6119094154889073 -1.6405593343249021 -1.5445032989978915 -1.6251856640268514 -1.6301594908782724 -1.579176289995248 -1.5851882819503398 -1.6035257481879064 -1.6441060144214301 -1.6060117106212184 -1.6418631719900398
leaf_weight=12.739611268043516 2.6158228814601889 11.138321727514265 13.840772926807402 8.0598066747188621 6.1163225471973437 5.7782748043537131 9.5035235583782178 11.602729201316832 21.708154827356339 3.9034169614315033 12.187216341495512
leaf_count=53 13 73 47 35 43 24 37 45 119 30 74
internal_value=-1.6088 -1.6039 -1.59423 -1.58088 -1.61449 -1.62798 -1.60274 -1.61309 -1.63886 -1.62175 -1.63816
internal_weight=119.194 104.391 54.1452 43.0068 50.2458 37.5062 29.1661 19.6625 31.7279 10.0197 14.803
internal_count=593 506 237 164 269 216 117 80 192 73 87
is_linear=0
shrinkage=1


Tree=2
num_leaves=13
num_cat=0
split_feature=15 13 16 16 6 13 12 13 0 13 16 13
split_gain=6.36468 12.0869 4.62335 10.7237 5.42621 3.81122 2.64912 6.73699 3.80352 2.29476 1.96659 1.04549
threshold=4.5000000000000009 4.5000000000000009 21.433333333333337 17.31666666666667 1.5000000000000002 15.500000000000002 15.500000000000002 9.5000000000000018 4.5000000000000009 61.500000000000007 8.6833333333333353 14.500000000000002
decision_type=2 2 2 2 2 2 2 2 2 2 2 2
left_child=2 -2 3 4 -1 -6 7 -4 9 -8 11 -3
right_child=1 10 6 -5 5 -7 8 -9 -10 -11 -12 -13
leaf_value=-1.6336037318602215 -1.5719846610250288 -1.603407535764779 -1.6317770229440445 -1.5584619347254727 -1.6172988321021213 -1.5736098127643889 -1.6231876103484932 -1.5789708926176131 -1.6457729861270047 -1.590644783452235 -1.6488324833800416 -1.6283046966167667
leaf_weight=10.890094101428987 5.6505393087863913 4.4385661482811001 7.5163932740688351 13.239716887474058 7.1280247271060935 8.1893081367015821 8.7732987999916094 11.467993438243864 8.3429030478000623 7.0093041956424704 18.021903365850449 8.5259282886981946
leaf_count=59 31 21 43 52 39 40 47 43 35 29 101 53
internal_value=-1.60979 -1.62639 -1.60215 -1.59039 -1.60993 -1.59217 -1.61334 -1.6003 -1.62367 -1.60831 -1.63888 -1.61994
internal_weight=119.194 36.6369 82.557 39.4471 26.2074 15.3173 43.1099 18.9844 24.1255 15.7826 30.9864 12.9645
internal_count=593 206 387 190 138 79 197 86 111 76 175 74
is_linear=0
shrinkage=1


Tree=3
num_leaves=11
num_cat=0
split_feature=16 16 19 13 13 13 1 13 14 13
split_gain=13.0415 19.5947 23.2445 12.7646 5.36364 4.37508 11.4657 4.37504 4.05469 3.29697
threshold=10.41666666666667 15.516666666666667 9.5000000000000018 10.500000000000002 36.500000000000007 63.500000000000007 6.5000000000000009 4.5000000000000009 1.0000000180025095e-35 29.500000000000004
decision_type=2 2 2 2 2 2 2 2 2 2
left_child=9 2 -2 7 -5 6 -6 -3 -4 -1
right_child=1 3 8 4 5 -7 -8 -9 -10 -11
leaf_value=-1.6492683580865175 -1.6207635677787964 -1.6106729440375647 -1.501969969005494 -1.644253178116889 -1.6409386264713783 -1.631938252275636 -1.5777084290753804 -1.5546229896969754 -1.5787277625245502 -1.6107155940667852
leaf_weight=17.743816494941715 9.6889018714427966 4.7683496773242933 6.8045145571231824 18.262612074613571 8.4034454822540301 14.845123708248137 16.574972420930862 7.4589085578918457 6.4227856397628784 8.2205432355403882
leaf_count=102 38 35 35 89 31 54 72 44 37 56
internal_value=-1.60925 -1.60036 -1.56316 -1.61382 -1.62392 -1.6127 -1.60026 -1.57275 -1.52637 -1.63863
internal_weight=119.194 93.2296 22.9162 70.3134 58.0862 39.8235 24.9784 12.2273 13.2273 25.9644
internal_count=593 435 110 325 246 157 103 79 72 158
is_linear=0
shrinkage=1


Tree=4
num_leaves=12
num_cat=0
split_feature=2 13 16 2 2 1 16 13 16 16 15
split_gain=22.2954 22.2082 20.679 14.151 9.67969 9.58079 6.67489 3.66879 3.18117 2.44127 1.24696
threshold=5.5000000000000009 32.500000000000007 10.616666666666669 2.5000000000000004 9.5000000000000018 21.500000000000004 19.366666666666671 8.5000000000000018 6.9000000000000012 41.483333333333341 3.5000000000000004
decision_type=2 2 2 2 2 2 2 2 2 2 2
left_child=1 6 4 -3 8 -6 -1 -4 -2 -5 -8
right_child=2 3 7 9 5 -7 10 -9 -10 -11 -12
leaf_value=-1.5148090781280743 -1.6375022122494831 -1.6459686598459609 -1.6135805867298183 -1.5585115447132711 -1.5268066448457007 -1.6147395711778552 -1.6034762621591894 -1.6491561598886351 -1.5984476796753204 -1.607188416950154 -1.5689226666256442
leaf_weight=7.6347238123416927 5.9618706703186062 13.138788938522341 9.9017478376626951 5.0291742384433729 5.4613581299781782 4.1890580058097839 6.2788993120193464 42.409214362502098 9.6048182249069196 4.5504724681377411 5.0338509231805801
leaf_count=74 20 42 48 39 52 18 37 151 52 24 36
internal_value=-1.61001 -1.58171 -1.62575 -1.61541 -1.59019 -1.55758 -1.54578 -1.6431 -1.61525 -1.57519 -1.58248
internal_weight=119.194 41.6659 77.5281 22.7184 25.2171 9.65042 18.9475 52.311 15.5667 9.57965 11.3128
internal_count=593 252 341 105 142 70 147 199 72 63 73
is_linear=0
shrinkage=1


Tree=5
num_leaves=13
num_cat=0
split_feature=19 12 12 8 12 0 0 2 0 12 0 17
split_gain=4.97514 9.14294 10.1123 6.899 6.58805 4.69036 5.53096 3.3314 2.91107 0.742069 0.299135 0.0703593
threshold=18.500000000000004 37.500000000000007 43.500000000000007 1.0000000180025095e-35 4.5000000000000009 2.5000000000000004 4.5000000000000009 6.5000000000000009 3.5000000000000004 33.500000000000007 3.5000000000000004 0.41666666666666669
decision_type=2 2 2 2 2 2 2 2 2 2 2 2
left_child=3 9 -3 8 11 7 -7 -6 -1 -2 -4 -5
right_child=1 2 10 4 5 6 -8 -9 -10 -11 -12 -13
leaf_value=0.039357462833328832 -0.03735861300585671 0.049299440121650696 -0.0039562992512182631 -0.010399172811742734 -0.032388346322798203 0.043640412090096073 -0.0070273460470327096 0.0097688219794409697 0.0054555825627118377 -0.0083748269011098622 -0.021737925530420532 -0.03104559843800795
leaf_weight=15.830024637281896 17.082114376127723 7.1746422946453121 6.6140774264931661 5.7716375738382366 5.8801826685667056 10.89313303679228 7.3586494997143737 7.4769634902477264 11.777596689760683 5.3759740293025962 5.8325275853276253 10.280764691531656
leaf_count=61 106 28 40 29 40 56 47 37 44 26 31 58
internal_value=0.000811118 -0.0123964 0.0115629 0.00845082 -0.00316387 0.00991771 0.0248689 -0.0110207 0.0270103 -0.0324214 -0.0152161 -0.026691
internal_weight=117.348 42.0793 19.6212 75.269 47.6613 31.6089 18.2518 13.3571 27.6076 22.4581 12.4466 16.0524
internal_count=603 231 99 372 267 180 103 77 105 132 71 87
is_linear=0
shrinkage=0.05


Tree=6
num_leaves=10
num_cat=0
split_feature=1 14 0 13 15 12 12 12 12
split_gain=6.27882 6.05516 7.94903 7.40287 3.64889 5.2746 7.27762 3.04207 0.27416
threshold=25.500000000000004 2.5000000000000004 4.5000000000000009 24.500000000000004 5.5000000000000009 11.500000000000002 21.500000000000004 25.500000000000004 4.5000000000000009
decision_type=2 2 2 2 2 2 2 2 2
left_child=1 2 4 8 5 -1 -7 -5 -4
right_child=-2 -3 3 7 -6 6 -8 -9 -10
leaf_value=-0.039417021858971009 -0.035927408193996299 0.033101120180449466 -0.0027413949411494078 0.051925826611319281 0.0097947083468076668 0.020400597005747263 -0.023410476010455917 0.0080238686051238486 -0.020812719293459049
leaf_weight=22.304327383637428 16.20434608310461 6.8018009290099135 5.0038624256849307 7.1888924613595035 8.7727755904197675 11.77288895845413 23.931327641010284 9.1099537089467031 6.1598137393593788
leaf_count=107 104 27 21 26 59 50 126 42 41
internal_value=-0.00963051 -0.00445099 -0.0081502 0.0134149 -0.0172856 -0.0217432 -0.00837375 0.0327084 -0.015362
internal_weight=117.25 101.046 94.2438 27.4625 66.7813 58.0085 35.7042 16.2988 11.1637
internal_count=603 499 472 130 342 283 176 68 62
is_linear=0
shrinkage=0.05


Tree=7
num_leaves=12
num_cat=0
split_feature=13 15 16 16 1 12 1 6 1 16 16
split_gain=6.9439 11.6862 6.52773 13.4429 6.2765 4.26717 5.33504 3.63516 3.29006 2.02465 0.0964274
threshold=4.5000000000000009 4.5000000000000009 21.533333333333335 17.31666666666667 18.500000000000004 15.500000000000002 9.5000000000000018 1.5000000000000002 10.500000000000002 10.41666666666667 8.6833333333333353
decision_type=2 2 2 2 2 2 2 2 2 2 2
left_child=-1 2 3 7 5 -4 -7 -2 -3 -9 -10
right_child=1 8 4 -5 -6 6 -8 9 10 -11 -12
leaf_value=0.03793894862787469 -0.021445909579475442 0 0.030401075751092129 0.054884228009971794 -0.030262326018778946 -0.029959358532745908 0.020834740786985967 -0.004717212526169543 -0.015813676640578197 0.029278117764930663 -0.040010831399757862
leaf_weight=10.986242130398749 9.6639964357018489 9.5073408409953135 10.600065119564535 16.44395861774683 11.777550980448721 8.1497378125786764 6.7283877134323111 6.3856856599450094 7.5063189342618015 6.5300386026501656 13.077485747635363
leaf_count=63 57 59 40 64 66 43 30 42 40 25 74
internal_value=0.00481386 0.000400082 0.0108506 0.0243987 -0.003977 0.00990604 -0.00706733 -0.00144034 -0.0245222 0.0144352 -0.0345329
internal_weight=117.357 106.371 76.2794 39.0237 37.2557 25.4782 14.8781 22.5797 30.0911 12.9157 20.5838
internal_count=603 540 367 188 179 113 73 124 173 67 114
is_linear=0
shrinkage=0.05


Tree=8
num_leaves=11
num_cat=0
split_feature=16 16 14 13 19 17 2 13 2 2
split_gain=10.5005 13.7141 20.8672 14.8342 9.3613 7.57121 6.99426 3.9161 3.34671 1.19498
threshold=10.41666666666667 15.516666666666667 1.0000000180025095e-35 10.500000000000002 54.500000000000007 0.65000000000000002 8.5000000000000018 5.5000000000000009 7.5000000000000009 1.5000000000000002
decision_type=2 2 2 2 2 2 2 2 2 2
left_child=8 2 -2 7 5 9 -4 -3 -1 -5
right_child=1 3 6 4 -6 -7 -8 -9 -10 -11
leaf_value=0.0036536397357931055 0.088743328535773089 0.0059456242202292368 -0.021744016928998161 -0.0075518164664331649 0.0288362848304754 0.016158136114896689 0.034036470958915974 0.064630698240414217 -0.036537262452791756 -0.034817401663240745
leaf_weight=5.9921547919511822 8.8707781061530131 5.5700834020972234 10.335781089961531 7.2783878892660132 8.080131419003008 8.4732688590884191 6.7047632485628119 5.5499947816133499 17.18787432461977 33.344156295061111
leaf_count=41 40 41 51 42 42 28 31 34 109 144
internal_value=0.00136603 0.0089418 0.0378327 -0.00307993 -0.013845 -0.0222214 0.00176355 0.043098 -0.0267286 -0.0309021
internal_weight=117.387 94.2073 25.9113 68.296 57.1759 49.0958 17.0405 11.1201 23.18 40.6225
internal_count=603 453 122 331 256 214 82 75 150 186
is_linear=0
shrinkage=0.05


Tree=9
num_leaves=12
num_cat=0
split_feature=2 16 16 2 19 2 13 13 7 16 13
split_gain=24.2815 21.3566 18.647 15.434 5.17333 13.897 8.8089 6.48678 4.59147 3.45425 0.647081
threshold=5.5000000000000009 10.616666666666669 18.266666666666669 9.5000000000000018 18.500000000000004 2.5000000000000004 58.500000000000007 16.500000000000004 1.0000000180025095e-35 6.9000000000000012 9.5000000000000018
decision_type=2 2 2 2 2 2 2 2 2 2 2
left_child=2 3 -1 9 7 -6 -7 10 -3 -2 -4
right_child=1 8 4 -5 5 6 -8 -9 -10 -11 -12
leaf_value=0.087026198622874001 -0.028004609618548056 -0.039494855298541104 0.029141748225843891 0.070001767103903531 -0.015601278732836114 0.10125457700318541 0.004730966562323231 -0.029855524599219779 0.00067589165934203645 0.011607303516699623 0.0027204753208279059
leaf_weight=8.3152105286717397 6.9740399569273057 41.182114332914352 5.1126817539334315 7.3460850045084944 7.6078068017959586 3.9941951110959035 4.2092597633600235 9.8862352445721609 8.0692142918705922 9.4605046957731229 4.8396223038434982
leaf_count=76 24 154 37 61 32 45 23 32 42 52 25
internal_value=0.00251355 -0.0149664 0.0307579 0.0220143 0.0117679 0.0306628 0.0667027 -0.00512205 -0.0331568 -0.00667298 0.0202856
internal_weight=116.997 73.032 43.965 23.7806 35.6498 15.8113 8.20345 19.8385 49.2513 16.4345 9.9523
internal_count=603 333 270 137 194 100 68 94 196 76 62
is_linear=0
shrinkage=0.05


Tree=10
num_leaves=11
num_cat=0
split_feature=13 12 13 13 13 16 0 16 16 2
split_gain=7.31081 6.75932 9.5126 6.21635 6.59783 4.81698 4.19059 1.76967 1.51937 0.952861
threshold=89.500000000000014 19.500000000000004 16.500000000000004 20.500000000000004 42.500000000000007 15.283333333333335 1.5000000000000002 19.200000000000006 9.6666666666666679 6.5000000000000009
decision_type=2 2 2 2 2 2 2 2 2 2
left_child=1 2 5 -4 -5 8 -3 -6 -1 -7
right_child=-2 6 3 4 7 9 -8 -9 -10 -11
leaf_value=-0.011418702424218273 0.040553874918208305 0.0032330897710125526 0.05295083620053697 -0.019286192087222431 0.038393151054502681 -0.038946158730545133 -0.03204458204659226 0.0050550475052397346 0.012869227025775386 -0.0070139745465440731
leaf_weight=8.4891174286603945 5.9974891245365134 10.604454338550566 7.7109885960817328 11.418240271508695 8.3720740750432032 11.678727872669699 27.313554421067238 8.3403584957122785 11.583657085895537 5.1145394816994658
leaf_count=47 15 58 38 57 38 75 155 26 50 25
internal_value=-0.00285567 -0.00626168 0.00271984 0.020288 0.00693409 -0.0144761 -0.0225427 0.0253107 0.00223162 -0.0320106
internal_weight=116.623 110.626 72.7077 35.8417 28.1307 36.866 37.918 16.7124 20.0728 16.7933
internal_count=584 569 356 159 121 197 213 64 97 100
is_linear=0
shrinkage=0.05


Tree=11
num_leaves=15
num_cat=0
split_feature=17 16 14 15 16 16 14 16 2 16 13 13 13 2
split_gain=4.39625 6.27453 3.89228 3.54004 4.50365 5.8333 4.97824 3.18552 1.72422 1.88838 1.21913 0.693911 1.99662 0.509687
threshold=-1.0000000180025095e-35 19.050000000000004 1.0000000180025095e-35 5.5000000000000009 10.616666666666669 21.81666666666667 1.0000000180025095e-35 7.0833333333333339 8.5000000000000018 17.56666666666667 64.500000000000014 26.500000000000004 19.500000000000004 5.5000000000000009
decision_type=2 2 2 2 2 2 2 2 2 2 2 2 2 2
left_child=1 7 -3 4 -2 8 10 -1 9 -6 -7 12 -9 -8
right_child=3 2 -4 -5 5 6 13 11 -10 -11 -12 -13 -14 -15
leaf_value=0.0098327902680277607 -0.030587785824774047 -0.007743162294529371 0.034766866136391267 0.031065678268561575 0.050476005318428212 -0.0019420405183088231 -0.033783722401661886 -0.027026264315330086 0.0048336908549368235 0.0097794234520713133 0.023113976265933003 -0.03834047011808242 0.0060211820018318471 -0.0078745422722676442
leaf_weight=5.0438804477453258 5.0421834513545027 8.5985341742634791 7.9023269638419142 13.936010241508482 7.3642876297235507 7.239393629133704 6.7298779487609846 8.83656243234873 7.7922519370913497 6.8875663131475449 8.1524931713938695 10.598516590893267 5.6101169958710662 6.0540596395730972
leaf_count=28 28 41 26 63 33 44 39 55 28 30 30 76 35 28
internal_value=0.00310575 -0.0083909 0.0145753 0.0109425 0.00444374 0.00958088 -0.0053604 -0.0213162 0.0272323 0.0362189 0.0126628 -0.0281484 -0.0150777 -0.0256595
internal_weight=115.788 46.5899 16.5009 69.1981 55.2621 50.2199 28.1758 30.0891 22.0441 14.2519 15.3919 25.0452 14.4467 12.7839
internal_count=584 261 67 323 260 232 141 194 91 63 74 166 90 67
is_linear=0
shrinkage=0.05


Tree=12
num_leaves=13
num_cat=0
split_feature=15 12 16 13 1 0 13 16 1 16 0 12
split_gain=9.16475 10.6385 9.7412 9.28561 5.62867 6.56538 4.63108 3.19595 2.7633 2.11344 1.55458 0.330284
threshold=4.5000000000000009 13.500000000000002 6.4666666666666677 9.5000000000000018 10.500000000000002 2.5000000000000004 5.5000000000000009 21.433333333333337 18.500000000000004 19.933333333333337 4.5000000000000009 34.500000000000007
decision_type=2 2 2 2 2 2 2 2 2 2 2 2
left_child=1 3 -2 6 11 8 -1 -7 -6 -5 -4 -3
right_child=2 4 10 9 5 7 -8 -9 -10 -11 -12 -13
leaf_value=0.021531427226973213 0.028422033165711541 -0.032959511487368587 -0.038167564604394709 0.017060458991430893 0.049299086592683242 0.0076067616877906188 -0.027250659752499126 -0.030178926851265237 0.0030907254194591214 0.058989254879941194 -0.0067565037938509265 -0.010897759659598091
leaf_weight=6.5920335724949819 5.7746263891458502 10.006774723529817 22.269077181816105 8.2160673439502734 5.9662492126226443 8.8729538321495074 6.873108372092247 8.3121141567826253 6.1185134872794151 13.192520558834074 6.9156208857893935 7.9061250239610663
leaf_count=35 27 54 130 39 30 44 31 40 30 44 44 36
internal_value=-0.000137109 0.00894237 -0.0206026 0.0287539 -0.00644467 0.00694574 -0.00349335 -0.0121908 0.0315027 0.0471775 -0.0322033 -0.0264215
internal_weight=117.016 82.0565 34.9593 34.8737 47.1827 29.2698 13.4651 17.1851 12.0848 21.4086 29.1847 17.9129
internal_count=584 383 201 149 234 144 66 84 60 83 174 90
is_linear=0
shrinkage=0.05


Tree=13
num_leaves=11
num_cat=0
split_feature=16 16 12 16 17 13 14 13 2 13
split_gain=8.19303 12.8876 16.4167 12.6918 8.1088 7.39533 7.15348 3.68139 1.86878 2.03551
threshold=10.41666666666667 15.516666666666667 11.500000000000002 41.483333333333341 0.65000000000000002 63.500000000000007 1.0000000180025095e-35 29.500000000000004 1.5000000000000002 55.500000000000007
decision_type=2 2 2 2 2 2 2 2 2 2
left_child=7 2 -2 4 8 -5 -4 -1 -3 -10
right_child=1 3 6 5 -6 -7 -8 -9 9 -11
leaf_value=-0.03773299494229012 -0.0092859783024313892 -0.0031685910425444906 0.090700952501826873 0.050421741756583295 0.022095782605276362 -0.0070451743406606112 0.015530179449480637 0.00098961494965731978 -0.039808685125445803 -0.0077973475179505067
leaf_weight=15.181025147438051 11.770929262042047 7.5288985520601264 7.8343710377812368 10.096888504922392 7.4885729923844329 8.4075001701712591 6.8296087011694908 8.6674823462963086 23.905057445168495 8.7138480991125089
leaf_count=95 45 41 35 58 34 31 38 59 120 28
internal_value=-0.000504904 0.00632149 0.0339115 -0.00562621 -0.0191364 0.0267387 0.0645576 -0.0249354 -0.0279447 -0.0327745
internal_weight=116.424 92.5757 26.4349 66.1408 47.6364 18.5044 14.664 23.8485 40.1478 32.6189
internal_count=584 430 118 312 223 89 73 154 189 148
is_linear=0
shrinkage=0.05


Tree=14
num_leaves=12
num_cat=0
split_feature=16 17 6 16 19 15 13 15 1 16 16
split_gain=13.5309 9.99262 8.38226 5.24917 4.30089 8.15604 4.49333 3.60709 0.545673 0.315347 0.229882
threshold=10.41666666666667 1.0000000180025095e-35 2.5000000000000004 7.2500000000000009 17.500000000000004 4.5000000000000009 55.500000000000007 2.5000000000000004 21.500000000000004 41.483333333333341 18.466666666666672
decision_type=2 2 2 2 2 2 2 2 2 2 2
left_child=1 3 4 -1 5 8 7 -6 -2 -8 -9
right_child=2 -3 -4 -5 6 -7 9 10 -10 -11 -12
leaf_value=0.012066117016574892 -0.039268854515164368 -0.0045161914901657154 0.032638704336083318 0.076611717508353327 0.034934099883102192 0.013434799595384996 -0.02865991303944139 -0.006483236001703592 -0.014293812632447314 -0.0084994601655863054 0.0034488781432199379
leaf_weight=6.6179413422942179 25.644130513072014 11.305674009025095 8.0403628423809987 7.7591570690274239 7.1993552893400219 9.4615637958049756 6.4581343010067931 9.6949130818247813 8.3526551574468595 8.3043690621852857 7.4940416589379302
leaf_count=35 90 53 52 66 48 49 25 49 39 40 38
internal_value=0.000456137 0.0305313 -0.00871643 0.0544008 -0.0138026 -0.0241006 -0.00135125 0.0113258 -0.0349245 -0.0209515 -0.00203633
internal_weight=116.332 25.6828 90.6495 14.3771 82.6092 43.4583 39.1508 24.3883 33.9968 14.7625 17.189
internal_count=584 154 430 101 378 178 200 135 129 65 87
is_linear=0
shrinkage=0.05


Tree=15
num_leaves=14
num_cat=0
split_feature=0 16 19 13 0 17 16 12 15 2 16 16 12
split_gain=10.1916 5.52651 5.40492 11.7087 8.44415 10.8708 5.19362 6.23213 3.44555 5.39414 2.92573 1.70171 0.721173
threshold=4.5000000000000009 8.1166666666666689 17.500000000000004 42.500000000000007 2.5000000000000004 0.41666666666666669 15.883333333333335 6.5000000000000009 3.5000000000000004 5.5000000000000009 24.350000000000005 28.283333333333335 32.500000000000007
decision_type=2 2 2 2 2 2 2 2 2 2 2 2 2
left_child=2 -2 3 4 6 -6 7 -1 9 11 -3 -4 -10
right_child=1 10 8 -5 5 -7 -8 -9 12 -11 -12 -13 -14
leaf_value=0.031735932488337747 0.01708014536132799 -0.042316450199123085 0.0030612375361601047 0.051323433765649011 0.050139573067612277 -0.021655757951791071 -0.038093132402214208 -0.024401070484597973 -0.034332371812248345 0.029850765817893143 -0.0056791735262347945 -0.031143374818760134 -0.0050517165260320716
leaf_weight=7.0027710050344485 4.8967518955469123 18.401852920651439 5.1920369789004379 14.434748165309427 11.847095347940924 5.9362018108367911 10.554412692785261 6.7887658253312111 7.1866381466388685 8.4222996607422811 9.1662869825959188 5.2711153998970985 4.7166281268000603
leaf_count=26 26 98 34 50 61 30 54 42 48 27 48 36 25
internal_value=-0.000953857 -0.0236817 0.0079435 0.0168387 0.00228605 0.0262666 -0.0160075 0.00438262 -0.00829454 0.00495543 -0.0320512 -0.0168989 -0.0264179
internal_weight=119.818 32.4649 87.3527 56.564 42.1292 17.7833 24.3459 13.7915 30.7887 18.8855 27.5681 10.4632 11.9033
internal_count=605 172 433 263 213 91 122 68 170 97 146 70 73
is_linear=0
shrinkage=0.05


Tree=16
num_leaves=11
num_cat=0
split_feature=16 2 20 16 13 0 13 17 16 0
split_gain=5.74755 6.437 4.9744 3.75984 8.42902 5.21347 1.66398 1.54263 2.86908 0.213339
threshold=15.883333333333335 6.5000000000000009 0.75000000000000011 20.516666666666669 47.500000000000007 3.5000000000000004 45.500000000000007 0.41666666666666669 7.366666666666668 4.5000000000000009
decision_type=2 2 2 2 2 2 2 2 2 2
left_child=2 3 7 -2 -5 -6 -3 8 -1 -10
right_child=1 6 -4 4 5 -7 -8 -9 9 -11
leaf_value=0 0.019775551236583828 0.042416031231536928 0.013972743669032554 -0.031567408743930041 -0.0098699607214358127 0.039074110421750664 0.010597486074656815 0.0011659873811737187 -0.036502241853979898 -0.013803809477431608
leaf_weight=8.9195851087570173 11.834421388804911 10.67165167629719 11.408270396292208 17.844746768474579 9.205373480916025 7.3850931674242011 10.422857239842413 6.3514735400676718 17.688693664968017 7.5890852585434905
leaf_count=53 60 39 44 116 39 34 33 26 116 45
internal_value=-0.000221247 0.00920656 -0.012371 -0.00150872 -0.00995568 0.0143091 0.0301789 -0.0203495 -0.0242518 -0.0320518
internal_weight=119.321 67.3641 51.9571 46.2696 34.4352 16.5905 21.0945 40.5488 34.1974 25.2778
internal_count=605 321 284 249 189 73 72 240 214 161
is_linear=0
shrinkage=0.05


Tree=17
num_leaves=13
num_cat=0
split_feature=13 15 16 16 15 1 13 16 0 16 12 0
split_gain=6.50009 6.69642 3.60263 17.0324 5.72219 5.42264 5.24776 3.96991 2.45247 2.01593 1.18407 0.705848
threshold=3.5000000000000004 4.5000000000000009 21.433333333333337 17.31666666666667 3.5000000000000004 4.5000000000000009 31.500000000000004 28.283333333333335 2.5000000000000004 6.3500000000000005 10.500000000000002 3.5000000000000004
decision_type=2 2 2 2 2 2 2 2 2 2 2 2
left_child=-1 2 3 4 -2 -4 -6 -7 -9 -3 -11 -12
right_child=1 9 5 -5 6 7 -8 8 -10 10 11 -13
leaf_value=0.035452425468170561 -0.034232037896852981 0.0034264674770975254 0.024613137491836978 0.052488481271597734 0.031915763319493133 -0.033835497545621707 -0.01727073749390088 0.016528403164652098 -0.015604421977663548 -0.037393865814105275 -0.019697473978655889 0.001554158202940832
leaf_weight=7.3799587264657012 11.259747415781021 4.7728103026747695 7.0880303531885138 13.459457337856291 7.8714656457304955 14.747058048844336 7.9823314845561981 8.3293236941099185 9.4699578657746297 15.735165290534498 6.8079794049262983 5.1458189859986305
leaf_count=42 68 24 33 53 35 65 34 37 50 78 50 36
internal_value=-0.00246169 -0.00584342 0.00202598 0.0121197 -0.0109865 -0.0083152 0.00807785 -0.0170991 -0.000112064 -0.0239548 -0.0287111 -0.0117383
internal_weight=120.049 112.669 80.2074 40.573 27.1135 39.6344 15.8538 32.5463 17.7993 32.4618 27.689 11.9538
internal_count=605 563 375 190 137 185 69 152 87 188 164 86
is_linear=0
shrinkage=0.05


Tree=18
num_leaves=13
num_cat=0
split_feature=19 12 15 12 13 1 12 2 13 1 12 13
split_gain=7.81417 16.4765 8.00418 5.15981 4.55235 3.566 3.50588 5.44621 6.24099 5.35358 0.623493 0.315764
threshold=24.500000000000004 32.500000000000007 4.5000000000000009 55.500000000000007 11.500000000000002 20.500000000000004 10.500000000000002 6.5000000000000009 22.500000000000004 12.500000000000002 5.5000000000000009 17.500000000000004
decision_type=2 2 2 2 2 2 2 2 2 2 2 2
left_child=2 -2 6 5 10 -3 7 -1 -9 11 -4 -8
right_child=1 3 4 -5 -6 -7 9 8 -10 -11 -12 -13
leaf_value=0.04021047666700317 0.06432656959878158 -0.031039505303865796 -0.0081120266664807487 0.02443351975420931 -0.036137541588639931 0.010586772270975334 0.01694527369262936 -0.024595449343769699 0.027380625946093473 -0.034977303214078249 0.010450085945522171 0.0010692000206081245
leaf_weight=11.534543707966806 11.278448089957235 11.505345240235334 6.1231103017926198 8.6790679246187192 21.050291933119297 5.8748428747057906 6.5723036825656909 9.7127195000648516 7.5752895250916472 7.539058417081832 5.894627571105957 6.3720275238156319
leaf_count=55 54 53 37 42 127 34 26 38 31 40 32 36
internal_value=0.003034 0.0211356 -0.00556673 -0.00209648 -0.0235714 -0.0172365 0.00707227 0.0176392 -0.000892991 -0.00793761 0.000928416 0.0111153
internal_weight=119.712 37.3377 82.374 26.0593 33.068 17.3802 49.3059 28.8226 17.288 20.4834 12.0177 12.9443
internal_count=605 183 422 129 196 87 226 124 69 102 69 62
is_linear=0
shrinkage=0.05


Tree=19
num_leaves=12
num_cat=0
split_feature=2 16 13 2 2 1 15 13 16 13 13
split_gain=27.3543 17.7133 13.4336 17.3485 8.76268 7.10643 3.71593 7.80726 2.52643 1.91649 1.64855
threshold=5.5000000000000009 10.616666666666669 35.500000000000007 2.5000000000000004 9.5000000000000018 20.500000000000004 3.5000000000000004 11.500000000000002 7.4500000000000011 8.5000000000000018 56.500000000000007
decision_type=2 2 2 2 2 2 2 2 2 2 2
left_child=2 4 6 -4 8 -6 7 -1 -2 -3 -5
right_child=1 9 3 10 5 -7 -8 -9 -10 -11 -12
leaf_value=-0.012514259881655089 -0.022585399557715335 -0.0089317978563532678 -0.038480590321154869 0.056515050960787495 0.071717613624530829 -0.0028375512322610392 0.076478078382609921 0.053183724568091111 0.010964519964673429 -0.039162243354235404 0.0082817873720668223
leaf_weight=5.9942394644022006 9.5167627930641228 8.8925225064158422 10.784649729728701 5.3259821459650976 5.5926381200551969 4.5411930605769157 9.877385698258875 7.7823667749762535 7.47060652822256 39.915910579264164 4.1162423565983772
leaf_count=27 36 42 34 42 48 20 82 59 40 151 24
internal_value=0.000649896 -0.0172933 0.0309244 0 0.0140085 0.0449104 0.0542406 0.0271742 -0.00814969 -0.0345871 0.0429568
internal_weight=119.81 75.9296 43.8809 20.2269 27.1212 10.1338 23.654 13.7766 16.9874 48.8084 9.44222
internal_count=605 337 268 100 144 68 168 86 76 193 66
is_linear=0
shrinkage=0.05


Tree=20
num_leaves=14
num_cat=0
split_feature=13 19 12 12 13 12 0 1 1 12 2 1 0
split_gain=7.53546 13.545 7.04421 9.50116 2.56497 5.80377 7.57243 2.16714 8.0188 2.8202 1.08515 4.38417 0.352182
threshold=15.500000000000002 18.500000000000004 37.500000000000007 43.500000000000007 10.500000000000002 4.5000000000000009 2.5000000000000004 24.500000000000004 15.500000000000002 9.5000000000000018 7.5000000000000009 13.500000000000002 3.5000000000000004
decision_type=2 2 2 2 2 2 2 2 2 2 2 2 2
left_child=4 7 10 -4 5 -1 -7 8 9 -2 11 -3 -5
right_child=1 2 3 12 -6 6 -8 -9 -10 -11 -12 -13 -14
leaf_value=-0.031634802465655171 0.011454083335770672 -0.033225927272067912 0.045687070816712576 -0.0039340751796400533 -0.037333873667557554 -0.023223595504356338 0.037327882699605061 0.047360456946949722 -0.019298458195106755 0.047899339564978771 -0.038774820127292026 0.017595420745273673 -0.0226440652250244
leaf_weight=11.129460901021959 13.260387241840364 6.6517499759793299 7.4777869582176235 6.6277915909886342 9.6489231288433057 6.5482575222849837 8.544433653354643 9.2385477274656278 8.2728303894400579 11.164750941097735 11.532515190541742 4.9052982479333878 6.2200980931520462
leaf_count=66 46 44 27 41 55 34 45 39 35 47 62 30 31
internal_value=-1.02325e-05 0.00802203 -0.0111611 0.00951923 -0.018395 -0.0081376 0.0112855 0.0274121 0.0181294 0.0317129 -0.0285588 -0.012131 -0.0158795
internal_weight=121.223 85.3518 43.4152 20.3257 35.8711 26.2222 15.0927 41.9365 32.698 24.4251 23.0896 11.557 12.8479
internal_count=602 402 235 99 200 145 79 167 128 93 136 74 72
is_linear=0
shrinkage=0.05


Tree=21
num_leaves=11
num_cat=0
split_feature=1 0 16 2 16 16 1 19 2 16
split_gain=12.2288 7.5461 3.78778 4.28274 5.09778 4.4782 2.62386 3.49528 3.11816 1.55156
threshold=26.500000000000004 1.0000000180025095e-35 6.3500000000000005 6.5000000000000009 15.883333333333335 36.250000000000007 15.500000000000002 8.5000000000000018 9.5000000000000018 11.383333333333335
decision_type=2 2 2 2 2 2 2 2 2 2
left_child=1 9 -3 4 -4 -6 7 -5 -8 -1
right_child=-2 2 3 6 5 -7 8 -9 -10 -11
leaf_value=0.0034108745700969501 -0.034377850886825587 -0.024229949691563547 -0.030545324698591038 0.03058208802273131 0.025368399022542062 -0.0081959804331489736 0.056707439612114996 -0.0022080371508241331 0.011626834641928327 -0.029198004279364156
leaf_weight=3.9213912189006797 14.577910348773001 3.0134466737508765 5.2451675608754149 14.020872391760351 22.585414439439774 14.053388208150862 10.892803795635702 14.331240743398665 8.3896873667836172 9.9297435730695707
leaf_count=20 88 20 44 50 107 78 39 61 43 52
internal_value=0.00440498 0.0105623 0.0157984 0.0179419 0.00551289 0.0127222 0.0277975 0.0152228 0.0415237 -0.0207057
internal_weight=120.961 106.383 92.532 89.5186 41.884 36.6388 47.6346 28.3521 19.2825 13.8511
internal_count=602 514 442 422 229 185 193 111 82 72
is_linear=0
shrinkage=0.05


Tree=22
num_leaves=13
num_cat=0
split_feature=15 16 16 16 15 0 16 12 12 13 13 13
split_gain=3.75262 7.44299 3.52766 5.11513 10.7323 3.00879 1.75974 3.38935 2.10768 1.83624 1.32488 0.0366898
threshold=4.5000000000000009 6.4666666666666677 21.533333333333335 17.31666666666667 3.5000000000000004 2.5000000000000004 35.266666666666673 13.500000000000002 63.500000000000007 43.500000000000007 13.500000000000002 17.500000000000004
decision_type=2 2 2 2 2 2 2 2 2 2 2 2
left_child=2 -2 3 4 -1 -6 9 -8 -9 11 -3 -4
right_child=1 10 6 -5 5 -7 7 8 -10 -11 -12 -13
leaf_value=-0.037790775443228231 0.027992010882069759 -0.0066354491359142996 -0.01193338622327888 0.02974991939067417 -0.0031586036075644296 0.034982265846869018 0.027584501901245867 -0.026488509471744959 0.0072860581553896853 -0.00032509181586548022 -0.033579404981508916 -0.03371017316332852
leaf_weight=10.13343369215727 4.9335453659296027 8.4968560636043566 6.3788382634520548 17.95129381865263 7.5198249742388752 9.8331004381179792 5.8120231032371548 6.5381912812590581 6.6719961687922478 11.004705630242823 20.142872028052807 6.4071822911500931
leaf_count=64 27 59 37 63 32 42 27 40 33 39 113 26
internal_value=-0.00377615 -0.0172622 0.00169841 0.0111004 -0.00264445 0.0201791 -0.00824436 0.0027651 -0.0109303 -0.0165577 -0.0271308 -0.0274952
internal_weight=121.824 33.5733 88.2506 45.4377 27.4864 17.3529 42.8129 19.0222 13.2102 23.7907 28.6397 12.786
internal_count=602 199 403 201 138 74 202 100 73 102 172 63
is_linear=0
shrinkage=0.05


Tree=23
num_leaves=13
num_cat=0
split_feature=16 16 12 16 17 16 16 2 16 2 16 14
split_gain=8.64046 11.5106 19.7882 9.89896 6.64861 8.13784 5.17758 4.11304 3.69618 1.48769 1.45036 0.983913
threshold=10.41666666666667 15.516666666666667 11.500000000000002 41.483333333333341 0.41666666666666669 23.866666666666671 48.400000000000006 1.5000000000000002 62.000000000000007 7.5000000000000009 18.516666666666669 1.0000000180025095e-35
decision_type=2 2 2 2 2 2 2 2 2 2 2 2
left_child=9 2 -2 4 7 -6 -5 -3 -8 -1 -9 -4
right_child=1 3 11 6 5 -7 8 10 -10 -11 -12 -13
leaf_value=-0.0024558759510996345 -0.012096354764265467 0.0061071167758427842 0.082737576562295967 0.05768175566188715 0.04177854834033326 -0.020778158855700869 -0.020091464385203487 -0.0064360233260762571 0.022703619563546652 -0.032691104010917203 -0.039315043799555 0.029760687464224396
leaf_weight=6.2399132177233723 12.894476488232614 6.5726577490568152 7.5338936895132047 4.5251412913203266 7.0680569782853109 7.9579214304685593 5.7881942242383948 5.7877531722188023 8.9092443883419019 16.778330750763416 23.866244986653328 7.0872693955898285
leaf_count=43 50 32 31 21 32 32 29 25 47 108 114 38
internal_value=-0.000187908 0.00639627 0.0320979 -0.0044712 -0.0158776 0.0104263 0.0237542 -0.0268783 0.00501854 -0.0259152 -0.0342318 0.0667807
internal_weight=121.009 97.9909 27.5156 70.4752 51.2526 15.026 19.2226 36.2267 14.6974 23.0182 29.654 14.6212
internal_count=602 451 119 332 235 64 97 171 76 151 139 69
is_linear=0
shrinkage=0.05


Tree=24
num_leaves=14
num_cat=0
split_feature=2 16 13 2 2 16 1 1 16 2 16 13 16
split_gain=24.5333 16.4823 11.6831 12.9071 3.95392 3.64883 2.93325 2.76388 2.42451 4.61684 6.20859 2.27141 1.67034
threshold=5.5000000000000009 10.616666666666669 35.500000000000007 2.5000000000000004 9.5000000000000018 6.9000000000000012 19.500000000000004 16.500000000000004 16.81666666666667 2.5000000000000004 23.866666666666671 13.500000000000002 13.316666666666668
decision_type=2 2 2 2 2 2 2 2 2 2 2 2 2
left_child=2 4 8 -4 5 -2 -6 -5 -1 10 -10 12 -3
right_child=1 11 3 7 6 -7 -8 -9 9 -11 -12 -13 -14
leaf_value=0.073055111250067736 -0.025911337473101315 -0.028504691632284418 -0.037020074312114022 0.0054311682906240041 0.053176063241200201 0.015482857163283147 0.0023108116734111748 0.054766755528579625 0.0065391794400341445 -0.0032446242720160592 0.082282782071378999 -0.039564663785610237 0.0014998693205912901
leaf_weight=7.7789864689111736 6.2236458137631443 5.3182882666587821 9.4375617951154727 6.2852937206625921 5.0877660736441594 9.5654473677277547 5.1342820078134537 4.2874880284070969 6.070357680320738 6.4395053684711447 3.2413093894720078 36.543522872030735 9.1959908381104452
leaf_count=64 23 17 29 34 38 53 24 34 33 31 34 136 52
internal_value=-0.000284118 -0.0170968 0.0285515 -3.89996e-05 0.0141127 -0.00209951 0.0343269 0.0334892 0.0503087 0.0289175 0.0469364 -0.0329896 -0.0122082
internal_weight=120.609 77.0689 43.5405 20.0103 26.0111 15.7891 10.222 10.5728 23.5302 15.7512 9.31167 51.0578 14.5143
internal_count=602 343 259 97 138 76 62 68 162 98 67 205 69
is_linear=0
shrinkage=0.05


Tree=25
num_leaves=14
num_cat=0
split_feature=13 19 16 15 19 16 16 13 19 1 15 16 16
split_gain=12.0545 14.2925 12.9808 10.3192 8.97989 7.43367 3.34553 2.73176 3.06144 1.56191 1.17255 1.07685 1.53762
threshold=15.500000000000002 18.500000000000004 13.816666666666668 3.5000000000000004 37.500000000000007 28.283333333333335 5.666666666666667 25.500000000000004 7.5000000000000009 15.500000000000002 3.5000000000000004 15.283333333333335 9.6666666666666679
decision_type=2 2 2 2 2 2 2 2 2 2 2 2 2
left_child=6 2 7 -4 10 -6 -1 -2 -9 -7 -3 12 -8
right_child=1 4 3 -5 5 9 11 8 -10 -11 -12 -13 -14
leaf_value=0.013095498924110821 0.01824893018307706 -0.012657750297728544 0.013484219076876434 0.078293214886672069 0.050696031752760488 -0.018303624554181806 -0.029539422680569256 -0.033669762164917474 0.0086798696693958146 0.010104920724533391 -0.038306986265411923 -0.036426572930460942 0
leaf_weight=3.8207950294017783 7.476556837558749 14.20787735283375 12.774163186550142 12.988635532557963 5.9838691130280521 7.9815537929534894 4.7232940196990993 6.1396824866533262 5.9041279852390289 5.8382810950279236 11.462288945913313 17.012383855879307 9.5235429629683477
leaf_count=15 37 72 43 39 23 45 33 31 32 30 72 108 46
internal_value=0.00104058 0.0106891 0.0297256 0.0510904 -0.00883085 0.0150745 -0.0226658 -0.00129919 -0.0149858 -0.00634323 -0.0270951 -0.0279468 -0.0129563
internal_weight=125.837 90.757 45.2832 25.7628 45.4739 19.8037 35.08 19.5204 12.0438 13.8198 25.6702 31.2592 14.2468
internal_count=626 424 182 82 242 98 202 100 63 75 144 187 79
is_linear=0
shrinkage=0.05


Tree=26
num_leaves=15
num_cat=0
split_feature=2 2 16 16 16 16 13 4 12 12 17 12 13 12
split_gain=3.7822 6.54887 3.65447 4.95239 3.63853 6.55815 3.78826 3.36736 3.58604 1.92457 1.23646 0.970185 0.621115 0.0109175
threshold=6.5000000000000009 9.5000000000000018 19.050000000000004 7.9500000000000011 15.883333333333335 22.516666666666669 67.500000000000014 1.0000000180025095e-35 9.5000000000000018 19.500000000000004 -0.34999999999999992 47.500000000000007 35.500000000000007 15.500000000000002
decision_type=2 2 2 2 2 2 2 2 2 2 2 2 2 2
left_child=4 7 3 -3 -1 12 10 8 -2 -10 -7 -12 13 -6
right_child=1 2 -4 -5 5 6 -8 -9 9 -11 11 -13 -14 -15
leaf_value=-0.03474610989338054 0.045346322044731033 0.008959930848896968 0.011080897117257514 -0.038805164936126402 0.0099975128703011593 -0.0012718228970594225 0.0091857475733750759 -0.0054622632597252224 -0.0061960827071955169 0.023571368907977005 -0.038922547449624062 -0.0082243075697194593 0.02900706283063972 0.0025569052318376584
leaf_weight=7.958695910871028 13.676185183227064 7.0562163069844308 12.034885413944719 11.101165436208246 4.9917763918638247 4.8195664063096073 8.8340116366744024 7.8848728686571112 8.3378043845295924 8.080763988196848 11.655342191457754 6.0633339285850516 7.2536171600222579 6.0725319534540176
leaf_count=74 45 43 46 62 26 28 34 33 36 29 72 38 24 36
internal_value=0.000549123 0.00839083 -0.00845061 -0.0213682 -0.0085979 -0.00257507 -0.0160363 0.0215396 0.0286191 0.00957531 -0.0260358 -0.0313709 0.0192572 0.0076858
internal_weight=125.821 68.1719 30.1923 18.1574 57.6489 49.6902 31.3723 37.9796 30.0948 16.4186 22.5382 17.7187 18.3179 11.0643
internal_count=626 294 151 105 332 258 172 143 110 65 138 110 86 62
is_linear=0
shrinkage=0.05


Tree=27
num_leaves=11
num_cat=0
split_feature=13 15 16 13 12 16 0 16 19 0
split_gain=4.77911 6.11205 4.80143 3.9615 6.7226 8.93615 7.9765 3.85919 1.59867 0.394363
threshold=3.5000000000000004 4.5000000000000009 6.4666666666666677 9.5000000000000018 13.500000000000002 19.583333333333339 4.5000000000000009 10.766666666666667 9.5000000000000018 3.5000000000000004
decision_type=2 2 2 2 2 2 2 2 2 2
left_child=-1 3 -3 -2 5 -5 7 -6 -4 -10
right_child=1 2 8 4 6 -7 -8 -9 9 -11
leaf_value=0.029097921401244165 -0.025186691463518554 0.012859987561106784 -0.04065739308353894 -0.012881555706355814 -0.027355992031371776 0.045250987734339554 -0.032993523175555282 0.013342175485930866 -0.016280784656827044 0.0010209999733739948
leaf_weight=8.1439919769763929 8.8077850341796857 5.7357205227017429 15.940273851156237 8.2778933197259921 3.9357492029666892 16.046852320432663 14.028630644083021 35.534902885556221 5.8854225352406484 3.892891027033329
leaf_count=48 42 29 81 35 20 55 71 170 45 30
internal_value=-0.0022386 -0.00510844 -0.0229389 0.00186076 0.00580499 0.0260428 -0.00420234 0.00752061 -0.0316062 -0.0103788
internal_weight=126.23 118.086 31.4543 86.6318 77.824 24.3247 53.4993 39.4707 25.7186 9.77831
internal_count=626 578 185 393 351 90 261 190 156 75
is_linear=0
shrinkage=0.05


Tree=28
num_leaves=11
num_cat=0
split_feature=16 16 14 13 13 17 19 13 13 16
split_gain=9.33342 15.3869 14.1946 9.83674 6.41619 4.61009 4.4231 4.23044 3.92564 1.07641
threshold=10.41666666666667 15.516666666666667 1.0000000180025095e-35 10.500000000000002 35.500000000000007 0.41666666666666669 54.500000000000007 29.500000000000004 5.5000000000000009 12.116666666666669
decision_type=2 2 2 2 2 2 2 2 2 2
left_child=7 2 -2 8 -5 6 -6 -1 -3 -4
right_child=1 3 9 4 5 -7 -8 -9 -10 -11
leaf_value=-0.037488889229545012 0.073739264808083529 0.00038824636353936243 -0.0094425913977613813 -0.034442880077668679 -0.02119797547638538 0.027206652208226007 0.014541960327502386 0.002152730758783764 0.051908119589974155 0.013313459901209856
leaf_weight=16.030916780233387 11.720298662781717 6.4538114219903928 6.2492515519261351 18.812710531055927 22.534186244010925 8.2132647186517698 10.389477178454397 9.5772062763571721 6.4963539615273476 8.8761539384722692
leaf_count=105 47 47 31 96 95 27 50 58 29 41
internal_value=0.00143116 0.00846818 0.0387406 -0.00370452 -0.0125145 -0.000713426 -0.00950804 -0.0238175 0.0314485 0.00362893
internal_weight=125.354 99.7455 26.8457 72.8998 59.9496 41.1369 32.9237 25.6081 12.9502 15.1254
internal_count=626 463 119 344 268 172 145 163 76 72
is_linear=0
shrinkage=0.05


Tree=29
num_leaves=11
num_cat=0
split_feature=16 6 1 17 17 16 19 15 15 17
split_gain=7.69192 8.42992 6.3677 7.40516 6.28327 4.53671 4.06553 1.88408 2.12769 1.58848
threshold=10.616666666666669 2.5000000000000004 24.500000000000004 0.65000000000000002 1.0000000180025095e-35 7.7666666666666675 18.500000000000004 1.5000000000000002 3.5000000000000004 0.65000000000000002
decision_type=2 2 2 2 2 2 2 2 2 2
left_child=4 2 6 -4 5 -1 9 -8 -9 -2
right_child=1 -3 3 -5 -6 -7 7 8 -10 -11
leaf_value=0.0092824006981145363 -0.035490554964399651 0.035595628733581838 0.038999916045161009 -0.024535508762814379 -0.0069254528982855279 0.058956501066374359 -0.01909836136350156 0.014489571406175406 -0.012436712294939284 -0.0071868990690490912
leaf_weight=10.726669736206537 27.434674009680748 7.0936665982007971 8.8543042466044408 4.8205354139208785 12.451996743679045 7.9893047362565985 13.331410296261309 13.42441263794899 10.23177357763052 8.6325094252824766
leaf_count=53 99 48 65 19 57 60 58 72 52 43
internal_value=-0.000814146 -0.00803008 -0.0127248 0.0159184 0.0195591 0.0359324 -0.0185685 -0.00596386 0.00256687 -0.0299163
internal_weight=124.991 93.8233 86.7296 13.6748 31.168 18.716 73.0548 36.9876 23.6562 36.0672
internal_count=626 456 408 84 170 113 324 182 124 142
is_linear=0
shrinkage=0.05


Tree=30
num_leaves=13
num_cat=0
split_feature=13 19 15 16 16 1 13 16 16 12 13 16
split_gain=7.99132 13.0731 8.62354 6.73992 6.09104 5.49009 5.8076 5.05539 5.74291 2.17659 2.12683 0.793032
threshold=4.5000000000000009 10.500000000000002 4.5000000000000009 21.050000000000001 35.650000000000006 16.500000000000004 28.500000000000004 19.200000000000006 23.666666666666671 67.500000000000014 45.500000000000007 7.8166666666666673
decision_type=2 2 2 2 2 2 2 2 2 2 2 2
left_child=-1 2 7 5 10 -3 -7 -2 -9 -6 -5 -4
right_child=1 3 11 4 9 6 -8 8 -10 -11 -12 -13
leaf_value=-0.035474710658015371 0.030406860711641639 -0.037260884271980696 0.020086985096172211 0.0067679820327518139 -0.02591507771822664 0.028127526911101777 -0.022244752355704223 -0.035263409796514079 0.016479746727313293 0.0081215505024858463 0.045265898859367992 0.057216824702294111
leaf_weight=8.4366438835859281 9.5209236294031161 18.110644839704037 7.1808086261153248 7.8737049177289027 7.6979620978236181 7.4879309237003353 9.5830598920583707 7.9019838571548444 7.8508225753903389 6.0956492125988007 7.507132351398468 14.252470977604387
leaf_count=58 40 116 38 41 49 35 58 31 32 25 25 56
internal_value=0.00445187 0.00838189 0.027697 -0.00617121 0.0109043 -0.0202063 0.000502841 0.00619302 -0.0106983 -0.0118121 0.0301514 0.0489756
internal_weight=119.5 111.063 46.707 64.3561 29.1744 35.1816 17.071 25.2737 15.7528 13.7936 15.3808 21.4333
internal_count=604 546 197 349 140 209 93 103 63 74 66 94
is_linear=0
shrinkage=0.05


Tree=31
num_leaves=12
num_cat=0
split_feature=1 13 13 1 1 0 13 16 12 12 12
split_gain=7.12734 4.73873 13.6786 3.82405 7.92378 5.82846 3.48988 3.87968 2.62722 2.49746 1.26977
threshold=4.5000000000000009 14.500000000000002 17.500000000000004 10.500000000000002 21.500000000000004 1.5000000000000002 5.5000000000000009 11.383333333333335 13.500000000000002 13.500000000000002 12.500000000000002
decision_type=2 2 2 2 2 2 2 2 2 2 2
left_child=9 6 -3 10 5 -5 7 -2 -6 -1 -4
right_child=1 2 3 4 8 -7 -8 -9 -10 -11 -12
leaf_value=0 0.022070665409399351 0.051995467900852223 -0.004773706251598191 -0.018258642830651733 -0.0035157833975934492 0.023850747372853753 -0.040628843468730219 -0.024112234450531532 -0.038747993077567655 0.0386002983664121 -0.038086819870387971
leaf_weight=6.6329354122281066 5.1041131466627139 7.1644640117883673 5.3477760031819335 9.0351119711995107 9.9340673759579676 24.522892117500305 14.364359296858309 7.3839918300509453 11.407179690897463 8.6816030666232091 10.243025675415991
leaf_count=30 18 28 24 44 39 109 86 52 72 44 58
internal_value=-0.00421454 -0.00906701 -0.00238988 -0.00988243 -0.00297113 0.0118085 -0.0260284 -0.00429478 -0.0250079 0.024687 -0.0295434
internal_weight=119.822 104.507 77.6545 70.4901 54.8993 33.558 26.8525 12.4881 21.3412 15.3145 15.5908
internal_count=604 530 374 346 264 153 156 70 111 74 82
is_linear=0
shrinkage=0.05


Tree=32
num_leaves=11
num_cat=0
split_feature=15 12 17 8 12 12 0 0 17 16
split_gain=6.99126 8.94065 7.38908 6.19753 4.73052 12.607 3.10538 2.9369 2.34776 1.40193
threshold=4.5000000000000009 12.500000000000002 0.65000000000000002 1.5000000000000002 31.500000000000004 36.500000000000007 3.5000000000000004 3.5000000000000004 -0.34999999999999992 7.2500000000000009
decision_type=2 2 2 2 2 2 2 2 2 2
left_child=1 2 7 9 8 -6 -7 -1 -3 -2
right_child=3 4 -4 -5 5 6 -8 -9 -10 -11
leaf_value=0.016844795168973595 -0.0024505227224519421 -0.0027526647013329086 -0.0058157284852018466 0.014034451308662014 0.048392954493582274 0.0037399721089660873 -0.031500808429977233 0.057567054467920403 -0.034224465141800796 -0.035727411859452662
leaf_weight=12.152757786214353 4.6163542121648815 11.644476935267448 11.088043704628943 8.7978042215108854 9.3049284219741839 11.036181166768076 9.3912550956010801 11.40617550909519 11.459433950483799 19.259275197982788
leaf_count=51 26 51 46 43 38 57 46 45 69 132
internal_value=0.000541861 0.00795825 0.0266325 -0.0181747 -0.0049707 0.00787087 -0.0142073 0.0410245 -0.0206934 -0.0304711
internal_weight=120.157 87.4833 34.647 32.6734 52.8363 29.7324 20.4274 23.5589 23.1039 23.8756
internal_count=604 403 142 201 261 141 103 96 120 158
is_linear=0
shrinkage=0.05


Tree=33
num_leaves=12
num_cat=0
split_feature=15 19 15 12 15 14 13 14 13 6 13
split_gain=6.58928 6.32601 18.4727 5.74323 2.96335 5.50916 3.07298 2.22468 2.84786 1.65921 0.736244
threshold=1.5000000000000002 23.500000000000004 3.5000000000000004 63.500000000000007 4.5000000000000009 1.5000000000000002 11.500000000000002 1.0000000180025095e-35 18.500000000000004 1.5000000000000002 5.5000000000000009
decision_type=2 2 2 2 2 2 2 2 2 2 2
left_child=3 4 -3 -1 5 7 10 8 -2 -9 -6
right_child=1 2 -4 -5 6 -7 -8 9 -10 -11 -12
leaf_value=0.042654169412729336 0.018497791942885988 -0.024714314940678894 0.050333974790851638 -0.0084889454890492121 -0.012826322112066982 0.025407078119150713 -0.03670882011013174 -0.002095851998751481 -0.018251988114958012 -0.032752797008796977 0.0078851018602882541
leaf_weight=11.062175095081331 7.826857775449751 13.966666154563429 13.090150080621241 7.3792816996574393 5.823766157031061 8.4811750054359418 18.789372235536575 7.1736682876944551 7.2617596760392189 13.129633821547031 5.3184805735945702
leaf_count=51 34 70 62 32 37 34 118 38 35 61 32
internal_value=-0.00159537 -0.0068054 0.0128278 0.0236318 -0.0142879 -0.00522548 -0.0257335 -0.0141081 0.00044091 -0.0237998 -0.00301115
internal_weight=119.303 100.862 27.0568 18.4415 73.8047 43.8731 29.9316 35.3919 15.0886 20.3033 11.1422
internal_count=604 521 132 83 389 202 187 168 69 99 69
is_linear=0
shrinkage=0.05


Tree=34
num_leaves=10
num_cat=0
split_feature=2 16 16 2 1 6 13 2 19
split_gain=24.1787 15.2621 11.3499 7.76031 6.34428 4.88431 3.50551 3.334 2.79014
threshold=5.5000000000000009 10.550000000000002 19.200000000000006 10.500000000000002 13.500000000000002 2.5000000000000004 9.5000000000000018 2.5000000000000004 17.500000000000004
decision_type=2 2 2 2 2 2 2 2 2
left_child=2 3 -1 5 8 -2 -3 -6 -4
right_child=1 6 4 -5 7 -7 -8 -9 -10
leaf_value=0.066683979854848335 0.022916205078832255 -0.0032283796012462906 -0.024090035780444996 0.051822201119699589 0.0059615991175691998 -0.020373599656248752 -0.039020196367331769 0.051011959355888363 0.011222479572977789
leaf_weight=11.223194405436514 7.8611834198236528 9.2619675621390325 9.5779499635100382 5.9102842286229125 8.7760996147990245 13.280236363410948 38.264617696404457 7.3655050769448271 7.4274367541074744
leaf_count=87 43 47 36 42 48 54 153 54 40
internal_value=0.000784492 -0.0163806 0.0289517 0.0126103 0.0115635 -0.00322226 -0.0327499 0.0315527 -0.00904664
internal_weight=118.948 74.5783 44.3702 27.0517 33.147 21.1414 47.5266 16.1416 17.0054
internal_count=604 339 265 139 178 97 200 102 76
is_linear=0
shrinkage=0.05


Tree=35
num_leaves=13
num_cat=0
split_feature=1 0 19 6 12 15 1 2 17 12 2 1
split_gain=4.46865 4.18655 5.84603 6.01 4.84951 3.72262 4.25807 2.71111 2.55508 2.90646 1.24884 0.723303
threshold=5.5000000000000009 4.5000000000000009 22.500000000000004 1.5000000000000002 11.500000000000002 3.5000000000000004 18.500000000000004 8.5000000000000018 -0.34999999999999992 33.500000000000007 7.5000000000000009 18.500000000000004
decision_type=2 2 2 2 2 2 2 2 2 2 2 2
left_child=10 2 3 11 7 6 -4 -5 -3 -10 -1 -2
right_child=1 8 5 4 -6 -7 -8 -9 9 -11 -12 -13
leaf_value=-0.030817682976848611 0.051604919163346322 0.010621047873776351 -0.017100633573893492 0 -0.021442862311115335 -0.034154893293302568 0.02945904682476419 0.03018636492531851 -0.030131592645194369 0.0061056712872036012 -0.0017802411190650327 0.01858710483439761
leaf_weight=10.364349879324438 8.6822133213281649 7.3281223177909878 7.7545848190784472 13.460256315767767 9.078703895211218 7.1625531613826743 6.0588957369327545 12.948867976665495 14.980849608778955 6.4256935939192763 6.1857814118266097 8.8581817373633367
leaf_count=60 28 37 50 74 51 45 30 49 75 35 29 36
internal_value=-0.000164101 0.00385992 0.0100993 0.0186841 0.0055489 -0.011017 0.00463653 0.0162387 -0.0114873 -0.0196358 -0.022159 0.0403239
internal_weight=119.289 102.739 74.0043 53.0282 35.4878 20.976 13.8135 26.4091 28.7347 21.4065 16.5501 17.5404
internal_count=599 510 363 238 174 125 80 123 147 110 89 64
is_linear=0
shrinkage=0.05


Tree=36
num_leaves=11
num_cat=0
split_feature=1 12 19 0 16 16 16 13 1 16
split_gain=7.64417 6.15973 7.28565 12.4484 5.6607 4.94206 4.54211 6.20554 3.86365 2.8803
threshold=26.500000000000004 16.500000000000004 34.500000000000007 3.5000000000000004 11.383333333333335 10.616666666666669 20.516666666666669 13.500000000000002 19.500000000000004 7.366666666666668
decision_type=2 2 2 2 2 2 2 2 2 2
left_child=1 5 4 -4 -3 9 8 -8 -7 -1
right_child=-2 2 3 -5 -6 6 7 -9 -10 -11
leaf_value=0.008675843630803648 -0.032992802212233843 0.0064424858211625446 -0.027317069446955156 0.043294139727950973 -0.041776161741739017 0.014004674846610526 -0.02506683245933395 0.023094816126811663 0.059035821733509734 -0.025811939663920303
leaf_weight=10.800621129572393 13.673100277781485 7.532805651426318 8.8589651659131068 10.389781534671782 16.679127909243107 13.226446665823461 7.9916473254561451 14.123883180320261 8.4437530487775785 7.9874901548027983
leaf_count=51 86 46 51 42 98 53 55 44 24 49
internal_value=-0.00146444 0.00335118 -0.0106222 0.0112702 -0.0275343 0.0131746 0.0219679 0.00457674 0.036799 -0.00729189
internal_weight=119.708 106.035 43.4607 19.2487 24.2119 62.5738 43.7857 22.1155 21.6702 18.7881
internal_count=599 513 237 93 144 276 176 99 77 100
is_linear=0
shrinkage=0.05


Tree=37
num_leaves=10
num_cat=0
split_feature=13 1 1 16 16 1 16 1 13
split_gain=7.14327 7.4289 5.91754 6.18929 7.27457 5.80175 5.73684 3.10688 3.21942
threshold=3.5000000000000004 28.500000000000004 22.500000000000004 17.31666666666667 21.050000000000001 4.5000000000000009 7.2166666666666677 7.5000000000000009 10.500000000000002
decision_type=2 2 2 2 2 2 2 2 2
left_child=-1 2 3 7 -5 -6 -4 -2 -9
right_child=1 -3 6 4 5 -7 -8 8 -10
leaf_value=0.035833228525897307 -0.037086322407385061 0.039207334703445736 0.013201663318339628 0.034889563899392836 0.02879469499371445 -0.014764904172061439 -0.041291788271711434 -0.031024908195769016 0.0055565445144188106
leaf_weight=9.5344636514782888 9.7262019813060743 6.2143360301852217 4.6216578930616405 15.748856998980044 7.3326046094298354 26.39361397176981 16.868723288178444 5.4450001195073154 18.136379159986973
leaf_count=47 65 40 17 57 34 109 98 21 111
internal_value=0 -0.00394216 -0.0075849 -0.00109414 0.00986506 -0.00357972 -0.0291868 -0.0169807 -0.0052503
internal_weight=120.022 110.487 104.273 82.7827 49.4751 33.7262 21.4904 33.3076 23.5814
internal_count=599 552 512 397 200 143 115 197 132
is_linear=0
shrinkage=0.05


Tree=38
num_leaves=11
num_cat=0
split_feature=16 16 12 17 13 1 13 14 13 1
split_gain=7.79314 17.0248 16.0192 7.77478 4.2246 19.4549 4.54407 4.15735 4.07984 1.98454
threshold=10.41666666666667 15.516666666666667 8.5000000000000018 0.65000000000000002 54.500000000000007 15.500000000000002 11.500000000000002 1.0000000180025095e-35 29.500000000000004 22.500000000000004
decision_type=2 2 2 2 2 2 2 2 2 2
left_child=8 2 -2 4 6 -6 -3 -4 -1 -8
right_child=1 3 7 -5 5 -7 9 -9 -10 -11
leaf_value=-0.036053970450059612 -0.011806430353839052 0.0075377263378749535 0.078345354775794185 0.024706875609606011 0.056118665908224188 -0.037035347062659457 -0.038242181427791434 0.022178079713596602 0.0051283265609817661 -0.0042957543764645294
leaf_weight=14.341691218316557 9.9242162704467791 8.0230151265859586 11.807151816785336 13.620919138193129 7.2681406214833286 9.3614288643002492 22.206540793180469 8.7554530948400497 7.8838380202651015 6.6063072830438605
leaf_count=94 38 47 44 54 36 39 106 44 52 45
internal_value=0.0024896 0.00870153 0.0378715 -0.00553682 -0.0142336 0.00577825 -0.0231483 0.0605105 -0.022375 -0.0317551
internal_weight=119.799 97.5732 30.4868 67.0864 53.4654 16.6296 36.8359 20.5626 22.2255 28.8128
internal_count=599 453 126 327 273 75 198 88 146 151
is_linear=0
shrinkage=0.05


Tree=39
num_leaves=12
num_cat=0
split_feature=2 16 16 2 12 2 6 15 16 13 16
split_gain=24.6051 9.14635 8.17908 6.42399 4.61905 10.3295 4.83589 2.73945 2.54835 2.21 1.58227
threshold=5.5000000000000009 10.41666666666667 19.200000000000006 9.5000000000000018 18.500000000000004 2.5000000000000004 1.5000000000000002 3.5000000000000004 42.000000000000007 8.5000000000000018 6.9000000000000012
decision_type=2 2 2 2 2 2 2 2 2 2 2
left_child=2 3 7 10 6 -6 -4 -1 -7 -3 -2
right_child=1 9 4 -5 5 8 -8 -9 -10 -11 -12
leaf_value=0.023487066430598148 -0.027891661903895044 -0.007538825110746954 -0.026902544576440143 0.033475173055440337 -0.01208294012624099 0.078134755707850098 0.020020362107254681 0.08371857808655675 0.014994811112132923 -0.036080567946164259 0.00051572531043394198
leaf_weight=7.5912043005228025 6.263626582920554 10.959966719150541 9.2900368049740809 9.2137299552559835 7.7069689184427288 4.3251945525407773 7.0032281056046477 4.4173757955431938 4.6094342172145844 37.488158047199249 9.4754197373986226
leaf_count=45 23 51 35 56 33 40 43 42 28 158 45
internal_value=-0.000805301 -0.0184443 0.0272497 0.00561349 0.0118748 0.0283624 -0.00649786 0.0582819 0.0579368 -0.0305371 -0.013178
internal_weight=118.344 73.4009 44.9434 24.9528 32.9349 16.6416 16.2933 12.0086 8.93463 48.4481 15.739
internal_count=599 333 266 124 179 101 78 87 68 209 68
is_linear=0
shrinkage=0.05


Tree=40
num_leaves=12
num_cat=0
split_feature=13 1 0 2 2 15 13 0 1 6 13
split_gain=4.61041 8.36787 6.54628 5.10434 8.73719 6.18053 4.91687 3.45009 1.77038 1.19496 4.40564
threshold=63.500000000000007 15.500000000000002 4.5000000000000009 9.5000000000000018 6.5000000000000009 3.5000000000000004 38.500000000000007 2.5000000000000004 10.500000000000002 1.5000000000000002 18.500000000000004
decision_type=2 2 2 2 2 2 2 2 2 2 2
left_child=2 -2 3 4 6 -6 7 -1 -5 -4 -11
right_child=1 -3 9 8 5 -7 -8 -9 -10 10 -12
leaf_value=-0.03819047232267346 -0.018249689815421428 0.041736363064626247 -0.038662424516960087 0.00068477562196153803 0.051995792294657131 0.0043645704437206782 0.016670726228452042 7.5767635700882866e-05 -0.031695270896042335 -0.034267020474477411 0.012915873364141571
leaf_weight=11.418601326644426 7.5638007819652584 10.8994879797101 11.999974653124811 5.4991482943296459 10.663972429931166 15.302056111395357 9.0787560343742353 9.5004067122936231 10.663289934396742 7.4663198515772802 6.9121849983930588
leaf_count=87 34 40 64 33 38 50 44 58 65 49 35
internal_value=-0.00327978 0.0178131 -0.00769222 0.000329626 0.00766581 0.027458 -0.0102536 -0.0227729 -0.0220349 -0.0275903 -0.012983
internal_weight=116.968 18.4633 98.5047 72.1262 55.9638 25.966 29.9978 20.919 16.1624 26.3785 14.3785
internal_count=597 74 523 375 277 88 189 145 98 148 84
is_linear=0
shrinkage=0.05


Tree=41
num_leaves=14
num_cat=0
split_feature=1 0 12 0 13 12 16 0 13 16 16 0 16
split_gain=4.82638 4.69872 4.95258 13.8833 8.97976 5.70182 4.52485 2.85489 2.53958 2.51432 1.60177 0.96036 0.447103
threshold=26.500000000000004 1.0000000180025095e-35 17.500000000000004 2.5000000000000004 13.500000000000002 35.500000000000007 25.483333333333338 4.5000000000000009 16.500000000000004 11.383333333333335 10.766666666666667 2.5000000000000004 13.816666666666668
decision_type=2 2 2 2 2 2 2 2 2 2 2 2 2
left_child=1 12 3 8 10 9 -7 -6 -3 -4 -5 -2 -1
right_child=11 2 5 4 7 6 -8 -9 -10 -11 -12 -13 -14
leaf_value=-0.0034584881748546126 -0.0036102130628482658 0.062055517784510461 0.0034617532594209133 -0.0011873461445821129 -0.00097307663271575513 0.03852685402709518 -0.0062417973423009388 0.034394870243063549 0.018005079336266376 -0.032369067419554795 -0.037248834032798141 -0.033442397672203993 -0.025269603529783413
leaf_weight=5.1185902506113035 5.3608326651155931 12.151834383606912 5.9885321184992817 4.7045660912990561 9.207405127584936 7.3543271198868778 10.533689938485621 10.37168252468109 8.9464196860790235 12.732844974845646 9.8305418491363508 7.0160325691103935 7.967564545571804
leaf_count=26 39 56 38 25 39 23 52 41 33 80 57 48 40
internal_value=0.00213871 0.00586053 0.00999372 0.0190907 -0.0011864 -0.00400653 0.0148145 0.0196216 0.0481508 -0.0217823 -0.028062 -0.0240715 -0.0192852
internal_weight=117.285 104.908 91.8218 55.2124 34.1142 36.6094 17.888 19.5791 21.0983 18.7214 14.5351 12.3769 13.0862
internal_count=597 510 444 251 162 193 75 80 89 118 82 87 66
is_linear=0
shrinkage=0.05


Tree=42
num_leaves=11
num_cat=0
split_feature=13 13 13 12 12 12 15 1 12 15
split_gain=3.56483 5.05082 5.60148 4.16371 6.31353 5.38677 4.44629 3.77205 2.34723 1.1011
threshold=2.5000000000000004 9.5000000000000018 13.500000000000002 31.500000000000004 36.500000000000007 12.500000000000002 4.5000000000000009 18.500000000000004 4.5000000000000009 3.5000000000000004
decision_type=2 2 2 2 2 2 2 2 2 2
left_child=-1 8 -3 5 -5 6 -4 -6 -2 -7
right_child=1 2 3 4 7 9 -8 -9 -10 -11
leaf_value=0.030917529239357946 0 0.035618183183074907 0.021975393677566721 0.042075895661274357 0.011930354127377618 -0.034289401817970369 -0.016114308237491864 -0.027353921407780941 -0.035043790090946811 -0.012036642753935034
leaf_weight=5.3460718989372245 6.5252037122845676 8.0417172089219076 15.525543235242369 8.55902247130871 12.494946226477625 11.934390395879747 10.181614723056553 7.0963557064533225 12.52083384990692 19.183649316430092
leaf_count=31 31 50 52 34 57 70 53 39 65 115
internal_value=-0.000600835 -0.0029148 0.00207164 -0.00215256 0.0126818 -0.00985228 0.00660788 -0.00382071 -0.0244624 -0.0229822
internal_weight=117.409 112.063 93.0172 84.9755 28.1503 56.8252 25.7072 19.5913 19.046 31.118
internal_count=597 566 470 420 130 290 105 96 96 185
is_linear=0
shrinkage=0.05


Tree=43
num_leaves=13
num_cat=0
split_feature=12 12 12 15 1 13 17 1 15 17 13 0
split_gain=7.18431 11.4597 6.0521 4.69918 4.08676 3.26457 3.17235 2.19896 2.97607 2.04736 1.85271 2.76656
threshold=23.500000000000004 32.500000000000007 10.500000000000002 4.5000000000000009 12.500000000000002 62.500000000000007 0.65000000000000002 12.500000000000002 2.5000000000000004 0.18333333333333332 47.500000000000007 2.5000000000000004
decision_type=2 2 2 2 2 2 2 2 2 2 2 2
left_child=2 -2 3 6 -3 -6 9 8 -4 -1 11 -5
right_child=1 4 7 10 5 -7 -8 -9 -10 -11 -12 -13
leaf_value=0.016061541842182267 0.046744662476147766 0.016805747267160321 -0.030293545113676254 -0.024388044891706963 0.0049645838618781616 -0.03625912573323186 0.0306491050517134 -0.039437940341266027 0.010253930223497054 -0.013336782106089601 -0.0332024906592914 0.013408166030815884
leaf_weight=7.5043012723326727 14.869112424552439 10.08138343691826 5.1487337350845355 5.52433938905597 6.8245023526251307 8.4961263537406904 11.663154892623423 13.924074225127695 7.524695910513401 10.554519511759281 6.4668019488453856 8.1962709352374059
leaf_count=33 69 49 19 39 42 33 46 92 52 48 19 56
internal_value=-0.000367845 0.0159936 -0.00932149 0.00113897 -0.00486664 -0.0198173 0.0133658 -0.027245 -0.00854532 -0.000335175 -0.0160472 -0.00315602
internal_weight=116.778 40.2711 76.5069 49.9094 25.402 15.3206 29.722 26.5975 12.6734 18.0588 20.1874 13.7206
internal_count=597 193 404 241 124 75 127 163 71 81 114 95
is_linear=0
shrinkage=0.05


Tree=44
num_leaves=13
num_cat=0
split_feature=2 16 2 1 1 15 12 15 15 2 16 2
split_gain=14.5525 14.626 8.68596 7.03899 6.63713 5.29116 9.96905 3.61828 3.27396 2.75287 2.0882 2.06496
threshold=5.5000000000000009 10.41666666666667 9.5000000000000018 21.500000000000004 19.500000000000004 1.5000000000000002 18.500000000000004 4.5000000000000009 3.5000000000000004 2.5000000000000004 6.9000000000000012 1.5000000000000002
decision_type=2 2 2 2 2 2 2 2 2 2 2 2
left_child=3 2 10 5 -4 -1 8 -3 -7 -8 -2 -5
right_child=1 7 4 11 -6 6 9 -9 -10 -11 -12 -13
leaf_value=-0.019994027322692329 -0.024421338419228864 -0.034268648560513183 0.075030256406822926 0.013392949212200377 0 -0.021692828313853951 0.014466527698285851 0 0.01710172399400885 0.074683349576948097 0.0075503474486240873 0.069578287736251215
leaf_weight=8.0110137313604337 5.8474439159035709 36.99171607196331 5.2213992774486524 4.4191891551017743 4.639300100505352 8.9052439928054827 5.2603098154067975 9.2060698419809324 7.0340001359581938 4.6214694157242775 9.3634270355105382 6.1551163792610168
leaf_count=33 21 156 45 26 21 35 29 51 39 41 47 53
internal_value=0.0021708 -0.0116552 0.0176409 0.0237994 0.0480476 0.0103682 0.0210622 -0.027762 -0.00431167 0.0538509 -0.00646417 0.0546151
internal_weight=115.676 71.2694 25.0716 44.4063 9.8607 33.832 25.821 46.1978 15.9392 9.88178 15.2109 10.5743
internal_count=597 341 134 256 66 177 144 207 74 70 68 79
is_linear=0
shrinkage=0.05


Tree=45
num_leaves=13
num_cat=0
split_feature=1 13 14 2 2 1 2 1 12 16 16 15
split_gain=6.55038 6.71261 5.77533 5.33686 8.11275 7.35295 4.85802 4.53313 3.27321 5.32754 1.61506 0.129362
threshold=4.5000000000000009 43.500000000000007 1.0000000180025095e-35 6.5000000000000009 9.5000000000000018 16.500000000000004 7.5000000000000009 18.500000000000004 16.500000000000004 19.366666666666671 12.750000000000002 5.5000000000000009
decision_type=2 2 2 2 2 2 2 2 2 2 2 2
left_child=10 3 7 8 5 -5 -4 -3 -2 -10 -1 -6
right_child=1 2 6 4 11 -7 -8 -9 9 -11 -12 -13
leaf_value=0 -0.034818059477642563 -0.022186100095329276 0.059512147957102336 -0.0076696403858590376 -0.0095180082096755908 0.040770660260939014 0.010117465091819017 0.023553314569996014 -0.031018591346393783 0.020770261566394239 -0.037576216946504218 -0.031539889802928114
leaf_weight=3.9482262656092635 14.97868872433901 9.3512310907244665 8.6347197517752665 11.948979735374452 5.7010156735777837 15.44368878751993 11.86963342130184 6.6372028440237036 5.8075475022196761 8.3687357977032644 10.399965781718491 5.4845031052827835
leaf_count=27 107 42 25 39 38 51 54 29 50 41 53 45
internal_value=-0.000768813 0.00382048 0.0202774 -0.00545936 0.00653928 0.0208046 0.036072 -0.00221385 -0.0206204 -0.00186688 -0.0292897 -0.0250549
internal_weight=118.574 104.226 36.4928 67.7332 38.5782 27.3927 20.5044 15.9884 29.155 14.1763 14.3482 11.1855
internal_count=601 521 150 371 173 90 79 71 198 91 80 83
is_linear=0
shrinkage=0.05


Tree=46
num_leaves=13
num_cat=0
split_feature=1 19 12 13 12 14 13 13 13 1 2 17
split_gain=7.38215 3.24253 8.83722 3.75965 3.60688 2.75103 2.68447 4.60874 3.39505 2.95272 2.91217 2.22347
threshold=25.500000000000004 34.500000000000007 38.500000000000007 64.500000000000014 21.500000000000004 1.0000000180025095e-35 13.500000000000002 8.5000000000000018 23.500000000000004 19.500000000000004 8.5000000000000018 -0.34999999999999992
decision_type=2 2 2 2 2 2 2 2 2 2 2 2
left_child=1 4 -3 -4 6 -6 7 10 11 -10 -1 -8
right_child=-2 2 3 -5 5 -7 8 -9 9 -11 -12 -13
leaf_value=-0.012739048817014676 -0.028562831230354579 0.059723878548870769 -0.023391546308871556 0.018059573495350863 -0.034960097195831513 0.0018116661168931843 0.0058273261575169395 -0.033874478221490083 -0.01002129833579269 0.022015257998600428 0.0234765729958199 0.044719102767331667
leaf_weight=7.27911044657231 15.723157774657009 6.3508749976754215 7.156287617981433 8.8369009718298894 7.9888205491006383 8.4947034120559692 7.6438967064023018 7.0202959403395644 17.325096398591999 8.1129223704338056 9.4060256257653219 7.8000746816396695
leaf_count=52 109 21 45 31 49 46 43 38 75 30 36 26
internal_value=0.000355124 0.00548006 0.0210964 -0.000989928 0.000517325 -0.0183922 0.00601943 -0.00670753 0.0134671 0.00126486 0.00788945 0.0298198
internal_weight=119.138 103.415 22.3441 15.9932 81.0709 16.4835 64.5874 23.7054 40.882 25.438 16.6851 15.444
internal_count=601 492 97 76 395 95 300 126 174 105 88 69
is_linear=0
shrinkage=0.05


Tree=47
num_leaves=9
num_cat=0
split_feature=1 16 16 16 1 1 12 1
split_gain=5.70349 6.78125 5.8262 4.627 3.79237 3.0689 2.94673 5.0914
threshold=2.5000000000000004 22.850000000000005 19.800000000000001 35.266666666666673 6.5000000000000009 18.500000000000004 31.500000000000004 15.500000000000002
decision_type=2 2 2 2 2 2 2 2
left_child=-1 2 4 -3 -2 -5 7 -6
right_child=1 3 -4 5 6 -7 -8 -9
leaf_value=0.035275123498111342 -0.032256431013196585 -0.038155923694565157 0.028635691273115556 0.01093684917260301 0.017174187006145817 -0.025365283992859946 0.028032842162054695 -0.01458255137480636
leaf_weight=7.3228588551282874 6.274585284292697 16.190386183559895 16.483385287225246 12.748831041157247 17.343572102487087 6.2244087904691687 6.3049470335245124 30.208436787128448
leaf_count=37 43 85 59 59 94 42 24 158
internal_value=-0.000287499 -0.00352195 0.00483226 -0.0208042 -0.00266428 -0.0025821 0.00221547 -0.00256922
internal_weight=119.101 111.779 76.6149 35.1636 60.1315 18.9732 53.857 47.552
internal_count=601 564 378 186 319 101 276 252
is_linear=0
shrinkage=0.05


Tree=48
num_leaves=11
num_cat=0
split_feature=13 16 16 12 16 13 8 8 13 2
split_gain=4.22822 4.55431 9.09995 12.1004 8.04489 5.48179 5.99051 4.44594 1.02556 0.963507
threshold=87.500000000000014 10.41666666666667 15.516666666666667 8.5000000000000018 21.650000000000002 9.5000000000000018 1.0000000180025095e-35 1.0000000180025095e-35 42.500000000000007 8.5000000000000018
decision_type=2 2 2 2 2 2 2 2 2 2
left_child=1 7 3 -3 8 -6 -7 -1 -4 -5
right_child=-2 2 4 9 5 6 -8 -9 -10 -11
leaf_value=0.0087013999694420339 -0.03291648083151838 -0.017211620309167577 -0.032228409187062157 0.027332222798153435 0.037910063131998545 0.012301941581055208 -0.031232480048222357 -0.034074595084643958 -0.0057546843760671882 0.064093917881089646
leaf_weight=8.181784853339197 6.3929855227470389 8.6406746357679385 15.978465240448715 13.712150476872923 9.0845748186111432 21.66474574059248 8.6175645291805285 12.231027793139218 7.04176041483879 7.4108656197786322
leaf_count=56 19 34 85 57 53 110 43 93 23 28
internal_value=-0.000638805 0.00195803 0.00680994 0.0281927 -0.00414037 0.00941079 -0.00163514 -0.0177977 -0.0259196 0.046804
internal_weight=118.957 112.564 92.1508 29.7637 62.3871 39.3669 30.2823 20.4128 23.0202 21.123
internal_count=601 582 433 119 314 206 153 149 108 85
is_linear=0
shrinkage=0.05


Tree=49
num_leaves=11
num_cat=0
split_feature=2 16 16 2 16 16 8 2 15 16
split_gain=18.7838 14.173 9.60831 5.37981 4.69126 2.85215 2.80805 11.8029 2.13458 0.245168
threshold=5.5000000000000009 10.41666666666667 19.200000000000006 9.5000000000000018 23.866666666666671 6.9000000000000012 1.0000000180025095e-35 2.5000000000000004 4.5000000000000009 24.566666666666674
decision_type=2 2 2 2 2 2 2 2 2 2
left_child=2 3 -1 5 -4 -2 7 -6 9 -3
right_child=1 8 4 -5 6 -7 -8 -9 -10 -11
leaf_value=0.060804790518020936 -0.024705614726400926 -0.038351578234650074 -0.011357440464400091 0.040053077426367129 -0.033386805344849932 0.01301388729621392 0.045463481180216384 0.041979533696401394 -0.0050990965107810537 -0.016113638625226783
leaf_weight=10.997228145599363 6.0064610391855267 28.936233326792717 13.279652722179888 9.2635147571563703 6.7223692834377315 8.3210914433002454 6.4185291454195967 8.2300135269761068 8.9479694813489896 9.0031417459249479
leaf_count=81 23 121 60 59 22 44 46 56 46 43
internal_value=0.00141114 -0.0145367 0.0255147 0.0156448 0.0102292 -0.00405012 0.023595 0.00790045 -0.0298501 -0.0347641
internal_weight=116.126 70.4784 45.6478 23.5911 34.6506 14.3276 21.3709 14.9524 46.8873 37.9394
internal_count=601 336 265 126 184 67 124 78 210 164
is_linear=0
shrinkage=0.05


end of trees

feature_importances:
avg_inter_attack_interval=136
days_since_last_success=102
days_since_last_incident=63
day_of_month=57
month=53
type_inc_30d_sum=38
day_of_week=35
streak_quiet_days=21
attack_rate_trend=20
type_inc_7d_sum=13
inc_30d_sum=9
succ_30d_sum=5
inc_3d_sum=1
succ_7d_sum=1
success_ratio_7d=1

parameters:
[boosting: gbdt]
[objective: multiclass]
[metric: multi_logloss]
[tree_learner: serial]
[device_type: cpu]
[data_sample_strategy: bagging]
[data: ]
[valid: ]
[num_iterations: 500]
[learning_rate: 0.05]
[num_leaves: 31]
[num_threads: 18]
[seed: 42]
[deterministic: 1]
[force_col_wise: 1]
[force_row_wise: 0]
[histogram_pool_size: -1]
[max_depth: 6]
[min_data_in_leaf: 30]
[min_sum_hessian_in_leaf: 0.01]
[bagging_fraction: 0.8]
[pos_bagging_fraction: 1]
[neg_bagging_fraction: 1]
[bagging_freq: 1]
[bagging_seed: 400]
[bagging_by_query: 0]
[feature_fraction: 0.8]
[feature_fraction_bynode: 1]
[feature_fraction_seed: 30056]
[extra_trees: 0]
[extra_seed: 12879]
[early_stopping_round: 0]
[early_stopping_min_delta: 0]
[first_metric_only: 0]
[max_delta_step: 0]
[lambda_l1: 0.1]
[lambda_l2: 3]
[linear_lambda: 0]
[min_gain_to_split: 0.01]
[drop_rate: 0.1]
[max_drop: 50]
[skip_drop: 0.5]
[xgboost_dart_mode: 0]
[uniform_drop: 0]
[drop_seed: 17869]
[top_rate: 0.2]
[other_rate: 0.1]
[min_data_per_group: 100]
[max_cat_threshold: 32]
[cat_l2: 10]
[cat_smooth: 10]
[max_cat_to_onehot: 4]
[top_k: 20]
[monotone_constraints: ]
[monotone_constraints_method: basic]
[monotone_penalty: 0]
[feature_contri: ]
[forcedsplits_filename: ]
[refit_decay_rate: 0.9]
[cegb_tradeoff: 1]
[cegb_penalty_split: 0]
[cegb_penalty_feature_lazy: ]
[cegb_penalty_feature_coupled: ]
[path_smooth: 0]
[interaction_constraints: ]
[verbosity: -1]
[saved_feature_importance_type: 0]
[use_quantized_grad: 0]
[num_grad_quant_bins: 4]
[quant_train_renew_leaf: 0]
[stochastic_rounding: 1]
[linear_tree: 0]
[max_bin: 255]
[max_bin_by_feature: ]
[min_data_in_bin: 3]
[bin_construct_sample_cnt: 200000]
[data_random_seed: 175]
[is_enable_sparse: 1]
[enable_bundle: 1]
[use_missing: 1]
[zero_as_missing: 0]
[feature_pre_filter: 1]
[pre_partition: 0]
[two_round: 0]
[header: 0]
[label_column: ]
[weight_column: ]
[group_column: ]
[ignore_column: ]
[categorical_feature: ]
[forcedbins_filename: ]
[precise_float_parser: 0]
[parser_config_file: ]
[objective_seed: 16083]
[num_class: 5]
[is_unbalance: 0]
[scale_pos_weight: 1]
[sigmoid: 1]
[boost_from_average: 1]
[reg_sqrt: 0]
[alpha: 0.9]
[fair_c: 1]
[poisson_max_delta_step: 0.7]
[tweedie_variance_power: 1.5]
[lambdarank_truncation_level: 30]
[lambdarank_norm: 1]
[label_gain: ]
[lambdarank_position_bias_regularization: 0]
[eval_at: ]
[multi_error_top_k: 1]
[auc_mu_weights: ]
[num_machines: 1]
[local_listen_port: 12400]
[time_out: 120]
[machine_list_filename: ]
[machines: ]
[gpu_platform_id: -1]
[gpu_device_id: -1]
[gpu_use_dp: 0]
[num_gpu: 1]

end of parameters

pandas_categorical:[]
