tree
version=v4
num_class=5
num_tree_per_iteration=5
label_index=0
max_feature_idx=20
objective=multiclass num_class:5
feature_names=day_of_week day_of_month month lag_inc_1d inc_3d_sum inc_7d_sum inc_30d_sum succ_7d_sum succ_30d_sum had_incident_prev_1d had_incident_prev_3d had_incident_prev_7d days_since_last_incident days_since_last_success type_inc_7d_sum type_inc_30d_sum avg_inter_attack_interval attack_rate_trend streak_active_days streak_quiet_days success_ratio_7d
feature_infos=[0:6] [1:31] [1:12] [0:1] [0:2] [0:2] [0:6] [0:2] [0:4] [0:1] [0:1] [0:1] [1:999] [1:999] [0:2] [0:6] [3.4666666666666668:999] [-0.93333333333333335:1.5333333333333332] [0:2] [0:85] [0:1]
tree_sizes=1452 1251 947 1439 1351 1501 1291 1284 1184 1284 1186 1393 1495 1391 1463 1375 1505 1293 1486 1504 1183 1199 1288 1379 1386 1273 1501 1196 1713 1080 1398 1290 1616 1288 1606 1372 1398 1394 1387 1290 1564 1380 1296 1395 1495

Tree=0
num_leaves=13
num_cat=0
split_feature=12 12 16 16 12 2 17 16 16 12 13 16
split_gain=7.11476 10.1965 9.39812 13.5534 10.4381 8.38397 4.41936 2.33688 2.3739 2.55062 1.98085 0.776636
threshold=17.500000000000004 14.500000000000002 8.8333333333333357 16.016666666666669 4.5000000000000009 3.5000000000000004 0.41666666666666669 65.000000000000014 35.366666666666674 43.500000000000007 38.500000000000007 15.466666666666669
decision_type=2 2 2 2 2 2 2 2 2 2 2 2
left_child=1 2 4 6 -1 -5 -4 8 9 10 11 -2
right_child=7 -3 3 5 -6 -7 -8 -9 -10 -11 -12 -13
leaf_value=-1.5859142246502926 -1.6207614366863969 -1.5570062304951049 -1.5469455391943283 -1.5926775458297124 -1.6512026406983151 -1.6432623982457668 -1.5983601187562086 -1.5983890270295256 -1.6469329523644969 -1.5924681061249273 -1.6395506084399241 -1.5997864818531875
leaf_weight=6.6391196250915554 5.8658845722675377 9.4220091402530652 10.816573321819307 14.65203967690468 15.821464508771895 12.390577942132948 8.6032941937446576 5.5309076011180869 9.3950749635696393 4.7766748070716849 9.5180633366107923 5.7307612597942352
leaf_count=34 38 42 35 47 90 74 34 18 57 27 71 26
internal_value=-1.60749 -1.59875 -1.60648 -1.59383 -1.63121 -1.61675 -1.56497 -1.62374 -1.6284 -1.6183 -1.62574 -1.6102
internal_weight=119.162 78.3451 68.9231 46.4625 22.4606 27.0426 19.4199 40.8174 35.2865 25.8914 21.1147 11.5966
internal_count=593 356 314 190 124 121 69 237 219 162 135 64
is_linear=0
shrinkage=1


Tree=1
num_leaves=11
num_cat=0
split_feature=16 13 13 5 13 13 13 13 13 1
split_gain=7.56143 5.40942 9.78616 8.92841 7.98046 3.26806 10.1323 2.07883 1.53018 0.47766
threshold=65.000000000000014 95.500000000000014 15.500000000000002 1.0000000180025095e-35 2.5000000000000004 51.500000000000007 34.500000000000007 11.500000000000002 41.500000000000007 19.500000000000004
decision_type=2 2 2 2 2 2 2 2 2 2
left_child=1 2 3 7 -5 6 -4 -1 -8 -6
right_child=-2 -3 5 4 9 -7 8 -9 -10 -11
leaf_value=-1.5996095719243697 -1.5781862044717632 -1.5847498610427291 -1.6413256782054906 -1.5859883603443425 -1.647522139200376 -1.6511096744411582 -1.5771162738200892 -1.5660349028694203 -1.6094378689642228 -1.6204131063956986
leaf_weight=11.620607614517214 12.897672832012175 10.107494235038756 22.824578881263733 7.4899200201034573 10.008013993501665 15.611470997333525 6.3593846857547742 9.7133628427982313 6.2155194282531738 6.3144230544567099
leaf_count=45 42 40 125 32 49 127 28 38 34 33
internal_value=-1.61038 -1.61509 -1.61898 -1.6023 -1.62255 -1.63341 -1.62282 -1.58065 -1.58989 -1.64063
internal_weight=119.162 106.265 96.1573 45.1463 23.8124 51.011 35.3995 21.334 12.5749 16.3224
internal_count=593 551 511 197 114 314 187 83 62 82
is_linear=0
shrinkage=1


Tree=2
num_leaves=8
num_cat=0
split_feature=16 13 13 16 19 16 0
split_gain=4.2981 5.11985 8.66296 7.76519 6.23168 1.56634 1.34945
threshold=6.6833333333333345 3.5000000000000004 11.500000000000002 8.0500000000000025 58.500000000000007 30.516666666666669 1.5000000000000002
decision_type=2 2 2 2 2 2 2
left_child=-1 -2 6 -4 5 -5 -3
right_child=1 2 3 4 -6 -7 -8
leaf_value=-1.6429829861022296 -1.6338158231875139 -1.6024424041805072 -1.5789110869336505 -1.6190398023308958 -1.5863538141315749 -1.6382618665715045 -1.573456541644809
leaf_weight=6.4196506142616263 13.380203962326048 7.6713144183158901 11.127070635557173 36.873761117458344 8.9439468681812269 16.819324404001236 17.927172929048538
leaf_count=43 52 31 51 212 40 89 75
internal_value=-1.6105 -1.60787 -1.60372 -1.61259 -1.61977 -1.62636 -1.58032
internal_weight=119.162 112.743 99.3626 73.7641 62.637 53.6931 25.5985
internal_count=593 550 498 392 341 301 106
is_linear=0
shrinkage=1


Tree=3
num_leaves=13
num_cat=0
split_feature=19 1 2 13 15 16 16 2 16 19 1 16
split_gain=17.0849 7.69676 8.88165 9.73828 7.1669 6.9431 13.9102 9.3865 5.91672 7.31627 4.16882 4.09206
threshold=7.5000000000000009 8.5000000000000018 4.5000000000000009 17.500000000000004 3.5000000000000004 8.4833333333333361 15.233333333333336 4.5000000000000009 7.2333333333333343 23.500000000000004 22.500000000000004 24.333333333333339
decision_type=2 2 2 2 2 2 2 2 2 2 2 2
left_child=4 2 -2 -4 5 -1 -7 -8 -3 -10 11 -11
right_child=1 8 3 -5 -6 6 7 -9 9 10 -12 -13
leaf_value=-1.5415896057849126 -1.6411735594504322 -1.5881022034577919 -1.6277713236334665 -1.553397762906525 -1.6238624723940589 -1.6269951827354894 -1.6009416394346077 -1.5281147489571851 -1.6542417572823462 -1.5981119182979935 -1.5872556486287199 -1.644040477733139
leaf_weight=7.9774957597255698 5.4864776432514217 4.4001241922378531 4.9175971448421469 9.1999006569385511 8.0837197899818403 13.579774141311647 10.115387707948686 6.4866557717323294 26.829763978719711 5.607982903718951 6.3025347590446463 10.17503049969673
leaf_count=45 34 23 19 53 43 46 41 42 116 30 45 56
internal_value=-1.60849 -1.62335 -1.59797 -1.57827 -1.58554 -1.57684 -1.5916 -1.56414 -1.63289 -1.63801 -1.6151 -1.62825
internal_weight=119.162 72.9194 19.604 14.1175 46.243 38.1593 30.1818 16.602 53.3154 48.9153 22.0855 15.783
internal_count=593 376 106 72 217 174 129 83 270 247 131 86
is_linear=0
shrinkage=1


Tree=4
num_leaves=12
num_cat=0
split_feature=19 13 16 13 16 13 16 2 2 16 16
split_gain=21.5779 19.3494 14.4964 20.535 11.669 7.56371 13.6829 2.92948 2.22994 0.671114 0.470057
threshold=16.500000000000004 92.500000000000014 55.300000000000004 53.500000000000007 6.6833333333333345 46.500000000000007 47.533333333333339 7.5000000000000009 9.5000000000000018 10.550000000000002 32.666666666666679
decision_type=2 2 2 2 2 2 2 2 2 2 2
left_child=4 2 3 7 -1 8 -7 -2 10 -10 -6
right_child=1 -3 -4 -5 5 6 -8 -9 9 -11 -12
leaf_value=-1.5712620773932739 -1.6035669476612426 -1.6372414439709997 -1.6343028910613324 -1.4909660738585617 -1.6446383028134524 -1.550035593609816 -1.6413964827079104 -1.5624370704587323 -1.6063322878027693 -1.6250489041358922 -1.6226372783163527
leaf_weight=6.4196506142616263 12.275168359279641 9.130948990583418 4.0758973360061637 7.3560315370559684 41.444592952728271 5.0098052620887739 5.5913353562355042 5.0914746820926657 6.6156597435474378 7.4881083071231842 8.6637718081474286
leaf_count=43 66 34 16 75 161 40 22 35 34 31 36
internal_value=-1.61028 -1.58052 -1.56145 -1.54787 -1.62477 -1.63072 -1.59501 -1.58612 -1.63707 -1.61697 -1.64189
internal_weight=119.162 37.9295 28.7986 24.7227 81.2329 74.8133 10.6011 17.3666 64.2121 14.1038 50.1084
internal_count=593 226 192 176 367 324 62 101 262 65 197
is_linear=0
shrinkage=1


Tree=5
num_leaves=13
num_cat=0
split_feature=3 12 17 19 19 0 17 0 12 12 2 12
split_gain=4.29988 4.63145 4.4847 4.3346 9.52396 7.23642 4.05174 3.45445 3.71432 3.20621 1.4346 0.63058
threshold=1.0000000180025095e-35 4.5000000000000009 0.41666666666666669 12.500000000000002 24.500000000000004 2.5000000000000004 -0.43333333333333335 4.5000000000000009 17.500000000000004 65.500000000000014 2.5000000000000004 44.500000000000007
decision_type=2 2 2 2 2 2 2 2 2 2 2 2
left_child=1 2 -1 5 7 6 -3 8 -5 11 -7 -6
right_child=-2 3 -4 4 9 10 -8 -9 -10 -11 -12 -13
leaf_value=0.045588603138491057 -0.033939266333304602 0.031818436683016808 0.00071896086827767484 0.027674559853128312 -0.026194157128439883 -0.0093239384394407047 -0.012173036027725861 0.052258961398140805 -0.014066350539146009 0.011427966808784239 -0.041115568191861344 -0.0063392636369407687
leaf_weight=7.3291805610060718 6.5442605987191191 6.7968229427933684 12.802332818508146 9.6951779276132637 15.460274644196035 7.7261921465396908 8.5578550696372968 6.6882670149207106 6.5635836645960799 8.5640591681003553 14.795788586139677 9.1863594427704793
leaf_count=27 29 31 60 39 100 29 41 32 38 38 80 59
internal_value=-0.0016804 0.000947738 0.0210645 -0.00382557 0.00489298 -0.0162848 0.0090454 0.0278686 0.010998 -0.0118377 -0.0327833 -0.0204656
internal_weight=120.71 114.166 20.1315 94.0344 56.1577 37.8767 15.3547 22.947 16.2588 33.2107 22.522 24.6466
internal_count=603 574 87 487 306 181 72 109 77 197 109 159
is_linear=0
shrinkage=0.05


Tree=6
num_leaves=11
num_cat=0
split_feature=3 13 13 20 13 13 12 17 1 6
split_gain=10.3385 5.49158 9.91358 8.354 7.47043 4.47314 4.91963 4.45071 1.97914 1.6473
threshold=1.0000000180025095e-35 41.500000000000007 95.500000000000014 0.75000000000000011 15.500000000000002 20.500000000000004 19.500000000000004 0.41666666666666669 5.5000000000000009 2.5000000000000004
decision_type=2 2 2 2 2 2 2 2 2 2
left_child=1 3 8 4 9 -6 -7 -5 -3 -1
right_child=-2 2 -4 7 5 6 -8 -9 -10 -11
leaf_value=0.04698955228736526 0.052720529883242578 -0.00081751433935064251 0.01427099436373289 0.0084642999695365827 -0.031824898935811599 0.031140951318807099 -0.011056346328071193 -0.033687305114259838 -0.038974271362940342 0.014319573885420517
leaf_weight=13.496984764933588 6.5184777602553359 4.4228523522615459 15.39006172120571 8.4021705687046069 5.6237707287073162 10.367002598941328 11.716934986412523 12.983145020902155 21.088706262409687 10.560348078608511
leaf_count=47 29 30 57 34 33 46 65 58 155 49
internal_value=0.00263734 -0.00146022 -0.0155453 0.00665186 0.0173187 -0.000680773 0.00990856 -0.0179172 -0.0333166 0.0360111
internal_weight=120.57 114.052 40.9016 73.1504 51.765 27.7077 22.0839 21.3853 25.5116 24.0573
internal_count=603 574 242 332 240 144 111 92 185 96
is_linear=0
shrinkage=0.05


Tree=7
num_leaves=11
num_cat=0
split_feature=13 13 13 0 13 13 16 16 0 19
split_gain=5.53977 15.1819 7.8093 6.02955 3.11722 4.41137 4.00071 3.76215 2.6744 1.15315
threshold=3.5000000000000004 12.500000000000002 91.500000000000014 1.5000000000000002 49.500000000000007 18.500000000000004 14.133333333333335 58.600000000000009 4.5000000000000009 41.500000000000007
decision_type=2 2 2 2 2 2 2 2 2 2
left_child=-1 3 4 -2 5 -3 -7 -6 -5 -4
right_child=1 2 9 8 7 6 -8 -9 -10 -11
leaf_value=-0.025119608792406597 -0.0032900770926877565 -0.029452677823792208 0.03030033911358436 0.058958057698431487 -0.040951602241524519 -0.0096280324732905109 0.02430648356760268 0.0067741086836979854 0.01520542084349423 0.0038054617902581684
leaf_weight=14.036226332187651 7.3896352574229267 10.991626016795633 9.5375988706946391 13.468238182365896 14.303469873964788 18.834743730723861 11.44091799110174 4.1982861161231986 8.3163218423724157 8.2823293656110746
leaf_count=58 32 50 40 55 130 91 63 17 37 30
internal_value=0.00139383 0.00551641 -0.00618352 0.0344631 -0.0148346 -0.00612887 0.00408053 -0.0304553 0.0463194 0.020549
internal_weight=120.799 106.763 77.589 29.1742 59.769 41.2673 30.2757 18.5018 21.7846 17.8199
internal_count=603 545 421 124 351 204 154 147 92 70
is_linear=0
shrinkage=0.05


Tree=8
num_leaves=10
num_cat=0
split_feature=17 12 16 2 16 16 13 12 2
split_gain=12.0983 9.86833 6.02881 9.00584 16.0819 5.11884 4.78357 1.39622 4.59427
threshold=0.18333333333333332 69.500000000000014 8.4833333333333361 5.5000000000000009 11.516666666666667 7.2333333333333343 84.500000000000014 18.500000000000004 3.5000000000000004
decision_type=2 2 2 2 2 2 2 2 2
left_child=1 5 -2 -4 -5 -1 7 -7 -9
right_child=2 -3 3 4 -6 6 -8 8 -10
leaf_value=0.013196145836537849 0.05368186373634494 0.027821337394690282 -0.023019681927925733 -0.016497181229933381 0.069020585679961707 -0.03882028604248583 0.0014767166445254104 0.010012028252207766 -0.031637721527648814
leaf_weight=8.3650163859128934 7.1182970255613318 9.9383202791213971 11.580950915813448 8.8083982840180415 8.2359126135706884 28.814817488193512 13.749288342893122 8.1719943508505839 15.887332305312155
leaf_count=53 41 39 51 33 37 121 59 52 117
internal_value=-0.00309585 -0.0133189 0.0202156 0.00743251 0.0287216 -0.0196959 -0.0242881 -0.030797 -0.0177646
internal_weight=120.67 84.9268 35.7436 28.6253 17.0443 74.9884 66.6234 52.8741 24.0593
internal_count=603 441 162 121 70 402 349 290 169
is_linear=0
shrinkage=0.05


Tree=9
num_leaves=11
num_cat=0
split_feature=13 13 13 16 16 2 2 2 16 2
split_gain=19.4513 24.6362 30.9919 32.4701 8.22582 7.44246 21.7004 10.9205 3.2215 1.03871
threshold=15.500000000000002 86.500000000000014 51.500000000000007 55.300000000000004 9.4833333333333361 3.5000000000000004 1.5000000000000002 9.5000000000000018 36.600000000000009 8.5000000000000018
decision_type=2 2 2 2 2 2 2 2 2 2
left_child=4 2 5 -4 9 6 -2 -7 -3 -1
right_child=1 8 3 -5 -6 7 -8 -9 -10 -11
leaf_value=-0.0062746514739419369 -0.025001107675396858 -0.00040351616251468468 0.12412490581202709 -0.023735057377311117 -0.035956115624887278 -0.033374320844802442 0.082688689945759536 0.031337611779049174 -0.039722425935689608 0.015647184075373799
leaf_weight=7.3716432675719288 6.8843963891267759 8.36813832819462 11.271690987050532 3.8014678657054892 33.156678780913353 14.592458978295328 6.6947495713829994 7.4693029075860968 12.368300721049307 8.6295018494129163
leaf_count=40 28 42 107 16 121 51 59 45 46 48
internal_value=0.000706217 0.0171316 0.035382 0.0888079 -0.0226843 0.00751721 0.0331456 -0.0101371 -0.0261224 0.00588862
internal_weight=120.608 71.4505 50.7141 15.0732 49.1578 35.6409 13.5791 22.0618 20.7364 16.0011
internal_count=603 394 306 123 209 183 87 96 88 88
is_linear=0
shrinkage=0.05


Tree=10
num_leaves=10
num_cat=0
split_feature=16 16 16 1 12 1 12 13 0
split_gain=13.6479 11.8713 9.26816 5.60729 4.91759 4.62807 8.16789 7.07167 0.892265
threshold=67.000000000000014 16.016666666666669 8.3500000000000032 6.5000000000000009 13.500000000000002 9.5000000000000018 18.500000000000004 8.5000000000000018 5.5000000000000009
decision_type=2 2 2 2 2 2 2 2 2
left_child=1 2 4 -3 -1 -4 7 -7 -5
right_child=-2 3 5 8 -6 6 -8 -9 -10
leaf_value=-0.035163448839303897 0.037301866565097451 0.0016300623063212111 -0.0062510645073542356 -0.042084768053612304 0.010391987364908357 0.0084640749693853691 -0.013383848714505634 0.07102056121203347 -0.011084310431936797
leaf_weight=14.222537748515608 13.698622845113276 10.752986267209051 11.163511857390402 29.483096823096275 7.1088461279869071 9.0472540929913574 6.4082573875784865 9.0072798430919629 5.8419211059808722
leaf_count=87 43 57 45 175 28 36 50 33 30
internal_value=-0.00480245 -0.0113444 0.00391483 -0.0293947 -0.0203668 0.0190357 0.0301795 0.0455832 -0.0383575
internal_weight=116.734 103.036 56.9577 46.078 21.3314 35.6263 24.4628 18.0545 35.325
internal_count=584 541 279 262 115 164 119 69 205
is_linear=0
shrinkage=0.05


Tree=11
num_leaves=12
num_cat=0
split_feature=16 16 16 12 20 8 13 12 13 16 16
split_gain=9.39401 7.65654 5.76191 6.56476 10.2249 5.19158 3.05927 2.84638 1.71262 1.37909 0.806572
threshold=65.000000000000014 20.400000000000002 7.4333333333333345 23.500000000000004 0.75000000000000011 2.5000000000000004 95.500000000000014 15.500000000000002 51.500000000000007 29.433333333333337 16.483333333333338
decision_type=2 2 2 2 2 2 2 2 2 2 2
left_child=1 2 5 4 7 -1 8 -4 9 -3 -5
right_child=-2 6 3 10 -6 -7 -8 -9 -10 -11 -12
leaf_value=-0.037006777219438944 0.037141184334372052 -0.023669457642759208 0.0482363827578733 -0.029000768884986788 -0.010309325157210765 0.015129077933249994 0.0068880723153004891 0.010841041363659071 -0.039420722014830829 0.003193433336383784 -0.00043602307694674895
leaf_weight=8.9260408505797368 15.315574139356611 6.8630621731281298 20.65339278429747 4.4870252311229688 14.048699498176573 5.6269840449094763 6.8214042708277693 9.6865289807319623 12.612953148782251 7.5153298452496529 4.3721884563565254
leaf_count=59 47 33 74 38 61 25 30 49 102 36 30
internal_value=0.00416182 -0.0016837 0.00793152 0.0155097 0.0232699 -0.017423 -0.020175 0.0384971 -0.0271861 -0.0112135 -0.0190016
internal_weight=116.929 101.614 67.8009 53.2478 44.3886 14.553 33.8127 30.3399 26.9913 14.3784 8.85921
internal_count=584 537 336 252 184 84 201 123 171 69 68
is_linear=0
shrinkage=0.05


Tree=12
num_leaves=13
num_cat=0
split_feature=19 19 16 16 0 15 1 1 0 2 1 20
split_gain=6.46561 16.8944 5.7242 10.5373 5.55984 5.55737 3.99643 11.7545 3.33512 3.08151 0.353781 0.208943
threshold=7.5000000000000009 12.500000000000002 13.516666666666667 31.233333333333338 3.5000000000000004 1.5000000000000002 12.500000000000002 8.5000000000000018 1.5000000000000002 5.5000000000000009 19.500000000000004 0.75000000000000011
decision_type=2 2 2 2 2 2 2 2 2 2 2 2
left_child=2 4 11 -4 -2 6 7 -3 -8 -10 -7 -1
right_child=1 5 3 -5 -6 10 8 -9 9 -11 -12 -13
leaf_value=-0.038177652937486491 0.01727047696932521 -0.011888994840874668 0.036831413851291774 -0.023723483964759713 0.072483712695361621 -0.036079586817304159 -0.032928056643679392 0.064586712696509535 0.022131361495631774 -0.01577341783643485 -0.010219652133944893 -0.016487837695234403
leaf_weight=10.216987207531929 12.878101654350759 9.8168289884924871 10.068275019526483 12.959783583879469 7.8764674291014662 8.3249283507466298 6.1095025315880802 5.7661125287413588 8.1847820281982404 7.3239626064896575 5.878767415881156 11.464188098907471
leaf_count=54 51 57 48 55 34 51 38 29 51 42 22 52
internal_value=0.000845962 0.0100025 -0.0135273 0.00375369 0.0449425 -0.0057129 0.00468959 0.0219984 -0.00874424 0.00430555 -0.0293156 -0.0303096
internal_weight=116.869 72.1595 44.7092 23.0281 20.7546 51.4049 37.2012 15.5829 21.6182 15.5087 14.2037 21.6812
internal_count=584 375 209 103 85 290 217 86 131 93 73 106
is_linear=0
shrinkage=0.05


Tree=13
num_leaves=12
num_cat=0
split_feature=19 16 1 16 6 13 19 2 12 16 12
split_gain=12.8997 9.80586 7.00893 14.0815 6.45695 6.10462 3.26803 3.3771 2.08758 0.659613 0.484758
threshold=8.5000000000000018 9.3666666666666689 11.500000000000002 11.450000000000001 1.5000000000000002 5.5000000000000009 24.500000000000004 3.5000000000000004 35.500000000000007 23.366666666666671 59.500000000000007
decision_type=2 2 2 2 2 2 2 2 2 2 2
left_child=1 -1 3 -2 9 -6 -4 -8 -5 -3 -9
right_child=2 4 6 8 5 -7 7 10 -10 -11 -12
leaf_value=0.049856794096823379 -0.033939808815735509 0.0065367169208581741 -0.038043034708939751 0.051985399255805392 0.012393184691273307 -0.033394478106374352 0.016035825379303668 -0.0077319968216180137 0.010676731529833769 0.036690698176822877 -0.031447807390980569
leaf_weight=13.738997653126715 9.8607270196080226 4.6179773733019811 23.100194178521633 6.4026627317070952 11.606042958796026 12.037500470876692 6.4151115640997913 7.4903381615877134 8.0397203862667066 7.4504583701491356 5.3836431503295898
leaf_count=78 55 17 102 36 43 46 40 53 45 44 25
internal_value=-0.000460801 0.0182386 -0.014586 0.00623294 0.00302431 -0.0118661 -0.0262553 -0.00869391 0.035068 0.0290827 -0.0220334
internal_weight=116.143 49.451 66.6924 24.3031 35.712 23.6435 42.3893 19.2891 14.4424 12.0684 12.874
internal_count=584 228 356 136 150 89 220 118 81 61 78
is_linear=0
shrinkage=0.05


Tree=14
num_leaves=13
num_cat=0
split_feature=13 13 13 16 16 17 12 16 16 16 12 12
split_gain=24.0669 19.4976 26.0525 31.1898 4.0444 3.32601 2.91077 6.327 2.77829 2.22106 1.62887 0.360519
threshold=15.500000000000002 86.500000000000014 52.500000000000007 54.000000000000007 8.6500000000000004 -0.58333333333333326 18.500000000000004 21.433333333333337 42.06666666666667 7.1500000000000012 10.500000000000002 2.5000000000000004
decision_type=2 2 2 2 2 2 2 2 2 2 2 2
left_child=4 2 6 -4 5 -1 9 -8 -3 -2 -11 -6
right_child=1 8 3 -5 11 -7 7 -9 -10 10 -12 -13
leaf_value=-0.022014047242509119 0.018662563968567396 0 0.121655077051928 -0.021633998983225013 -0.015110876359753139 0.02153057357700458 0.042486786854403089 -0.013282551625416564 -0.037628563483767308 0.004218769687124346 -0.024486413423473841 -0.038104165903253689
leaf_weight=5.7843082919716835 5.0747693926095989 7.6788821294903782 10.433467291295527 4.1026853993535033 8.7953178659081441 5.753866106271742 10.614608913660051 6.1191628575325003 10.08740848302841 6.8827332854270926 8.5197098180651647 26.792096801102161
leaf_count=24 31 40 97 17 39 37 69 28 38 34 33 97
internal_value=0.000203871 0.0186549 0.0337592 0.0841456 -0.0264005 0 0.00914247 0.0229209 -0.0236192 -0.00339425 -0.0127909 -0.0341676
internal_weight=116.639 69.5134 51.7471 14.5362 47.1256 11.5382 37.211 16.7338 17.7663 20.4772 15.4024 35.5874
internal_count=584 387 309 114 197 61 195 97 78 98 67 136
is_linear=0
shrinkage=0.05


Tree=15
num_leaves=12
num_cat=0
split_feature=13 9 16 16 1 16 1 6 1 2 19
split_gain=8.75943 7.85656 6.96732 10.0311 13.0946 7.44689 6.6576 5.77582 5.02519 1.85043 1.04902
threshold=53.500000000000007 1.0000000180025095e-35 8.1666666666666679 16.016666666666669 9.5000000000000018 33.350000000000009 17.500000000000004 1.5000000000000002 7.5000000000000009 2.5000000000000004 68.500000000000014
decision_type=2 2 2 2 2 2 2 2 2 2 2
left_child=1 2 6 4 -4 9 -1 -6 -2 -5 -10
right_child=8 -3 3 5 7 -7 -8 -9 10 -11 -12
leaf_value=0.018055222570714582 0.010994914861861649 -0.034275429701379249 -0.005445905083301574 0 0.012077160063941227 0.025996325098394186 -0.032763914716679492 0.073133349038859305 -0.037483770554663572 -0.030918714183137921 -0.0055508081592931073
leaf_weight=8.803094759583475 7.1311414912343052 6.8812838941812506 10.91127075254917 7.5168876349926057 6.8891887590289143 12.465913675725458 11.637486867606638 15.590959869325159 17.752138130366806 10.381636053323744 4.7121293097734442
leaf_count=49 40 32 44 24 38 51 64 58 126 62 17
internal_value=0.000548135 0.00831308 0.0129106 0.0208556 0.0385611 -0.000181584 -0.0111548 0.0582435 -0.0217603 -0.0197677 -0.0324249
internal_weight=120.673 91.0777 84.1964 63.7559 33.3914 30.3644 20.4406 22.4801 29.5954 17.8985 22.4643
internal_count=605 422 390 277 140 137 113 96 183 86 143
is_linear=0
shrinkage=0.05


Tree=16
num_leaves=13
num_cat=0
split_feature=13 12 16 12 15 20 16 13 16 12 16 2
split_gain=9.44223 7.49539 9.87744 4.96864 3.87216 3.67451 2.79972 2.83024 1.76227 1.98222 2.86519 1.06305
threshold=15.500000000000002 11.500000000000002 8.9166666666666696 79.500000000000014 2.5000000000000004 0.75000000000000011 21.233333333333338 96.500000000000014 16.483333333333338 15.500000000000002 7.4333333333333345 7.5000000000000009
decision_type=2 2 2 2 2 2 2 2 2 2 2 2
left_child=1 2 -1 6 5 -4 8 -8 9 10 -2 -11
right_child=3 -3 4 -5 -6 -7 7 -9 -10 11 -12 -13
leaf_value=-0.031239289814462879 -0.019745771794510966 0.050561692488127835 0.020338250906688084 0.022963300860927703 0.034059365933280329 -0.018784860450841677 -0.037637958341089538 -0.0027596445360235384 0.013874464362814776 -0.034036297104601432 0.018547489572505061 -0.0053722347187380934
leaf_weight=10.860654629766939 5.6628151312470463 8.6666551455855352 9.2821563482284546 6.0711383521556845 15.963719069957731 8.7177266478538513 19.249439500272278 8.9936388507485372 5.8339620083570471 6.8665174096822721 8.1711944714188558 7.5340868011116982
leaf_count=63 37 29 28 20 55 41 140 38 36 49 29 40
internal_value=-0.000508168 0.0147362 0.00496771 -0.012621 0.0182767 0.00117533 -0.0170601 -0.0280229 -0.00630456 -0.0115663 0.00185004 -0.0228389
internal_weight=121.874 53.4909 44.8243 68.3828 33.9636 17.9999 62.3117 28.2431 34.0686 28.2346 13.834 14.4006
internal_count=605 216 187 389 124 69 369 178 191 155 66 89
is_linear=0
shrinkage=0.05


Tree=17
num_leaves=11
num_cat=0
split_feature=16 16 16 13 17 12 12 13 1 0
split_gain=9.06068 5.87875 6.13187 3.71292 10.3317 4.29935 7.72627 3.13125 2.36801 5.43301
threshold=22.300000000000004 28.683333333333337 39.63333333333334 4.5000000000000009 0.41666666666666669 9.5000000000000018 12.500000000000002 31.500000000000004 18.500000000000004 2.5000000000000004
decision_type=2 2 2 2 2 2 2 2 2 2
left_child=3 -2 -3 -1 5 -5 -7 -8 9 -4
right_child=1 2 8 4 -6 6 7 -9 -10 -11
leaf_value=-0.031767068117291568 0.045895071982603675 -0.025164841960844255 0.050647763769379878 -0.033631223268840098 0.039806844762742898 0.030410238460204776 -0.028495540051831664 0.0026855427425797667 -0.001970322661507041 8.2751376481791944e-05
leaf_weight=13.024901069700716 10.193440034985541 8.6666204705834371 8.2765623703599029 14.390340849757193 8.1425088644027692 9.4044439867138845 16.686278961598877 12.358614914119242 9.8561481460928899 10.439287692308424
leaf_count=57 58 59 32 72 34 39 80 82 54 38
internal_value=0.000530074 0.0170296 0.00617132 -0.0102312 -0.00427952 -0.0129363 -0.00319674 -0.0160626 0.0173228 0.0265817
internal_weight=121.439 47.4321 37.2386 74.0071 60.9822 52.8397 38.4493 29.0449 28.572 18.7159
internal_count=605 241 183 364 307 273 201 162 124 70
is_linear=0
shrinkage=0.05


Tree=18
num_leaves=13
num_cat=0
split_feature=19 1 1 19 15 1 1 12 1 12 6 2
split_gain=9.49294 6.41887 5.51033 4.9692 4.29722 3.82219 4.35171 4.06911 2.69813 2.99198 1.99557 0.929517
threshold=7.5000000000000009 8.5000000000000018 3.5000000000000004 23.500000000000004 3.5000000000000004 25.500000000000004 10.500000000000002 2.5000000000000004 22.500000000000004 38.500000000000007 2.5000000000000004 7.5000000000000009
decision_type=2 2 2 2 2 2 2 2 2 2 2 2
left_child=4 2 -2 10 5 6 -1 -8 9 -5 -3 -4
right_child=1 3 11 8 -6 -7 7 -9 -10 -11 -12 -13
leaf_value=0.004819012504179758 -0.01585924770086283 -0.039518672907151185 0.041806761849711244 0.0097245780939223779 -0.013660534742638994 -0.0075182408218465923 0.005211573757794471 0.055493270404761645 0.019580594210728466 -0.028627454273910547 -0.005785420129546576 0.0077438682908269607
leaf_weight=13.458425439894198 8.5377785265445727 23.158076547086242 5.866074822843073 6.6104915589094189 7.9159239307045928 7.3135907128453246 6.499828107655051 13.638793706893919 6.6331413984298697 8.8503528833389264 7.0918920934200278 5.2859656289219856
leaf_count=55 42 113 35 35 43 32 28 64 48 54 30 26
internal_value=-0.000500001 -0.0118938 0.0110996 -0.0207662 0.0159282 0.0223095 0.0290232 0.0422605 -0.00187953 -0.0130431 -0.0329961 0.0310787
internal_weight=120.86 72.0338 19.6898 52.344 48.8266 40.9106 33.597 20.1386 22.094 15.4608 30.25 11.152
internal_count=605 383 103 280 222 179 147 92 137 89 143 61
is_linear=0
shrinkage=0.05


Tree=19
num_leaves=13
num_cat=0
split_feature=19 13 16 13 16 13 12 2 2 16 16 12
split_gain=16.6775 14.3548 10.9925 7.30771 14.9513 3.87805 7.8122 3.47806 2.07621 1.44724 1.37208 1.45307
threshold=17.500000000000004 86.500000000000014 6.7500000000000009 46.500000000000007 43.683333333333344 39.500000000000007 63.500000000000007 5.5000000000000009 9.5000000000000018 10.483333333333336 36.600000000000009 2.5000000000000004
decision_type=2 2 2 2 2 2 2 2 2 2 2 2
left_child=2 5 -1 8 -5 7 -7 -2 10 -10 11 -4
right_child=1 -3 3 4 -6 6 -8 -9 9 -11 -12 -13
leaf_value=0.037864817002361939 0.038497738020706281 -0.021025779138033881 -0.0088152402158035454 0.061977902393101428 -0.032084487378940006 0.07393849159645989 -0.00086113069281133965 -0.0052762873284683803 0.0093312730864944949 -0.018057587466988143 -0.0075883849645493233 -0.038533308456217434
leaf_weight=6.6580529361963263 5.5575263425707835 10.355148978531359 7.5689189657568923 5.1379286423325521 5.9959515333175659 12.038743220269682 4.2859543934464446 7.9834107756614685 5.9911850839853269 7.6867160499095917 8.3734736889600736 32.881020747125149
leaf_count=45 38 47 37 41 25 90 21 35 34 31 36 125
internal_value=-2.72402e-05 0.0251351 -0.013143 -0.0191221 0.0149104 0.0417506 0.0569565 0.0161112 -0.0256661 -0.00624042 -0.0303355 -0.0340802
internal_weight=120.514 40.2208 80.2932 73.6352 11.1339 29.8656 16.3247 13.5409 62.5013 13.6779 48.8234 40.4499
internal_count=605 231 374 329 66 184 111 73 263 65 198 162
is_linear=0
shrinkage=0.05


Tree=20
num_leaves=10
num_cat=0
split_feature=13 13 3 1 1 0 2 2 8
split_gain=6.64955 10.3889 5.23885 6.15435 12.6614 9.57716 7.80277 2.01341 1.00865
threshold=97.500000000000014 53.500000000000007 1.0000000180025095e-35 16.500000000000004 10.500000000000002 3.5000000000000004 9.5000000000000018 2.5000000000000004 1.5000000000000002
decision_type=2 2 2 2 2 2 2 2 2
left_child=1 2 3 4 5 -1 7 -5 -6
right_child=-2 -3 -4 6 8 -7 -8 -9 -10
leaf_value=-0.024512857439604588 0.029251265794926335 -0.037123744919458294 -0.03322948419208354 -0.0011725199817586034 0.022006139348482945 0.027924597999065628 0.030002403306755712 -0.029496463624279025 0.062779826563103061
leaf_weight=17.549970090389255 13.11265145242214 17.621576443314552 6.3805395737290374 9.769725866615774 8.1085770949721354 12.102250993251799 7.020697370171546 18.425217129290104 8.17582770437002
leaf_count=83 51 138 30 43 41 52 43 97 24
internal_value=-0.00068594 -0.00517314 0.00222077 0.0061527 0.0177589 -0.00235862 -0.00906163 -0.0208989 0.0493183
internal_weight=118.267 105.154 87.5328 81.1523 45.9366 29.6522 35.2156 28.1949 16.2844
internal_count=602 551 413 383 200 135 183 140 65
is_linear=0
shrinkage=0.05


Tree=21
num_leaves=10
num_cat=0
split_feature=1 3 17 8 1 0 19 16 1
split_gain=8.10966 6.22236 5.47429 6.9786 2.94165 2.46147 5.17448 0.545894 0.489911
threshold=28.500000000000004 1.0000000180025095e-35 1.0000000180025095e-35 1.5000000000000002 9.5000000000000018 1.5000000000000002 10.500000000000002 8.6500000000000004 17.500000000000004
decision_type=2 2 2 2 2 2 2 2 2
left_child=1 2 3 5 -4 8 -7 -5 -1
right_child=-2 -3 4 7 -6 6 -8 -9 -10
leaf_value=-0.029483754013447567 0.037568971202649556 0.033578470218311014 -0.0031445736500833633 0.011578849210662837 -0.036496093783497323 -0.034243328613301198 0.0066552768951644303 0.036395067943622288 -0.0053480961904749796
leaf_weight=9.6274859085679036 10.486970938742159 7.3530029430985442 11.426318250596525 9.3864776343107241 16.607990562915802 6.6146246641874304 36.407637432217598 6.9972046837210646 5.0894371941685668
leaf_count=56 50 33 48 43 92 33 197 19 31
internal_value=0.000919397 -0.00345398 -0.00704894 0.000255868 -0.0246817 -0.00802673 -0.00134648 0.0264279 -0.0237383
internal_weight=119.997 109.51 102.157 74.1229 28.0343 57.7392 43.0223 16.3837 14.7169
internal_count=602 552 519 379 140 317 230 62 87
is_linear=0
shrinkage=0.05


Tree=22
num_leaves=11
num_cat=0
split_feature=16 12 13 16 16 12 13 16 16 16
split_gain=3.94474 4.29538 7.3094 2.93625 4.14354 2.88635 2.51493 2.43658 1.8092 6.52605
threshold=6.6833333333333345 13.500000000000002 3.5000000000000004 20.516666666666669 31.233333333333338 59.500000000000007 39.500000000000007 9.5666666666666682 8.7500000000000018 13.516666666666667
decision_type=2 2 2 2 2 2 2 2 2 2
left_child=-1 2 -2 7 -5 -6 8 -3 -4 -10
right_child=1 3 6 4 5 -7 -8 -9 9 -11
leaf_value=-0.032873018117430285 -0.019678518464697956 -0.00044013595219106674 0.040682697033456727 0.022860769898523332 -0.033114772444242005 0.0027942953123743499 -0.0049150701159506776 -0.032718804075888883 -0.016189269813918983 0.02976913683270789
leaf_weight=6.3875937238335601 13.386245213449 9.5338349267840403 10.174995094537733 10.715781643986704 6.4353708401322391 12.181292176246641 7.7641105204820624 13.962037444114683 9.3108867406845111 19.330080285668373
leaf_count=46 57 41 52 61 42 53 49 92 36 73
internal_value=-0.00171461 0.000812679 0.00978418 -0.00926 0.00134615 -0.0122604 0.0190304 -0.0213427 0.0239487 0.0145521
internal_weight=119.182 112.795 59.9663 52.8283 29.3324 18.6167 46.5801 23.4959 38.816 28.641
internal_count=602 556 267 289 156 95 210 133 161 109
is_linear=0
shrinkage=0.05


Tree=23
num_leaves=12
num_cat=0
split_feature=17 2 16 16 16 2 2 16 2 12 12
split_gain=8.34252 5.82581 9.70922 2.29803 2.28527 2.2744 5.53096 3.49318 2.05978 1.96174 1.15705
threshold=-1.0000000180025095e-35 11.500000000000002 8.6500000000000004 7.2333333333333343 22.900000000000002 9.5000000000000018 4.5000000000000009 11.316666666666668 9.5000000000000018 35.500000000000007 21.500000000000004
decision_type=2 2 2 2 2 2 2 2 2 2 2
left_child=3 2 -2 -1 8 6 9 -8 10 -4 -5
right_child=1 -3 5 4 -6 -7 7 -9 -10 -11 -12
leaf_value=0.0073508887161487903 0.047798441860730477 0.04847203071127721 -0.024133165092041546 -0.037503015457829497 0 -0.02240982940082472 -0.01195339278207389 0.029710821482182556 -0.00051198491438513233 0.0035412339899298893 -0.0073963155644842715
leaf_weight=7.8503637090325347 8.0744750499725324 6.1757777109742156 14.157283499836923 18.729932695627216 11.567876093089579 9.4104720056056959 4.833025865256789 15.511189132928846 7.050881400704383 8.6740971282124502 6.298849292099475
leaf_count=45 45 30 61 78 57 53 20 78 42 48 45
internal_value=-0.000242569 0.0111636 0.00518152 -0.0149374 -0.0192683 -0.00349879 0.0017029 0.0193346 -0.0256234 -0.0142354 -0.0317072
internal_weight=118.334 66.8363 60.6605 51.4979 43.6475 52.5861 43.1756 20.3442 32.0797 22.8314 25.0288
internal_count=602 335 305 267 222 260 207 98 165 109 123
is_linear=0
shrinkage=0.05


Tree=24
num_leaves=12
num_cat=0
split_feature=13 13 13 2 2 16 2 12 1 16 12
split_gain=13.0187 24.6289 22.3424 11.6098 11.6259 9.25603 7.71036 5.53298 2.17881 1.19858 0.805254
threshold=14.500000000000002 85.500000000000014 44.500000000000007 5.5000000000000009 1.5000000000000002 7.5666666666666673 9.5000000000000018 42.500000000000007 16.500000000000004 36.600000000000009 4.5000000000000009
decision_type=2 2 2 2 2 2 2 2 2 2 2
left_child=5 2 3 4 -2 -1 -5 -4 -7 -3 -10
right_child=1 9 7 6 -6 8 -8 -9 10 -11 -12
leaf_value=0.026114131461210451 -0.01082241302738605 -0.0085363001908550489 0.099755779952194285 -0.03474822906655118 0.078003155736788635 -0.037921379224930205 0.018395874718243759 0.030374669744649242 0.00045784233165204618 -0.037367830445926585 -0.019005811842774934
leaf_weight=7.2920361608266822 5.0356155112385732 8.3461239188909548 8.6448091715574282 13.49706991016865 5.9000358507037163 21.287995621562004 9.030950151383875 9.2311114817857725 7.7276530340313938 12.212041303515432 10.51269595324993
leaf_count=46 24 39 74 50 50 83 49 54 40 49 44
internal_value=0.00175837 0.0149297 0.0330053 0.00686552 0.0432177 -0.0180483 -0.0135899 0.0736807 -0.0275803 -0.0284528 -0.0116245
internal_weight=118.718 71.8978 51.3396 33.4637 10.9357 46.8204 22.528 17.8759 39.5283 20.5582 18.2403
internal_count=602 389 301 173 74 213 99 128 167 88 84
is_linear=0
shrinkage=0.05


Tree=25
num_leaves=11
num_cat=0
split_feature=15 13 16 4 19 19 1 1 16 16
split_gain=5.0325 10.1812 5.19299 7.91386 10.8175 5.96545 5.80936 4.45746 3.36029 1.15244
threshold=1.5000000000000002 97.500000000000014 9.1000000000000014 1.0000000180025095e-35 13.500000000000002 1.5000000000000002 9.5000000000000018 6.5000000000000009 16.533333333333335 13.733333333333336
decision_type=2 2 2 2 2 2 2 2 2 2
left_child=1 7 3 4 -2 -4 -7 -1 -8 -9
right_child=2 -3 5 -5 -6 6 8 9 -10 -11
leaf_value=0.011638255750585818 -0.041118715579930937 0.02794595011283002 -0.0092884661968878207 0.033836862902765365 0.022656421812153243 0 0.067016173596253073 -0.0046412784865357557 0.016776871072632329 -0.031020353468396517
leaf_weight=6.9908867552876464 15.515428133308893 10.931005030870436 9.8983308896422368 6.5538266226649275 7.880803517997264 9.2931188270449656 8.5204500183463114 6.5666159316897383 8.9272542893886548 31.558975175023079
leaf_count=43 98 44 39 30 31 37 36 34 30 204
internal_value=0.000445771 -0.0102602 0.00958261 -0.00550952 -0.0193138 0.0215289 0.0328905 -0.0207862 0.0477882 -0.0272685
internal_weight=122.637 56.0475 66.5892 29.9501 23.3962 36.6392 26.7408 45.1165 17.4477 38.1256
internal_count=626 325 301 159 129 142 103 281 66 238
is_linear=0
shrinkage=0.05


Tree=26
num_leaves=13
num_cat=0
split_feature=13 17 2 13 13 13 5 16 16 6 13 19
split_gain=5.70234 6.88721 3.30826 3.73652 3.70232 4.82328 2.35327 1.93094 1.89818 0.879731 0.646065 0.595793
threshold=15.500000000000002 0.41666666666666669 4.5000000000000009 95.500000000000014 44.500000000000007 27.500000000000004 1.5000000000000002 8.9166666666666696 59.900000000000006 2.5000000000000004 9.5000000000000018 33.500000000000007
decision_type=2 2 2 2 2 2 2 2 2 2 2 2
left_child=1 7 9 4 5 -4 -3 -1 -6 11 -9 -2
right_child=2 6 3 -5 8 -7 -8 10 -10 -11 -12 -13
leaf_value=0.003595725800387705 -0.037847798972409835 -0.024725894067493731 -0.017702778526405002 0.017652743408673191 -0.037382978604449647 0.024051125243602284 0.0080941752524302506 0.03829368219959764 0.00021184881894439016 -0.0031399671216349409 0.014515882681529479 -0.01010091339418453
leaf_weight=11.247198067605494 10.154133379459386 11.533395610749723 11.559199258685114 12.847601249814032 10.398305192589758 10.159996099770067 6.5786116272211066 12.625125065445902 4.0852360278367987 4.7782400101423255 11.769059062004088 6.3134905993938437
leaf_count=59 81 54 55 49 91 43 29 37 17 29 35 47
internal_value=-0.00145655 0.0104335 -0.0106717 -0.00289795 -0.0111113 0.00217541 -0.013112 0.0226172 -0.0282762 -0.0258334 0.0298505 -0.0306627
internal_weight=124.05 53.7534 70.2962 49.0503 36.2027 21.7192 18.112 35.6414 14.4835 21.2459 24.3942 16.4676
internal_count=626 214 412 255 206 98 83 131 108 157 72 128
is_linear=0
shrinkage=0.05


Tree=27
num_leaves=10
num_cat=0
split_feature=16 13 13 17 13 12 16 2 16
split_gain=4.41012 4.02284 9.26702 3.29408 3.1165 2.54429 5.20938 1.88812 1.52971
threshold=451.05000000000001 3.5000000000000004 12.500000000000002 0.41666666666666669 16.500000000000004 9.5000000000000018 8.5166666666666675 6.5000000000000009 12.450000000000001
decision_type=2 2 2 2 2 2 2 2 2
left_child=1 -1 3 7 -4 8 -7 -3 -6
right_child=-2 2 4 -5 5 6 -8 -9 -10
leaf_value=-0.028624367095178616 0.031276386263527196 -0.0050091788302929936 -0.032030942348332959 0.045370016411334688 -0.033961694100976374 0.032451011934754803 -0.0062066179614125097 0.022143433223166892 -3.1822693081997252e-05
leaf_weight=10.957537837326525 6.9271260499954215 10.472260832786565 9.6505326479673368 8.0927762016653997 7.0653847530484182 7.5351769700646392 47.346858590841293 9.9067286327481252 5.4105441048741341
leaf_count=52 24 34 42 36 38 37 279 46 38
internal_value=-0.000715131 -0.00339802 -1.22276e-05 0.0229283 -0.00909804 -0.00451565 0.000421434 0.00912419 -0.0224287
internal_weight=123.365 116.438 105.48 28.4718 77.0085 67.358 54.882 20.379 12.4759
internal_count=626 602 550 116 434 392 316 80 76
is_linear=0
shrinkage=0.05


Tree=28
num_leaves=15
num_cat=0
split_feature=17 16 13 16 13 16 13 2 13 6 16 13 16 16
split_gain=12.0051 4.90228 8.1566 12.0749 4.87132 4.72659 5.06218 2.68911 2.43069 2.08322 2.16564 1.81147 0.707407 0.207527
threshold=-1.0000000180025095e-35 64.300000000000011 18.500000000000004 51.38333333333334 18.500000000000004 11.450000000000001 29.500000000000004 9.5000000000000018 84.500000000000014 2.5000000000000004 8.8333333333333357 96.500000000000014 8.0166666666666675 8.0166666666666675
decision_type=2 2 2 2 2 2 2 2 2 2 2 2 2 2
left_child=4 2 9 7 13 12 -7 8 -4 -2 -11 -8 -6 -1
right_child=1 -3 3 -5 5 6 11 -9 -10 10 -12 -13 -14 -15
leaf_value=-0.012897254791028448 0.052830531375392648 -0.012665589552333826 -0.013911400884671297 0.055820125781557178 -0.0053483676052491196 0.042250998063389826 -0.023751732650739165 -0.034400847642193623 0.017561275887230929 0.032453383318546525 -0.0028294000820817816 0.010355582442819243 -0.032341085152543365 -0.036852812997495682
leaf_weight=6.4177158772945431 12.170376494526865 12.711585804820059 13.107486933469778 5.0547408536076537 5.9121720418334025 5.8062583506107321 4.8781637623906118 6.969048634171485 6.8875034973025313 7.2223944514989835 6.3825354650616646 4.9744381606578827 6.2760831341147423 17.932489581406116
leaf_count=35 53 44 87 25 36 29 42 45 39 38 25 19 38 71
internal_value=-0.000152069 0.0130452 0.0191284 0.001463 -0.0178091 -0.00259768 0.0143381 -0.0131285 -0.00197611 0.0384588 0.0180792 -0.00774474 -0.0232195 -0.0328291
internal_weight=122.703 70.5057 57.7941 32.0188 52.1973 27.8471 15.6589 26.964 19.995 25.7753 13.6049 9.8526 12.1883 24.3502
internal_count=626 356 312 196 270 164 90 171 126 116 63 61 74 106
is_linear=0
shrinkage=0.05


Tree=29
num_leaves=9
num_cat=0
split_feature=16 8 16 12 1 12 16 12
split_gain=12.4335 17.9861 13.54 4.20261 3.60125 2.65867 1.5329 0.245376
threshold=55.300000000000004 1.0000000180025095e-35 6.9166666666666679 16.500000000000004 26.500000000000004 23.500000000000004 22.033333333333335 2.5000000000000004
decision_type=2 2 2 2 2 2 2 2
left_child=1 5 -3 4 7 6 -1 -4
right_child=-2 2 3 -5 -6 -7 -8 -9
leaf_value=0.0015528164985954621 -0.033651015934189954 0.047255853042522424 -0.012279118115556313 0.0102021516997148 0.0064125651841160482 0.042220326493810786 0.028769912596724526 -0.032400291685947123
leaf_weight=12.331997968256475 17.615541607141495 6.3702141866087905 7.927738904953002 9.1807524710893613 6.9865680187940589 25.21136112511158 7.0187868177890769 30.110749296844006
leaf_count=58 72 44 37 50 37 156 43 129
internal_value=0.00193658 0.00871354 -0.00890075 -0.0177197 -0.0237989 0.031814 0.0141851 -0.0295328
internal_weight=122.754 105.138 60.576 54.2058 45.0251 44.5621 19.3508 38.0385
internal_count=626 554 297 253 203 257 101 166
is_linear=0
shrinkage=0.05


Tree=30
num_leaves=12
num_cat=0
split_feature=16 16 16 12 12 13 13 16 13 13 17
split_gain=5.5948 7.2182 6.93116 6.76714 9.07486 6.58719 6.18652 2.92361 0.857325 1.88188 0.122097
threshold=67.000000000000014 16.016666666666669 9.1000000000000014 15.500000000000002 3.5000000000000004 97.500000000000014 16.500000000000004 12.016666666666667 53.500000000000007 29.500000000000004 0.18333333333333332
decision_type=2 2 2 2 2 2 2 2 2 2 2
left_child=1 2 3 4 -1 8 -4 -8 9 10 -3
right_child=-2 5 6 -5 -6 -7 7 -9 -10 -11 -12
leaf_value=0.022391477139916474 0.023658225629456964 -0.01346709721198721 0.040452629738901777 0.025767402743911028 -0.041364427004241873 0.015826127613102904 0.015041741454016353 -0.023215786528082732 -0.040041718178953439 0.0016978556226381527 -0.034408474439258978
leaf_weight=5.461737856268889 14.110801808536051 9.0155045166611725 14.880183190107347 6.2027755081653586 16.825629882514477 7.7785864546895018 7.7087129130959493 6.3479402959346771 14.953177250921724 7.223122037947177 7.2351326420903197
leaf_count=26 45 36 48 26 99 34 43 40 120 47 40
internal_value=-0.00290889 -0.00713703 0.00461524 -0.0121776 -0.0247398 -0.0212359 0.0208962 -0.00298664 -0.0294617 -0.0187594 -0.0269596
internal_weight=117.743 103.633 57.427 28.4901 22.2874 46.2055 28.9368 14.0567 38.4269 23.4738 16.2506
internal_count=604 559 282 151 125 277 131 83 243 123 76
is_linear=0
shrinkage=0.05


Tree=31
num_leaves=11
num_cat=0
split_feature=1 16 16 2 6 13 2 1 13 13
split_gain=7.47722 3.00585 3.79173 7.55249 5.87153 3.13938 4.75255 2.47528 1.47513 0.509858
threshold=28.500000000000004 65.000000000000014 13.266666666666667 5.5000000000000009 2.5000000000000004 95.500000000000014 1.5000000000000002 8.5000000000000018 23.500000000000004 13.500000000000002
decision_type=2 2 2 2 2 2 2 2 2 2
left_child=1 2 3 -1 8 6 -4 -6 -5 -8
right_child=-2 -3 5 4 7 -7 9 -9 -10 -11
leaf_value=-0.034951261867509881 0.035038210669512147 0.014901827411940866 0.012814362429739115 0.036977333115335291 0.011759934032099781 0.0079791912079292971 -0.012730406033505405 -0.022626991219907786 0.0083501216822903582 -0.034790427743391937
leaf_weight=7.7356287017464629 10.825598932802675 14.968409977853296 5.9201765954494467 12.865322463214399 6.0287331193685558 8.4053126499056798 9.3506028205156309 10.258757829666136 10.126098632812498 22.79779339581728
leaf_count=66 50 47 20 44 24 33 40 58 43 179
internal_value=0.000326809 -0.00394288 -0.00738144 0.00254345 0.012002 -0.0170683 -0.0228992 -0.00979021 0.0269805 -0.0301506
internal_weight=119.282 108.457 93.4884 47.0145 39.2789 46.4739 38.0686 16.2875 22.9914 32.1484
internal_count=604 554 507 235 169 272 239 82 87 219
is_linear=0
shrinkage=0.05


Tree=32
num_leaves=14
num_cat=0
split_feature=19 19 16 12 1 15 19 16 16 16 16 17 19
split_gain=6.7056 7.84783 6.59835 6.31268 4.13795 1.68764 1.54349 1.42191 1.04152 4.52317 0.808301 0.903144 0.644549
threshold=12.500000000000002 7.5000000000000009 12.450000000000001 5.5000000000000009 14.500000000000002 2.5000000000000004 74.500000000000014 26.766666666666669 30.300000000000004 20.516666666666669 9.5666666666666682 -1.0000000180025095e-35 58.500000000000007
decision_type=2 2 2 2 2 2 2 2 2 2 2 2 2
left_child=1 2 5 7 -3 -1 8 -4 9 10 -2 -12 -10
right_child=6 4 3 -5 -6 -7 -8 -9 12 -11 11 -13 -14
leaf_value=-0.00085843495953145769 -0.0066492048346056517 0.0020400832792272804 0.046146479826190509 -0.016269958868719191 0.046379656826297744 -0.031554485336460991 0.007662314775844413 0.012004139809112729 -0.035662853239422684 0.015727232289881828 -0.036232265802576762 -0.0054185892015931568 -0.0071745258791202741
leaf_weight=6.8922162652015713 9.7865899130702037 8.5303886160254496 6.0311004519462648 9.1599597409367544 13.395913332700728 13.235298834741114 5.1600148379802695 9.9784084185957891 8.3135439455509168 9.1831653118133527 8.9417573362588829 5.0072392672300365 5.2543560639023772
leaf_count=24 46 35 25 37 55 79 16 48 55 53 63 35 33
internal_value=-0.00112226 0.00908356 -0.00302467 0.0133019 0.0316517 -0.0227343 -0.0142671 0.0303821 -0.0171192 -0.0104257 -0.0213605 -0.0283831 -0.0282289
internal_weight=118.87 67.2233 45.297 25.1695 21.9263 20.1275 51.6467 16.0095 46.4867 32.9188 23.7356 13.949 13.5679
internal_count=604 303 213 110 90 103 301 73 285 197 144 98 88
is_linear=0
shrinkage=0.05


Tree=33
num_leaves=11
num_cat=0
split_feature=13 20 2 19 2 12 13 2 13 12
split_gain=7.09013 9.69552 8.10792 2.61557 2.29585 1.92574 2.75366 3.36902 1.33544 1.98735
threshold=84.500000000000014 0.75000000000000011 5.5000000000000009 37.500000000000007 1.5000000000000002 35.500000000000007 35.500000000000007 5.5000000000000009 52.500000000000007 67.500000000000014
decision_type=2 2 2 2 2 2 2 2 2 2
left_child=1 4 -3 -2 -1 6 7 -6 -7 -10
right_child=3 2 -4 -5 5 8 -8 -9 9 -11
leaf_value=0.0072329681817178823 0.041404408331148876 -0.012762531810272985 0.042191580181571389 0.0051216741411700952 -0.035354605404251664 0.018367133946208643 -0.038939536293203923 -0.0027924808279586452 -0.027007244843449591 0.011260582400360057
leaf_weight=10.432741247117518 10.54536133259535 8.7744629979133624 14.853111207485197 9.9226072132587415 8.1916855648159963 4.0391133129596692 12.15632478147745 30.880839824676514 3.9553531482815742 3.9890105053782463
leaf_count=43 46 34 62 43 59 27 85 145 44 16
internal_value=0.00220998 -0.00359209 0.0224571 0.0269313 -0.0125666 -0.0160895 -0.0201087 -0.0117723 0.0013444 -0.00951582
internal_weight=117.741 97.2726 23.6276 20.468 73.6451 63.2123 51.2289 39.0725 11.9835 7.94436
internal_count=604 515 96 89 419 376 289 204 87 60
is_linear=0
shrinkage=0.05


Tree=34
num_leaves=14
num_cat=0
split_feature=19 13 16 13 16 13 16 2 16 2 15 19 16
split_gain=15.8228 14.6353 9.23082 6.97358 14.0022 2.32626 9.69028 4.60764 9.03202 0.993215 1.70193 0.619959 0.477756
threshold=17.500000000000004 86.500000000000014 6.9166666666666679 47.500000000000007 42.06666666666667 53.500000000000007 50.266666666666673 9.5000000000000018 19.016666666666669 9.5000000000000018 1.5000000000000002 1.5000000000000002 10.550000000000002
decision_type=2 2 2 2 2 2 2 2 2 2 2 2 2
left_child=2 5 -1 9 -5 7 -7 8 -2 10 -4 -12 -11
right_child=1 -3 3 4 -6 6 -8 -9 -10 12 11 -13 -14
leaf_value=0.032462214126002246 0.038227074014875684 -0.021433330652731633 -0.003389616976411847 0.060359963649650142 -0.031349911374049341 0.082485140648562133 -0.0021947475898060672 0.052781884035066909 -0.029264433031717114 0.00041599126042687852 -0.012251434303340003 -0.036587897502188646 -0.016220600764562481
leaf_weight=7.4463005363941184 6.7491515651345306 10.593794219195841 6.9131748080253592 5.115754269063471 5.7660846561193466 8.2353742718696576 4.4524116143584243 5.3947171792387953 7.0932728499174118 6.2506016641855222 8.0023698061704618 29.044518373906612 7.1969970539212227
leaf_count=47 44 47 35 40 24 64 22 37 26 33 39 114 32
internal_value=0.00145315 0.0249223 -0.0121067 -0.0181982 0.0151313 0.0409676 0.0577134 0.0234021 0.00429318 -0.0250364 -0.0287657 -0.0327675 -0.0095183
internal_weight=118.255 42.5187 75.7358 68.2895 10.8818 31.9249 12.6878 19.2371 13.8424 57.4077 43.9601 37.0469 13.4476
internal_count=604 240 364 317 64 193 86 107 70 253 188 153 65
is_linear=0
shrinkage=0.05


Tree=35
num_leaves=12
num_cat=0
split_feature=17 0 1 1 0 19 12 2 12 1 12
split_gain=3.91196 6.79053 4.41838 4.40055 5.22708 6.07403 2.99501 2.98127 4.01103 3.43197 2.85499
threshold=0.41666666666666669 1.0000000180025095e-35 19.500000000000004 22.500000000000004 4.5000000000000009 16.500000000000004 15.500000000000002 4.5000000000000009 11.500000000000002 13.500000000000002 34.500000000000007
decision_type=2 2 2 2 2 2 2 2 2 2 2
left_child=1 -1 -2 4 7 -6 -5 8 -3 -9 -8
right_child=2 3 -4 6 5 -7 10 9 -10 -11 -12
leaf_value=-0.027134588186564453 -0.034282081575078817 0.011431123603744778 0.0066363545986730726 -0.024825629620729862 0.050392412206820496 0 0.0296584441660473 -0.0013941171467812862 -0.034338915821623815 0.033768924954307909 -0.014624552117057913
leaf_weight=12.1105325743556 13.114061236381533 6.8613201454281789 9.4667984172701818 11.039958350360395 14.227916076779367 9.3650578856468183 4.6196169108152372 15.585281103849413 6.9263856410980225 8.8513098955154401 4.2463710680603981
leaf_count=64 70 24 47 59 53 52 27 74 53 42 34
internal_value=-0.000758236 0.00381215 -0.0181655 0.00925559 0.0157011 0.0327734 -0.00997731 0.00342421 -0.0132916 0.01346 0.0096925
internal_weight=116.415 93.8337 22.5809 81.7232 61.8173 23.593 19.9059 38.2243 13.7877 24.4366 8.86599
internal_count=599 482 117 418 298 105 120 193 77 116 61
is_linear=0
shrinkage=0.05


Tree=36
num_leaves=12
num_cat=0
split_feature=16 1 16 16 12 12 13 1 1 1 1
split_gain=6.69883 6.96376 7.76269 4.23741 6.64391 5.05694 5.64487 2.43347 0.919653 5.82934 0.816595
threshold=65.000000000000014 29.500000000000004 20.516666666666669 9.4833333333333361 13.500000000000002 13.500000000000002 34.500000000000007 14.500000000000002 18.500000000000004 22.500000000000004 18.500000000000004
decision_type=2 2 2 2 2 2 2 2 2 2 2
left_child=1 2 3 4 10 7 -7 -5 -4 -10 -1
right_child=-2 -3 8 5 -6 6 -8 -9 9 -11 -12
leaf_value=-0.012958940998657723 0.024708990582622103 0.035574494052707954 -0.037270043960072566 0.040962497775807571 0.017586550545563136 -0.034686596753629964 0.018775883616577435 0.0046189943581981981 0.021730169626846933 -0.035441047819495711 -0.037757570246692324
leaf_weight=12.459164336323743 16.696140296757221 5.8919039443135253 18.640312902629379 9.8946450576186198 9.8043431267142278 7.2499820590019208 6.7407688051462173 9.0327828675508481 4.7731209248304358 8.0902094170451146 9.5407629013061506
leaf_count=64 49 24 118 31 45 46 46 34 23 62 57
internal_value=-0.00205398 -0.00705755 -0.0107149 -0.000406485 -0.0128909 0.0115855 -0.00986687 0.0268511 -0.0298714 -0.0138141 -0.0271538
internal_weight=118.814 102.118 96.2261 64.7224 31.8043 32.9182 13.9908 18.9274 31.5036 12.8633 21.9999
internal_count=599 550 526 323 166 157 92 65 203 85 121
is_linear=0
shrinkage=0.05


Tree=37
num_leaves=12
num_cat=0
split_feature=12 12 16 16 16 16 13 13 13 17 16
split_gain=5.57307 9.67113 8.77919 8.57827 5.6296 5.62872 2.12234 1.58179 3.57844 0.273824 0.106437
threshold=13.500000000000002 8.5000000000000018 8.6500000000000004 10.91666666666667 61.000000000000007 31.233333333333338 91.500000000000014 34.500000000000007 26.500000000000004 0.65000000000000002 8.4833333333333361
decision_type=2 2 2 2 2 2 2 2 2 2 2
left_child=1 3 -3 10 6 -5 7 8 -2 -7 -1
right_child=4 2 -4 5 -6 9 -8 -9 -10 -11 -12
leaf_value=-0.0366398669432089 -0.024890760395925776 0.066887561531874917 0.0053485944844680732 0.031429448337721565 0.02018438289636143 -0.00077910031064163971 0.0037695118763797866 -0.033477896268287032 0.015155204145581486 -0.0149742354782677 -0.013288811036707322
leaf_weight=9.4032077342271823 11.513848058879377 8.2348634675145167 13.572667285799978 14.035219199955465 8.3742175847291929 6.8400222435593587 7.0714086592197409 19.035020641982555 6.3701577037572852 7.09249397367239 6.7739563286304465
leaf_count=61 60 40 47 58 27 22 29 149 37 38 31
internal_value=-0.000428658 0.00902638 0.0340668 -0.00461815 -0.0122713 0.0118386 -0.0194503 -0.023972 -0.0102592 -0.00967333 -0.0307311
internal_weight=118.317 65.9524 21.8075 44.1449 52.3647 27.9677 43.9904 36.919 17.884 13.9325 16.1772
internal_count=599 297 87 210 302 118 275 246 97 60 92
is_linear=0
shrinkage=0.05


Tree=38
num_leaves=12
num_cat=0
split_feature=17 1 16 16 12 1 1 2 16 2 16
split_gain=8.72589 12.5998 9.69107 4.59403 7.58169 6.61348 5.29454 4.21471 3.18784 6.06419 6.80788
threshold=0.18333333333333332 10.500000000000002 22.900000000000002 7.1500000000000012 24.500000000000004 22.500000000000004 14.500000000000002 8.5000000000000018 8.4833333333333361 5.5000000000000009 11.516666666666667
decision_type=2 2 2 2 2 2 2 2 2 2 2
left_child=1 2 7 -3 -5 6 -6 -1 -2 -10 -11
right_child=8 3 -4 4 5 -7 -8 -9 9 10 -12
leaf_value=-0.026669773754666289 0.044023290389961459 0.016355536428768833 0.050178837662572542 -0.041602381284926014 0.01475076076426709 0.032049680148588625 -0.035781429821939256 0.020756210098641387 -0.015298379329079202 -0.0076829670017213459 0.049266368698831935
leaf_weight=8.1328232511878031 8.8538064137101156 5.6059162542223921 11.228570647537707 26.308100737631321 5.8364285379648271 6.3371971473097792 11.432553969323633 5.1905525997281066 11.126918375492098 7.3111933693289783 10.19193512201309
leaf_count=51 42 33 57 124 32 48 58 32 51 28 43
internal_value=0.00251451 -0.00678065 0.0213077 -0.0197428 -0.0245889 -0.00288727 -0.0188008 -0.00746813 0.0215252 0.010894 0.0275908
internal_weight=117.556 80.0721 24.5519 55.5202 49.9143 23.6062 17.269 13.3234 37.4839 28.63 17.5031
internal_count=599 435 140 295 262 138 90 83 164 122 71
is_linear=0
shrinkage=0.05


Tree=39
num_leaves=11
num_cat=0
split_feature=13 13 13 16 2 2 2 16 16 15
split_gain=15.0178 17.4524 18.0985 12.7902 5.63758 13.6282 6.15988 4.34161 2.06462 0.932145
threshold=15.500000000000002 86.500000000000014 44.500000000000007 50.266666666666673 5.5000000000000009 1.5000000000000002 9.5000000000000018 7.5666666666666673 38.716666666666676 1.5000000000000002
decision_type=2 2 2 2 2 2 2 2 2 2
left_child=7 2 4 -4 5 -2 -6 -1 -3 -9
right_child=1 8 3 -5 6 -7 -8 9 -10 -11
leaf_value=0.0099982375010954621 -0.017657034645060264 -0.0020814240977605333 0.08213828458446179 -0.0076196723963068624 -0.033133764406394949 0.066838182484189199 0.016214844750754302 -0.010410860691298603 -0.036907678829899197 -0.032452404387613112
leaf_weight=7.7398759350180617 7.390788294374941 7.2807488515973118 15.247388176620008 4.3347232565283766 10.831677846610548 6.619481734931469 8.9884873032569867 11.180548354983328 10.307170659303663 26.923662669956684
leaf_count=44 33 37 111 21 43 51 47 55 44 113
internal_value=0.000789464 0.0150129 0.0289562 0.0636752 0.00517436 0.0267179 -0.0113454 -0.0207056 -0.0251378 -0.0273385
internal_weight=116.845 71.0005 53.4125 19.5821 33.8304 14.0103 19.8202 45.8441 17.5879 38.1042
internal_count=599 387 306 132 174 84 90 212 81 168
is_linear=0
shrinkage=0.05


Tree=40
num_leaves=14
num_cat=0
split_feature=17 12 2 2 12 13 1 2 2 12 12 1 1
split_gain=5.57296 6.46672 6.5643 6.1237 5.73153 5.11609 3.84095 5.36394 2.70839 2.58648 2.17427 1.79802 1.2998
threshold=0.65000000000000002 17.500000000000004 2.5000000000000004 7.5000000000000009 5.5000000000000009 14.500000000000002 14.500000000000002 4.5000000000000009 7.5000000000000009 5.5000000000000009 11.500000000000002 23.500000000000004 20.500000000000004
decision_type=2 2 2 2 2 2 2 2 2 2 2 2 2
left_child=1 2 9 10 -5 -6 8 -8 -3 -1 -4 -2 -9
right_child=11 6 3 4 5 -7 7 12 -10 -11 -12 -13 -14
leaf_value=0.010615771620725124 -0.035845700768460741 -0.034073325371518519 -0.0010587414647073151 0.045005134617839893 -0.021779826010841719 0.025724142791332252 -0.018403394543904644 0.042662972265869813 0 0.051393811554311365 -0.033988531937715873 -0.00045307026116268129 0.0046953570024588255
leaf_weight=8.4932542294263857 8.4329711273312551 13.02381853759289 11.614631056785585 9.2612600326538104 9.3386870622634905 7.4834569320082656 8.128578796982767 4.6581413969397527 9.527367062866686 11.272320680320261 6.5909176319837561 5.7668660506606093 4.8475954309105873
leaf_count=31 55 77 54 34 45 33 56 26 51 41 34 23 37
internal_value=0.00207465 0.00630119 0.0159099 0.00425699 0.0190061 0 -0.00894022 0.00769411 -0.0215196 0.0377991 -0.0163379 -0.0243488 0.0294718
internal_weight=118.44 104.24 64.0545 44.289 26.0834 16.8221 40.1855 17.6343 22.5512 19.7656 18.2055 14.1998 9.50574
internal_count=597 519 272 200 112 78 247 119 128 72 88 78 63
is_linear=0
shrinkage=0.05


Tree=41
num_leaves=12
num_cat=0
split_feature=13 3 16 20 12 1 12 16 13 13 1
split_gain=7.4967 6.51411 6.6149 7.29392 5.42067 5.02064 6.23944 2.86685 2.05688 1.95373 0.735938
threshold=51.500000000000007 1.0000000180025095e-35 7.4333333333333345 0.75000000000000011 81.500000000000014 10.500000000000002 15.500000000000002 22.033333333333335 20.500000000000004 107.50000000000001 16.500000000000004
decision_type=2 2 2 2 2 2 2 2 2 2 2
left_child=1 2 10 5 9 8 -7 -5 -4 -2 -1
right_child=4 -3 3 7 -6 6 -8 -9 -10 -11 -12
leaf_value=-0.0066388452089328814 -0.037528707450068817 0.043213567707321883 -0.02318575692909474 -0.031013714154683014 0.016131326305444296 0.04041829447394743 -0.001175272703403398 0.0055867523740877802 0.0085729760231456117 0 -0.035477180160201384
leaf_weight=5.4439050853252402 19.903028562664993 7.297340750694274 6.3785035386681548 11.039945200085642 5.3832921385765067 23.341843634843826 13.108711697161196 7.0345073118805876 8.4127059653401357 4.1834126263856879 8.1402241885662061
leaf_count=29 160 29 30 51 16 72 75 27 39 16 53
internal_value=-0.0015109 0.00569205 0.000937148 0.00749186 -0.0221999 0.0169824 0.0263814 -0.0177642 -0.00644177 -0.0317893 -0.0275131
internal_weight=119.667 90.1977 82.9003 69.3162 29.4697 51.2418 36.4506 18.0745 14.7912 24.0864 13.5841
internal_count=597 405 376 294 192 216 147 78 69 176 82
is_linear=0
shrinkage=0.05


Tree=42
num_leaves=11
num_cat=0
split_feature=1 1 12 1 12 13 2 13 17 17
split_gain=3.92337 5.69924 6.07555 5.27003 2.69432 2.34741 2.03914 1.52582 1.35943 0.959523
threshold=4.5000000000000009 11.500000000000002 28.500000000000004 25.500000000000004 58.500000000000007 25.500000000000004 10.500000000000002 3.5000000000000004 -1.0000000180025095e-35 -0.43333333333333335
decision_type=2 2 2 2 2 2 2 2 2 2
left_child=8 2 9 4 6 -5 7 -3 -1 -2
right_child=1 3 -4 5 -6 -7 -8 -9 -10 -11
leaf_value=-0.033870545641568127 0.011309849549621279 -0.029515261359450925 -0.013805855119525288 0.028796297329451853 0.014494944641564218 -0.0026031282527181013 -0.034943471797389235 -0.0042485984656591641 -0.0045395908152415206 0.04233573517474376
leaf_weight=6.8315168395638493 6.8623574897646966 4.7506338357925406 6.7790593579411498 12.047287069261076 6.3346023932099333 8.6387330293655378 8.050972640514372 36.243649318814278 9.1981020867824537 13.521626301109789
leaf_count=34 36 20 41 55 24 50 38 196 48 55
internal_value=0.000198573 0.00397868 0.0224112 -0.0031409 -0.0111571 0.0168035 -0.0152108 -0.00910328 -0.0206716 0.0348955
internal_weight=119.259 103.229 27.163 76.0659 55.3799 20.686 49.0453 40.9943 16.0296 20.384
internal_count=597 515 132 383 278 105 254 216 82 91
is_linear=0
shrinkage=0.05


Tree=43
num_leaves=12
num_cat=0
split_feature=13 17 1 17 12 13 17 12 13 1 1
split_gain=6.83592 4.68721 4.93538 3.48858 3.33132 3.08637 1.58926 2.16979 1.7649 1.16372 3.27466
threshold=84.500000000000014 0.18333333333333332 8.5000000000000018 -0.43333333333333335 2.5000000000000004 96.500000000000014 -0.58333333333333326 23.500000000000004 45.500000000000007 9.5000000000000018 22.500000000000004
decision_type=2 2 2 2 2 2 2 2 2 2 2
left_child=1 2 3 -1 -3 -2 -4 -8 -9 -6 -11
right_child=5 4 6 -5 9 -7 7 8 -10 10 -12
leaf_value=-0.014078557513672841 0.045225833002501069 -0.010717779352493632 -0.00172625181533211 0.026579474736832632 0.0011750560126383587 0.0062940501263719535 -0.035833095990219013 0.0047731866153324851 -0.024139636494664222 0.039399106982774768 -0.002746384706023708
leaf_weight=6.821891911327838 7.3313615098595646 12.802086912095545 9.2525212243199331 8.7897372320294362 8.0067665725946444 13.06161344796419 20.890474110841751 9.1954395323991793 6.825934797525405 9.9868857339024562 6.2471539080142966
leaf_count=38 36 53 42 54 31 51 113 50 57 46 26
internal_value=9.87282e-05 -0.00546334 -0.0136797 0.00913875 0.00811244 0.0245089 -0.0215848 -0.0259335 -0.00914673 0.0183258 0.0250221
internal_weight=119.212 98.8189 61.776 15.6116 37.0429 20.393 46.1644 36.9118 16.0214 24.2408 16.234
internal_count=597 510 354 92 156 87 262 220 107 103 72
is_linear=0
shrinkage=0.05


Tree=44
num_leaves=13
num_cat=0
split_feature=19 16 16 2 2 16 2 16 2 16 16 2
split_gain=10.1865 9.55549 7.12367 3.90014 8.28354 4.64874 3.6058 8.83338 8.41027 3.09584 0.781932 0.346795
threshold=18.500000000000004 55.300000000000004 6.9166666666666679 7.5000000000000009 4.5000000000000009 36.600000000000009 2.5000000000000004 23.366666666666671 9.5000000000000018 8.0166666666666675 18.216666666666672 8.5000000000000018
decision_type=2 2 2 2 2 2 2 2 2 2 2 2
left_child=2 3 -1 4 -2 -5 10 9 -9 -8 -4 -11
right_child=1 -3 6 5 -6 -7 7 8 -10 11 -12 -13
leaf_value=0.024894736571230491 0.033071195764832043 -0.030943823108601262 -0.0093830156472878221 0.066202595182619048 -0.023903444091017443 0.0047123485426677283 0.0039635917566723895 0.061568072573140044 -0.013560510066804041 -0.032311837388272084 -0.037866613628801706 -0.011910571970103359
leaf_weight=8.9996918216347677 13.702104449272158 5.5300436019897452 6.148875646293166 8.0495968088507635 7.5548807084560385 5.1939653456211081 9.3508182540535909 4.8634581565856916 5.2424723580479622 17.674398563802246 16.454140402376652 9.0647004321217519
leaf_count=53 80 24 30 57 30 29 49 40 27 75 62 41
internal_value=-0.00089341 0.0187363 -0.0113762 0.0286712 0.0121639 0.0477189 -0.0170325 -0.00793575 0.0280305 -0.0195133 -0.0323207 -0.027463
internal_weight=117.829 40.0306 77.7986 34.5005 21.257 13.2436 68.7989 46.1958 10.1059 36.0899 22.603 26.7391
internal_count=597 220 377 196 110 86 324 232 67 165 92 116
is_linear=0
shrinkage=0.05


end of trees

feature_importances:
avg_inter_attack_interval=127
days_since_last_success=92
days_since_last_incident=62
month=54
day_of_month=53
streak_quiet_days=28
attack_rate_trend=23
day_of_week=13
type_inc_30d_sum=8
inc_30d_sum=7
success_ratio_7d=6
lag_inc_1d=5
succ_30d_sum=4
inc_7d_sum=2
inc_3d_sum=1
had_incident_prev_1d=1

parameters:
[boosting: gbdt]
[objective: multiclass]
[metric: multi_logloss]
[tree_learner: serial]
[device_type: cpu]
[data_sample_strategy: bagging]
[data: ]
[valid: ]
[num_iterations: 500]
[learning_rate: 0.05]
[num_leaves: 31]
[num_threads: 18]
[seed: 42]
[deterministic: 1]
[force_col_wise: 1]
[force_row_wise: 0]
[histogram_pool_size: -1]
[max_depth: 6]
[min_data_in_leaf: 30]
[min_sum_hessian_in_leaf: 0.01]
[bagging_fraction: 0.8]
[pos_bagging_fraction: 1]
[neg_bagging_fraction: 1]
[bagging_freq: 1]
[bagging_seed: 400]
[bagging_by_query: 0]
[feature_fraction: 0.8]
[feature_fraction_bynode: 1]
[feature_fraction_seed: 30056]
[extra_trees: 0]
[extra_seed: 12879]
[early_stopping_round: 0]
[early_stopping_min_delta: 0]
[first_metric_only: 0]
[max_delta_step: 0]
[lambda_l1: 0.1]
[lambda_l2: 3]
[linear_lambda: 0]
[min_gain_to_split: 0.01]
[drop_rate: 0.1]
[max_drop: 50]
[skip_drop: 0.5]
[xgboost_dart_mode: 0]
[uniform_drop: 0]
[drop_seed: 17869]
[top_rate: 0.2]
[other_rate: 0.1]
[min_data_per_group: 100]
[max_cat_threshold: 32]
[cat_l2: 10]
[cat_smooth: 10]
[max_cat_to_onehot: 4]
[top_k: 20]
[monotone_constraints: ]
[monotone_constraints_method: basic]
[monotone_penalty: 0]
[feature_contri: ]
[forcedsplits_filename: ]
[refit_decay_rate: 0.9]
[cegb_tradeoff: 1]
[cegb_penalty_split: 0]
[cegb_penalty_feature_lazy: ]
[cegb_penalty_feature_coupled: ]
[path_smooth: 0]
[interaction_constraints: ]
[verbosity: -1]
[saved_feature_importance_type: 0]
[use_quantized_grad: 0]
[num_grad_quant_bins: 4]
[quant_train_renew_leaf: 0]
[stochastic_rounding: 1]
[linear_tree: 0]
[max_bin: 255]
[max_bin_by_feature: ]
[min_data_in_bin: 3]
[bin_construct_sample_cnt: 200000]
[data_random_seed: 175]
[is_enable_sparse: 1]
[enable_bundle: 1]
[use_missing: 1]
[zero_as_missing: 0]
[feature_pre_filter: 1]
[pre_partition: 0]
[two_round: 0]
[header: 0]
[label_column: ]
[weight_column: ]
[group_column: ]
[ignore_column: ]
[categorical_feature: ]
[forcedbins_filename: ]
[precise_float_parser: 0]
[parser_config_file: ]
[objective_seed: 16083]
[num_class: 5]
[is_unbalance: 0]
[scale_pos_weight: 1]
[sigmoid: 1]
[boost_from_average: 1]
[reg_sqrt: 0]
[alpha: 0.9]
[fair_c: 1]
[poisson_max_delta_step: 0.7]
[tweedie_variance_power: 1.5]
[lambdarank_truncation_level: 30]
[lambdarank_norm: 1]
[label_gain: ]
[lambdarank_position_bias_regularization: 0]
[eval_at: ]
[multi_error_top_k: 1]
[auc_mu_weights: ]
[num_machines: 1]
[local_listen_port: 12400]
[time_out: 120]
[machine_list_filename: ]
[machines: ]
[gpu_platform_id: -1]
[gpu_device_id: -1]
[gpu_use_dp: 0]
[num_gpu: 1]

end of parameters

pandas_categorical:[]
