tree
version=v4
num_class=5
num_tree_per_iteration=5
label_index=0
max_feature_idx=20
objective=multiclass num_class:5
feature_names=day_of_week day_of_month month lag_inc_1d inc_3d_sum inc_7d_sum inc_30d_sum succ_7d_sum succ_30d_sum had_incident_prev_1d had_incident_prev_3d had_incident_prev_7d days_since_last_incident days_since_last_success type_inc_7d_sum type_inc_30d_sum avg_inter_attack_interval attack_rate_trend streak_active_days streak_quiet_days success_ratio_7d
feature_infos=[0:6] [1:31] [1:12] [0:2] [0:3] [0:4] [0:9] [0:2] [0:5] [0:1] [0:1] [0:1] [1:999] [1:999] [0:7] [4:16] [3.6000000000000001:999] [-1.6333333333333333:2.833333333333333] [0:2] [0:37] [0:1]
tree_sizes=1152 1754 1340 1442 1144 1609 1393 1168 1393 1499 1611 1190 1483 1289 1082 1379 1401 1566 1387 1294 1284 1478 1385 1624 1183 1598 1571 1294 1402 1082

Tree=0
num_leaves=10
num_cat=0
split_feature=19 16 15 13 2 2 14 16 17
split_gain=5.8927 4.74771 4.27682 4.87995 7.32326 3.62482 2.22937 1.77279 0.111622
threshold=20.500000000000004 9.9166666666666696 12.500000000000002 3.5000000000000004 2.5000000000000004 8.5000000000000018 3.5000000000000004 11.666666666666668 1.0000000180025095e-35
decision_type=2 2 2 2 2 2 2 2 2
left_child=1 2 3 -1 -5 -6 7 -3 -4
right_child=-2 6 8 4 5 -7 -8 -9 -10
leaf_value=-1.6313857495261546 -1.5806415641529115 -1.6169508163663202 -1.6366414802913276 -1.5619121791075103 -1.623652962927433 -1.5943823521563547 -1.6091339666603997 -1.6440825424288237 -1.6176044874923552
leaf_weight=8.3385576456785184 10.567519277334211 12.162575200200083 6.1837552040815336 9.6340236812829954 15.002364307641981 22.624237924814224 10.688210174441336 17.713976785540581 5.9026486575603485
leaf_count=43 51 60 32 46 78 110 52 92 29
internal_value=-1.61176 -1.61554 -1.6074 -1.60131 -1.59491 -1.60636 -1.62843 -1.63488 -1.63115
internal_weight=118.818 108.25 67.6856 55.5992 47.2606 37.6266 40.5648 29.8766 12.0864
internal_count=593 542 338 277 234 188 204 152 61
is_linear=0
shrinkage=1


Tree=1
num_leaves=16
num_cat=0
split_feature=1 20 0 1 2 16 14 16 16 0 16 2 14 17 16
split_gain=4.64738 5.75015 3.95136 4.28994 4.99641 5.14259 4.30969 3.73158 2.8127 2.09529 1.95495 1.09331 0.705656 0.31135 0.0466639
threshold=7.5000000000000009 0.41666666666666669 1.5000000000000002 18.500000000000004 7.5000000000000009 13.083333333333334 3.5000000000000004 9.1833333333333353 5.7000000000000011 4.5000000000000009 11.800000000000002 6.5000000000000009 2.5000000000000004 -1.0000000180025095e-35 8.7000000000000011
decision_type=2 2 2 2 2 2 2 2 2 2 2 2 2 2 2
left_child=1 7 8 6 5 13 9 -1 -2 11 14 -4 -6 -5 -10
right_child=2 -3 3 4 12 -7 -8 -9 10 -11 -12 -13 -14 -15 -16
leaf_value=-1.5810256371595266 -1.5923740923073773 -1.6476897140585389 -1.5810012629936854 -1.6448175097305526 -1.6038781870474166 -1.5921066343674901 -1.6127182934353756 -1.6221991789627777 -1.6420479475429617 -1.5554154052993918 -1.6059743488041824 -1.6088046030311411 -1.5792875223772305 -1.6196018842488757 -1.6205827953615821
leaf_weight=6.5111365914344814 6.1298269480466869 10.193556964397432 6.5081810355186516 7.6016519218683234 6.8187437504529944 7.0849934071302405 7.4618222266435614 10.125377982854841 5.91320648789406 9.9450781345367414 7.2037105262279502 6.4556788057088852 8.8034748584032041 5.9181458652019527 6.143287867307663
leaf_count=31 30 56 31 41 33 34 38 52 31 45 36 33 42 29 31
internal_value=-1.60564 -1.62291 -1.60028 -1.59405 -1.60639 -1.62176 -1.58108 -1.60446 -1.61636 -1.57139 -1.62549 -1.59181 -1.58713 -1.63793 -1.63584
internal_weight=118.818 26.8301 91.9878 66.5978 36.227 20.6048 30.3708 16.6365 25.39 22.9089 19.2602 12.9639 15.6222 13.5198 12.0565
internal_count=593 139 454 326 179 104 147 83 128 109 98 64 75 70 62
is_linear=0
shrinkage=1


Tree=2
num_leaves=12
num_cat=0
split_feature=14 12 19 15 13 0 16 16 2 0 19
split_gain=4.97338 8.04191 10.435 4.11998 3.53399 3.49963 3.39511 2.77255 3.82566 2.49762 0.837022
threshold=1.5000000000000002 12.500000000000002 18.500000000000004 10.500000000000002 7.5000000000000009 1.5000000000000002 10.383333333333335 4.8833333333333337 4.5000000000000009 2.5000000000000004 16.500000000000004
decision_type=2 2 2 2 2 2 2 2 2 2 2
left_child=5 3 -3 4 6 -1 -2 -5 -9 -10 -7
right_child=1 2 -4 7 -6 10 -8 8 9 -11 -12
leaf_value=-1.600047259928663 -1.5863357405058147 -1.5514410430934151 -1.6157959002842388 -1.6225125758810097 -1.6443994263889514 -1.6367786796904056 -1.6270218412722954 -1.617836857711145 -1.606311692506984 -1.569407509875939 -1.6127100343723044
leaf_weight=9.8107393085956556 6.2043952643871334 12.191245645284654 9.6230652183294279 8.3453439772129041 10.23194660246372 19.37090435624123 8.566552981734274 9.1849681138992327 8.0093359947204608 11.314047396183012 5.9653256535530081
leaf_count=50 33 63 45 42 52 94 41 46 40 58 29
internal_value=-1.60805 -1.60143 -1.57737 -1.61093 -1.62563 -1.62309 -1.6092 -1.60061 -1.59341 -1.582 -1.63223
internal_weight=118.818 83.6709 21.8143 61.8566 25.0029 35.147 14.7709 36.8537 28.5084 19.3234 25.3362
internal_count=593 420 108 312 126 173 74 186 144 98 123
is_linear=0
shrinkage=1


Tree=3
num_leaves=13
num_cat=0
split_feature=1 19 19 15 2 6 16 2 6 2 2 16
split_gain=10.9771 7.1283 16.1704 11.6462 8.53752 7.58895 6.97957 3.76737 3.09306 2.68171 1.81122 1.7926
threshold=9.5000000000000018 7.5000000000000009 14.500000000000002 8.5000000000000018 6.5000000000000009 3.5000000000000004 12.250000000000002 6.5000000000000009 4.5000000000000009 5.5000000000000009 7.5000000000000009 6.0166666666666675
decision_type=2 2 2 2 2 2 2 2 2 2 2 2
left_child=6 4 3 -3 -2 -6 8 -5 10 -4 -1 -7
right_child=1 2 9 7 5 11 -8 -9 -10 -11 -12 -13
leaf_value=-1.5464379197546756 -1.6500157845100816 -1.5272636401925901 -1.6094379172118709 -1.5835358316694019 -1.6345256519508786 -1.6060481642471334 -1.6202855586998099 -1.6259113884629859 -1.6025770518887903 -1.6478929341713091 -1.590051171632904 -1.5695213998339772
leaf_weight=8.5561724305152946 22.576873943209648 5.5785984992980984 6.8907070755958584 8.5399194508790952 11.850987941026689 6.9635065197944623 8.6457978188991529 6.752796158194541 7.8675421774387351 10.425745144486426 8.3842383921146375 5.7849849611520767
leaf_count=47 108 31 34 44 57 35 44 33 39 48 43 30
internal_value=-1.60778 -1.6173 -1.60164 -1.57412 -1.62979 -1.60901 -1.58469 -1.60215 -1.57228 -1.63488 -1.56161 -1.58471
internal_weight=118.818 85.3641 38.1878 20.8713 47.1764 24.5995 33.4538 15.2927 24.808 17.3165 16.9404 12.7485
internal_count=593 420 190 108 230 122 173 77 129 82 90 65
is_linear=0
shrinkage=1


Tree=4
num_leaves=10
num_cat=0
split_feature=16 12 6 8 16 1 14 6 1
split_gain=26.2158 16.8218 18.3932 14.9811 13.4454 9.61657 6.83466 3.15557 0.509413
threshold=20.966666666666672 8.5000000000000018 3.5000000000000004 1.5000000000000002 4.7500000000000009 23.500000000000004 1.5000000000000002 5.5000000000000009 13.500000000000002
decision_type=2 2 2 2 2 2 2 2 2
left_child=1 2 3 -1 -4 -3 -7 -6 -5
right_child=-2 5 4 8 7 6 -8 -9 -10
leaf_value=-1.5422421874509049 -1.5377146231394765 -1.6532469634519795 -1.5763919062980936 -1.6038515610444906 -1.6524438925079763 -1.5742506060625863 -1.6341857218750402 -1.6128887084295565 -1.6203354721158245
leaf_weight=13.540189430117607 7.3500387817621222 37.695303440093994 7.5010474622249594 5.7125586271286011 19.161779701709751 6.0990948230028135 6.9770610183477402 7.618856966495513 7.161940261721611
leaf_count=68 37 187 37 30 96 31 36 37 34
internal_value=-1.614 -1.62082 -1.60313 -1.57376 -1.62668 -1.64123 -1.60519 -1.64284 -1.61303
internal_weight=118.818 111.468 60.6964 26.4147 34.2817 50.7715 13.0762 26.7806 12.8745
internal_count=593 556 302 132 170 254 67 133 64
is_linear=0
shrinkage=1


Tree=5
num_leaves=14
num_cat=0
split_feature=19 20 12 0 17 2 2 14 17 6 14 17 14
split_gain=7.19491 3.06268 5.16121 2.86516 1.40443 4.10855 3.71492 3.14252 1.56262 1.42753 1.02662 1.00292 2.24735
threshold=20.500000000000004 0.58333333333333337 11.500000000000002 2.5000000000000004 -0.20000000000000001 4.5000000000000009 6.5000000000000009 1.5000000000000002 0.80000000000000004 3.5000000000000004 1.5000000000000002 0.56666666666666676 2.5000000000000004
decision_type=2 2 2 2 2 2 2 2 2 2 2 2 2
left_child=1 2 4 -4 5 -1 8 -7 -6 -8 -5 12 -3
right_child=-2 11 3 10 6 7 9 -9 -10 -11 -12 -13 -14
leaf_value=-0.011433998971789846 0.032934555211866744 -0.0013574849941660192 0.0035829476262503207 -0.0090186143409677049 0.00013580219302559285 0.0071760445980483326 0.0037210284638165485 0.050698485054118975 0.031233701688576438 -0.024121297830403579 -0.037045015841473468 -0.0018795486097793657 -0.035542041759241395
leaf_weight=6.6423560827970531 11.152425765991209 8.0127338618040138 10.892917394638063 8.7588325440883654 7.4718227237463015 9.9993342012166995 5.7874269783496848 6.535991057753562 6.8031753599643707 9.2906197011470777 9.1131550818681699 8.1565595269203168 11.570753559470175
leaf_count=35 53 39 57 44 35 49 29 31 32 50 46 42 61
internal_value=-0.000627939 -0.00489539 0.000122601 -0.0158981 0.00937026 0.0178203 0.00150972 0.0297791 0.0180962 -0.0143139 -0.0268197 -0.0183407 -0.0238149
internal_weight=120.188 109.036 81.2956 28.7649 52.5307 23.1777 29.353 16.5353 14.275 15.078 17.872 27.74 19.5835
internal_count=603 550 408 147 261 115 146 80 67 79 90 142 100
is_linear=0
shrinkage=0.05


Tree=6
num_leaves=12
num_cat=0
split_feature=1 12 6 6 5 1 14 13 8 12 1
split_gain=5.66429 3.12502 5.78172 4.70025 4.43867 3.94294 3.4981 3.0839 1.96276 1.03386 0.882511
threshold=8.5000000000000018 15.500000000000002 3.5000000000000004 5.5000000000000009 1.5000000000000002 18.500000000000004 3.5000000000000004 19.500000000000004 1.5000000000000002 5.5000000000000009 23.500000000000004
decision_type=2 2 2 2 2 2 2 2 2 2 2
left_child=7 2 6 4 9 -3 8 -1 10 -4 -2
right_child=1 5 3 -5 -6 -7 -8 -9 -10 -11 -12
leaf_value=-0.030276861268419789 -0.035616426230908098 0.035115488945395415 0.05247233833502473 -0.011179671985976698 -0.0053685941080866897 -0.0071864365620820277 0.011942879340272427 0.0010334269611639837 -2.3380910440384954e-05 0.015599037382394154 -0.010049376438100027
leaf_weight=18.566146299242977 12.340822085738184 12.783161431550981 7.5232214182615333 9.5686111897230131 6.4366952180862418 6.8505657166242591 9.0279223918914777 11.602245539426802 9.419124364852907 7.3268514424562454 9.2802724838256818
leaf_count=100 65 59 34 48 33 34 43 58 46 35 48
internal_value=-0.00132362 0.00496058 -0.000126407 0.0152736 0.0272826 0.0211385 -0.0123394 -0.0190804 -0.0199789 0.0402389 -0.0274072
internal_weight=120.726 90.5572 70.9235 30.8554 21.2868 19.6337 40.0681 30.1684 31.0402 14.8501 21.6211
internal_count=603 445 352 150 102 93 202 158 159 69 113
is_linear=0
shrinkage=0.05


Tree=7
num_leaves=10
num_cat=0
split_feature=12 15 6 16 6 16 16 13 0
split_gain=7.13482 11.4526 8.02077 5.42621 5.13697 6.97398 6.85479 8.06168 1.01992
threshold=14.500000000000002 9.5000000000000018 1.5000000000000002 12.91666666666667 5.5000000000000009 14.15 10.516666666666667 8.5000000000000018 4.5000000000000009
decision_type=2 2 2 2 2 2 2 2 2
left_child=1 8 3 -2 5 6 7 -3 -1
right_child=2 4 -4 -5 -6 -7 -8 -9 -10
leaf_value=-0.035584986471021054 0.059969709595604714 0.033044105426951249 -0.011855203627747637 0.0073456607130993057 -0.021997816237411646 -0.025740120530953398 0.059329996631430383 -0.01205320825561184 -0.009744193200087686
leaf_weight=23.273120895028118 9.0999995023012215 15.676372453570364 11.3658599704504 10.257633492350577 10.387869819998739 7.0115057379007331 6.3680958747863761 18.477493166923523 8.5335317850112897
leaf_count=116 47 80 55 48 52 36 34 91 44
internal_value=-0.000305587 -0.00749973 0.0193547 0.0370352 0.00577596 0.0128901 0.0210027 0.00950833 -0.0302331
internal_weight=120.451 89.728 30.7235 19.3576 57.9213 47.5335 40.522 34.1539 31.8067
internal_count=603 453 150 95 293 241 205 171 160
is_linear=0
shrinkage=0.05


Tree=8
num_leaves=12
num_cat=0
split_feature=1 16 17 2 13 6 8 14 2 17 16
split_gain=9.27994 8.80749 6.46324 9.18795 7.23949 6.38685 6.37066 5.99184 3.6593 3.10969 0.303684
threshold=9.5000000000000018 12.250000000000002 -0.20000000000000001 6.5000000000000009 15.500000000000002 3.5000000000000004 1.5000000000000002 1.5000000000000002 5.5000000000000009 0.18333333333333332 9.6166666666666689
decision_type=2 2 2 2 2 2 2 2 2 2 2
left_child=1 9 4 -4 6 -5 -2 -8 -6 -1 -10
right_child=2 -3 3 5 8 -7 7 -9 10 -11 -12
leaf_value=0.045698575909250361 0.052406666404307516 -0.017985630722266301 -0.04181859701412044 -0.021708787916525765 0.0092222121646024502 0.027759422386709906 -0.02851706701880451 0.028033881063050787 -0.010433076050973657 0.0064977024401756418 -0.03494557106511479
leaf_weight=17.309290841221813 8.0435710251331347 8.5786100029945356 22.254635319113731 10.202543541789057 8.8755165189504641 9.8934201300144178 6.1745855957269651 6.5671055912971497 6.3655904531478864 8.6639328747987729 7.3991881310939789
leaf_count=89 41 43 108 52 45 51 29 34 31 45 35
internal_value=0.000320801 0.0211879 -0.0084604 -0.0217155 0.00492678 0.00287075 0.0246088 9.97878e-05 -0.0137127 0.0348216 -0.0278034
internal_weight=120.328 34.5518 85.7762 42.3506 43.4256 20.096 20.7853 12.7417 22.6403 25.9732 13.7648
internal_count=603 177 426 211 215 103 104 63 111 134 66
is_linear=0
shrinkage=0.05


Tree=9
num_leaves=13
num_cat=0
split_feature=16 17 5 15 16 14 8 15 13 6 13 16
split_gain=31.9451 23.618 18.7903 25.6582 7.30999 4.90583 3.827 3.51313 10.6316 0.943941 0.382176 0.0576858
threshold=20.533333333333335 0.18333333333333332 1.5000000000000002 10.500000000000002 4.7500000000000009 1.5000000000000002 2.5000000000000004 8.5000000000000018 12.500000000000002 4.5000000000000009 18.500000000000004 9.0833333333333339
decision_type=2 2 2 2 2 2 2 2 2 2 2 2
left_child=1 4 3 -3 -1 7 11 10 -9 -7 -6 -4
right_child=-2 2 6 -5 5 9 -8 8 -10 -11 -12 -13
leaf_value=0.017848546429395529 0.080025052589397308 0.089053566778854704 -0.032766012972922358 -0.016743555933584859 -0.0086452036663103079 -0.043560735895938986 0.015330706740452286 -0.033873736984355758 0.036809530118207888 -0.012293500043866229 -0.034499087994211426 -0.010936370689795284
leaf_weight=7.6880560666322699 8.8746529817581159 13.31644941866398 6.0976239889860171 7.4521133899688712 5.4478157162666339 30.504977077245712 5.8969919979572287 6.7610525637865058 8.7152214199304563 6.3005234897136679 7.1254381537437439 5.9142796844244003
leaf_count=38 43 65 31 38 30 156 30 31 42 33 36 30
internal_value=0.0019845 -0.00613714 0.0242061 0.0535595 -0.0227001 -0.0281571 -0.0123959 -0.0105239 0.00517358 -0.0396638 -0.0274414 -0.0266843
internal_weight=120.095 111.221 38.6775 20.7686 72.5431 64.855 17.9089 28.0495 15.4763 36.8055 12.5733 12.0119
internal_count=603 560 194 103 366 328 91 139 73 189 66 61
is_linear=0
shrinkage=0.05


Tree=10
num_leaves=14
num_cat=0
split_feature=19 1 13 16 17 17 17 16 12 13 1 13 8
split_gain=5.67902 4.90112 4.70819 7.10314 4.10308 6.21774 6.13155 3.36678 1.64182 1.38209 0.854723 0.462945 0.159093
threshold=20.500000000000004 14.500000000000002 9.5000000000000018 9.4500000000000011 -0.54999999999999993 0.18333333333333332 0.56666666666666676 10.483333333333336 11.500000000000002 13.500000000000002 22.500000000000004 25.500000000000004 2.5000000000000004
decision_type=2 2 2 2 2 2 2 2 2 2 2 2 2
left_child=1 2 12 8 9 7 -7 -6 -4 -3 -8 -5 -1
right_child=-2 4 3 11 5 6 10 -9 -10 -11 -12 -13 -14
leaf_value=-0.034111949052214027 0.032713273357207071 -0.027434318005463382 0.035785854800071897 -0.0080665527651184229 0.042973081695016825 -0.027087389342713986 0.0025620139495312298 0.00013413515965411671 0.0015541654745207438 0.0017281889597915855 0.027761640792697651 -0.031926370646119771 -0.012244389285914314
leaf_weight=13.750781893730165 10.493063822388647 6.268122270703314 7.5393923074007052 7.2327765524387342 15.505046308040621 10.985576301813127 6.9818446040153486 6.4356204420328131 6.1493846774101257 6.1048050075769424 6.5501887202262878 5.6906127780675888 6.8980097919702521
leaf_count=73 48 33 35 38 73 58 34 33 32 29 32 30 36
internal_value=0.00213244 -0.00166276 -0.0132552 0.000890778 0.00776023 0.0145245 -0.00283928 0.0321356 0.0237513 -0.015191 0.0178866 -0.0229224 -0.0294982
internal_weight=116.585 106.092 47.261 26.6122 58.8312 46.4583 24.5176 21.9407 13.6888 12.3729 13.532 12.9234 20.6488
internal_count=584 536 244 135 292 230 124 106 67 62 66 68 109
is_linear=0
shrinkage=0.05


Tree=11
num_leaves=10
num_cat=0
split_feature=12 14 14 16 16 13 6 16 15
split_gain=7.55995 4.80186 4.65332 5.12286 5.91447 4.20047 3.92257 1.71144 0.984714
threshold=18.500000000000004 4.5000000000000009 1.0000000180025095e-35 6.4166666666666679 5.2500000000000009 8.5000000000000018 4.5000000000000009 16.250000000000004 8.5000000000000018
decision_type=2 2 2 2 2 2 2 2 2
left_child=1 2 -1 4 5 -4 7 -5 -2
right_child=8 -3 3 6 -6 -7 -8 -9 -10
leaf_value=0.020381049637782745 0.035343026157896106 0.02399203150838684 -0.03571017366719216 -0.030845227106608482 0.026830012302258274 0.0099624441466556555 0.011029451662392775 -0.002764729250498824 0.0084170989857628806
leaf_weight=8.5346914976835233 10.391392588615419 8.8531162291765195 7.9575860649347323 40.28205518424511 11.86361441016197 7.1678761690855026 5.9550559520721427 7.3782637417316428 8.5853507518768293
leaf_count=41 47 41 43 214 55 36 29 37 41
internal_value=-0.000340931 -0.006156 -0.00988818 -0.0137693 0.00362767 -0.0157238 -0.0223432 -0.0270179 0.0262008
internal_weight=116.969 97.9923 89.1391 80.6045 26.9891 15.1255 53.6154 47.6603 18.9767
internal_count=584 496 455 414 134 79 280 251 88
is_linear=0
shrinkage=0.05


Tree=12
num_leaves=13
num_cat=0
split_feature=12 13 13 15 8 17 13 0 2 13 16 12
split_gain=3.33536 5.28083 4.87712 4.66169 4.66988 5.04856 3.95411 2.90297 2.64229 1.92063 1.93131 0.607062
threshold=11.500000000000002 19.500000000000004 15.500000000000002 9.5000000000000018 1.5000000000000002 0.45000000000000007 32.500000000000007 4.5000000000000009 6.5000000000000009 5.5000000000000009 6.4500000000000011 6.5000000000000009
decision_type=2 2 2 2 2 2 2 2 2 2 2 2
left_child=3 2 -2 7 11 9 -3 -1 -7 -6 -11 -5
right_child=1 6 -4 4 5 8 -8 -9 -10 10 -12 -13
leaf_value=-0.03443427997316089 0 -0.023510408678458911 0.051676423890161007 -0.0078303341774385166 -0.020839857954170187 0.0045299397914544647 0.013653645546964669 0.0018523500830783701 0.048843075595717683 0.017892223398760822 -0.011056620484362907 -0.032553878935726643
leaf_weight=18.94243294000626 8.7207130938768369 12.742805093526842 7.0257660150527945 7.9473639130592328 8.2740134894847888 6.8968993574380857 10.294236198067663 6.6268268823623648 5.9989673793315887 9.5229677110910433 7.7515613883733741 5.9609535038471222
leaf_count=96 46 60 35 39 42 34 50 34 31 50 38 29
internal_value=-0.00351996 0.00799857 0.0278886 -0.00939876 -0.000412387 0.00855625 -0.00705168 -0.0256478 0.030786 -0.00454528 0.00494156 -0.0226182
internal_weight=116.706 38.7835 15.7465 77.922 52.3527 38.4444 23.037 25.5693 12.8959 25.5485 17.2745 13.9083
internal_count=584 191 81 393 263 195 110 130 65 130 88 68
is_linear=0
shrinkage=0.05


Tree=13
num_leaves=11
num_cat=0
split_feature=1 16 17 13 8 2 14 20 2 17
split_gain=14.3871 6.12913 4.91479 9.20305 8.92783 8.39815 5.533 4.89679 3.28012 1.78239
threshold=9.5000000000000018 12.483333333333336 -0.20000000000000001 15.500000000000002 1.5000000000000002 6.5000000000000009 1.5000000000000002 0.58333333333333337 4.5000000000000009 0.18333333333333332
decision_type=2 2 2 2 2 2 2 2 2 2
left_child=1 9 3 4 -2 -4 -6 -7 -5 -1
right_child=2 -3 5 8 6 7 -8 -9 -10 -11
leaf_value=0.048404919602726026 0.05929386471025927 -0.0088000115976001863 -0.040662102777635989 0.0077479463329400188 -0.028871135151425593 0.022094964971806269 0.023701487235869758 -0.022745350590299866 -0.029472616762640038 0.014120111690382657
leaf_weight=17.520302712917331 7.6912691444158581 7.066018432378768 20.060784578323364 6.9432779997587231 6.4108100682497007 11.513666898012163 7.678928330540657 7.4894177615642539 15.238229244947432 9.2728953212499601
leaf_count=86 38 37 101 35 30 59 40 37 73 48
internal_value=0.00314662 0.0292463 -0.00808778 0.00329718 0.0248308 -0.0203407 -0.000795465 0.00350376 -0.0180882 0.0393237
internal_weight=116.886 33.8592 83.0264 43.9625 21.781 39.0639 14.0897 19.0031 22.1815 26.7932
internal_count=584 171 413 216 108 197 70 96 108 134
is_linear=0
shrinkage=0.05


Tree=14
num_leaves=9
num_cat=0
split_feature=16 17 17 15 6 1 17 13
split_gain=27.465 18.1918 18.2324 20.5836 9.94884 3.89631 7.85667 3.70146
threshold=20.533333333333335 0.18333333333333332 0.80000000000000004 10.500000000000002 5.5000000000000009 23.500000000000004 -0.31666666666666671 8.5000000000000018
decision_type=2 2 2 2 2 2 2 2
left_child=1 4 3 -3 5 7 -7 -1
right_child=-2 2 -4 -5 -6 6 -8 -9
leaf_value=-0.0033629076820346146 0.070762920806771143 0.072709901697621759 -0.023975493094645882 -0.015906835665638216 0.02299977537337243 0.02563910444792802 -0.03548054070377462 -0.043359879630820289
leaf_weight=7.6400866359472266 8.9082857668399793 15.349311336874964 14.21130834519863 8.6395929753780347 7.6135301440954199 7.2285466939210892 7.8804813176393491 39.171675339341164
leaf_count=39 41 71 72 45 40 35 39 202
internal_value=-0.00137896 -0.00914483 0.0176304 0.0423888 -0.0240442 -0.030701 -0.00655996 -0.0375281
internal_weight=116.643 107.735 38.2002 23.9889 69.5343 61.9208 15.109 46.8118
internal_count=584 543 188 116 355 315 74 241
is_linear=0
shrinkage=0.05


Tree=15
num_leaves=12
num_cat=0
split_feature=1 12 13 16 17 13 17 17 13 16 1
split_gain=7.84041 6.81131 5.17036 4.85093 4.25643 3.1538 2.94555 4.10891 0.736102 0.581704 0.340726
threshold=11.500000000000002 18.500000000000004 9.5000000000000018 8.5833333333333339 1.1833333333333333 25.500000000000004 0.33333333333333337 -0.54999999999999993 10.500000000000002 10.966666666666669 22.500000000000004
decision_type=2 2 2 2 2 2 2 2 2 2 2
left_child=2 3 -1 6 8 9 7 -2 -5 -4 -9
right_child=1 -3 5 4 -6 -7 -8 10 -10 -11 -12
leaf_value=-0.037128583981940501 -0.0037884945803038036 0.039003578267849108 0.020049650319486377 -0.0074687145430184943 0.018215576920857648 -0.020850156922209005 -0.012411564288336703 0.01573379429101102 -0.027546811002113671 0 0.041544022038331831
leaf_weight=18.078102231025696 10.976483523845671 10.771256953477858 6.806179493665697 10.966050431132318 6.2775223404169074 9.7230024635791761 6.8656793385744086 9.0778287053108269 16.052418649196625 6.4661861211061478 8.6357938945293409
leaf_count=98 58 48 34 55 30 50 34 44 83 33 38
internal_value=-0.00219624 0.00689894 -0.0192106 0.000388063 -0.0126776 -0.00227263 0.0127874 0.0195795 -0.0211251 0.0123644 0.0327527
internal_weight=120.697 79.623 41.0735 68.8518 33.296 22.9954 35.5558 28.6901 27.0185 13.2724 17.7136
internal_count=605 390 215 342 168 117 174 140 138 67 82
is_linear=0
shrinkage=0.05


Tree=16
num_leaves=12
num_cat=0
split_feature=12 12 2 4 12 16 0 13 16 16 12
split_gain=5.39892 3.84794 3.52244 7.25783 5.86216 6.00484 3.20497 2.47176 2.02089 1.06746 0.818222
threshold=18.500000000000004 9.5000000000000018 2.5000000000000004 1.0000000180025095e-35 5.5000000000000009 7.7166666666666677 2.5000000000000004 20.500000000000004 6.5833333333333339 11.983333333333336 15.500000000000002
decision_type=2 2 2 2 2 2 2 2 2 2 2
left_child=1 2 3 -1 7 -6 -2 9 -3 -4 -10
right_child=6 8 4 -5 5 -7 -8 -9 10 -11 -12
leaf_value=-0.011331190604815321 -0.0011490503494667995 0.00098968941398441183 -0.027945699722403707 0.047692799831514296 -0.013320596535186491 0.035441426988923462 0.036765593553660367 0.0088484275749282932 -0.03247770210267887 -0.005042402713121296 -0.00670243134941482
leaf_weight=7.9145397841930363 8.3050095140934008 8.9191891700029391 19.302043408155445 8.0154486149549484 8.5640318691730517 12.025541186332701 11.664662599563597 6.2609297037124625 13.718489184975626 9.3568810969591123 6.7542245686054221
leaf_count=39 40 44 103 36 45 58 52 30 76 47 35
internal_value=0.000736391 -0.00409317 0.00223752 0.0209553 -0.00384764 0.0158327 0.0226893 -0.015918 -0.0184169 -0.0218123 -0.0261306
internal_weight=120.801 100.831 71.4394 15.93 55.5094 20.5896 19.9697 34.9199 29.3919 28.6589 20.4727
internal_count=605 513 358 75 283 103 92 180 155 150 111
is_linear=0
shrinkage=0.05


Tree=17
num_leaves=14
num_cat=0
split_feature=2 1 1 17 15 12 6 13 16 16 13 16 16
split_gain=6.05847 7.34811 8.98386 4.35364 3.62553 3.51065 3.4052 1.43984 1.32442 1.19186 1.04624 1.0092 0.962623
threshold=9.5000000000000018 13.500000000000002 5.5000000000000009 -0.20000000000000001 12.500000000000002 12.500000000000002 1.5000000000000002 19.500000000000004 5.7833333333333341 12.183333333333335 11.500000000000002 10.15 7.9500000000000011
decision_type=2 2 2 2 2 2 2 2 2 2 2 2 2
left_child=1 2 11 5 6 -2 7 -3 -8 10 -4 -1 -5
right_child=3 4 9 12 -6 -7 8 -9 -10 -11 -12 -13 -14
leaf_value=-0.025287369917077376 -0.021100736188613221 0.011790053613673336 0.01649993770361774 0.016381645869938576 0.011621614747217323 0.021485396586547745 -0.0076027915607064017 -0.014883747055670289 -0.035520494507887218 0.0089654802698435326 0.051781772441358703 0 0.050757882583791061
leaf_weight=8.6554993242025358 7.0323042571544665 7.9061800241470319 9.1067603826522845 9.0703993141651136 7.887944132089614 6.3410498052835464 7.9813580960035351 6.4168057143688202 23.357999846339226 8.3930852413177472 6.177890568971633 6.1336255967617026 6.2657630145549765
leaf_count=45 36 43 47 45 38 29 40 29 116 42 32 30 33
internal_value=0.00196628 -0.00435468 0.0117204 0.0208786 -0.0159995 -0.000366012 -0.021296 -0.000379433 -0.0298415 0.029506 0.0371901 -0.0166476 0.0367058
internal_weight=120.727 92.0171 38.4669 28.7095 53.5503 13.3734 45.6623 14.323 31.3394 23.6777 15.2847 14.7891 15.3362
internal_count=605 462 196 143 266 65 228 72 156 121 79 75 78
is_linear=0
shrinkage=0.05


Tree=18
num_leaves=12
num_cat=0
split_feature=1 19 13 15 2 6 2 2 13 15 0
split_gain=8.68507 5.72107 9.24945 13.4283 6.03137 5.79754 3.85843 2.62198 3.40542 6.06731 1.69194
threshold=11.500000000000002 7.5000000000000009 15.500000000000002 10.500000000000002 6.5000000000000009 3.5000000000000004 5.5000000000000009 10.500000000000002 6.5000000000000009 10.500000000000002 2.5000000000000004
decision_type=2 2 2 2 2 2 2 2 2 2 2
left_child=7 4 3 -3 -2 -6 -4 8 -1 10 -10
right_child=1 2 6 -5 5 -7 -8 -9 9 -11 -12
leaf_value=0.030229013877449501 -0.037632195514543998 0.073700960858795558 0.007825403943117714 -0.014751421103565115 -0.024207134120877518 0.020209784995914096 -0.031768128892742241 0.041958413241420439 0.032144749433275485 -0.025941935033421511 0.00065276200152882186
leaf_weight=11.031519174575804 21.907279938459396 6.4230600744485837 9.1869357526302355 6.2053210139274597 11.539070621132852 11.833523273468016 10.607693672180174 6.4688476622104636 7.06684781610966 10.362235262989996 8.2003704160451871
leaf_count=58 112 32 46 31 57 59 53 33 36 49 39
internal_value=0.00034735 -0.00951278 0.00611957 0.0354289 -0.0204947 -0.00178848 -0.0145615 0.0176832 0.010424 -0.00020031 0.0183885
internal_weight=120.833 77.7029 32.423 12.6284 45.2799 23.3726 19.7946 43.1298 36.661 25.6295 15.2672
internal_count=605 390 162 63 228 116 99 215 182 124 75
is_linear=0
shrinkage=0.05


Tree=19
num_leaves=11
num_cat=0
split_feature=16 17 15 17 16 1 17 2 13 16
split_gain=20.4437 14.1934 9.56814 15.3493 8.21647 7.21884 9.16001 6.2062 3.56747 1.75335
threshold=20.533333333333335 0.18333333333333332 11.500000000000002 0.56666666666666676 4.7500000000000009 23.500000000000004 -0.31666666666666671 8.5000000000000018 8.5000000000000018 10.683333333333335
decision_type=2 2 2 2 2 2 2 2 2 2
left_child=1 4 3 7 -1 8 -7 -3 -6 -5
right_child=-2 2 -4 9 5 6 -8 -9 -10 -11
leaf_value=0.021258685927420817 0.059510076040908168 0.079061371511325459 -0.020927487991100703 -0.023924029007819151 -0.0033503345632743329 0.028885754325676877 -0.034397656710482942 0.012409685570176968 -0.042708543603170127 0.0071300459296542293
leaf_weight=7.8330511450767508 9.5983874350786191 9.5895897597074562 10.737204596400259 6.8121552765369398 7.6577490270137778 9.8400833606719988 7.3050464093685141 6.914060950279235 37.80851374566555 6.1419263482093811
leaf_count=38 42 43 55 36 41 48 37 33 204 28
internal_value=-0.000899028 -0.00761642 0.0153104 0.0293864 -0.0208574 -0.0269336 0.000567186 0.0575985 -0.0368004 -0.0103148
internal_weight=120.238 110.639 40.1949 29.4577 70.4444 62.6114 17.1451 16.5037 45.4663 12.9541
internal_count=605 563 195 140 368 330 85 76 245 64
is_linear=0
shrinkage=0.05


Tree=20
num_leaves=11
num_cat=0
split_feature=19 2 12 1 13 2 14 0 13 13
split_gain=5.01067 4.61624 5.31707 4.03496 5.49398 3.9168 6.33051 3.90833 2.33483 1.85603
threshold=20.500000000000004 2.5000000000000004 6.5000000000000009 20.500000000000004 8.5000000000000018 8.5000000000000018 2.5000000000000004 1.5000000000000002 6.5000000000000009 13.500000000000002
decision_type=2 2 2 2 2 2 2 2 2 2
left_child=1 2 -1 4 -3 6 -5 -6 -7 -9
right_child=-2 3 -4 5 7 8 -8 9 -10 -11
leaf_value=0.031018143833598157 0.025500316122114782 -0.03803476378917478 -0.015158316430496466 -0.034294580364842578 0.016333590736419726 -0.0016050777245791388 0.01600546039119961 0.0036063894442919979 0.034363943666157873 -0.024809406681286575
leaf_weight=12.7964203953743 10.968920260667799 20.51007716357708 7.7843232452869406 10.49336099624634 10.642117723822592 6.9211126416921598 9.0265860110521299 6.8115753829479244 7.7012496739625931 16.221486553549767
leaf_count=59 50 114 40 58 52 34 41 35 35 84
internal_value=-0.00275555 -0.00625339 0.0136342 -0.0112377 -0.0193733 0.00206112 -0.0117788 -0.00568953 0.0196803 -0.0167667
internal_weight=119.877 108.908 20.5807 88.3276 54.1853 34.1423 19.5199 33.6752 14.6224 23.0331
internal_count=602 552 99 453 285 168 99 171 69 119
is_linear=0
shrinkage=0.05


Tree=21
num_leaves=13
num_cat=0
split_feature=19 15 1 19 16 20 19 19 19 17 1 1
split_gain=3.12583 4.46142 6.43924 3.2479 2.89328 2.64388 2.0924 1.95976 5.38241 2.18853 1.39764 0.776457
threshold=17.500000000000004 11.500000000000002 19.500000000000004 20.500000000000004 5.3500000000000005 0.41666666666666669 7.5000000000000009 4.5000000000000009 8.5000000000000018 1.1833333333333333 18.500000000000004 21.500000000000004
decision_type=2 2 2 2 2 2 2 2 2 2 2 2
left_child=1 4 5 -2 -1 6 -3 9 11 -6 -10 -9
right_child=3 2 -4 -5 7 -7 -8 8 10 -11 -12 -13
leaf_value=0.014402929390795988 0.038473493252849614 0.023336422230604295 0.038186613516457954 -0.00011269939492540576 -0.030623140380507809 -0.023150737945391131 -0.010248201863200116 0.023343989064564367 -0.0062664227952492386 0 -0.03466051152749889 0.00066495039598527808
leaf_weight=8.5398609191179258 7.6180443614721325 7.1590802818536776 11.476324528455732 10.650413557887076 19.042550638318065 7.9136184453964225 5.8984095603227615 8.9866243004798871 11.236107945442201 8.0136077851057035 7.3785689622163764 6.4551420509815207
leaf_count=42 34 34 52 50 101 45 30 43 59 39 41 32
internal_value=0.00142236 -0.00210752 0.0124417 0.0189 -0.00918796 -0.0044543 0.00877372 -0.0130822 -0.00425926 -0.022488 -0.0210013 0.015785
internal_weight=120.368 102.1 32.4474 18.2685 69.6525 20.9711 13.0575 61.1126 34.0564 27.0562 18.6147 15.4418
internal_count=602 518 161 84 357 109 64 315 175 140 100 75
is_linear=0
shrinkage=0.05


Tree=22
num_leaves=12
num_cat=0
split_feature=12 15 16 6 16 8 12 16 0 12 13
split_gain=3.93008 8.17688 5.90285 5.71544 5.54401 6.50707 3.72371 3.64594 2.36238 1.54747 0.646108
threshold=13.500000000000002 9.5000000000000018 14.550000000000002 1.5000000000000002 4.7833333333333341 1.5000000000000002 19.500000000000004 6.6333333333333337 3.5000000000000004 17.500000000000004 17.500000000000004
decision_type=2 2 2 2 2 2 2 2 2 2 2
left_child=1 10 4 6 -3 -6 -2 -7 -8 -5 -1
right_child=3 2 -4 9 5 7 8 -9 -10 -11 -12
leaf_value=-0.03060394953338394 0.05613632043749104 -0.019046049245017481 -0.029711862998088784 0.0057122227584347545 -0.010183131784937061 0.048923906283531313 0.027256348254290366 0.013158621157339468 -0.0079423105714581995 -0.022986888049410417 -0.0074629008731229574
leaf_weight=19.267882198095325 6.1475040465593365 9.110657334327696 7.0109311789274207 7.4536653459072095 11.9665420204401 12.659591987729071 6.8163928240537626 19.943854302167892 6.9350479245185852 6.0020547360181808 6.9855583459138861
leaf_count=99 32 46 37 37 59 65 32 96 32 30 37
internal_value=0.00139064 -0.00420789 0.00592744 0.0152647 0.0119965 0.0192481 0.0306634 0.0301386 0.0109633 -0.00864232 -0.0260143
internal_weight=120.3 86.945 60.6916 33.3547 53.6806 44.57 19.8989 32.6034 13.7514 13.4557 26.2534
internal_count=602 439 303 163 266 220 96 161 64 67 136
is_linear=0
shrinkage=0.05


Tree=23
num_leaves=14
num_cat=0
split_feature=14 16 2 14 16 2 16 14 2 16 17 17 16
split_gain=11.3286 3.86214 5.37059 5.16082 7.49101 2.14991 2.06244 1.05732 0.798393 0.872296 1.02374 0.222621 0.196399
threshold=1.0000000180025095e-35 9.9166666666666696 5.5000000000000009 2.5000000000000004 6.4500000000000011 8.5000000000000018 5.5500000000000007 2.5000000000000004 6.5000000000000009 12.183333333333335 -1.0000000180025095e-35 0.18333333333333332 13.316666666666668
decision_type=2 2 2 2 2 2 2 2 2 2 2 2 2
left_child=-1 2 6 5 -5 -4 7 -2 9 -3 -11 -8 -10
right_child=1 8 3 4 -6 -7 11 -9 12 10 -12 -13 -14
leaf_value=0.043114946154337377 -0.010593708134243872 0.0051988766346258378 0.015055922113381104 -0.0056287565846357569 0.055083520700294181 -0.013870481914121558 -0.0097427267948602715 0.012838458827948122 -0.027897893323905732 -0.00036298859020052535 -0.022742768247106013 -0.030676353861763862 -0.0081425020186772605
leaf_weight=10.882671922445295 6.3940198570489901 6.616344407200816 7.68591380119324 7.2180804163217571 10.168632000684736 13.051723420619963 7.1110321432352048 6.8132392317056656 11.844815999269487 9.5974201560020482 9.5006866306066478 7.5414929389953613 5.8890520930290213
leaf_count=53 32 35 39 35 53 63 33 35 58 47 52 37 30
internal_value=0.000477153 -0.00475584 0.00283669 0.0146167 0.0325143 -0.00239109 -0.0129753 0.00132468 -0.0158326 -0.00831911 -0.0132986 -0.0241826 -0.0237061
internal_weight=120.315 109.432 65.9841 38.1243 17.3867 20.7376 27.8598 13.2073 43.4483 25.7145 19.0981 14.6525 17.7339
internal_count=602 549 327 190 88 102 137 67 222 134 99 70 88
is_linear=0
shrinkage=0.05


Tree=24
num_leaves=10
num_cat=0
split_feature=16 17 17 16 8 1 17 13 2
split_gain=22.8021 16.8003 12.2081 7.89954 7.58511 6.88496 8.45827 0.87077 0.710931
threshold=20.966666666666672 0.18333333333333332 0.56666666666666676 4.7833333333333341 1.5000000000000002 23.500000000000004 -0.31666666666666671 8.5000000000000018 7.5000000000000009
decision_type=2 2 2 2 2 2 2 2 2
left_child=1 3 4 -1 -3 7 -7 -5 -4
right_child=-2 2 8 5 -6 6 -8 -9 -10
leaf_value=0.017919202427297193 0.065156459799728214 0.062531798941274197 -0.020182510735545747 -0.01452164529217524 0.0067248406135189051 0.029301482731890774 -0.033582446338264092 -0.042085078215797933 -0.00045258024112570849
leaf_weight=8.3454538732767087 8.9218766093254072 11.708260282874107 10.204391434788706 8.3204032331705076 12.155834093689919 8.5094557851552945 6.9876960068941107 36.084887936711311 8.0085185170173627
leaf_count=40 38 51 50 44 59 41 37 200 42
internal_value=-0.000590488 -0.00753561 0.0165311 -0.022515 0.0382166 -0.0288136 0 -0.0382717 -0.0130336
internal_weight=119.247 110.325 42.077 68.2479 23.8641 59.9024 15.4972 44.4053 18.2129
internal_count=602 564 202 362 110 322 78 244 92
is_linear=0
shrinkage=0.05


Tree=25
num_leaves=14
num_cat=0
split_feature=1 13 13 19 19 19 17 16 1 17 8 14 17
split_gain=6.04057 4.67841 5.2232 4.04859 4.09077 3.53261 3.18686 4.15356 4.03815 3.32976 2.7184 1.93779 0.0318777
threshold=11.500000000000002 9.5000000000000018 25.500000000000004 17.500000000000004 10.500000000000002 10.500000000000002 0.18333333333333332 5.0166666666666675 20.500000000000004 0.56666666666666676 1.5000000000000002 2.5000000000000004 0.56666666666666676
decision_type=2 2 2 2 2 2 2 2 2 2 2 2 2
left_child=1 12 5 4 6 -3 7 -2 -8 -10 -6 -9 -1
right_child=3 2 -4 -5 10 -7 8 11 9 -11 -12 -13 -14
leaf_value=-0.034586553859801764 -0.008056013389932502 0.040776365660738348 -0.021892708129630345 0.03479701692077293 -0.031082650752288318 -0.0026457217652017698 -0.022000565020576322 0.015772383816727086 -0.0089265265447276993 0.030625619811678009 0.0055078335870399455 0.050784347998153213 -0.011895302097235549
leaf_weight=11.429004773497583 7.0979502052068737 6.327642202377322 10.32346275448799 11.307130530476568 8.2616517245769483 8.3264895826578122 10.45655080676079 14.821551591157915 7.471720919013026 8.831270217895506 7.486054226756095 7.0422870069742194 5.4786091893911353
leaf_count=65 34 30 55 48 47 42 55 71 38 41 38 32 30
internal_value=0.00259977 -0.0122805 0.00174046 0.0103537 0.00517337 0.0195637 0.0115383 0.0222056 -0.000913584 0.0136696 -0.0153238 0.0320176 -0.0303856
internal_weight=124.661 41.8852 24.9776 82.7762 71.469 14.6541 55.7213 28.9618 26.7595 16.303 15.7477 21.8638 16.9076
internal_count=626 222 127 404 356 72 271 137 134 79 85 103 95
is_linear=0
shrinkage=0.05


Tree=26
num_leaves=14
num_cat=0
split_feature=12 15 16 16 14 2 16 19 14 4 13 13 17
split_gain=6.00592 3.84611 5.02475 3.54437 5.39573 6.08809 2.98769 2.44755 2.26987 1.97791 1.73808 0.940357 0.272313
threshold=18.500000000000004 11.500000000000002 4.8166666666666673 9.6500000000000004 1.5000000000000002 7.5000000000000009 11.516666666666667 20.500000000000004 3.5000000000000004 1.0000000180025095e-35 6.5000000000000009 7.5000000000000009 -0.20000000000000001
decision_type=2 2 2 2 2 2 2 2 2 2 2 2 2
left_child=1 3 -3 4 5 -1 10 -2 11 12 -4 -5 -6
right_child=7 2 6 8 9 -7 -8 -9 -10 -11 -12 -13 -14
leaf_value=-0.012579885998434102 0.03513349291720446 -0.023032217650296841 0.0020555892037721372 -0.011782722307250724 -0.03522335781086517 0.039456331572150755 -0.0079363149615587283 0.0028555491026885696 0 0 0.035308909473141838 -0.040415908311282667 -0.010533428719992698
leaf_weight=8.2415587007999438 10.315520718693735 7.7604812681674948 6.2014688253402772 8.1350002437830025 7.6136085242033005 9.0815977901220304 7.0150787830352774 12.209673732519148 6.6232635974884024 9.280338317155838 12.709345042705534 14.03090977668762 6.054591104388237
leaf_count=40 45 41 32 42 42 43 36 57 32 47 58 79 32
internal_value=-0.00153397 -0.00678996 0.00657666 -0.0133816 -0.0031352 0.0162513 0.017082 0.0202252 -0.0259091 -0.0181491 0.0264068 -0.0327634 -0.0284508
internal_weight=125.272 102.747 33.6864 69.0609 40.2717 17.3232 25.9259 22.5252 28.7892 22.9485 18.9108 22.1659 13.6682
internal_count=626 524 167 357 204 83 126 102 153 121 90 121 74
is_linear=0
shrinkage=0.05


Tree=27
num_leaves=11
num_cat=0
split_feature=16 12 15 12 6 13 16 12 13 17
split_gain=3.37215 4.45886 8.65224 5.06488 4.41012 4.3371 4.06087 3.49511 1.5642 0.666092
threshold=18.833333333333336 14.500000000000002 9.5000000000000018 18.500000000000004 5.5000000000000009 21.500000000000004 4.7500000000000009 23.500000000000004 17.500000000000004 0.45000000000000007
decision_type=2 2 2 2 2 2 2 2 2 2
left_child=1 2 8 -3 5 6 -4 -5 9 -1
right_child=-2 3 4 7 -6 -7 -8 -9 -10 -11
leaf_value=-0.039585550110719812 -0.026490194741361398 0.039904753745270256 -0.013085009310194637 -0.016746309449625185 -0.019144034096851354 -0.017378512531303913 0.025988935439578909 0.022200206397615 -0.0058716154946542032 -0.011471040614674287
leaf_weight=13.005154013633733 9.5154287070035917 10.671727985143663 5.9883893877267829 10.781008794903757 10.574839159846304 7.1919942647218695 33.911832556128502 6.8912509679794303 9.6456020474433881 6.8564742207527152
leaf_count=69 51 52 31 49 53 35 165 33 52 36
internal_value=-0.00182266 0.000786157 -0.0048373 0.0170487 0.00642337 0.0130672 0.0195031 -0.000299591 -0.0255601 -0.0328777
internal_weight=125.034 115.518 87.1743 28.344 57.6671 47.0922 39.9002 17.6723 29.5072 19.8616
internal_count=626 575 441 134 284 231 196 82 157 105
is_linear=0
shrinkage=0.05


Tree=28
num_leaves=12
num_cat=0
split_feature=14 16 16 17 13 16 12 12 2 14 16
split_gain=7.90779 4.11784 3.48212 3.30867 5.22683 4.76364 6.67216 4.42978 3.8449 3.10735 2.88689
threshold=1.0000000180025095e-35 5.2166666666666677 4.616666666666668 -0.20000000000000001 3.5000000000000004 7.116666666666668 15.500000000000002 9.5000000000000018 10.500000000000002 2.5000000000000004 12.250000000000002
decision_type=2 2 2 2 2 2 2 2 2 2 2
left_child=-1 2 -2 5 10 -3 7 -7 -6 -8 -5
right_child=1 3 -4 4 8 6 9 -9 -10 -11 -12
leaf_value=0.032997150289105374 -0.0086352497605446093 -0.025733422026237626 0.031936736631979996 0.022234708399009595 -0.03565917440564717 -0.0011173452981523765 -0.024991406124105858 0.044629601761368737 0.0037269050034358848 0.011587804077419061 -0.016196404791492907
leaf_weight=12.474125072360037 7.029074132442477 10.299395501613615 9.7050311565399152 8.4577452391386014 27.164244294166565 7.9215759634971645 11.827415689826013 11.059839457273482 6.8499069362878791 7.0394779443740836 5.6237257272005072
leaf_count=59 36 48 49 42 141 37 59 56 35 34 30
internal_value=-0.000546976 -0.00505152 0.0159193 -0.00911916 -0.0179827 0.00017245 0.00871663 0.0277635 -0.0279332 -0.0113973 0.00644478
internal_weight=125.452 112.977 16.7341 96.2433 48.0956 48.1477 37.8483 18.9814 34.0142 18.8669 14.0815
internal_count=626 567 85 482 248 234 186 93 176 93 72
is_linear=0
shrinkage=0.05


Tree=29
num_leaves=9
num_cat=0
split_feature=17 15 17 16 16 1 17 12
split_gain=25.3635 15.8499 20.6116 12.8398 6.93721 8.82167 10.6857 1.41411
threshold=0.18333333333333332 11.500000000000002 0.80000000000000004 20.533333333333335 4.616666666666668 23.500000000000004 -0.31666666666666671 3.5000000000000004
decision_type=2 2 2 2 2 2 2 2
left_child=3 2 -2 4 -1 7 -7 -6
right_child=1 -3 -4 -5 5 6 -8 -9
leaf_value=0.01990423287358796 0.070222784889968456 -0.017706411631342595 -0.011299050066154679 0.038664943940757542 -0.0069817569229786783 0.031965176874507444 -0.034671506121845691 -0.040680501057471424
leaf_weight=6.6279140412807456 23.252470552921295 10.911241561174391 9.8069858402013761 7.0623550564050666 5.2379998564720145 10.434178337454798 7.889592543244361 42.329972699284554
leaf_count=32 100 56 50 30 29 49 42 238
internal_value=0.00137096 0.0307106 0.0469728 -0.015306 -0.0219553 -0.0269219 0.00219789 -0.0377029
internal_weight=123.553 43.9707 33.0595 79.582 72.5197 65.8917 18.3238 47.568
internal_count=626 206 150 420 390 358 91 267
is_linear=0
shrinkage=0.05


end of trees

feature_importances:
avg_inter_attack_interval=64
attack_rate_trend=39
days_since_last_success=38
month=30
day_of_month=27
days_since_last_incident=27
type_inc_7d_sum=23
type_inc_30d_sum=18
streak_quiet_days=18
inc_30d_sum=17
day_of_week=11
succ_30d_sum=10
success_ratio_7d=4
inc_3d_sum=2
inc_7d_sum=2

parameters:
[boosting: gbdt]
[objective: multiclass]
[metric: multi_logloss]
[tree_learner: serial]
[device_type: cpu]
[data_sample_strategy: bagging]
[data: ]
[valid: ]
[num_iterations: 500]
[learning_rate: 0.05]
[num_leaves: 31]
[num_threads: 18]
[seed: 42]
[deterministic: 1]
[force_col_wise: 1]
[force_row_wise: 0]
[histogram_pool_size: -1]
[max_depth: 6]
[min_data_in_leaf: 30]
[min_sum_hessian_in_leaf: 0.01]
[bagging_fraction: 0.8]
[pos_bagging_fraction: 1]
[neg_bagging_fraction: 1]
[bagging_freq: 1]
[bagging_seed: 400]
[bagging_by_query: 0]
[feature_fraction: 0.8]
[feature_fraction_bynode: 1]
[feature_fraction_seed: 30056]
[extra_trees: 0]
[extra_seed: 12879]
[early_stopping_round: 0]
[early_stopping_min_delta: 0]
[first_metric_only: 0]
[max_delta_step: 0]
[lambda_l1: 0.1]
[lambda_l2: 3]
[linear_lambda: 0]
[min_gain_to_split: 0.01]
[drop_rate: 0.1]
[max_drop: 50]
[skip_drop: 0.5]
[xgboost_dart_mode: 0]
[uniform_drop: 0]
[drop_seed: 17869]
[top_rate: 0.2]
[other_rate: 0.1]
[min_data_per_group: 100]
[max_cat_threshold: 32]
[cat_l2: 10]
[cat_smooth: 10]
[max_cat_to_onehot: 4]
[top_k: 20]
[monotone_constraints: ]
[monotone_constraints_method: basic]
[monotone_penalty: 0]
[feature_contri: ]
[forcedsplits_filename: ]
[refit_decay_rate: 0.9]
[cegb_tradeoff: 1]
[cegb_penalty_split: 0]
[cegb_penalty_feature_lazy: ]
[cegb_penalty_feature_coupled: ]
[path_smooth: 0]
[interaction_constraints: ]
[verbosity: -1]
[saved_feature_importance_type: 0]
[use_quantized_grad: 0]
[num_grad_quant_bins: 4]
[quant_train_renew_leaf: 0]
[stochastic_rounding: 1]
[linear_tree: 0]
[max_bin: 255]
[max_bin_by_feature: ]
[min_data_in_bin: 3]
[bin_construct_sample_cnt: 200000]
[data_random_seed: 175]
[is_enable_sparse: 1]
[enable_bundle: 1]
[use_missing: 1]
[zero_as_missing: 0]
[feature_pre_filter: 1]
[pre_partition: 0]
[two_round: 0]
[header: 0]
[label_column: ]
[weight_column: ]
[group_column: ]
[ignore_column: ]
[categorical_feature: ]
[forcedbins_filename: ]
[precise_float_parser: 0]
[parser_config_file: ]
[objective_seed: 16083]
[num_class: 5]
[is_unbalance: 0]
[scale_pos_weight: 1]
[sigmoid: 1]
[boost_from_average: 1]
[reg_sqrt: 0]
[alpha: 0.9]
[fair_c: 1]
[poisson_max_delta_step: 0.7]
[tweedie_variance_power: 1.5]
[lambdarank_truncation_level: 30]
[lambdarank_norm: 1]
[label_gain: ]
[lambdarank_position_bias_regularization: 0]
[eval_at: ]
[multi_error_top_k: 1]
[auc_mu_weights: ]
[num_machines: 1]
[local_listen_port: 12400]
[time_out: 120]
[machine_list_filename: ]
[machines: ]
[gpu_platform_id: -1]
[gpu_device_id: -1]
[gpu_use_dp: 0]
[num_gpu: 1]

end of parameters

pandas_categorical:[]
