tree
version=v4
num_class=5
num_tree_per_iteration=5
label_index=0
max_feature_idx=20
objective=multiclass num_class:5
feature_names=day_of_week day_of_month month lag_inc_1d inc_3d_sum inc_7d_sum inc_30d_sum succ_7d_sum succ_30d_sum had_incident_prev_1d had_incident_prev_3d had_incident_prev_7d days_since_last_incident days_since_last_success type_inc_7d_sum type_inc_30d_sum avg_inter_attack_interval attack_rate_trend streak_active_days streak_quiet_days success_ratio_7d
feature_infos=[0:6] [1:31] [1:12] [0:3] [0:4] [0:4] [0:6] [0:3] [0:4] [0:1] [0:1] [0:1] [1:999] [1:999] [0:7] [1:13] [4.5999999999999996:999] [-1.4000000000000001:3.0666666666666664] [0:2] [0:66] [0:1]
tree_sizes=1347 1241 1446 1351 1341 1396 1499 984 1389 1563 1403 1394 1375 1504 1393 1610 1706 1498 1606 1494 1502 1709 1506 1399 1283 1303 1476 1401 1597 1394 1493 1291 1082 1602 1389

Tree=0
num_leaves=12
num_cat=0
split_feature=14 17 15 13 2 12 15 13 16 12 13
split_gain=12.395 7.30916 5.43573 5.03987 5.81488 10.0043 3.46962 1.83664 1.46261 1.04302 0.142529
threshold=1.0000000180025095e-35 1.1833333333333333 6.5000000000000009 44.500000000000007 9.5000000000000018 8.5000000000000018 4.5000000000000009 6.5000000000000009 19.600000000000005 18.500000000000004 11.500000000000002
decision_type=2 2 2 2 2 2 2 2 2 2 2
left_child=2 3 6 4 7 10 -1 -2 -5 -9 -6
right_child=1 -3 -4 8 5 -7 -8 9 -10 -11 -12
leaf_value=-1.6009443931658445 -1.61476301753699 -1.5810139339011451 -1.6178481998708425 -1.6129597814198 -1.6365602837596696 -1.5650291020601328 -1.5562171434742023 -1.646230657024101 -1.5845817118500338 -1.6212131158917444 -1.6167631586109585
leaf_weight=8.4513106942176872 9.2802877873182279 8.0506740361452085 7.0364648699760428 7.3923527300357801 6.6427534520626086 6.1796288341283789 11.751607537269591 33.572083652019501 5.9481898844242096 9.6362246721982938 5.2439903318881989
leaf_count=37 52 40 36 38 31 25 48 181 26 50 29
internal_value=-1.61092 -1.6198 -1.58305 -1.62444 -1.62968 -1.60584 -1.57119 -1.63773 -1.59837 -1.64189 -1.6314
internal_weight=119.186 91.9462 27.2394 83.8955 70.555 18.0664 20.2029 52.4886 13.3405 43.2083 11.8867
internal_count=593 472 121 432 368 85 85 283 64 231 60
is_linear=0
shrinkage=1


Tree=1
num_leaves=11
num_cat=0
split_feature=1 15 6 1 1 13 13 0 14 13
split_gain=20.1984 8.48117 7.27758 7.90119 4.44233 3.91428 4.58194 4.31448 2.385 0.971851
threshold=6.5000000000000009 6.5000000000000009 1.5000000000000002 23.500000000000004 16.500000000000004 20.500000000000004 3.5000000000000004 3.5000000000000004 1.5000000000000002 41.500000000000007
decision_type=2 2 2 2 2 2 2 2 2 2
left_child=1 -1 4 5 9 6 -4 -8 -6 -2
right_child=2 -3 3 -5 8 -7 7 -9 -10 -11
leaf_value=-1.5490755400750698 -1.6081901379864934 -1.6062670320593393 -1.6343360025953071 -1.6520672629830537 -1.5753303951989199 -1.636014724890982 -1.6131795193607739 -1.5738256240511328 -1.6096285978153841 -1.6314915325153148
leaf_weight=15.741951957345011 7.9884125739335996 10.736548766493796 6.506297409534457 18.029308661818504 13.638171896338465 10.757842510938643 13.005405843257906 10.415320202708243 6.8275862336158744 5.5387172400951385
leaf_count=65 38 56 35 106 57 59 66 48 34 29
internal_value=-1.60555 -1.56941 -1.61675 -1.62712 -1.599 -1.61377 -1.60424 -1.59381 -1.58555 -1.6197
internal_weight=119.186 26.4785 92.7071 58.7142 33.9929 40.6849 29.927 23.4207 20.4658 13.5271
internal_count=593 121 472 314 158 208 149 114 91 67
is_linear=0
shrinkage=1


Tree=2
num_leaves=13
num_cat=0
split_feature=19 12 6 16 6 16 12 16 13 16 19 12
split_gain=6.69763 5.11543 8.46668 4.77896 7.44321 4.43011 4.16237 2.41695 3.50421 1.49265 0.612878 0.527453
threshold=1.5000000000000002 6.5000000000000009 3.5000000000000004 12.050000000000002 1.5000000000000002 11.116666666666669 28.500000000000004 8.6666666666666679 19.500000000000004 9.9166666666666696 35.500000000000007 17.500000000000004
decision_type=2 2 2 2 2 2 2 2 2 2 2 2
left_child=-1 2 5 4 11 -2 -5 8 -6 -9 -8 -3
right_child=1 3 -4 6 7 -7 10 9 -10 -11 -12 -13
leaf_value=-1.6381780693693515 -1.6045688357466485 -1.5685341250958842 -1.6260706492356434 -1.642965655601462 -1.5916681952771541 -1.5508794125176844 -1.5978066387755405 -1.6390895376076362 -1.629060980736966 -1.6091101910576855 -1.6159500770917152 -1.5963042102362908
leaf_weight=15.690487653017042 6.7098551094532075 8.1929790377616865 7.4559199810028067 15.237583100795748 14.15955586731434 9.4981790482997877 6.4309607297182065 9.3814689069986326 6.8895469009876242 5.6598019301891318 6.13719342648983 7.7420408725738517
leaf_count=80 36 40 43 66 67 50 31 46 40 27 31 36
internal_value=-1.61057 -1.60573 -1.58674 -1.61192 -1.60307 -1.56861 -1.62766 -1.61579 -1.60504 -1.62935 -1.60654 -1.57754
internal_weight=119.186 103.495 23.664 79.8311 52.0254 16.208 27.8057 36.0904 21.0491 15.0413 12.5682 15.935
internal_count=593 513 129 384 256 86 128 180 107 73 62 76
is_linear=0
shrinkage=1


Tree=3
num_leaves=12
num_cat=0
split_feature=14 15 2 16 13 1 19 13 13 15 13
split_gain=8.84774 12.7793 8.83915 6.61785 3.30632 4.44562 2.81008 2.15027 2.6465 1.38953 0.0638437
threshold=1.5000000000000002 8.5000000000000018 5.5000000000000009 10.616666666666669 9.5000000000000018 12.500000000000002 3.5000000000000004 20.500000000000004 29.500000000000004 7.5000000000000009 38.500000000000007
decision_type=2 2 2 2 2 2 2 2 2 2 2
left_child=1 6 3 -2 -4 -6 -1 -8 -9 -7 -10
right_child=2 -3 4 -5 5 9 7 8 10 -11 -12
leaf_value=-1.6049473443088802 -1.5447168774816484 -1.5710704126465513 -1.6309466423709049 -1.6093295649047767 -1.6247807757677595 -1.6058134951909606 -1.6460725154737021 -1.6027536077257352 -1.619520407876532 -1.5714420956125126 -1.635150822178743
leaf_weight=7.8761430829763404 8.1964243948459607 7.3907964378595343 11.010303080081941 6.3908830881118766 8.5177227556705493 5.7751373052597028 23.821226015686989 8.8910800367593747 8.0193880051374453 6.509751096367836 16.786717265844345
leaf_count=41 47 38 57 32 40 31 109 46 40 38 74
internal_value=-1.61287 -1.62356 -1.59637 -1.56789 -1.61173 -1.60035 -1.63099 -1.63469 -1.62416 -1.58339 -1.63191
internal_weight=119.186 72.7854 46.4002 14.5873 31.8129 20.8026 65.3946 57.5184 33.6972 12.2849 24.8061
internal_count=593 348 245 79 166 109 310 269 160 69 114
is_linear=0
shrinkage=1


Tree=4
num_leaves=12
num_cat=0
split_feature=15 6 2 2 13 12 1 2 5 15 13
split_gain=22.2179 14.6492 6.03374 15.7974 15.5961 5.19535 4.71513 5.00152 3.25603 2.89438 1.13894
threshold=5.5000000000000009 1.5000000000000002 8.5000000000000018 3.5000000000000004 23.500000000000004 18.500000000000004 14.500000000000002 5.5000000000000009 1.0000000180025095e-35 10.500000000000002 12.500000000000002
decision_type=2 2 2 2 2 2 2 2 2 2 2
left_child=6 5 3 8 10 -2 -1 -8 -3 -5 -4
right_child=1 2 4 9 -6 -7 7 -9 -10 -11 -12
leaf_value=-1.6511075690792181 -1.6424979452015585 -1.6231060110644486 -1.6132560261546653 -1.5258083016261454 -1.5467905443288292 -1.5976097998492962 -1.6370045383407985 -1.5953862054960539 -1.5861401413858767 -1.588497260857598 -1.6432623542384983
leaf_weight=19.956824630498886 12.567585095763208 8.24815182387829 6.633751794695856 13.271345064044 5.0427984446287146 8.7229781895875913 11.986179515719416 11.144823864102362 9.8549366295337659 5.1738353818655005 6.5823621302843094
leaf_count=82 59 41 32 80 31 44 53 56 56 29 30
internal_value=-1.60724 -1.59117 -1.57794 -1.56689 -1.60318 -1.62471 -1.63485 -1.61745 -1.60277 -1.53777 -1.632
internal_weight=119.186 76.0977 54.8072 36.5483 18.2589 21.2906 43.0878 23.131 18.1031 18.4452 13.2161
internal_count=593 402 299 206 93 103 191 109 97 109 62
is_linear=0
shrinkage=1


Tree=5
num_leaves=12
num_cat=0
split_feature=14 17 6 12 19 17 19 0 12 12 17
split_gain=10.0214 8.6286 4.22771 5.8618 3.71236 2.03085 1.72331 2.67389 1.48252 1.42466 1.15007
threshold=1.0000000180025095e-35 1.1833333333333333 1.5000000000000002 2.5000000000000004 8.5000000000000018 -0.58333333333333326 26.500000000000004 2.5000000000000004 16.500000000000004 16.500000000000004 -0.81666666666666654
decision_type=2 2 2 2 2 2 2 2 2 2 2
left_child=4 2 6 -4 -1 10 7 -2 -6 -9 -5
right_child=1 -3 3 5 8 -7 -8 9 -10 -11 -12
leaf_value=-0.00155264949613842 -0.0078356222782803488 0.034082769340322887 0.011364182985376947 -0.018844630792193683 0.056118468518656588 -0.034076343621986735 -0.012852917146403561 0.0045778071844016326 0.019061847791510888 0.036211929228604729 0.0050197589743772274
leaf_weight=6.9184770584106472 10.023235887289049 9.6097817569971067 11.150484532117842 8.3812608271837217 6.9953026771545437 27.754891216754917 8.243449389934538 8.0800254791975004 11.41839078068733 6.2892938107252112 6.7975167632102922
leaf_count=31 44 46 60 48 31 153 44 36 50 26 34
internal_value=0.00275294 -0.0047536 -0.0101087 -0.0183501 0.0289552 -0.0264144 0.00380371 0.0104065 0.0392628 0.0225746 -0.00881767
internal_weight=121.662 96.3299 86.7202 54.0842 25.3322 42.9337 32.636 24.3926 18.4137 14.3693 15.1788
internal_count=603 491 445 295 112 235 150 106 81 62 82
is_linear=0
shrinkage=0.05


Tree=6
num_leaves=13
num_cat=0
split_feature=15 1 12 3 19 12 1 6 19 6 13 13
split_gain=8.15895 11.458 6.91916 4.16835 4.15958 6.82419 2.37349 1.88618 1.48885 0.908926 0.198961 1.78056
threshold=6.5000000000000009 24.500000000000004 18.500000000000004 1.0000000180025095e-35 2.5000000000000004 17.500000000000004 11.500000000000002 1.5000000000000002 22.500000000000004 1.5000000000000002 18.500000000000004 27.500000000000004
decision_type=2 2 2 2 2 2 2 2 2 2 2 2
left_child=1 4 3 7 -1 6 -6 -2 -7 -3 -9 -12
right_child=2 9 -4 -5 5 8 -8 10 -10 -11 11 -13
leaf_value=-0.0078451244275244379 -0.0028207049624166744 -0.0058790330760425582 0.022349360705343657 0.011480877455480371 0.019907392928400741 -0.011800914237558583 0.055453408418285201 -0.038669625105795025 0.012948444413123223 -0.03500847213049034 0.00077281754506733358 -0.032560973238016523
leaf_weight=8.6200831532478315 7.3498516380786887 6.1562800854444486 8.2497213631868345 6.171659141778945 14.516240537166597 7.5770916491746929 14.211346700787542 18.206752195954326 11.222684442996977 7.5443263053894043 6.4689182192087156 5.9928296059370041
leaf_count=41 35 28 38 31 61 36 56 105 55 46 32 39
internal_value=0.000481413 0.0115081 -0.0139435 -0.021815 0.0214939 0.027064 0.0412301 -0.0277863 0.00249279 -0.0256261 -0.0328365 -0.0181414
internal_weight=122.288 69.8481 52.4397 44.19 56.1474 47.5274 28.7276 38.0184 18.7998 13.7006 30.6685 12.4617
internal_count=603 323 280 242 249 208 117 211 91 74 176 71
is_linear=0
shrinkage=0.05


Tree=7
num_leaves=8
num_cat=0
split_feature=14 1 20 16 1 16 6
split_gain=5.31419 5.53336 7.00557 6.68071 3.50726 4.23048 5.07658
threshold=3.5000000000000004 28.500000000000004 0.41666666666666669 11.316666666666668 2.5000000000000004 5.9500000000000011 2.5000000000000004
decision_type=2 2 2 2 2 2 2
left_child=1 2 4 -4 -1 -6 -7
right_child=-2 -3 3 -5 5 6 -8
leaf_value=0.022300376627968004 -0.030077403905881761 0.037578235696319733 -0.0029640368967116786 0.052427630066021746 0.018995937864017688 -0.0035573892085189011 -0.031819775447705839
leaf_weight=7.0511234551668158 9.7488748729228956 8.0536605119705182 9.5858136713504809 8.3318049907684308 8.9297776967287046 48.298936873674393 21.742009535431862
leaf_count=33 48 46 49 42 45 227 113
internal_value=0.000518707 0.00394074 0.000306534 0.0263794 -0.00577402 -0.00906614 -0.0133456
internal_weight=121.742 111.993 103.939 17.9176 86.0218 78.9707 70.0409
internal_count=603 555 509 91 418 385 340
is_linear=0
shrinkage=0.05


Tree=8
num_leaves=12
num_cat=0
split_feature=1 12 13 6 13 13 13 6 2 2 2
split_gain=7.97269 10.1638 4.1564 6.04478 2.89153 3.36168 4.22835 5.63409 5.4229 3.52506 3.05131
threshold=20.500000000000004 16.500000000000004 23.500000000000004 3.5000000000000004 52.500000000000007 40.500000000000007 23.500000000000004 2.5000000000000004 7.5000000000000009 8.5000000000000018 2.5000000000000004
decision_type=2 2 2 2 2 2 2 2 2 2 2
left_child=4 2 3 -2 5 6 7 9 -8 -1 -9
right_child=1 -3 -4 -5 -6 -7 8 10 -10 -11 -12
leaf_value=0.030032476972274114 -0.0076884408052116937 -0.017364028480897215 0.058318851755666229 0.041621572178098545 0.016906627321833529 -0.036338336690765284 -0.013895607742920854 0.00039763353162422201 0.032486699663411674 -0.011873400666546803 -0.034281771804129849
leaf_weight=6.9573400020599347 11.248529836535459 11.759342387318609 8.8316392898559553 8.7700913250446302 7.7121062427759162 8.4039059877395612 9.1668649315834063 7.9645021557807949 10.608592018485067 7.4885004758834839 22.608033075928688
leaf_count=40 54 55 50 50 39 34 44 37 55 33 112
internal_value=0.00120291 0.0185525 0.0336056 0.016306 -0.00779742 -0.011029 -0.00620982 -0.0144532 0.0117685 0.00971632 -0.0258702
internal_weight=121.519 40.6096 28.8503 20.0186 80.9098 73.1977 64.7938 45.0184 19.7755 14.4458 30.5725
internal_count=603 209 154 104 394 355 321 222 99 73 149
is_linear=0
shrinkage=0.05


Tree=9
num_leaves=14
num_cat=0
split_feature=15 19 17 2 2 19 6 13 2 13 2 16 19
split_gain=18.8623 12.5665 7.67443 10.4205 3.05204 2.5295 4.17245 3.51965 2.26505 1.75674 1.70258 1.26631 0.503194
threshold=9.5000000000000018 8.5000000000000018 -0.31666666666666671 3.5000000000000004 8.5000000000000018 24.500000000000004 1.5000000000000002 8.5000000000000018 4.5000000000000009 44.500000000000007 6.5000000000000009 7.116666666666668 17.500000000000004
decision_type=2 2 2 2 2 2 2 2 2 2 2 2 2
left_child=2 -2 3 11 -5 6 12 8 -8 -7 -9 -1 -4
right_child=1 -3 5 4 -6 9 7 10 -10 -11 -12 -13 -14
leaf_value=-0.0034728685810781566 0.087917688517286249 0 -0.043095457485075497 0.0502042816826253 0.004830192158861127 0.014087230555911235 0.00082812817373319322 -0.0073070238384525896 -0.033075563133529204 -0.016320904278646287 0.020435635543717218 -0.032903918312185719 -0.015866423977812731
leaf_weight=8.1513381600379962 5.3873209655284864 7.9224398881196976 20.472631543874744 8.518046095967291 6.8899560421705237 7.1978896558284742 6.241380542516711 9.9315382540226 14.654421985149382 5.8900986760854721 6.7494926303625098 6.1282712966203681 7.9430836141109458
leaf_count=39 35 40 92 46 37 37 35 49 66 28 37 28 34
internal_value=-0.00506079 0.0452625 -0.0123131 0.00862537 0.03428 -0.0202625 -0.0240855 -0.0114975 -0.023907 0 0.00506813 -0.0199127 -0.0378852
internal_weight=122.078 13.3098 108.768 29.6876 15.408 79.0805 65.9925 37.5768 20.8958 13.088 16.681 14.2796 28.4157
internal_count=603 75 528 150 83 378 313 187 101 65 86 67 126
is_linear=0
shrinkage=0.05


Tree=10
num_leaves=12
num_cat=0
split_feature=16 14 17 0 8 16 14 1 1 1 13
split_gain=7.35157 8.86853 8.41646 12.1603 5.07272 4.79836 5.12441 4.03556 1.23435 0.751826 0.550654
threshold=11.516666666666667 1.0000000180025095e-35 -1.0000000180025095e-35 2.5000000000000004 1.5000000000000002 16.533333333333335 1.5000000000000002 21.500000000000004 17.500000000000004 11.500000000000002 13.500000000000002
decision_type=2 2 2 2 2 2 2 2 2 2 2
left_child=1 -1 3 -2 9 -4 8 10 -7 -3 -6
right_child=2 4 5 -5 7 6 -8 -9 -10 -11 -12
leaf_value=0.018695736512305688 -0.013979655264790173 -0.01744996606666057 -0.031154573244959807 0.062072145847232169 -0.02395726879804741 -0.023104409662843307 0.028177239248696535 0.024120528311589676 0.0033933494403344646 -0.042723500882002406 -0.0024152666808579257
leaf_weight=13.334882140159605 6.7424085736274746 11.92230996489525 8.8404141515493375 11.128698110580443 8.0936453491449374 7.6031338125467318 11.419507727026938 6.0331988334655753 5.8610604107379913 19.10991770029068 5.8279010355472556
leaf_count=56 32 61 53 49 44 39 55 30 25 111 29
internal_value=-0.00345209 -0.0144652 0.0102264 0.0352546 -0.0237875 -0.00469696 0.00686392 -0.00301505 -0.0127495 -0.0355547 -0.0172617
internal_weight=115.917 64.3219 51.5952 17.8711 50.987 33.7241 24.8837 19.9547 13.4642 31.0322 13.9215
internal_count=584 331 253 81 275 172 119 103 64 172 73
is_linear=0
shrinkage=0.05


Tree=11
num_leaves=12
num_cat=0
split_feature=15 2 14 19 12 13 13 16 12 14 17
split_gain=7.47432 5.98397 5.95977 5.95182 5.23721 4.08795 3.87228 3.5263 1.80657 1.80321 1.16302
threshold=6.5000000000000009 9.5000000000000018 1.5000000000000002 4.5000000000000009 9.5000000000000018 23.500000000000004 31.500000000000004 25.350000000000005 16.500000000000004 3.5000000000000004 0.68333333333333335
decision_type=2 2 2 2 2 2 2 2 2 2 2
left_child=2 8 3 -1 -5 -3 -6 -8 9 -2 -4
right_child=1 5 10 4 6 -7 7 -9 -10 -11 -12
leaf_value=-0.012347167422953215 -0.036339470698121441 0.030304653461639811 -0.020960380611302128 0.051617305014595265 -0.0088860438308215016 -0.01503163770832153 0.037958971640739511 -0.0045783642450461792 -0.00086408667430807782 -0.0023209016978176897 0.0033307964805990562
leaf_weight=9.9601458758115751 21.009263664484028 8.1892142295837385 10.945794835686685 12.303037211298941 10.845832154154779 6.3016097694635382 12.841528072953226 5.9007241725921622 6.9426471292972556 5.5454811602830878 6.0029697567224494
leaf_count=50 127 35 59 47 53 38 53 29 36 28 29
internal_value=0.000654984 -0.013957 0.0110738 0.019278 0.0272313 0.0111068 0.0131196 0.0255529 -0.0249582 -0.0303612 -0.0128992
internal_weight=116.788 47.9882 68.8 51.8513 41.8911 14.4908 29.5881 18.7423 33.4974 26.5547 16.9488
internal_count=584 264 320 232 182 73 135 82 191 155 88
is_linear=0
shrinkage=0.05


Tree=12
num_leaves=12
num_cat=0
split_feature=15 1 0 1 1 19 1 2 0 6 2
split_gain=7.04935 5.08262 6.10325 4.7148 8.13949 3.72686 3.31888 2.61785 1.47045 1.36179 0.710375
threshold=7.5000000000000009 2.5000000000000004 1.0000000180025095e-35 13.500000000000002 17.500000000000004 13.500000000000002 26.500000000000004 4.5000000000000009 4.5000000000000009 2.5000000000000004 4.5000000000000009
decision_type=2 2 2 2 2 2 2 2 2 2 2
left_child=1 -1 7 8 -5 -6 9 -3 10 -2 -4
right_child=6 2 3 4 5 -7 -8 -9 -10 -11 -12
leaf_value=0.041467279174870995 -0.0077496706301087119 0.003453079681227573 -0.0080174418270290652 0.040400041267526908 -0.020483754977816952 0.012825607904494999 0.010065794284507634 0.049109434758554921 0 -0.034515437485769344 -0.032644353541136782
leaf_weight=6.5075449645519248 9.8129013925790805 6.0416773557662946 7.6077823936939302 9.8555583804845792 17.020740345120434 11.641042500734327 5.8669882863759986 5.7843367606401443 7.7834948003292075 16.795674934983253 11.488840267062185
leaf_count=30 51 30 41 48 86 55 30 30 39 97 47
internal_value=-0.000746814 0.00690957 0.00249331 -0.00383923 0.00715473 -0.00686378 -0.019543 0.0315402 -0.0188968 -0.0265988 -0.0254802
internal_weight=116.207 83.731 77.2235 65.3975 38.5173 28.6618 32.4756 11.826 26.8801 26.6086 19.0966
internal_count=584 406 376 316 189 141 178 60 127 148 88
is_linear=0
shrinkage=0.05


Tree=13
num_leaves=13
num_cat=0
split_feature=14 16 1 16 13 2 13 13 17 1 1 13
split_gain=9.32904 12.2861 6.11392 4.74308 4.37317 3.04548 2.50734 2.03863 1.73075 2.54556 1.72748 0.217717
threshold=1.5000000000000002 16.533333333333335 6.5000000000000009 14.850000000000003 40.500000000000007 5.5000000000000009 21.500000000000004 58.500000000000007 -0.43333333333333335 15.500000000000002 21.500000000000004 19.500000000000004
decision_type=2 2 2 2 2 2 2 2 2 2 2 2
left_child=2 4 -1 8 5 -2 -3 -5 10 -10 -4 -11
right_child=1 6 3 7 -6 -7 -8 -9 9 11 -12 -13
leaf_value=-0.032015619227557475 0.061097161170183302 -0.034197495268144008 -0.0088282456399758364 0.035916161954727188 -0.0037419643789902641 0.022060392045306104 0.003640961939860337 -1.2038715251204507e-05 0.0041399462467293065 -0.035044060419774863 0.019750803054964964 -0.010988616956190314
leaf_weight=17.309487849473953 11.033793821930887 6.9342785775661451 9.7117470353841764 7.7010264396667463 5.5915986597537986 17.656537607312202 6.5125046372413635 5.8156829923391342 7.9490951150655773 7.4981197714805585 6.0476654618978491 6.1851893812417984
leaf_count=77 62 36 49 41 30 90 33 26 38 37 34 31
internal_value=0.00288249 0.0192371 -0.00881816 0.000319231 0.0343589 0.0415936 -0.0182463 0.0229606 -0.00883903 -0.0171928 0.00327709 -0.0284014
internal_weight=115.947 47.7287 68.218 50.9085 34.2819 28.6903 13.4468 13.5167 37.3918 21.6324 15.7594 13.6833
internal_count=584 251 333 256 182 152 69 67 189 106 83 68
is_linear=0
shrinkage=0.05


Tree=14
num_leaves=12
num_cat=0
split_feature=15 6 19 12 15 16 13 16 16 16 16
split_gain=17.8207 13.0227 5.92357 4.88397 2.95995 3.9289 6.84301 2.47687 1.51883 1.41654 3.40683
threshold=5.5000000000000009 1.5000000000000002 22.500000000000004 17.500000000000004 6.5000000000000009 12.533333333333335 26.500000000000004 9.7500000000000018 8.5166666666666675 9.2833333333333368 7.5000000000000009
decision_type=2 2 2 2 2 2 2 2 2 2 2
left_child=2 3 9 -2 8 6 7 -6 -3 10 -1
right_child=1 4 -4 -5 5 -7 -8 -9 -10 -11 -12
leaf_value=-0.033963357395362409 -0.035710124149657359 0.018066210970655684 0.0091648059182622595 0.0076048575279320622 0.01531248168507876 0.060873372615230896 0.053872985917442995 -0.015887143120686287 -0.0095566161085700561 -0.042575763397985501 0.0094919709082161088
leaf_weight=6.8503769040107709 11.04289546608925 8.1327875703573209 8.6611813306808454 10.217948183417318 15.153367862105375 9.0298278480768186 8.1046749502420408 6.8316109478473654 6.1950797736644736 19.448277458548546 6.1690191477537155
leaf_count=29 54 43 42 51 77 51 49 36 31 88 33
internal_value=0.000616102 0.0150514 -0.0247321 -0.0163207 0.0278236 0.0345995 0.0217596 0.00467388 0.00624736 -0.0339259 -0.0151391
internal_weight=115.837 74.7082 41.1289 21.2608 53.4473 39.1195 30.0897 21.985 14.3279 32.4677 13.0194
internal_count=584 392 192 105 287 213 162 113 74 150 62
is_linear=0
shrinkage=0.05


Tree=15
num_leaves=14
num_cat=0
split_feature=15 15 15 17 15 13 8 16 12 6 13 13 16
split_gain=5.64586 5.80552 4.84784 3.99813 7.84565 3.28199 3.18301 4.732 5.2769 4.10242 2.19973 0.347986 0.0575417
threshold=9.5000000000000018 8.5000000000000018 5.5000000000000009 -1.0000000180025095e-35 4.5000000000000009 40.500000000000007 1.5000000000000002 11.516666666666667 8.5000000000000018 4.5000000000000009 9.5000000000000018 17.500000000000004 9.9166666666666696
decision_type=2 2 2 2 2 2 2 2 2 2 2 2 2
left_child=1 2 3 4 -1 10 7 12 -9 -8 -5 -2 -4
right_child=11 -3 6 5 -6 -7 9 8 -10 -11 -12 -13 -14
leaf_value=-0.0099095280026703179 -0.033865160195264976 0.037231303763433823 -0.034858789635460456 0.0014771143048217172 0.049166648129769272 0.019518274850213856 0.032397639862968085 -0.022106232793995886 0.026520551202184706 -0.013881405493904035 -0.031945907692090658 -0.0086409353450722943 -0.015900366930194601
leaf_weight=7.3392538130283365 6.7129653394222242 9.9154861867427808 11.914842501282694 10.054133445024492 12.247977405786514 9.4190230667591077 6.7545292973518354 7.3406280726194408 9.142567500472067 6.7647555768489838 5.7670322507619849 5.5151108205318451 11.259859114885328
leaf_count=36 44 45 75 49 46 40 32 41 45 39 31 26 56
internal_value=0.00178204 0.00569748 0.00144651 0.0131482 0.0284335 -0.00029711 -0.00850416 -0.0154301 0.00453905 0.0106224 -0.0135905 -0.0267604 -0.0287167
internal_weight=120.148 107.92 98.0046 44.8274 19.5872 25.2402 53.1772 39.6579 16.4832 13.5193 15.8212 12.2281 23.1747
internal_count=605 535 490 202 82 120 288 217 86 71 80 70 131
is_linear=0
shrinkage=0.05


Tree=16
num_leaves=15
num_cat=0
split_feature=19 15 12 13 2 15 0 16 16 16 9 16 17 13
split_gain=6.74404 4.76848 6.99597 9.22791 5.44844 4.69689 4.61518 3.71175 3.78948 3.76477 3.60491 0.692486 0.259649 0.0316354
threshold=4.5000000000000009 5.5000000000000009 9.5000000000000018 32.500000000000007 8.5000000000000018 4.5000000000000009 2.5000000000000004 10.016666666666667 8.9833333333333361 5.9166666666666679 1.0000000180025095e-35 19.400000000000002 0.80000000000000004 21.500000000000004
decision_type=2 2 2 2 2 2 2 2 2 2 2 2 2 2
left_child=5 2 -2 -4 7 -1 -6 8 9 -3 12 -5 -7 -9
right_child=1 4 3 11 6 10 -8 13 -10 -11 -12 -13 -14 -15
leaf_value=0.015913177098762058 0.046419328225241294 0.011271534215882478 -0.035540750124902619 0.0064289242093781042 0.038728438972967884 -0.041477267231541812 -0.0062177133291661532 -0.013064184922826603 0.027274124535822439 -0.034023121973172664 0.00078997501588647058 0.031748156695817605 -0.014141628438049617 -0.03725454069123748
leaf_weight=5.5289755761623374 11.358237266540526 6.2066848427057284 7.62219309806824 6.8819093406200391 8.0397641360759753 15.836881279945375 10.05385974049568 5.7421787679195395 5.3652418702840796 6.9287295937538147 8.1182292699813861 7.9312982559204102 6.092304438352584 9.1861793249845487
leaf_count=24 42 31 40 29 37 94 48 34 26 43 41 32 33 51
internal_value=-0.00228834 0.00534292 0.0191489 0.00129968 -0.00417607 -0.0197109 0.0161844 -0.0157588 0 -0.0141944 -0.0272669 0.0233298 -0.0366992 -0.0319717
internal_weight=120.893 85.3163 33.7936 22.4354 51.5226 35.5764 18.0936 33.429 18.5007 13.1354 30.0474 14.8132 21.9292 14.9284
internal_count=605 413 143 101 270 192 85 185 100 74 168 61 127 85
is_linear=0
shrinkage=0.05


Tree=17
num_leaves=13
num_cat=0
split_feature=15 13 16 16 12 6 16 16 13 2 2 2
split_gain=5.04189 5.53042 5.2282 4.67122 4.628 3.70447 3.22651 3.30841 2.99876 2.49186 1.97113 1.05958
threshold=7.5000000000000009 7.5000000000000009 11.366666666666669 12.483333333333336 13.500000000000002 1.5000000000000002 6.2833333333333341 9.5166666666666675 68.500000000000014 7.5000000000000009 10.500000000000002 4.5000000000000009
decision_type=2 2 2 2 2 2 2 2 2 2 2 2
left_child=1 2 -1 5 10 -3 -7 -8 9 -5 11 -2
right_child=4 3 -4 8 -6 6 7 -9 -10 -11 -12 -13
leaf_value=0.0015787558230000388 -0.0073295283682283706 0.029144819201118111 0.052568927511232356 -0.033445784494963264 0.012688008732653237 0.019877549909770861 -0.027896956301856225 0.012777063711187822 0.0087535729802274975 0.0014390723787467644 -0.0032655121113341493 -0.040151607741945441
leaf_weight=10.166210949420931 5.2166709303855958 12.847659721970556 7.7901284396648398 15.213416591286665 8.627278268337248 8.0734870731830615 10.680952578783037 5.4753174781799308 7.6991388201713553 6.4145795404911032 8.6670547723770124 13.345227003097532
leaf_count=51 28 59 36 75 44 38 61 28 34 28 40 83
internal_value=-0.000749944 0.00589139 0.0282975 -0.00105662 -0.0157525 0.0103206 -0.00158846 -0.0140094 -0.0152181 -0.0239814 -0.025294 -0.0334623
internal_weight=120.217 84.3609 17.9563 66.4046 35.8562 37.0774 24.2298 16.1563 29.3271 21.628 27.229 18.5619
internal_count=605 410 87 323 195 186 127 89 137 103 151 111
is_linear=0
shrinkage=0.05


Tree=18
num_leaves=14
num_cat=0
split_feature=1 12 15 12 13 2 6 12 13 19 1 6 12
split_gain=7.72807 10.3026 4.47138 6.73621 4.45381 3.67532 9.55938 5.60087 3.14433 2.23541 1.46924 0.758922 0.161649
threshold=20.500000000000004 16.500000000000004 5.5000000000000009 21.500000000000004 8.5000000000000018 8.5000000000000018 2.5000000000000004 11.500000000000002 10.500000000000002 4.5000000000000009 24.500000000000004 1.5000000000000002 16.500000000000004
decision_type=2 2 2 2 2 2 2 2 2 2 2 2 2
left_child=2 4 9 5 -2 6 7 -4 -8 -1 -6 -7 -11
right_child=1 -3 3 -5 10 11 8 -9 -10 12 -12 -13 -14
leaf_value=0.00055258821957269067 0.002877994833840315 -0.020671545384341794 0.057897598088677615 0.040833635017620551 0.016920877807356637 -0.034344136229087587 0.0061440143550112718 -0.0020062945984822946 -0.034422338174311555 -0.037935696128720386 0.054764093636034905 -0.0091890310249331478 -0.016725515255616056
leaf_weight=7.1158573329448727 10.395850986242296 10.727629616856573 6.2271762639284152 5.7686153650283805 8.1846336573362368 6.9066619575023678 6.1109956651926032 6.1558953076601028 9.6602827757596952 10.378386348485948 11.854957535862921 9.8126900792121869 11.55168856680393
leaf_count=34 52 51 36 34 41 30 35 31 48 41 68 50 54
internal_value=0.000350153 0.0172668 -0.0086371 0.00048704 0.0314434 -0.00682898 0.00420627 0.0332094 -0.0199677 -0.0232576 0.0437409 -0.0234781 -0.0303209
internal_weight=120.851 41.1631 79.6882 50.6423 30.4354 44.8737 28.1544 12.3831 15.7713 29.0459 20.0396 16.7194 21.9301
internal_count=605 212 393 264 161 230 150 67 83 129 109 80 95
is_linear=0
shrinkage=0.05


Tree=19
num_leaves=13
num_cat=0
split_feature=15 6 19 16 15 13 5 13 16 14 16 16
split_gain=18.138 12.2227 5.95464 5.83744 7.96253 8.24557 6.19905 5.29263 3.34714 2.22983 1.4144 3.72235
threshold=5.5000000000000009 1.5000000000000002 22.500000000000004 12.533333333333335 8.5000000000000018 17.500000000000004 1.0000000180025095e-35 46.500000000000007 9.7166666666666668 1.5000000000000002 9.2833333333333368 7.5000000000000009
decision_type=2 2 2 2 2 2 2 2 2 2 2 2
left_child=2 7 10 4 5 9 -6 -2 -7 -3 11 -1
right_child=1 3 -4 -5 6 8 -8 -9 -10 -11 -12 -13
leaf_value=-0.034161021000004871 -0.031679128395914018 0.017756580973765566 0.0081651756028024818 0.056094828828308498 -0.036266356356223654 0.066373001283969127 0.018653809744285564 0.016179438571663412 0.012640248301486535 -0.014737338122851985 -0.042333220624120149 0.011190213356092523
leaf_weight=7.1337749958038312 13.979025617241861 7.6028632074594515 9.4886802732944471 10.865741252899168 8.0165192037820798 10.309911698102953 6.9231824427843085 6.337202548980712 6.2017450183629981 7.4849921762943268 19.852661073207855 5.9081563651561737
leaf_count=33 68 37 46 60 37 61 35 36 32 37 92 31
internal_value=0.000878059 0.0151143 -0.0243912 0.0266014 0.0166344 0.0300143 -0.0116738 -0.0163753 0.0514939 0.00158945 -0.0338191 -0.015054
internal_weight=120.104 77.7212 42.3833 57.405 46.5392 31.5995 14.9397 20.3162 16.5117 15.0879 32.8946 13.0419
internal_count=605 403 202 299 239 167 72 104 93 74 156 64
is_linear=0
shrinkage=0.05


Tree=20
num_leaves=13
num_cat=0
split_feature=15 4 14 14 13 13 2 15 13 13 1 1
split_gain=7.18803 10.5073 5.9357 4.40172 3.64956 3.56138 3.35972 2.66947 2.55718 2.06351 1.49455 1.30749
threshold=5.5000000000000009 1.0000000180025095e-35 1.0000000180025095e-35 2.5000000000000004 33.500000000000007 10.500000000000002 9.5000000000000018 4.5000000000000009 33.500000000000007 27.500000000000004 14.500000000000002 8.5000000000000018
decision_type=2 2 2 2 2 2 2 2 2 2 2 2
left_child=2 6 7 -3 5 -4 9 -1 -8 11 -11 -2
right_child=1 3 4 -5 -6 -7 8 -9 -10 10 -12 -13
leaf_value=0.012247041165197146 -0.0059770366076819159 -0.003202440415396423 0.0064505480696916001 0.04356221928142099 0.02372560146139864 -0.033006338986992741 0.021240294672744027 0.055529097854206379 -0.014357715139359873 -0.018106229353281669 0.0084698638228947933 -0.035463642129631788
leaf_weight=8.7492521405220032 6.5762610435485866 7.377909421920779 12.376560851931577 9.7236220985650998 10.455008581280707 6.3517166823148719 7.306778356432913 8.7775633931159973 6.9047630578279495 8.021394729614256 7.3628234863281241 21.865172475576401
leaf_count=37 37 44 56 46 45 35 31 30 38 42 37 124
internal_value=0.00364083 -0.00586249 0.0184598 0.0256714 0.00341014 -0.00941072 -0.0160414 0.0391143 0.00416635 -0.0225481 -0.00580847 -0.0300256
internal_weight=121.849 75.1387 46.7101 17.1015 29.1833 18.7283 58.0372 17.5268 14.2115 43.8257 15.3842 28.4414
internal_count=602 399 203 90 136 91 309 67 69 240 79 161
is_linear=0
shrinkage=0.05


Tree=21
num_leaves=15
num_cat=0
split_feature=19 15 19 19 15 16 16 1 0 2 2 6 16 16
split_gain=12.1511 10.7361 6.24798 5.65216 5.22682 4.94848 5.53671 3.70724 3.14181 2.15968 1.46518 0.909264 0.577469 0.528248
threshold=4.5000000000000009 6.5000000000000009 16.500000000000004 17.500000000000004 4.5000000000000009 9.3833333333333346 6.4500000000000011 9.5000000000000018 3.5000000000000004 10.500000000000002 3.5000000000000004 4.5000000000000009 11.750000000000002 13.866666666666669
decision_type=2 2 2 2 2 2 2 2 2 2 2 2 2 2
left_child=4 2 5 9 -1 6 -2 -4 -9 10 -3 -6 -12 -7
right_child=1 3 7 -5 11 13 -8 8 -10 -11 12 -13 -14 -15
leaf_value=0.015354127046279049 0.036560170016439623 -0.0013814469285171568 0.027958965997607301 0.022108297734061581 -0.035801369368135674 0.068482446039877493 -0.016849284158112904 -0.027697442428371494 0.011149390766478515 0.0051293930867868116 -0.038596276397758048 -0.0087799673553306465 -0.0088747026647261369 0.027259558182840388
leaf_weight=5.5940894931554785 7.2831208705902117 5.4212137907743516 7.3677468448877361 8.257175073027609 20.681712761521343 8.689422160387041 6.5575915426015854 7.6813857257366163 7.5375289469957352 5.6806728690862647 11.263588920235636 6.9718512594699851 4.8970167934894553 8.4682754427194578
leaf_count=24 30 29 31 38 119 29 31 41 35 27 70 38 29 31
internal_value=0.00237168 0.0120051 0.0256175 -0.00879642 -0.0221652 0.0392093 0.0124647 0.00435819 -0.00951539 -0.0195857 -0.0261266 -0.030678 -0.0326506 0.0554696
internal_weight=122.352 89.1047 53.5851 35.5197 33.2477 30.9984 13.8407 22.5867 15.2189 27.2625 21.5818 27.6536 16.1606 17.1577
internal_count=602 421 228 193 181 121 61 107 76 155 128 157 99 60
is_linear=0
shrinkage=0.05


Tree=22
num_leaves=13
num_cat=0
split_feature=20 16 16 13 16 12 2 2 13 13 13 13
split_gain=8.35523 6.48917 3.95074 5.24316 5.18396 2.56395 5.76101 2.75273 2.14842 0.736765 0.0860425 1.46211
threshold=0.87500000000000011 11.316666666666668 12.050000000000002 59.500000000000007 10.41666666666667 13.500000000000002 4.5000000000000009 7.5000000000000009 25.500000000000004 15.500000000000002 28.500000000000004 42.500000000000007
decision_type=2 2 2 2 2 2 2 2 2 2 2 2
left_child=2 -2 4 10 5 6 9 -7 -6 -1 -4 -12
right_child=1 -3 3 -5 8 7 -8 -9 -10 -11 11 -13
leaf_value=0.014962670349579838 -0.0028198190778671432 0.050771476676841371 -0.035293019783009479 0.010964177980792867 0.039607748745552979 -0.0074829528111774986 -0.033925080033053702 0.027172014771900434 0.0033820343932632088 -0.0038946267067845549 -0.00085332984047720997 -0.031572983261613417
leaf_weight=7.4248170703649539 9.552317753434183 9.3506504595279676 14.868709504604341 8.9146146774291974 6.6924565583467475 11.956338390707971 16.339677095413208 6.4054721742868415 8.7338521778583509 7.7502902448177338 8.0247253477573377 5.5624360740184775
leaf_count=36 50 44 78 40 33 55 84 32 41 41 40 28
internal_value=-0.00130721 0.0267847 -0.00714005 -0.0194389 0.00036958 -0.00753334 -0.015703 0.00649046 0.0232592 0.00600353 -0.0292597 -0.0171669
internal_weight=121.576 18.903 102.673 37.3705 65.3029 49.8766 31.5148 18.3618 15.4263 15.1751 28.4559 13.5872
internal_count=602 94 508 186 322 248 161 87 74 77 146 68
is_linear=0
shrinkage=0.05


Tree=23
num_leaves=12
num_cat=0
split_feature=14 12 16 5 2 12 14 2 12 16 16
split_gain=4.43355 4.38572 6.17864 7.73434 6.90688 4.58366 4.50039 4.10888 3.74695 3.0206 0.92042
threshold=1.0000000180025095e-35 15.500000000000002 11.250000000000002 1.0000000180025095e-35 6.5000000000000009 3.5000000000000004 1.5000000000000002 5.5000000000000009 22.500000000000004 12.950000000000001 23.100000000000005
decision_type=2 2 2 2 2 2 2 2 2 2 2
left_child=8 2 3 4 -2 -4 -5 -8 -1 -3 -11
right_child=1 9 5 6 -6 -7 7 -9 -10 10 -12
leaf_value=-0.029958859802358032 0.007404724386569997 -0.028378501422931635 0.010961524504115916 -0.021003754293381575 0.066774312613779224 -0.028045559623364094 0.03597068390708015 -0.0076780843241489012 0.0095765655238166502 0.01430782512285369 -0.0090557535158184311
leaf_weight=19.55239345133305 10.087703362107279 13.707281872630121 11.359429001808168 10.792479261755945 8.9662186056375486 13.478907167911528 8.4340655356645602 8.2743116766214353 6.2954416126012793 6.2410138845443708 4.7863615900278091
leaf_count=87 51 65 59 52 46 67 42 42 31 32 28
internal_value=-0.00294318 0.00210637 0.00841772 0.0187869 0.040852 -0.0107678 0.000820705 0.0162228 -0.0201618 -0.0148702 0.00404263
internal_weight=121.976 96.1278 71.3931 46.5548 19.0539 24.8383 27.5009 16.7084 25.8478 24.7347 11.0274
internal_count=602 484 359 233 97 126 136 84 118 125 60
is_linear=0
shrinkage=0.05


Tree=24
num_leaves=11
num_cat=0
split_feature=2 2 8 16 16 12 2 1 13 12
split_gain=9.4101 12.0429 9.0496 16.1683 6.24405 6.173 11.1096 4.43156 3.89224 1.70557
threshold=11.500000000000002 3.5000000000000004 1.5000000000000002 8.8166666666666682 9.2166666666666668 23.500000000000004 6.5000000000000009 22.500000000000004 38.500000000000007 4.5000000000000009
decision_type=2 2 2 2 2 2 2 2 2 2
left_child=1 7 4 -4 -3 8 -7 9 -6 -1
right_child=-2 2 3 -5 5 6 -8 -9 -10 -11
leaf_value=-0.0042415449733795149 -0.039028041329502688 0.03389833312589724 -0.008189704105243837 0.074088626649819425 -0.028338899030829826 0.05890239060135985 -0.016794229380015398 0.010354870606496395 0.0062160019118719561 -0.036229639838673985
leaf_weight=6.6388412863016155 11.929294303059576 9.8376235663890821 9.2373002171516436 11.117092102766035 21.257014095783237 5.9713453948497763 8.2287599742412549 7.2339397817850104 10.562523648142813 19.5289216786623
leaf_count=34 53 53 43 64 103 35 38 41 51 87
internal_value=-0.00173575 0.00320997 0.0141092 0.0402792 0.00292091 -0.00526844 0.0194682 -0.0206344 -0.0171775 -0.0295565
internal_weight=121.543 109.613 76.2117 20.3544 55.8573 46.0196 14.2001 33.4017 31.8195 26.1678
internal_count=602 549 387 107 280 227 73 162 154 121
is_linear=0
shrinkage=0.05


Tree=25
num_leaves=11
num_cat=0
split_feature=14 14 1 4 1 8 6 19 15 19
split_gain=9.02522 8.25049 5.30262 4.73829 6.11668 4.18642 2.88791 3.25536 2.79419 1.30011
threshold=3.5000000000000004 1.0000000180025095e-35 25.500000000000004 1.0000000180025095e-35 9.5000000000000018 1.0000000180025095e-35 1.5000000000000002 21.500000000000004 5.5000000000000009 10.500000000000002
decision_type=2 2 2 2 2 2 2 2 2 2
left_child=1 5 3 6 -5 -1 7 -3 -7 -8
right_child=-2 2 -4 4 -6 8 9 -9 -10 -11
leaf_value=-0.0064850523658887896 0.039162862152583452 0.013329105784938606 -0.036774220627909644 -0.018616553906545829 0.034741620247913066 0.047204560263130323 -0.028720679401380358 -0.020187147928433149 0.0055304588285777501 -0.0053714698127345804
leaf_weight=9.3681593686342257 10.275412142276762 15.824982762336733 14.304169364273546 6.1429194808006313 11.087261497974394 9.0962868630886096 20.471350774168972 8.7696064263582212 7.8204310536384574 10.968874901533125
leaf_count=43 48 69 85 32 57 33 112 48 36 63
internal_value=5.95691e-05 -0.00434157 -0.0117365 -0.00552831 0.0155315 0.0188027 -0.0125489 0.000301704 0.031925 -0.0218973
internal_weight=124.129 113.854 87.5692 73.265 17.2302 26.2849 56.0348 24.5946 16.9167 31.4402
internal_count=626 578 466 381 89 112 292 117 69 175
is_linear=0
shrinkage=0.05


Tree=26
num_leaves=13
num_cat=0
split_feature=15 19 12 12 16 6 2 16 2 2 16 12
split_gain=9.47497 7.44088 5.05146 4.3864 4.07795 3.27353 3.19527 3.19159 2.3604 0.488779 0.359784 0.221485
threshold=6.5000000000000009 4.5000000000000009 16.500000000000004 20.500000000000004 9.3833333333333346 2.5000000000000004 10.500000000000002 6.4833333333333343 6.5000000000000009 3.5000000000000004 11.516666666666667 2.5000000000000004
decision_type=2 2 2 2 2 2 2 2 2 2 2 2
left_child=1 5 6 4 7 -1 9 -3 -5 -2 -6 -11
right_child=2 3 -4 8 10 -7 -8 -9 -10 11 -12 -13
leaf_value=0.0049851803641371914 -0.012939150958826069 0.025358370470384636 0.01110268731856422 -0.016498559845789129 0.053617160451028857 -0.031181722073779505 0 -0.012583371037673201 0.015449220695556213 -0.014509140791696559 0.021893957630504231 -0.041240860339840549
leaf_weight=10.306108683347704 8.1255551427602786 8.7458915263414401 10.276932179927824 9.0128523558378237 9.5057751089334506 10.00222299993038 10.142191767692564 7.7439694553613654 8.1189725548028928 6.2450265437364605 9.2780326157808286 16.826662868261337
leaf_count=51 48 37 49 50 33 55 50 38 37 34 34 110
internal_value=-0.00165455 0.00979328 -0.0175252 0.0195032 0.0289233 -0.0143339 -0.0250245 0.0080894 -0.00106375 -0.0323348 0.0433505 -0.036699
internal_weight=124.33 72.7138 51.6164 52.4055 35.2737 20.3083 41.3394 16.4899 17.1318 31.1972 18.7838 23.0717
internal_count=626 335 291 229 142 106 242 75 87 192 67 144
is_linear=0
shrinkage=0.05


Tree=27
num_leaves=12
num_cat=0
split_feature=20 12 2 17 14 12 13 13 6 2 2
split_gain=6.17268 7.81616 6.58905 3.82621 3.39671 10.1886 2.29436 4.64274 2.65168 3.7312 0.91613
threshold=0.87500000000000011 2.5000000000000004 4.5000000000000009 1.0000000180025095e-35 1.0000000180025095e-35 15.500000000000002 14.500000000000002 19.500000000000004 1.5000000000000002 7.5000000000000009 8.5000000000000018
decision_type=2 2 2 2 2 2 2 2 2 2 2
left_child=2 -2 3 4 -1 -6 -4 -8 9 -9 -3
right_child=1 10 6 -5 5 -7 7 8 -10 -11 -12
leaf_value=-0.002856855749505169 -0.017969050941140898 0.017828183637116638 -0.028980062516435486 -0.016945448532591088 0.054796694529009309 -0.012540712422161005 0.023163829188263721 -0.026157848993833405 -0.028771876371815663 0.01103612146053954 0.054433772358921162
leaf_weight=11.597514912486078 6.3389692902565029 8.3641791641712171 18.810978226363659 7.5538564622402182 11.300048843026163 7.5444761961698523 6.9109038263559333 7.7140507698059109 16.281307250261307 15.169074192643164 6.1452475488185874
leaf_count=51 34 45 97 41 60 35 37 41 94 65 26
internal_value=-0.000620142 0.0223328 -0.00581959 0.0101429 0.0179312 0.0295891 -0.0152757 -0.00814921 -0.0150482 -0.00288761 0.0402876
internal_weight=123.731 20.8484 102.882 37.9959 30.442 18.8445 64.8863 46.0753 39.1644 22.8831 14.5094
internal_count=626 105 521 187 146 95 334 237 200 106 71
is_linear=0
shrinkage=0.05


Tree=28
num_leaves=14
num_cat=0
split_feature=14 16 12 2 13 17 4 14 12 12 13 6 16
split_gain=6.87978 8.41356 3.86644 3.54628 2.77996 2.29242 4.8126 4.41281 2.40738 1.86693 1.64574 8.5197 1.55148
threshold=1.5000000000000002 16.533333333333335 26.500000000000004 8.5000000000000018 20.500000000000004 -0.43333333333333335 1.0000000180025095e-35 1.0000000180025095e-35 14.500000000000002 5.5000000000000009 11.500000000000002 2.5000000000000004 9.4500000000000011
decision_type=2 2 2 2 2 2 2 2 2 2 2 2 2
left_child=2 3 5 10 -3 7 -7 12 -9 -5 -2 -12 -1
right_child=1 4 -4 9 -6 6 -8 8 -10 -11 11 -13 -14
leaf_value=-0.034005173020406648 0.050999839568800047 -0.034359094537204551 0.014018004041586008 0.01922505380481308 0.0064907054879312122 -0.03425124567650159 0.007228478900814371 0.027458223764409762 -0.008453107269046951 -0.0092192985219148992 0.047082402869328036 -0.020408243896970837 -0.0018692567659738442
leaf_weight=7.2873604595661163 9.5548519194126147 7.3550641536712629 11.377089470624922 8.4365805536508578 5.3108154684305191 23.322918713092804 8.0282354950904864 8.7575253993272764 5.6029778420925149 8.7687686234712583 7.1621883362531644 6.1507677882909775 7.0469557195901871
leaf_count=37 54 40 59 43 29 105 41 48 32 40 38 27 33
internal_value=0 0.0133035 -0.00992733 0.0242233 -0.0189487 -0.0149948 -0.0237801 -0.00389606 0.0141193 0.0052644 0.0360295 0.0175755 -0.0215528
internal_weight=124.162 52.739 71.4231 40.0732 12.6659 60.046 31.3512 28.6948 14.3605 17.2053 22.8678 13.313 14.3343
internal_count=626 271 355 202 69 296 146 150 80 83 119 65 70
is_linear=0
shrinkage=0.05


Tree=29
num_leaves=12
num_cat=0
split_feature=15 6 19 6 17 12 1 17 17 1 16
split_gain=14.365 10.8386 7.07751 5.09201 4.39959 4.24378 2.97068 13.7749 3.30015 1.78372 2.00619
threshold=5.5000000000000009 1.5000000000000002 22.500000000000004 5.5000000000000009 0.80000000000000004 18.500000000000004 13.500000000000002 1.0000000180025095e-35 0.18333333333333332 18.500000000000004 9.2833333333333368
decision_type=2 2 2 2 2 2 2 2 2 2 2
left_child=2 5 9 4 6 -2 8 -8 -3 -1 -11
right_child=1 3 -4 -5 -6 -7 7 -9 -10 10 -12
leaf_value=-0.040261437034453368 -0.033031811493176425 0.044331480477685981 0.014968989325105708 0.057719887286816096 -0.013440061561887793 0.0084588154377238014 -0.020155873382159534 0.04843266185328373 0.0010253493385870361 0.0057155583607509247 -0.027811417443731192
leaf_weight=19.660069391131401 11.380940601229669 17.029342859983448 8.6790678948163968 7.3012488782405844 7.9592694938182822 8.7776402682065946 15.028750970959665 9.3945054113864881 6.1295489370822898 6.7972870767116529 6.0107034295797348
leaf_count=92 56 86 43 41 36 44 76 52 33 37 30
internal_value=0.0021942 0.0140823 -0.0210004 0.0240953 0.0168584 -0.0159942 0.0225219 0.00845682 0.0344927 -0.0312092 -0.0119942
internal_weight=124.148 83.0012 41.1471 62.8427 55.5414 20.1586 47.5821 24.4233 23.1589 32.4681 12.808
internal_count=626 424 202 324 283 100 247 128 119 159 67
is_linear=0
shrinkage=0.05


Tree=30
num_leaves=13
num_cat=0
split_feature=12 19 15 13 13 2 15 2 13 16 16 16
split_gain=4.49133 7.33204 4.33097 7.6103 3.63475 2.87534 2.67897 2.56989 2.40402 2.73048 0.120221 1.33043
threshold=2.5000000000000004 7.5000000000000009 5.5000000000000009 24.500000000000004 40.500000000000007 4.5000000000000009 4.5000000000000009 9.5000000000000018 34.500000000000007 7.1500000000000012 10.383333333333335 6.8333333333333339
decision_type=2 2 2 2 2 2 2 2 2 2 2 2
left_child=5 6 3 -3 -5 -1 -2 8 9 -4 11 -8
right_child=1 2 7 4 -6 -7 10 -9 -10 -11 -12 -13
leaf_value=-0.0051364872319895599 0.0039191886017041332 0.053617715789341491 0.0030067065751728846 -0.019834877966429056 0.020010448651254824 0.032433402390012488 -0.025338085499744308 0.012842693959146443 0.0076828709663187599 -0.032089061767518912 -0.033955932075613079 0.0034260305553475146
leaf_weight=6.2691933363676098 7.0126353651285163 7.7066129744052914 7.254939064383513 8.6104660332202929 8.2858279347419721 12.112638860940931 8.8488481715321559 11.774936452507971 8.5950788557529432 13.509755879640577 15.400457322597502 4.6899441406130782
leaf_count=32 32 28 39 44 31 56 51 56 43 77 87 28
internal_value=-0.000385226 -0.00468006 0.0052299 0.0206357 0 0.0204633 -0.0219359 -0.00464749 -0.0123569 -0.020785 -0.0281373 -0.0162576
internal_weight=120.071 101.69 65.7376 24.6029 16.8963 18.3818 35.9519 41.1347 29.3598 20.7647 28.9392 13.5388
internal_count=604 516 318 103 75 88 198 215 159 116 166 79
is_linear=0
shrinkage=0.05


Tree=31
num_leaves=11
num_cat=0
split_feature=1 6 15 12 0 1 15 1 15 1
split_gain=12.8651 6.17495 5.88086 4.82938 5.63351 4.21629 3.78472 1.63596 2.22785 1.43113
threshold=6.5000000000000009 1.5000000000000002 6.5000000000000009 26.500000000000004 2.5000000000000004 22.500000000000004 4.5000000000000009 19.500000000000004 6.5000000000000009 21.500000000000004
decision_type=2 2 2 2 2 2 2 2 2 2
left_child=2 3 -1 4 -2 6 -3 8 -8 -5
right_child=1 5 -4 9 -6 -7 7 -9 -10 -11
leaf_value=0.044122300145436971 0.041845880817290612 0.020488855470532429 -0.0015214064529065149 -0.026916956309619225 -0.0046648457845031299 -0.037911295310410001 -0.0031014469580111759 0.0055985192502199833 -0.031697000754117355 0.0019745823363431425
leaf_weight=15.975123897194864 10.296467721462252 6.0478743761777869 10.598410636186598 7.2730568051338178 11.368878737092016 18.673885270953178 12.605579078197481 5.6962978318333617 15.436882659792898 6.1848178803920746
leaf_count=60 43 24 57 40 50 116 60 30 95 29
internal_value=-0.00140377 -0.0102442 0.0274413 0.0059279 0.0196378 -0.0198568 -0.0092021 -0.0158989 -0.0205458 -0.0153959
internal_weight=120.157 93.5837 26.5735 35.1232 21.6653 58.4605 39.7866 33.7388 28.0425 13.4579
internal_count=604 487 117 162 93 325 209 185 155 69
is_linear=0
shrinkage=0.05


Tree=32
num_leaves=9
num_cat=0
split_feature=14 1 20 16 1 16 12 16
split_gain=5.56791 5.83612 5.74467 9.32384 4.02047 3.65637 3.12766 1.20253
threshold=3.5000000000000004 27.500000000000004 0.87500000000000011 11.316666666666668 2.5000000000000004 5.9500000000000011 28.500000000000004 9.8500000000000032
decision_type=2 2 2 2 2 2 2 2
left_child=1 2 4 -4 -1 -6 -7 -3
right_child=-2 7 3 -5 5 6 -8 -9
leaf_value=0.026795380695512117 -0.031149168055490773 0.047759510906064437 -0.012083793157201537 0.055539730812257326 0.017041331367274117 -0.016812216897382434 0.009444244040319634 0.0088712526695057161
leaf_weight=6.4192847460508338 8.3989409878849965 5.8785406053066236 7.5195100754499427 8.2556340992450696 9.9479459524154645 56.194517843425274 11.701044574379919 5.1908136159181595
leaf_count=31 46 33 39 38 50 276 62 29
internal_value=0.00217411 0.00548965 0.00116182 0.0262591 -0.00422067 -0.00773965 -0.0120085 0.0356589
internal_weight=119.506 111.107 100.038 15.7751 84.2628 77.8435 67.8956 11.0694
internal_count=604 558 496 77 419 388 338 62
is_linear=0
shrinkage=0.05


Tree=33
num_leaves=14
num_cat=0
split_feature=14 15 12 2 13 20 13 12 2 17 13 13 13
split_gain=9.32569 5.52081 4.97891 3.95073 3.50128 3.18692 2.32042 1.29679 1.93363 0.592164 2.43674 1.04252 0.127634
threshold=1.5000000000000002 8.5000000000000018 26.500000000000004 5.5000000000000009 7.5000000000000009 0.41666666666666669 53.500000000000007 16.500000000000004 8.5000000000000018 -0.43333333333333335 18.500000000000004 28.500000000000004 6.5000000000000009
decision_type=2 2 2 2 2 2 2 2 2 2 2 2 2
left_child=1 2 9 5 -5 -2 -4 8 -6 10 -1 -12 -11
right_child=3 -3 6 4 7 -7 -8 -9 -10 12 11 -13 -14
leaf_value=-0.028464848558881276 0.010051469579838677 0.024296599073740797 -0.010227503138654094 -0.015789344660457259 0.036315018736903397 0.054128457360421704 0.02560687923648404 -0.0027517004777967181 0.0033368502425770255 -0.011621890612305331 0.013470683860353098 -0.010966138075244748 -0.032529805147203425
leaf_weight=10.293365061283113 10.631859719753267 6.5457217097282401 6.058663606643675 11.14364981651306 7.5068559944629731 6.8235943615436545 6.4512769281864166 6.3603232055902472 9.5188519805669767 6.4034329801797893 6.2999871373176557 5.1776603162288666 20.901017040014267
leaf_count=52 50 33 32 59 39 37 32 35 45 31 35 28 96
internal_value=-2.15605e-06 -0.0119958 -0.01688 0.0154225 0.00450988 0.0329377 0.00930824 0.0150676 0.021389 -0.0238034 -0.0138385 0.00211359 -0.0294274
internal_weight=120.116 68.1311 61.5854 51.9851 34.5297 17.4555 12.5099 23.386 17.0257 49.0755 21.771 11.4776 27.3045
internal_count=604 339 306 265 178 87 64 119 84 242 115 63 127
is_linear=0
shrinkage=0.05


Tree=34
num_leaves=12
num_cat=0
split_feature=15 6 16 13 2 2 8 16 2 2 13
split_gain=14.1595 12.1097 11.7173 7.82931 7.71683 6.34711 7.86097 13.2138 7.80942 9.94083 2.65918
threshold=6.5000000000000009 3.5000000000000004 6.0833333333333339 43.500000000000007 5.5000000000000009 2.5000000000000004 1.5000000000000002 9.2833333333333368 7.5000000000000009 5.5000000000000009 27.500000000000004
decision_type=2 2 2 2 2 2 2 2 2 2 2
left_child=5 3 -3 4 -2 -1 7 -7 9 -9 -6
right_child=1 2 -4 -5 10 6 -8 8 -10 -11 -12
leaf_value=-0.040706356315834323 0.024756055767021602 -0.0088179878067434474 0.06373988639931287 0.039050655634065498 -0.040385162453536516 0.053117999964664514 -0.038266670566803898 -0.017777191631862567 -0.033954560987523981 0.0504769137595273 -0.0016271212455170809
leaf_weight=15.7022068798542 6.5964124947786358 6.7757724225521114 15.984536439180372 5.8716758489608756 13.091038048267366 7.8201135843992224 10.858356446027754 9.7931654602289253 14.520005866885183 6.3383664041757575 6.8450151681900016
leaf_count=77 37 34 84 33 58 43 51 45 68 37 37
internal_value=-0.000249864 0.0178292 0.0434339 -0.00217048 -0.0145023 -0.0157691 -0.00585723 0.00527599 -0.0104286 0.0124896 -0.0292491
internal_weight=120.197 55.1645 22.7603 32.4041 26.5325 65.0322 49.33 38.4717 30.6515 16.1315 19.9361
internal_count=604 283 118 165 132 321 244 193 150 82 95
is_linear=0
shrinkage=0.05


end of trees

feature_importances:
days_since_last_success=64
avg_inter_attack_interval=59
month=46
days_since_last_incident=42
type_inc_30d_sum=37
day_of_month=36
inc_30d_sum=27
streak_quiet_days=24
type_inc_7d_sum=22
attack_rate_trend=16
day_of_week=8
succ_30d_sum=5
success_ratio_7d=5
inc_3d_sum=3
inc_7d_sum=3
lag_inc_1d=1
had_incident_prev_1d=1

parameters:
[boosting: gbdt]
[objective: multiclass]
[metric: multi_logloss]
[tree_learner: serial]
[device_type: cpu]
[data_sample_strategy: bagging]
[data: ]
[valid: ]
[num_iterations: 500]
[learning_rate: 0.05]
[num_leaves: 31]
[num_threads: 18]
[seed: 42]
[deterministic: 1]
[force_col_wise: 1]
[force_row_wise: 0]
[histogram_pool_size: -1]
[max_depth: 6]
[min_data_in_leaf: 30]
[min_sum_hessian_in_leaf: 0.01]
[bagging_fraction: 0.8]
[pos_bagging_fraction: 1]
[neg_bagging_fraction: 1]
[bagging_freq: 1]
[bagging_seed: 400]
[bagging_by_query: 0]
[feature_fraction: 0.8]
[feature_fraction_bynode: 1]
[feature_fraction_seed: 30056]
[extra_trees: 0]
[extra_seed: 12879]
[early_stopping_round: 0]
[early_stopping_min_delta: 0]
[first_metric_only: 0]
[max_delta_step: 0]
[lambda_l1: 0.1]
[lambda_l2: 3]
[linear_lambda: 0]
[min_gain_to_split: 0.01]
[drop_rate: 0.1]
[max_drop: 50]
[skip_drop: 0.5]
[xgboost_dart_mode: 0]
[uniform_drop: 0]
[drop_seed: 17869]
[top_rate: 0.2]
[other_rate: 0.1]
[min_data_per_group: 100]
[max_cat_threshold: 32]
[cat_l2: 10]
[cat_smooth: 10]
[max_cat_to_onehot: 4]
[top_k: 20]
[monotone_constraints: ]
[monotone_constraints_method: basic]
[monotone_penalty: 0]
[feature_contri: ]
[forcedsplits_filename: ]
[refit_decay_rate: 0.9]
[cegb_tradeoff: 1]
[cegb_penalty_split: 0]
[cegb_penalty_feature_lazy: ]
[cegb_penalty_feature_coupled: ]
[path_smooth: 0]
[interaction_constraints: ]
[verbosity: -1]
[saved_feature_importance_type: 0]
[use_quantized_grad: 0]
[num_grad_quant_bins: 4]
[quant_train_renew_leaf: 0]
[stochastic_rounding: 1]
[linear_tree: 0]
[max_bin: 255]
[max_bin_by_feature: ]
[min_data_in_bin: 3]
[bin_construct_sample_cnt: 200000]
[data_random_seed: 175]
[is_enable_sparse: 1]
[enable_bundle: 1]
[use_missing: 1]
[zero_as_missing: 0]
[feature_pre_filter: 1]
[pre_partition: 0]
[two_round: 0]
[header: 0]
[label_column: ]
[weight_column: ]
[group_column: ]
[ignore_column: ]
[categorical_feature: ]
[forcedbins_filename: ]
[precise_float_parser: 0]
[parser_config_file: ]
[objective_seed: 16083]
[num_class: 5]
[is_unbalance: 0]
[scale_pos_weight: 1]
[sigmoid: 1]
[boost_from_average: 1]
[reg_sqrt: 0]
[alpha: 0.9]
[fair_c: 1]
[poisson_max_delta_step: 0.7]
[tweedie_variance_power: 1.5]
[lambdarank_truncation_level: 30]
[lambdarank_norm: 1]
[label_gain: ]
[lambdarank_position_bias_regularization: 0]
[eval_at: ]
[multi_error_top_k: 1]
[auc_mu_weights: ]
[num_machines: 1]
[local_listen_port: 12400]
[time_out: 120]
[machine_list_filename: ]
[machines: ]
[gpu_platform_id: -1]
[gpu_device_id: -1]
[gpu_use_dp: 0]
[num_gpu: 1]

end of parameters

pandas_categorical:[]
