tree
version=v4
num_class=5
num_tree_per_iteration=5
label_index=0
max_feature_idx=20
objective=multiclass num_class:5
feature_names=day_of_week day_of_month month lag_inc_1d inc_3d_sum inc_7d_sum inc_30d_sum succ_7d_sum succ_30d_sum had_incident_prev_1d had_incident_prev_3d had_incident_prev_7d days_since_last_incident days_since_last_success type_inc_7d_sum type_inc_30d_sum avg_inter_attack_interval attack_rate_trend streak_active_days streak_quiet_days success_ratio_7d
feature_infos=[0:6] [1:31] [1:12] [0:1] [0:2] [0:3] [0:6] [0:2] [0:4] [0:1] [0:1] [0:1] [1:999] [1:999] [0:5] [0:9] [3.4333333333333331:999] [-1.4000000000000001:2.2999999999999998] [0:2] [0:59] [0:1]
tree_sizes=1246 1645 1648 1349 1241 1611 1501 1508 1190 1186 1488 1296 1604 1495 1293 1189 1373 1705 1487 1394 1397 1398 1512 1274 1394 1174 1715 1612 1303 1581 1084 1605 1384 1502 1182 1501 1293 1403 1398 1285 1489 1380 1499 1606 1286 1603 1398 1397 1272 1291 1393 1508 1401 1494 1183 1299 1299 1493 1707 1505

Tree=0
num_leaves=11
num_cat=0
split_feature=15 12 19 12 2 15 15 15 12 13
split_gain=9.53734 6.24256 5.38892 6.41708 6.19084 3.74873 3.33902 4.02773 1.24248 0.805957
threshold=6.5000000000000009 4.5000000000000009 6.5000000000000009 17.500000000000004 5.5000000000000009 5.5000000000000009 5.5000000000000009 3.5000000000000004 12.500000000000002 49.500000000000007
decision_type=2 2 2 2 2 2 2 2 2 2
left_child=1 5 -3 6 9 -1 7 -4 -2 -5
right_child=8 2 3 4 -6 -7 -8 -9 -10 -11
leaf_value=-1.6387414290905322 -1.646522317039024 -1.574320745159743 -1.6306698380316174 -1.6011902931313933 -1.5611040892654975 -1.6016943016155685 -1.6402275540285753 -1.5948621340508924 -1.6138274301377977 -1.6221500844388141
leaf_weight=14.609242364764214 14.406580552458765 16.748814582824707 9.6685375720262545 7.8796808719635028 9.8344865143299085 9.1837204992771149 8.7028745263814908 17.625079542398453 4.9904762059450141 4.9015853404998779
leaf_count=77 88 76 50 37 39 42 43 88 24 29
internal_value=-1.61049 -1.60403 -1.597 -1.60496 -1.58564 -1.62499 -1.61787 -1.60856 -1.64005 -1.6098
internal_weight=118.551 99.154 75.3611 58.6122 22.6158 23.793 35.9965 27.2936 19.3971 12.7813
internal_count=593 481 362 286 105 119 181 138 112 66
is_linear=0
shrinkage=1


Tree=1
num_leaves=15
num_cat=0
split_feature=2 16 0 1 2 17 17 1 15 13 2 0 0 1
split_gain=4.80635 6.54796 6.62177 3.17841 3.00059 2.00776 4.97267 1.92716 1.92319 1.66809 1.12466 0.975029 1.88157 0.458808
threshold=7.5000000000000009 7.8833333333333337 2.5000000000000004 7.5000000000000009 10.500000000000002 0.68333333333333335 -1.0000000180025095e-35 17.500000000000004 5.5000000000000009 21.500000000000004 2.5000000000000004 1.5000000000000002 4.5000000000000009 12.500000000000002
decision_type=2 2 2 2 2 2 2 2 2 2 2 2 2 2
left_child=3 4 9 10 8 6 11 -8 -2 -3 -1 -5 -13 -4
right_child=1 2 13 5 -6 -7 7 -9 -10 -11 -12 12 -14 -15
leaf_value=-1.612043761649973 -1.6094378805561891 -1.6259835743410362 -1.5549849411568639 -1.5896444041720508 -1.59513194738149 -1.5915290374702702 -1.6095461663642177 -1.6434502301860985 -1.6441699577978606 -1.5963426534148355 -1.6422724425173929 -1.6206669409614027 -1.5925251226698485 -1.5881555011434922
leaf_weight=5.1858088076114646 6.1179759502410906 6.275521323084833 8.7961535751819628 7.9784547537565187 6.5001870244741431 8.2831332087516767 6.3324566781520941 11.552048608660696 7.1520031541585922 6.6824818551540375 10.55357578396797 11.012178510427477 7.2905855178832999 8.8385159820318204
leaf_count=26 28 34 36 37 30 38 31 68 43 28 63 52 35 44
internal_value=-1.60841 -1.59706 -1.58346 -1.6169 -1.61853 -1.61043 -1.61499 -1.63343 -1.63082 -1.6108 -1.63459 -1.60145 -1.60889 -1.56586
internal_weight=118.551 50.3628 30.5927 68.1882 19.7702 52.4489 44.1657 17.8845 13.27 12.958 15.7394 26.2812 18.3028 17.6347
internal_count=593 243 142 350 101 261 223 99 71 62 89 124 87 80
is_linear=0
shrinkage=1


Tree=2
num_leaves=15
num_cat=0
split_feature=19 16 12 13 16 12 16 2 16 16 13 12 15 2
split_gain=3.16338 6.50448 4.95237 3.77291 2.29206 4.98936 5.4367 2.1982 2.27 4.67003 1.34081 1.23231 0.586072 0.176165
threshold=10.500000000000002 7.7166666666666677 2.5000000000000004 43.500000000000007 9.5166666666666675 20.500000000000004 12.250000000000002 7.5000000000000009 9.1833333333333353 11.383333333333335 7.5000000000000009 5.5000000000000009 4.5000000000000009 11.500000000000002
decision_type=2 2 2 2 2 2 2 2 2 2 2 2 2 2
left_child=2 -2 10 4 -3 6 -6 8 -4 -10 -1 -11 -9 -14
right_child=1 3 7 -5 5 -7 -8 12 9 11 -12 -13 13 -15
leaf_value=-1.6069959165093113 -1.5625475519740284 -1.6186194796763878 -1.6319948134523421 -1.6337480318471378 -1.5535939855753085 -1.6191836416520988 -1.6113986261403217 -1.617532016083121 -1.5788629598169888 -1.605411851277273 -1.5787008925662143 -1.6317142223658518 -1.6428713878230876 -1.6200339254038421
leaf_weight=10.58081044256687 6.3019900619983664 10.061170458793638 7.8151458799839046 8.5532306581735593 7.3014079779386538 9.0700097084045392 6.1300770044326782 8.594297870993616 7.5989025682210949 5.8081465065479261 5.235847443342208 7.7056863605976105 12.062543138861658 5.7318124920129767
leaf_count=56 30 44 44 46 37 40 28 36 40 29 29 37 69 28
internal_value=-1.60994 -1.60031 -1.61654 -1.60901 -1.60087 -1.59259 -1.57582 -1.62355 -1.61313 -1.60442 -1.59396 -1.62143 -1.63326 -1.63835
internal_weight=118.551 47.4179 71.1332 41.1159 32.5627 22.5015 13.4315 55.3165 28.9279 21.1127 15.8167 13.5138 26.3887 17.7944
internal_count=593 225 368 195 149 105 65 283 150 106 85 66 133 97
is_linear=0
shrinkage=1


Tree=3
num_leaves=12
num_cat=0
split_feature=19 19 2 1 16 16 19 2 1 13 16
split_gain=8.33969 11.3304 6.96173 10.8424 5.92266 8.73943 3.91939 3.01199 1.31475 0.636795 1.00019
threshold=15.500000000000002 3.5000000000000004 5.5000000000000009 12.500000000000002 9.2166666666666668 7.3166666666666673 27.500000000000004 2.5000000000000004 10.500000000000002 20.500000000000004 10.050000000000002
decision_type=2 2 2 2 2 2 2 2 2 2 2
left_child=1 7 3 -3 5 -4 8 -1 -2 10 -9
right_child=6 2 4 -5 -6 -7 -8 9 -10 -11 -12
leaf_value=-1.5995566639614238 -1.6180456059200774 -1.5725687308495186 -1.5640578324348784 -1.6360310108949596 -1.5545984761382778 -1.6217518104767827 -1.6006179467814354 -1.6321666591938828 -1.6484200974357315 -1.6446462272523594 -1.6094379017036977
leaf_weight=6.9372318685054806 7.6637679487466874 8.0888537913560885 8.3862515836954135 14.109656453132628 14.773724079132078 13.055094182491301 6.4209485203027716 8.6846860498189979 14.78158079087734 7.4788677245378485 8.1704155802726728
leaf_count=37 36 45 45 70 77 59 35 43 62 39 45
internal_value=-1.60944 -1.60181 -1.58912 -1.61107 -1.57645 -1.59659 -1.63146 -1.62507 -1.64048 -1.63281 -1.62278
internal_weight=118.551 89.6848 58.4136 22.1985 36.2151 21.4413 28.8663 31.2712 22.4453 24.334 16.8551
internal_count=593 460 296 115 181 104 133 164 98 127 88
is_linear=0
shrinkage=1


Tree=4
num_leaves=11
num_cat=0
split_feature=2 15 2 12 6 12 1 16 16 13
split_gain=17.9593 30.8395 29.7254 17.6633 9.22253 7.34703 6.55603 9.49634 1.76029 0.57379
threshold=5.5000000000000009 6.5000000000000009 2.5000000000000004 9.5000000000000018 2.5000000000000004 4.5000000000000009 20.500000000000004 10.850000000000003 10.450000000000001 19.500000000000004
decision_type=2 2 2 2 2 2 2 2 2 2
left_child=2 5 4 -3 9 8 7 -4 -2 -1
right_child=1 3 6 -5 -6 -7 -8 -9 -10 -11
leaf_value=-1.6485728507835686 -1.623731691452202 -1.5368350924823084 -1.617535107600943 -1.635231607710375 -1.5813848957436349 -1.6524869661651302 -1.515991772047393 -1.5487589911450883 -1.5942553429785462 -1.6209347377061194
leaf_weight=11.265883207321172 8.5482046753168088 10.476805642247198 7.7178040146827724 4.9220318943262091 6.3937734067440024 40.454835295677185 7.74971118569374 8.2749408781528455 5.9925762116909018 6.7545073628425589
leaf_count=50 39 64 40 24 36 183 48 47 31 31
internal_value=-1.60895 -1.62477 -1.58618 -1.56764 -1.62428 -1.64219 -1.54954 -1.57825 -1.61078 -1.64157
internal_weight=118.551 70.3945 48.1566 15.3988 24.4142 54.9956 23.7425 15.9927 14.5408 18.0204
internal_count=593 341 252 88 117 253 135 87 70 81
is_linear=0
shrinkage=1


Tree=5
num_leaves=14
num_cat=0
split_feature=12 2 2 12 12 17 0 0 19 14 0 17 6
split_gain=7.09637 17.7198 2.59017 2.71229 4.46827 1.60315 1.45894 1.38651 1.12802 1.11969 0.992524 1.00766 0.782213
threshold=17.500000000000004 6.5000000000000009 1.5000000000000002 8.5000000000000018 4.5000000000000009 0.80000000000000004 2.5000000000000004 1.5000000000000002 24.500000000000004 1.5000000000000002 1.5000000000000002 -0.58333333333333326 2.5000000000000004
decision_type=2 2 2 2 2 2 2 2 2 2 2 2 2
left_child=2 8 -1 4 5 6 -4 -6 -2 10 -5 -12 -9
right_child=1 -3 3 9 7 -7 -8 12 -10 -11 11 -13 -14
leaf_value=0.015062715322218347 0.0059635430804128716 0.074818065158311187 -7.8417217270293342e-05 0.0027028239887889908 -0.0021153645017999469 0.0064425524021415985 -0.027884109528706704 0.030668496920995481 -0.01487684492182877 -0.034255309207371791 -0.00058122487061189137 -0.024487404348181262 0.0054657770928773063
leaf_weight=11.020010337233542 10.766757741570478 7.6410010755062094 7.1200527250766816 7.715217441320422 7.5048340409994152 5.7806743234395972 13.608373269438742 8.3005178272724134 9.3592539727687818 6.8881095200777045 7.2147634625434902 11.330821916460989 7.1632129848003379
leaf_count=53 49 28 38 39 37 29 72 40 50 36 34 62 36
internal_value=0.00165974 0.0225687 -0.00499631 -0.008164 -0.000427518 -0.0138037 -0.0197612 0.0146292 -0.00418438 -0.0185793 -0.0112061 -0.0167952 0.0220497
internal_weight=121.414 27.767 93.6466 82.6266 49.4777 26.5091 20.7284 22.9686 20.126 33.1489 26.2608 18.5456 15.4637
internal_count=603 127 476 423 252 139 110 113 99 171 135 96 76
is_linear=0
shrinkage=0.05


Tree=6
num_leaves=13
num_cat=0
split_feature=15 19 12 13 14 1 12 8 14 13 0 0
split_gain=5.83479 3.47615 7.62858 5.40288 5.36495 5.05794 3.96256 3.80577 3.36165 2.80138 1.8628 1.84768
threshold=6.5000000000000009 14.500000000000002 6.5000000000000009 45.500000000000007 1.0000000180025095e-35 21.500000000000004 2.5000000000000004 1.5000000000000002 1.0000000180025095e-35 14.500000000000002 2.5000000000000004 3.5000000000000004
decision_type=2 2 2 2 2 2 2 2 2 2 2 2
left_child=1 2 5 8 7 6 -1 9 -3 -4 -2 -8
right_child=10 3 4 -5 -6 -7 11 -9 -10 -11 -12 -13
leaf_value=-0.0024028547018881794 -0.036122399482394547 0.011097231056033767 0.0075271689924820695 -0.013107320177081281 -0.036506490814400078 -0.012886982990135534 0.051004789360963622 0.024993397229028047 0.050426168138881192 -0.032760536041669466 -0.0047516913708589474 0.01435716539156779
leaf_weight=8.396485313773157 8.2839296311140078 14.611258491873746 6.2516785413026827 7.5520225912332526 14.296648398041723 9.5881991833448392 9.1896219402551669 7.2078525871038428 9.2649861574172956 5.9980516731739044 10.714991420507429 10.086754858493803
leaf_count=43 50 68 30 42 78 50 38 31 36 34 59 44
internal_value=0.00169868 0.00658324 0.000183161 0.0196235 -0.0162281 0.0152755 0.0255025 0.00133527 0.0304698 -0.0144358 -0.021718 0.0365687
internal_weight=121.442 102.444 71.0153 31.4283 33.7542 37.2611 27.6729 19.4576 23.8762 12.2497 18.9989 19.2764
internal_count=603 494 348 146 173 175 125 95 104 64 109 82
is_linear=0
shrinkage=0.05


Tree=7
num_leaves=13
num_cat=0
split_feature=1 13 13 12 12 16 13 14 1 13 15 13
split_gain=5.10458 5.99726 3.49895 3.45267 6.04874 2.54816 2.13674 2.35099 1.87999 3.75384 2.29081 0.563089
threshold=13.500000000000002 16.500000000000004 32.500000000000007 17.500000000000004 12.500000000000002 11.283333333333337 4.5000000000000009 1.0000000180025095e-35 20.500000000000004 22.500000000000004 5.5000000000000009 6.5000000000000009
decision_type=2 2 2 2 2 2 2 2 2 2 2 2
left_child=1 6 -3 4 8 -4 -1 -8 10 11 -2 -10
right_child=3 2 5 -5 -6 -7 7 -9 9 -11 -12 -13
leaf_value=0.010496618508661397 0.014477693090324109 0.042967878417137527 -0.010706464424610181 -0.030000679897427086 0.026437539419094644 0.022859368845020656 0.0067609575025927727 -0.028536875510617111 -0.0097553211998448585 0.0095134843595544513 -0.016864648787924066 -0.035097679224254268
leaf_weight=7.9935487657785442 10.241763398051264 11.254687309265138 8.1545718461275118 14.260339602828024 10.001060873270033 8.7337959408760053 5.3753586858510998 10.888844624161718 6.7221972644329133 6.5998491644859305 7.3992788642644873 13.730628222227095
leaf_count=38 49 55 36 66 46 42 28 61 37 36 42 67
internal_value=-0.00162056 0.00978273 0.0244451 -0.0104023 -0.00391154 0.00723041 -0.00786285 -0.0173752 -0.0120433 -0.0196562 0.000548906 -0.029295
internal_weight=121.356 52.4008 28.1431 68.9551 54.6948 16.8884 24.2578 16.2642 44.6937 27.0527 17.641 20.4528
internal_count=603 260 133 343 277 78 127 89 231 140 91 104
is_linear=0
shrinkage=0.05


Tree=8
num_leaves=10
num_cat=0
split_feature=16 13 1 16 13 12 8 12 2
split_gain=11.648 6.35011 7.26614 6.88554 5.13694 2.90088 4.58732 1.89398 0.0760777
threshold=6.4666666666666677 37.500000000000007 8.5000000000000018 9.4500000000000011 28.500000000000004 16.500000000000004 1.5000000000000002 35.500000000000007 5.5000000000000009
decision_type=2 2 2 2 2 2 2 2 2
left_child=-1 2 3 -2 5 6 -4 -3 -5
right_child=1 7 4 8 -6 -7 -8 -9 -10
leaf_value=0.042986632694370364 -0.0077641916681717897 -0.035682643462732727 0.0070588917755029946 0.019339671299048754 0.025346352439854603 -0.03325306666820959 -0.022312576169324555 -0.0020076365312314544 0.05369784721518972
leaf_weight=10.411945715546606 9.3803016543388384 16.675246834754947 26.008741438388824 6.1524988263845426 7.0745157003402701 11.427378803491591 21.798098713159561 6.1854819208383551 6.2757711112499237
leaf_count=58 46 80 132 32 36 51 104 31 33
internal_value=-0.00106875 -0.00626854 6.6178e-05 0.0233376 -0.00819438 -0.0133093 -0.00676169 -0.0280543 0.0440811
internal_weight=121.39 110.978 88.1173 21.8086 66.3087 59.2342 47.8068 22.8607 12.4283
internal_count=603 545 434 111 323 287 236 111 65
is_linear=0
shrinkage=0.05


Tree=9
num_leaves=10
num_cat=0
split_feature=2 15 2 13 19 16 20 16 14
split_gain=18.2495 25.0739 24.3053 18.3105 9.99105 9.07687 6.65667 5.62156 11.1754
threshold=5.5000000000000009 6.5000000000000009 2.5000000000000004 76.500000000000014 7.5000000000000009 10.716666666666667 0.83333333333333337 10.883333333333335 1.0000000180025095e-35
decision_type=2 2 2 2 2 2 2 2 2
left_child=2 6 7 5 -3 -4 -2 8 -1
right_child=1 4 3 -5 -6 -7 -8 -9 -10
leaf_value=-0.032227195220844371 -0.041511825041230403 0.057806986124940153 0.025131507405340897 -0.023263814399722513 -0.014913115493741639 0.094378735603494301 0.003118051038130665 -0.035233249901861677 0.0482972212267226
leaf_weight=5.734755679965021 43.285552695393562 10.197742059826849 11.621828272938734 5.3858728408813468 5.6234256774187079 11.938501343131064 9.4576530158519727 12.615586608648298 5.5770065039396286
leaf_count=26 200 58 62 24 28 70 47 54 34
internal_value=-0.000630158 -0.0173723 0.0207579 0.0495288 0.0334368 0.0671055 -0.0336822 -0.0155024 0.00892615
internal_weight=121.438 68.5644 52.8736 28.9462 15.8212 23.5603 52.7432 23.9273 11.3118
internal_count=603 333 270 156 86 132 247 114 60
is_linear=0
shrinkage=0.05


Tree=10
num_leaves=13
num_cat=0
split_feature=12 17 12 2 1 8 1 12 1 16 0 16
split_gain=4.37822 3.73569 5.10651 11.2398 5.05614 3.19945 6.48601 1.83118 1.16411 1.03739 0.99481 0.70144
threshold=4.5000000000000009 0.18333333333333332 17.500000000000004 6.5000000000000009 14.500000000000002 1.5000000000000002 12.500000000000002 11.500000000000002 18.500000000000004 9.1166666666666689 3.5000000000000004 13.65
decision_type=2 2 2 2 2 2 2 2 2 2 2 2
left_child=8 2 5 11 -3 7 -7 9 -1 -2 -10 -4
right_child=1 4 3 -5 -6 6 -8 -9 10 -11 -12 -13
leaf_value=-0.028543891866765914 -0.01766145970695741 0.043768298113326838 -0.0016919937435548441 0.049367830668802661 -0.0037091086266785658 -0.022954777889144878 0.033970795445283489 -0.034358252287862705 -0.017105618808303386 0.006703598342993701 0.0067821966183379129 -0.021310816583584039
leaf_weight=17.508524090051655 6.1094352602958697 7.4450696855783489 10.294443592429166 8.8652497231960279 10.818159535527228 7.9610009938478452 6.2050230950117111 16.089186146855354 5.9866864085197431 5.7214357405900955 5.7324577271938324 7.3009236156940451
leaf_count=93 35 32 49 31 55 42 28 84 32 30 31 42
internal_value=-0.00535488 0.000417091 -0.00501003 0.0113286 0.0188546 -0.0154637 0.00326777 -0.0245243 -0.0210965 -0.00656879 -0.00608035 -0.0119937
internal_weight=116.038 86.8099 68.5467 26.4606 18.2632 42.0861 14.166 27.9201 29.2277 11.8309 11.7191 17.5954
internal_count=584 428 341 122 87 219 70 149 156 65 63 91
is_linear=0
shrinkage=0.05


Tree=11
num_leaves=11
num_cat=0
split_feature=12 16 13 15 12 2 17 8 13 15
split_gain=5.37581 9.73607 4.28863 4.05027 5.48691 7.12337 7.02765 6.18392 0.845914 0.195089
threshold=15.500000000000002 12.883333333333335 25.500000000000004 6.5000000000000009 6.5000000000000009 8.5000000000000018 0.68333333333333335 1.5000000000000002 14.500000000000002 5.5000000000000009
decision_type=2 2 2 2 2 2 2 2 2 2
left_child=3 2 -2 4 5 6 9 8 -6 -1
right_child=1 -3 -4 -5 7 -7 -8 -9 -10 -11
leaf_value=-0.029488721756572973 0.0091575903221602067 -0.020330518428528822 0.053238559337249115 -0.02790539164328671 -0.010267199994860502 0.038145172476115721 0.026994886979042333 0.014284389640906711 -0.035962620755686382 -0.0090322617947073795
leaf_weight=8.4473414272069949 12.531889855861666 10.097792536020277 10.40394467115402 14.788829475641249 8.7226255089044589 12.669851318001745 7.9300225079059592 10.114754199981688 13.875487640500067 6.4224426448345175
leaf_count=50 57 54 43 90 46 53 35 47 77 32
internal_value=0.000112211 0.0163613 0.0331912 -0.00664411 -0.000980558 0.0120903 -0.0049465 -0.0151181 -0.0286054 -0.0239328
internal_weight=116.005 33.0336 22.9358 82.9714 68.1825 35.4697 22.7998 32.7129 22.5981 14.8698
internal_count=584 154 100 430 340 170 117 170 123 82
is_linear=0
shrinkage=0.05


Tree=12
num_leaves=14
num_cat=0
split_feature=12 12 12 1 0 2 16 13 16 16 13 20 16
split_gain=4.61694 8.18768 7.59235 5.76545 5.41004 5.63948 4.92506 2.94446 1.21347 4.46122 1.82704 1.11481 1.30251
threshold=11.500000000000002 4.5000000000000009 20.500000000000004 13.500000000000002 4.5000000000000009 5.5000000000000009 11.516666666666667 25.500000000000004 11.383333333333335 8.7166666666666668 9.5000000000000018 0.83333333333333337 8.5833333333333339
decision_type=2 2 2 2 2 2 2 2 2 2 2 2 2
left_child=1 6 4 -4 5 -2 11 8 9 10 -3 12 -1
right_child=2 7 3 -5 -6 -7 -8 -9 -10 -11 -12 -13 -14
leaf_value=-0.0074205297837829148 0.0047976274231774215 0.001579826065932881 0.018210099305162663 -0.032860789745286431 -0.0014290574248263643 0.057848734721190523 0.038967136774500158 -0.03838881202164432 -0.021679869503424376 0.025329298857422335 -0.032270790777943752 -0.014112943001652448 0.018731948798625449
leaf_weight=6.189534887671476 8.2263603806495684 6.2770217359066063 7.4276145994663265 9.0889896005392057 9.8525476753711683 14.05458629131317 9.7687225341796857 10.499827131628988 7.5822990536689749 7.079031527042388 5.8656953871250153 6.5997618883848181 7.3437626510858536
leaf_count=33 43 33 37 45 44 65 51 51 39 37 34 33 39
internal_value=0.004489 -0.00393373 0.0157737 -0.0103689 0.0290913 0.0413531 0.0146693 -0.0189515 -0.00807189 -0.000276851 -0.0175957 -0.000428533 0.00729241
internal_weight=115.856 67.2057 48.6501 16.5166 32.1335 22.2809 29.9018 37.3039 26.804 19.2217 12.1427 20.1331 13.5333
internal_count=584 350 234 82 152 108 156 194 143 104 67 105 72
is_linear=0
shrinkage=0.05


Tree=13
num_leaves=13
num_cat=0
split_feature=16 13 12 12 1 2 16 13 16 14 16 13
split_gain=10.1772 5.94184 6.5467 14.8628 5.14496 9.35363 6.16051 3.87738 2.40536 3.13414 2.10742 1.01472
threshold=6.4666666666666677 38.500000000000007 5.5000000000000009 16.500000000000004 9.5000000000000018 8.5000000000000018 10.050000000000002 14.500000000000002 10.050000000000002 1.5000000000000002 21.333333333333339 24.500000000000004
decision_type=2 2 2 2 2 2 2 2 2 2 2 2
left_child=7 2 8 4 6 -6 -4 -1 -2 -10 -3 -5
right_child=1 10 3 11 5 -7 -8 -9 9 -11 -12 -13
leaf_value=0.0053873808595566036 -0.03180228478673066 -0.036326674845564476 0.0094473903637555291 -0.032290641147068359 -0.010105121230447768 0.047198407208548294 0.08166712615228193 0.061785028545389621 -0.025177016946858394 0.01228190597702368 -0.00078050551581760729 -0.0050020178775805483
leaf_weight=6.1917224973440153 12.432946011424066 14.925123900175096 6.2856296151876432 10.77082669734955 16.207281231880192 8.5559125244617444 5.2097320705652237 5.2086215764284134 6.5263056904077557 10.493460580706595 5.988323211669921 6.8607659637928
leaf_count=31 63 74 33 49 76 46 31 29 34 56 30 32
internal_value=-0.000428812 -0.0057579 0.000470275 0.0107317 0.0283892 0.0124744 0.0526506 0.0390053 -0.0174075 -0.00345252 -0.0277323 -0.0241858
internal_weight=115.657 104.256 83.3429 53.8901 36.2586 24.7632 11.4954 11.4003 29.4527 17.0198 20.9134 17.6316
internal_count=584 524 420 267 186 122 64 60 153 90 104 81
is_linear=0
shrinkage=0.05


Tree=14
num_leaves=11
num_cat=0
split_feature=15 12 16 16 16 1 13 14 12 13
split_gain=10.5053 10.9575 8.61729 8.44105 15.7362 6.16951 5.25458 12.8553 4.71156 1.54103
threshold=6.5000000000000009 9.5000000000000018 9.1166666666666689 11.483333333333336 35.233333333333341 24.500000000000004 12.500000000000002 1.0000000180025095e-35 4.5000000000000009 37.500000000000007
decision_type=2 2 2 2 2 2 2 2 2 2
left_child=3 2 -2 5 6 8 -5 -8 -1 -10
right_child=1 -3 -4 4 -6 -7 7 -9 9 -11
leaf_value=0.0040553071702616678 0.082123059062698081 -0.01907822687499271 0.0044852772113926995 0.059940685368845607 -0.036578393940168728 0.015039581630914872 0.048578446454368179 -0.026683312536036088 -0.034682281114912124 -0.0041486592145271129
leaf_weight=11.282898068428038 7.1915671080350894 5.6037642508745185 6.2886527180671692 8.3151577711105364 8.6188149452209455 10.552117332816122 8.4379952549934405 8.4597178697586042 34.635658666491508 6.0657377541065207
leaf_count=55 42 28 34 48 38 56 47 37 170 29
internal_value=0.00115166 0.0323529 0.0536173 -0.00576708 0.0135236 -0.0164208 0.0328962 0.0123058 -0.0233699 -0.0308434
internal_weight=115.452 19.084 13.4802 96.3681 33.8317 62.5364 25.2129 16.8977 51.9843 40.7014
internal_count=584 104 76 480 170 310 132 84 254 199
is_linear=0
shrinkage=0.05


Tree=15
num_leaves=10
num_cat=0
split_feature=16 12 2 16 16 16 16 15 1
split_gain=9.09476 7.02178 9.70373 3.16082 4.9569 4.03665 4.64728 2.16092 1.21802
threshold=29.950000000000006 17.500000000000004 7.5000000000000009 6.6500000000000012 11.666666666666668 10.583333333333334 9.1500000000000004 3.5000000000000004 17.500000000000004
decision_type=2 2 2 2 2 2 2 2 2
left_child=1 3 7 -1 5 6 -5 -3 -7
right_child=-2 2 -4 4 -6 8 -8 -9 -10
leaf_value=-0.033623258414164713 0.037386394735375292 -0.02148223140538414 0.055354239955191613 0.0031791279979670379 -0.031496638038734086 0.0020241760803070019 -0.028555317855174223 0.0099478815837776638 0.031543107057900914
leaf_weight=10.968770429491995 11.448781445622442 7.3909386098384919 7.5005842745304099 32.578746348619461 13.258406832814215 6.5256959050893766 14.265913575887678 8.6672747284173948 7.3355959951877594
leaf_count=62 52 42 25 164 75 33 79 39 34
internal_value=2.35669e-05 -0.00477425 0.0178508 -0.0115018 -0.0069735 -0.000308068 -0.00752185 -0.0053602 0.0207753
internal_weight=119.941 108.492 23.5588 84.9331 73.9644 60.706 46.8447 16.0582 13.8613
internal_count=605 553 106 447 385 310 243 81 67
is_linear=0
shrinkage=0.05


Tree=16
num_leaves=12
num_cat=0
split_feature=15 16 12 13 17 15 2 12 13 2 13
split_gain=6.39379 6.47319 4.76224 5.35877 5.00367 4.57086 4.51635 1.53367 1.96049 0.835705 0.146059
threshold=6.5000000000000009 12.883333333333335 15.500000000000002 14.500000000000002 0.41666666666666669 1.5000000000000002 7.5000000000000009 8.5000000000000018 3.5000000000000004 9.5000000000000018 27.500000000000004
decision_type=2 2 2 2 2 2 2 2 2 2 2
left_child=1 2 3 7 10 -3 -4 8 -1 -2 -5
right_child=9 5 6 4 -6 -7 -8 -9 -10 -11 -12
leaf_value=3.9759307220104184e-05 -0.036634579620389518 0.013868571767642519 0.0051822140300551373 -0.013153252163512617 0.012787869084182189 -0.028689577300128097 0.052837096822758473 0 0.030976847907793367 -0.0098783706293858672 -0.035855305192051025
leaf_weight=7.6189788579940823 9.0667420327663439 6.5746725648641613 10.759315147995951 7.5641419291496286 9.1296057999134064 18.973597377538681 8.1582110375165922 10.931050822138785 15.020974993705748 8.6881610900163633 8.1791737824678403
leaf_count=36 56 30 50 41 43 101 29 54 66 51 48
internal_value=-0.00173487 0.0032384 0.0104603 0.0027624 -0.013801 -0.0172559 0.0303808 0.0152964 0.0219835 -0.027103 -0.0290656
internal_weight=120.665 102.91 77.3615 58.4439 24.8729 25.5483 18.9175 33.571 22.64 17.7549 15.7433
internal_count=605 498 367 288 132 131 79 156 102 107 89
is_linear=0
shrinkage=0.05


Tree=17
num_leaves=15
num_cat=0
split_feature=12 12 16 16 16 15 16 1 16 2 2 16 17 13
split_gain=3.48197 4.43303 5.17951 5.53924 3.5503 6.5004 3.92448 1.78892 1.22779 4.87204 2.78421 2.5018 3.61837 0.288586
threshold=2.5000000000000004 11.500000000000002 12.466666666666669 23.200000000000003 9.5166666666666675 4.5000000000000009 8.0500000000000025 12.500000000000002 8.9166666666666696 10.500000000000002 8.5000000000000018 10.516666666666667 0.41666666666666669 8.5000000000000018
decision_type=2 2 2 2 2 2 2 2 2 2 2 2 2 2
left_child=7 8 4 -4 6 -6 -3 -1 9 -2 11 -10 -13 -9
right_child=1 2 3 -5 5 -7 -8 13 10 -11 -12 12 -14 -15
leaf_value=0.034505157528406043 -0.034022796596964069 0.024290734192914703 -0.036447788632377034 0.014773234802382105 -0.0036835954645944601 0.056859952104779267 -0.016510067381496053 0.0095837754427460231 0.024657832960916753 0.011979663309527239 -0.026495163140007771 -0.028993315736212052 0.011306365056098805 -0.0032148540695579042
leaf_weight=7.073363512754443 16.10832749307156 7.7550207376480129 8.5442159771919233 7.2416442930698386 6.4254890978336325 8.4724007546901685 10.015123412013052 6.5549569278955442 6.5181602090597215 6.2424538284540168 7.7113275527954093 6.7694502025842693 10.135495677590368 5.290874570608139
leaf_count=36 90 35 42 35 30 42 43 37 37 31 38 32 51 26
internal_value=0.000676398 -0.00308488 0.00757005 -0.0140776 0.018475 0.0342275 0.00199165 0.0188192 -0.0127154 -0.0210801 -0.00523914 0.00378317 -0.00651768 0.00403606
internal_weight=120.858 101.939 48.4539 15.7859 32.668 14.8979 17.7701 18.9192 53.4852 22.3508 31.1344 23.4231 16.9049 11.8458
internal_count=605 506 227 77 150 72 78 99 279 121 158 120 83 63
is_linear=0
shrinkage=0.05


Tree=18
num_leaves=13
num_cat=0
split_feature=12 12 13 13 1 2 1 12 13 2 14 1
split_gain=11.0043 13.3617 7.18761 7.42827 6.75023 3.59679 4.91021 3.13512 2.6783 3.05122 4.52425 2.11097
threshold=15.500000000000002 4.5000000000000009 10.500000000000002 35.500000000000007 19.500000000000004 7.5000000000000009 15.500000000000002 31.500000000000004 20.500000000000004 8.5000000000000018 1.5000000000000002 10.500000000000002
decision_type=2 2 2 2 2 2 2 2 2 2 2 2
left_child=1 8 4 5 -3 6 -4 11 9 10 -1 -2
right_child=7 2 3 -5 -6 -7 -8 -9 -10 -11 -12 -13
leaf_value=-0.019176124017101264 -0.004444965828711245 0.021469314784489629 0.046144317365726613 -0.0077857528946312024 -0.031251967009054603 0.066806205792413295 -0.003491499964196931 0.0031723315990014461 -0.035287686717469492 -0.021876624835562047 0.02757879918528261 -0.039799219620310244
leaf_weight=6.0420216023921993 6.7674365341663423 11.486894577741625 7.7921705245971742 6.5022861063480368 7.4466639906167975 12.138902902603148 8.2090409994125348 7.4100062847137442 7.9049515426158896 11.375848412513731 9.4154695272445661 17.633814409375191
leaf_count=32 33 58 40 33 36 63 40 39 44 55 52 80
internal_value=0 0.00914976 0.0243177 0.0369597 -0.000476671 0.0472135 0.0238859 -0.0238889 -0.0141843 -0.0048765 0.00888598 -0.0317367
internal_weight=120.126 88.3143 53.576 34.6424 18.9336 28.1401 16.0012 31.8113 34.7383 26.8333 15.4575 24.4013
internal_count=605 453 270 176 94 143 80 152 183 139 84 113
is_linear=0
shrinkage=0.05


Tree=19
num_leaves=12
num_cat=0
split_feature=2 16 15 2 12 16 17 16 1 20 12
split_gain=22.8476 23.1486 22.9053 17.0801 8.81099 10.2587 7.51852 4.77958 9.09832 4.55278 0.428972
threshold=5.5000000000000009 35.233333333333341 6.5000000000000009 2.5000000000000004 9.5000000000000018 10.883333333333335 0.18333333333333332 10.716666666666667 14.500000000000002 0.83333333333333337 4.5000000000000009
decision_type=2 2 2 2 2 2 2 2 2 2 2
left_child=1 3 9 4 5 -1 -4 8 -5 10 -2
right_child=2 -3 6 7 -6 -7 -8 -9 -10 -11 -12
leaf_value=0.06190020592340733 -0.019311683935323593 -0.037220508200669515 -0.0026088419444063211 -0.0096316165250341697 -0.0313718591668962 -0.017621710785398047 0.060998578424173604 0.088298669132082439 0.065816370684577213 -0.0013359526712703974 -0.043675595095822507
leaf_weight=6.1464856117963809 10.555949732661245 9.4480606317520124 7.9063390046358091 6.3403830826282519 7.5201703608036032 5.2719685733318329 7.0927209705114365 11.919584959745405 5.1687478572130203 10.001735225319861 32.744479566812515
leaf_count=37 49 42 42 33 36 25 38 67 28 49 159
internal_value=0.000925674 0.0252137 -0.0177154 0.0407875 0.00366321 0.0288105 0.0323455 0.0667855 0.0305101 -0.0328641 -0.0394802
internal_weight=120.117 51.8154 68.3012 42.3673 18.9386 11.4185 14.9991 23.4287 11.5091 53.3022 43.3004
internal_count=605 268 337 226 98 62 80 128 61 257 208
is_linear=0
shrinkage=0.05


Tree=20
num_leaves=12
num_cat=0
split_feature=12 2 15 12 13 13 1 2 12 13 14
split_gain=8.70824 10.9482 6.14486 3.63046 4.49515 4.71389 3.64845 3.32218 2.37788 2.26719 0.141778
threshold=17.500000000000004 6.5000000000000009 6.5000000000000009 8.5000000000000018 33.500000000000007 16.500000000000004 12.500000000000002 8.5000000000000018 23.500000000000004 24.500000000000004 1.5000000000000002
decision_type=2 2 2 2 2 2 2 2 2 2 2
left_child=2 8 3 4 5 7 -5 -1 -2 -8 -4
right_child=1 -3 10 6 -6 -7 9 -9 -10 -11 -12
leaf_value=-0.0055184179116706472 -0.020207365052645448 0.061637646430181464 -0.011665059108493822 -0.031569725218262235 0.030717814791551352 -0.033542383301257812 0.013195594163569031 0.026500889944835126 0.012070834434560383 -0.018352036546937744 -0.038567577111789188
leaf_weight=19.308436140418056 6.7935351878404679 8.1056151986122114 4.7412786483764675 13.54882572591305 10.84938298165798 6.4505877941846839 11.45840632915497 9.8621820062398893 10.625008165836332 6.3805707395076743 11.41373936831951
leaf_count=98 32 26 28 78 45 38 51 43 56 33 74
internal_value=-0.00145054 0.0228258 -0.00859503 -0.00219677 0.00649233 -0.00256966 -0.0146508 0.00661324 -0.00139267 0.000654288 -0.0339966
internal_weight=119.538 25.5242 94.0134 77.8584 46.4706 35.6212 31.3878 29.1706 17.4185 17.839 16.155
internal_count=602 114 488 386 224 179 162 141 88 84 102
is_linear=0
shrinkage=0.05


Tree=21
num_leaves=12
num_cat=0
split_feature=15 16 16 19 20 16 16 16 0 8 0
split_gain=8.70847 3.67617 9.57515 4.56736 2.69475 3.77387 3.53672 1.68693 1.65562 1.02894 0.0649191
threshold=6.5000000000000009 12.883333333333335 40.000000000000007 14.500000000000002 0.83333333333333337 8.0166666666666675 9.4166666666666696 9.9666666666666686 3.5000000000000004 1.5000000000000002 2.5000000000000004
decision_type=2 2 2 2 2 2 2 2 2 2 2
left_child=1 3 8 4 5 9 -7 -5 -3 -1 -2
right_child=10 2 -4 7 -6 6 -8 -9 -10 -11 -12
leaf_value=-0.028661655620286566 -0.034640872901172154 -0.037816352459365737 0.032352547639827402 0.044201747478214384 0.023434544642564489 0.024059511499707999 -0.0072246359729070554 0.00987378689466736 -0.0049934768509037938 -0.0018874516921232821 -0.014797206243898934
leaf_weight=8.0773649960756284 7.6534026563167599 10.176979094743734 7.2266861498355857 10.769376695156099 12.658364400267599 15.622205197811128 15.133755430579184 8.3826556950807554 7.4369706064462653 6.6043377220630637 10.417400270700453
leaf_count=46 50 58 28 40 58 70 79 38 42 31 62
internal_value=0.00216978 0.00803904 -0.00788641 0.0133259 0.00553808 -0.000487058 0.00924374 0.0327744 -0.026944 -0.0192642 -0.0271742
internal_weight=120.159 102.089 24.8406 77.2481 58.096 45.4377 30.756 19.152 17.6139 14.6817 18.0708
internal_count=602 490 128 362 284 226 149 78 100 77 112
is_linear=0
shrinkage=0.05


Tree=22
num_leaves=13
num_cat=0
split_feature=16 16 12 12 12 15 16 16 14 16 13 2
split_gain=3.03735 6.56418 2.81092 4.63629 3.46294 3.96857 2.48957 8.71871 2.47793 3.54005 0.460039 0.172867
threshold=10.350000000000003 9.6500000000000004 3.5000000000000004 8.5000000000000018 15.500000000000002 4.5000000000000009 11.583333333333334 12.333333333333336 1.0000000180025095e-35 23.200000000000003 8.5000000000000018 6.5000000000000009
decision_type=2 2 2 2 2 2 2 2 2 2 2 2
left_child=1 2 -1 10 5 -5 11 -8 -9 -10 -4 -2
right_child=6 -3 3 4 -6 -7 7 8 9 -11 -12 -13
leaf_value=0.018172070159732597 -0.011012615536402341 0.040482987610778016 -0.0090366428439764817 0.041067360402886013 -0.01646078597476211 -0.00080891714513137711 0.040471813548629082 -0.03455124056211583 -0.021597987961027243 0.014113205131814464 -0.033275891784420857 -0.028803953084849794
leaf_weight=10.895643189549444 9.4042019993066805 7.9444151222705832 6.6598869264125851 6.3333663493394914 9.8930874764919263 13.509532079100607 6.4057215303182593 7.348604932427409 10.784782394766809 10.989281505346296 9.5437172800302488 10.900600984692572
leaf_count=58 45 39 35 32 39 70 32 41 55 51 51 54
internal_value=-0.00222942 0.00499546 -0.00166244 -0.0072944 0.00451221 0.0159762 -0.0105243 -0.00187344 -0.0142531 -0.00384636 -0.0265417 -0.0232568
internal_weight=120.613 64.7796 56.8352 45.9396 29.736 19.8429 55.8332 35.5284 29.1227 21.7741 16.2036 20.3048
internal_count=602 324 285 227 141 102 278 179 147 106 86 99
is_linear=0
shrinkage=0.05


Tree=23
num_leaves=11
num_cat=0
split_feature=16 12 12 16 16 16 16 16 12 16
split_gain=7.40982 7.55719 11.6776 5.32606 5.51177 5.08266 2.67633 3.79051 2.3997 0.843291
threshold=11.383333333333335 16.500000000000004 4.5000000000000009 9.2166666666666668 7.3166666666666673 10.050000000000002 13.15 21.56666666666667 10.500000000000002 38.939655172413801
decision_type=2 2 2 2 2 2 2 2 2 2
left_child=1 2 5 4 -4 -1 -2 -8 -6 -9
right_child=6 -3 3 -5 8 -7 7 9 -10 -11
leaf_value=-0.027766742492934995 -0.03192862901064198 -0.023242748026485228 0.034908964559021337 0.05174090536344092 -0.019423149901527569 0.019619961373636283 0.018469185374089675 -0.0041120027097259091 0.011827564730287298 -0.027934784064589727
leaf_weight=15.482698798179628 14.715176649391649 12.542183637619017 14.811201229691504 14.343914970755575 8.7638490498065966 5.5397748351097098 8.0634026676416415 8.4348669946193713 9.850919157266615 7.7089863717555991
leaf_count=84 71 59 73 71 44 30 47 47 46 30
internal_value=0.000148507 0.00872439 0.01535 0.0285142 0.0149694 -0.0141806 -0.0169948 -0.00521337 -0.00330774 -0.0183439
internal_weight=120.257 81.3345 68.7924 47.7699 33.426 21.0225 38.9224 24.2073 18.6148 16.1439
internal_count=602 407 348 234 163 114 195 124 90 77
is_linear=0
shrinkage=0.05


Tree=24
num_leaves=12
num_cat=0
split_feature=2 1 12 2 16 14 4 2 16 16 16
split_gain=16.4272 21.8471 11.5401 9.14399 6.78226 5.2614 3.12857 2.52091 2.94615 1.4861 1.25637
threshold=6.5000000000000009 21.500000000000004 9.5000000000000018 2.5000000000000004 14.616666666666669 2.5000000000000004 1.0000000180025095e-35 5.5000000000000009 10.683333333333335 9.7500000000000018 8.5833333333333339
decision_type=2 2 2 2 2 2 2 2 2 2 2
left_child=1 3 5 9 -3 6 10 8 -5 -1 -2
right_child=2 4 -4 7 -6 -7 -8 -9 -10 -11 -12
leaf_value=-0.0040651212259731123 -0.0037179132022219677 0.084183744732201485 -0.041628865586695936 0.0010329757184436381 0.016227565726069655 0.03453122180546514 0.011163215861661534 -0.008319157825331068 0.038285410478967601 -0.037518302903422479 -0.030605542288478168
leaf_weight=5.9902577996253994 9.0787427425384539 9.9924363046884555 23.901548013091087 9.1761127263307625 7.8482054769992819 6.3772963583469382 10.71541987359524 6.1231906265020362 11.263078108429907 10.211604252457617 8.9144698381423932
leaf_count=32 45 55 120 47 38 34 54 32 54 48 43
internal_value=0.00132795 0.0191859 -0.0169796 -0.00108109 0.0611686 0.00163738 -0.00808765 0.0163298 0.0240471 -0.0279777 -0.0197472
internal_weight=119.592 60.6049 58.9875 42.7642 17.8406 35.0859 28.7086 26.5624 20.4392 16.2019 17.9932
internal_count=602 306 296 213 93 176 142 133 101 80 88
is_linear=0
shrinkage=0.05


Tree=25
num_leaves=10
num_cat=0
split_feature=16 15 16 19 17 1 16 19 19
split_gain=6.45837 4.37232 4.93994 5.48041 4.2547 4.93324 3.10787 2.95308 0.0501738
threshold=36.366666666666674 6.5000000000000009 14.683333333333335 21.500000000000004 0.41666666666666669 18.500000000000004 10.583333333333334 3.5000000000000004 18.500000000000004
decision_type=2 2 2 2 2 2 2 2 2
left_child=1 2 3 4 5 -1 -3 -6 -4
right_child=-2 6 8 -5 7 -7 -8 -9 -10
leaf_value=-0.019336340253888772 0.03154598041998629 -0.036145129139350564 -0.0330793681126786 0.039721616773019719 0 0.0097121534172541994 0.0061351824782378567 0.035316214210321918 -0.011679990125246202
leaf_weight=33.949299842119217 9.8271906375884992 14.032611951231958 6.3245541602373105 6.3522715568542472 12.61632324755192 21.534049659967422 4.5388938635587683 8.4391542524099332 6.5378259867429733
leaf_count=174 39 87 39 27 59 101 25 37 38
internal_value=-0.00214186 -0.00581281 -0.00114016 0.00357729 -0.000744669 -0.00805675 -0.0261638 0.0169174 -0.0267836
internal_weight=124.152 114.325 95.7535 82.8911 76.5388 55.4833 18.5715 21.0555 12.8624
internal_count=626 587 475 398 371 275 112 96 77
is_linear=0
shrinkage=0.05


Tree=26
num_leaves=15
num_cat=0
split_feature=19 16 17 12 2 14 13 16 16 5 13 14 13 13
split_gain=6.50118 6.38401 3.97198 2.82835 5.75579 3.63896 3.52014 2.70397 2.46121 2.18757 1.91226 1.62157 0.867286 0.627527
threshold=14.500000000000002 12.883333333333335 0.68333333333333335 4.5000000000000009 7.5000000000000009 1.0000000180025095e-35 21.500000000000004 9.1833333333333353 22.683333333333337 1.5000000000000002 24.500000000000004 1.0000000180025095e-35 7.5000000000000009 14.500000000000002
decision_type=2 2 2 2 2 2 2 2 2 2 2 2 2 2
left_child=2 11 3 4 -1 6 7 -5 -3 -4 12 -2 -7 -6
right_child=1 8 9 5 13 10 -8 -9 -10 -11 -12 -13 -14 -15
leaf_value=-0.020309263465039071 0.01499049282367315 -0.024614301057182004 0.033341479235954562 -0.0061748603747079208 0.03097434127801893 -0.010601606213823278 -0.02418625771337906 0.030675930356115152 0.01281432782940164 -0.0020464196849355348 -0.003419043063704795 0.046595095592293918 -0.039943229777081743 0.0061617135555821542
leaf_weight=10.216953262686731 12.173644527792932 6.3222064822912198 7.093245789408682 7.583764389157297 8.3083326220512372 6.8990840464830461 6.1687914431095114 7.430024728178978 5.5232911258935928 6.6825584173202515 8.7008654773235303 12.008423298597334 13.579117245972155 6.4119460731744757
leaf_count=59 53 35 30 38 39 38 35 32 28 34 43 47 83 32
internal_value=0.00373723 0.020794 -0.00356007 -0.0082313 0.00500534 -0.0147922 0.000944427 0.0138559 -0.00776258 0.0185809 -0.0253946 0.0342792 -0.0328888 0.0233214
internal_weight=125.102 36.0276 89.0747 75.2989 24.9372 50.3616 21.1826 15.0138 11.8455 13.7758 29.1791 24.1821 20.4782 14.7203
internal_count=626 163 463 399 130 269 105 70 63 64 164 100 121 71
is_linear=0
shrinkage=0.05


Tree=27
num_leaves=14
num_cat=0
split_feature=16 16 17 13 2 2 12 16 2 13 16 17 16
split_gain=3.71621 5.15251 5.29355 3.4551 2.51285 2.06177 1.67424 3.24292 1.01288 0.681154 0.382475 0.399061 0.332642
threshold=10.483333333333336 9.4500000000000011 -0.43333333333333335 35.500000000000007 4.5000000000000009 5.5000000000000009 11.500000000000002 7.5666666666666673 9.5000000000000018 4.5000000000000009 8.7166666666666668 -0.43333333333333335 23.200000000000003
decision_type=2 2 2 2 2 2 2 2 2 2 2 2 2
left_child=1 5 -3 9 -5 10 7 -7 -9 -2 11 -1 -11
right_child=3 2 -4 4 -6 6 -8 8 -10 12 -12 -13 -14
leaf_value=0.0010703729388962322 -0.0061402271768106493 0.051197592099275629 -0.0019269877553348847 -0.013301632854987212 0.019472599638851729 -0.024379271575360989 0.016331627180830213 0.019917631358371154 -0.0029329690932392754 -0.027261836213741061 -0.025624292787389893 -0.014464819273128822 -0.0074324872865651637
leaf_weight=6.2598580569028863 10.155244365334509 7.2064983695745468 7.9666309207677823 7.7705393731594112 9.8884374946355802 8.7839584648609179 12.573806360363958 7.1963994055986387 7.3598662763834 22.83496114611626 5.3440247625112525 5.4884561896324167 6.2068281173706046
leaf_count=33 53 32 40 44 40 50 54 33 37 120 29 31 30
internal_value=-0.00348584 0.00427788 0.0273159 -0.0126271 0.00497148 -0.00333744 0.00346313 -0.00435005 0.00955231 -0.0204639 -0.016259 -0.00731422 -0.0242726
internal_weight=125.036 68.1795 15.1731 56.856 17.659 53.0064 35.914 23.3402 14.5563 39.197 17.0923 11.7483 29.0418
internal_count=626 339 72 287 84 267 174 120 70 203 93 64 150
is_linear=0
shrinkage=0.05


Tree=28
num_leaves=11
num_cat=0
split_feature=16 13 16 14 14 2 16 13 16 14
split_gain=12.5441 4.51953 4.46543 9.18049 4.92198 5.91743 5.86878 7.32223 4.88407 3.02209
threshold=6.0500000000000007 37.500000000000007 8.7666666666666675 1.0000000180025095e-35 1.5000000000000002 1.5000000000000002 11.516666666666667 6.5000000000000009 14.733333333333336 1.0000000180025095e-35
decision_type=2 2 2 2 2 2 2 2 2 2
left_child=-1 2 3 -2 5 -4 7 -6 -7 -3
right_child=1 9 4 -5 6 8 -8 -9 -10 -11
leaf_value=0.05077375069469231 0.02200236982088042 0.00093030822564853406 -0.035171515996327583 -0.031754178023300439 0.00011044185396921522 -0.0031180539859632489 -0.006689468425577179 0.06936492596844239 0.037943954244071307 -0.035432914315961309
leaf_weight=8.0232168734073621 9.176740840077402 7.9019687473773983 7.7579751163721076 21.241716176271439 6.4103530347347277 28.13399913161993 8.1077997237443906 7.03248430788517 6.5041288733482352 14.358865760266779
leaf_count=42 45 45 33 102 33 141 41 39 36 69
internal_value=-0.000229477 -0.00496533 9.76102e-06 -0.0148678 0.00751058 -0.00252946 0.0253613 0.0426898 0.00686928 -0.0237495
internal_weight=124.649 116.626 94.3652 30.4185 63.9467 42.3961 21.5506 13.4428 34.6381 22.2608
internal_count=626 584 470 147 323 210 113 72 177 114
is_linear=0
shrinkage=0.05


Tree=29
num_leaves=14
num_cat=0
split_feature=15 12 16 16 6 12 16 12 16 16 16 16 1
split_gain=12.6014 13.2859 7.78036 14.4949 7.6572 7.61787 5.97262 2.7887 3.13375 8.0546 1.48614 1.07644 0.700759
threshold=6.5000000000000009 9.5000000000000018 11.716666666666667 36.366666666666674 1.5000000000000002 21.500000000000004 8.6666666666666679 9.5000000000000018 8.6666666666666679 9.8833333333333346 7.1666666666666679 10.550000000000002 23.500000000000004
decision_type=2 2 2 2 2 2 2 2 2 2 2 2 2
left_child=2 6 7 4 5 -4 -2 8 10 -10 -1 12 -9
right_child=1 -3 3 -5 -6 -7 -8 11 9 -11 -12 -13 -14
leaf_value=0 0.080780141647708081 -0.020379070764193138 -0.020490732671778741 -0.03630145788706711 0.059535137969796238 0.033825482144324313 0.013687087831003572 -0.03397989828827306 0.041017409497096223 -0.017238011759781704 -0.030280703762575686 -0.0030128208223574281 -0.0079545156338682345
leaf_weight=6.6252986639738074 7.9740154296159762 6.0933984816074362 9.7656638622283989 8.8201353996992093 9.509521156549452 10.187156721949576 7.1509165614843369 19.899125590920455 7.4591224640607861 10.902030304074286 8.7160988599061948 5.7485509961843482 6.0436346977949134
leaf_count=36 42 32 44 38 53 50 39 103 39 53 38 30 29
internal_value=0.00214394 0.0346888 -0.00525802 0.0119942 0.0286252 0.0078197 0.0568509 -0.0155139 -0.00462236 0.00863075 -0.019574 -0.0255512 -0.0295427
internal_weight=124.895 21.2183 103.676 38.2825 29.4623 19.9528 15.1249 65.3939 33.7026 18.3612 15.3414 31.6913 25.9428
internal_count=626 113 513 185 147 94 81 328 166 92 74 162 132
is_linear=0
shrinkage=0.05


Tree=30
num_leaves=9
num_cat=0
split_feature=12 19 16 16 16 17 15 2
split_gain=8.52315 9.91519 9.50792 5.11056 4.66539 3.96821 3.68183 6.87655
threshold=17.500000000000004 28.500000000000004 35.233333333333341 11.516666666666667 10.583333333333334 -0.43333333333333335 6.5000000000000009 8.5000000000000018
decision_type=2 2 2 2 2 2 2 2
left_child=2 5 3 4 6 -2 7 -1
right_child=1 -3 -4 -5 -6 -7 -8 -9
leaf_value=-0.020713923218939938 0.013525543915163305 -0.020896936644004618 0.037731927428490027 -0.03607966217320431 0.019973341214199015 0.058438910802707057 -0.033282636084744653 0.016394825438798579
leaf_weight=24.071485310792923 12.101786673069004 7.2131114155054084 8.0933730155229551 14.110546894371508 12.034804984927176 10.426172778010368 11.456736564636229 20.177185222506523
leaf_count=131 48 41 32 83 59 43 77 90
internal_value=0.00175283 0.0236843 -0.00597566 -0.0115376 -0.00504146 0.0389326 -0.0112754 -0.00372012
internal_weight=119.685 29.7411 89.9441 81.8508 67.7402 22.528 55.7054 44.2487
internal_count=604 132 472 440 357 91 298 221
is_linear=0
shrinkage=0.05


Tree=31
num_leaves=14
num_cat=0
split_feature=19 0 2 12 15 20 13 13 2 16 8 13 13
split_gain=4.95002 7.50866 12.9949 5.05372 4.48747 4.16631 2.90646 2.12598 2.06312 1.75152 1.66363 0.985751 0.394573
threshold=14.500000000000002 3.5000000000000004 5.5000000000000009 6.5000000000000009 4.5000000000000009 0.83333333333333337 29.500000000000004 8.5000000000000018 8.5000000000000018 10.450000000000001 1.5000000000000002 10.500000000000002 14.500000000000002
decision_type=2 2 2 2 2 2 2 2 2 2 2 2 2
left_child=3 6 -3 4 7 8 -2 -1 -6 -7 12 -12 -5
right_child=1 2 -4 10 5 9 -8 -9 -10 -11 11 -13 -14
leaf_value=0.001361618972338613 -0.023126731231931506 -0.013221116521959481 0.065291124201279457 -0.013761343010726271 -0.037125478118449462 -0.0060428762863607051 0.010115279457848819 0.035688620874224065 -0.0009509287071747829 0.024202580857827061 -0.016442022544014868 0.0066614558890019425 -0.035797396473988621
leaf_weight=8.7841482162475604 11.074831590056421 7.4624970108270672 9.5483668893575651 9.9210010170936602 9.4507666677236539 7.5516785830259323 9.6699354052543622 7.6850207149982444 6.4286798238754281 6.2819451987743378 6.2898962348699552 6.38418098539114 14.438973799347876
leaf_count=44 48 41 32 55 58 40 46 32 32 29 32 30 85
internal_value=-0.0026347 0.0117438 0.0337802 -0.00939794 0.00166843 -0.00963903 -0.00810052 0.0206675 -0.0252236 0.00926031 -0.0224137 -0.00543779 -0.0294986
internal_weight=120.972 37.7556 17.0109 83.2163 46.1822 29.7131 20.7448 16.4692 15.8794 13.8336 37.0341 12.6741 24.36
internal_count=604 167 73 437 235 159 94 76 90 69 202 62 140
is_linear=0
shrinkage=0.05


Tree=32
num_leaves=12
num_cat=0
split_feature=16 16 12 15 2 15 0 2 16 1 16
split_gain=5.8101 5.20847 3.53717 3.67826 3.15013 3.75851 3.74555 2.78647 2.74938 2.58193 1.27983
threshold=10.483333333333336 9.6500000000000004 5.5000000000000009 1.5000000000000002 5.5000000000000009 6.5000000000000009 4.5000000000000009 2.5000000000000004 11.516666666666667 18.500000000000004 7.5666666666666673
decision_type=2 2 2 2 2 2 2 2 2 2 2
left_child=1 4 8 -4 9 6 10 -5 -2 -1 -6
right_child=2 -3 3 7 5 -7 -8 -9 -10 -11 -12
leaf_value=0.0027931814129517076 -0.014408701569219001 0.038076388482507717 0.011701848440149411 0.0029750955752864657 0.0084140756838431401 -0.012846985342313398 -0.0038051365124395081 -0.032703706864058102 0.020005065000713234 -0.032115572596078938 0.040910258510685971
leaf_weight=11.364518523216249 6.705176234245303 11.887948170304297 6.2106862068176261 6.0049088150262859 6.7071524411439958 8.8563474565744382 9.5408037155866605 23.226211160421371 11.794806301593779 5.9547553956508628 12.028449550271032
leaf_count=59 35 54 30 24 31 55 40 128 59 36 53
internal_value=0.00205936 0.0117663 -0.00978174 -0.0185507 0.00424689 0.0122458 0.0207433 -0.0256244 0.0070294 -0.0119327 0.032274
internal_weight=120.282 66.34 53.9418 35.4418 54.452 37.1328 28.2764 29.2311 18.5 17.3193 18.7356
internal_count=604 328 276 182 274 179 124 152 94 95 84
is_linear=0
shrinkage=0.05


Tree=33
num_leaves=13
num_cat=0
split_feature=12 12 2 19 13 13 2 12 13 13 13 13
split_gain=7.81633 10.2434 7.49221 6.26074 3.85836 3.03547 2.96871 2.22687 2.2184 0.399613 0.313827 0.188323
threshold=16.500000000000004 4.5000000000000009 5.5000000000000009 30.500000000000004 34.500000000000007 7.5000000000000009 2.5000000000000004 13.500000000000002 18.500000000000004 9.5000000000000018 20.500000000000004 3.5000000000000004
decision_type=2 2 2 2 2 2 2 2 2 2 2 2
left_child=1 6 8 -2 5 -4 -1 -7 9 -3 11 -8
right_child=3 2 4 -5 -6 7 10 -9 -10 -11 -12 -13
leaf_value=0.0097282698213882572 -0.033124217984084513 -0.002241600881814593 0.0053086335924397345 0.015559941063626591 -0.0025117365984812716 0.05480254543263046 -0.018877496901307855 0.012948073459612209 0.015998644271576705 -0.019441538127403249 -0.033521747291071859 -0.0047404331491218907
leaf_weight=6.9764434248209026 22.693249687552456 7.0134416371583965 6.926318600773814 6.7215858250856391 6.2772741466760626 17.454717591404918 8.7576144188642555 6.8776736706495276 6.575441285967826 8.6649253219366056 7.0620635375380507 7.734285056591033
leaf_count=37 111 35 33 37 29 85 48 29 36 43 41 40
internal_value=-0.000249815 0.00706321 0.0188283 -0.0214347 0.0316573 0.0382841 -0.0154512 0.0458748 -0.00380284 -0.0136109 -0.0233539 -0.0142541
internal_weight=119.735 90.3202 59.7898 29.4148 37.536 31.2587 30.5304 24.3324 22.2538 15.6784 23.554 16.4919
internal_count=604 456 290 148 176 147 166 114 114 78 129 88
is_linear=0
shrinkage=0.05


Tree=34
num_leaves=10
num_cat=0
split_feature=2 15 16 2 19 19 16 1 19
split_gain=17.6832 22.1172 17.9533 11.9697 8.98666 6.90579 5.90376 8.75681 2.1809
threshold=5.5000000000000009 6.5000000000000009 35.233333333333341 2.5000000000000004 4.5000000000000009 6.5000000000000009 10.716666666666667 13.500000000000002 2.5000000000000004
decision_type=2 2 2 2 2 2 2 2 2
left_child=2 8 3 5 -3 -1 7 -5 -2
right_child=1 4 -4 6 -6 -7 -8 -9 -10
leaf_value=0.029694108617079759 -0.010189013370617591 0.057803313098315524 -0.036197645203957289 -0.019957229087737165 -0.0069232163831851688 -0.025279547155370348 0.070879062035333867 0.051207388064535099 -0.039573244140479469
leaf_weight=7.4892925024032619 11.04513895511627 8.2337154746055621 8.948894724249838 5.9572219997644442 8.9388045668601972 9.5429824441671354 15.212761998176573 5.8686491400003433 38.780053347349167
leaf_count=41 54 42 41 31 46 47 76 29 197
internal_value=-0.000866847 -0.0176404 0.0200492 0.0331558 0.0278444 -3.04871e-05 0.0521423 0.018237 -0.0341026
internal_weight=120.018 66.9977 53.0198 44.0709 17.1725 17.0323 27.0386 11.8259 49.8252
internal_count=604 339 265 224 88 88 136 60 251
is_linear=0
shrinkage=0.05


Tree=35
num_leaves=13
num_cat=0
split_feature=12 17 0 1 12 12 1 17 0 12 0 1
split_gain=7.90495 4.10639 7.91542 5.62504 5.43933 3.1049 2.5153 1.99952 1.32749 1.20668 0.640274 0.400046
threshold=4.5000000000000009 -0.43333333333333335 3.5000000000000004 18.500000000000004 15.500000000000002 10.500000000000002 9.5000000000000018 -0.58333333333333326 4.5000000000000009 17.500000000000004 1.5000000000000002 20.500000000000004
decision_type=2 2 2 2 2 2 2 2 2 2 2 2
left_child=8 2 4 6 11 -5 9 -4 10 -3 -1 -2
right_child=1 3 7 5 -6 -7 -8 -9 -10 -11 -12 -13
leaf_value=-0.0082244710467818515 -0.0095891664292168909 -0.0022681156606227655 -0.0018159240525389834 0.012016261713023755 0.039230309392040294 -0.025976794932583976 0.043037179015695586 -0.038424207988661412 -0.0019512915839089548 0.022635221201674677 -0.031827716617518036 0.0042286209382262855
leaf_weight=7.5050117522478166 9.6157950907945651 7.5333254784345645 6.0764859318733224 9.480983689427374 9.3975774347782117 6.4856997579336158 15.643882617354391 10.035180099308491 9.0206390842795354 7.4994194805622101 13.806846112012861 6.0746326595544806
leaf_count=43 53 36 31 51 38 40 67 51 48 32 79 30
internal_value=0.00116645 0.00881877 -0.00256992 0.0185264 0.0143748 -0.00482073 0.0301736 -0.0273314 -0.0196438 0.011577 -0.025762 -0.00415195
internal_weight=118.175 87.843 41.1997 46.6433 25.088 15.9667 30.6766 16.1117 30.3325 15.0327 21.3119 15.6904
internal_count=599 429 203 226 121 91 135 82 170 68 122 83
is_linear=0
shrinkage=0.05


Tree=36
num_leaves=11
num_cat=0
split_feature=16 16 12 1 15 1 1 0 0 0
split_gain=3.82448 4.05353 5.56706 2.95606 3.76449 4.68428 3.99547 2.18277 2.03494 1.39592
threshold=40.000000000000007 12.883333333333335 15.500000000000002 21.500000000000004 4.5000000000000009 12.500000000000002 12.500000000000002 3.5000000000000004 3.5000000000000004 4.5000000000000009
decision_type=2 2 2 2 2 2 2 2 2 2
left_child=1 2 3 4 5 -1 -6 -3 -4 -5
right_child=-2 7 8 9 6 -7 -8 -9 -10 -11
leaf_value=-0.0051345448127880595 0.025709533076450464 -0.03740441324041216 0.0033746958411844993 -0.030309283385458477 0.0057087427583248536 0.040754564097127882 -0.027639338041439383 -0.0031593024398790734 0.032716971948937905 -0.0016098850589121279
leaf_weight=10.729195579886438 8.0579287707805616 10.147062167525293 12.517941132187845 13.376222670078279 16.337554618716243 7.0959185212850562 14.493752762675284 8.6668860167264921 10.67802983522415 6.7046763598918906
leaf_count=52 32 60 51 80 86 28 83 48 42 37
internal_value=-0.00236925 -0.0050804 -0.000413595 -0.00765482 -0.000525802 0.0161325 -0.0108811 -0.0244622 0.0192729 -0.0223984
internal_weight=118.805 110.747 91.9333 68.7373 48.6564 17.8251 30.8313 18.8139 23.196 20.0809
internal_count=599 567 459 366 249 80 169 108 93 117
is_linear=0
shrinkage=0.05


Tree=37
num_leaves=12
num_cat=0
split_feature=16 12 16 16 16 3 16 16 16 1 1
split_gain=4.37789 3.06241 5.60662 3.59594 3.7861 2.78215 2.72864 1.93301 1.67013 4.18949 1.34678
threshold=42.157407407407412 11.500000000000002 7.8833333333333337 23.200000000000003 12.466666666666669 1.0000000180025095e-35 9.5166666666666675 12.750000000000002 7.5166666666666675 5.5000000000000009 16.500000000000004
decision_type=2 2 2 2 2 2 2 2 2 2 2
left_child=1 5 -3 4 6 7 -4 8 10 -10 -1
right_child=-2 2 3 -5 -6 -7 -8 -9 9 -11 -12
leaf_value=-0.0023303979575453096 0.032552062712587503 0.037142510877546123 -0.01689379458709879 0.026483759878750547 -0.034516022458893098 0.014522666762962877 0.012585068278904389 -0.034491251413766293 -0.03280390777981778 0.0054756324931556121 -0.033941433838697285
leaf_weight=6.3082312345504743 6.1615506857633582 8.2554044872522336 10.16584372520447 5.6659005731344214 7.6187948957085601 7.2311922013759604 16.406081825494766 7.3496397137641898 6.0964070260524741 30.296533517539501 7.114136703312397
leaf_count=36 26 36 44 30 42 39 74 41 32 157 42
internal_value=-0.000685231 -0.00334694 0.00592516 -0.00257153 -0.00926878 -0.0103039 0.000568303 -0.0140951 -0.00920298 -0.00281975 -0.022529
internal_weight=118.67 112.508 48.112 39.8566 34.1907 64.3961 26.5719 57.1649 49.8153 36.3929 13.4224
internal_count=599 573 226 190 160 347 118 308 267 189 78
is_linear=0
shrinkage=0.05


Tree=38
num_leaves=12
num_cat=0
split_feature=12 17 2 1 17 16 12 13 13 1 16
split_gain=7.81453 8.64534 6.07121 7.54205 4.17138 4.22833 3.90619 3.51306 3.16274 3.91561 3.25283
threshold=17.500000000000004 0.18333333333333332 5.5000000000000009 12.500000000000002 -0.43333333333333335 8.8166666666666682 31.500000000000004 32.500000000000007 16.500000000000004 17.500000000000004 10.350000000000003
decision_type=2 2 2 2 2 2 2 2 2 2 2
left_child=1 2 3 -1 5 -4 -2 8 9 10 -3
right_child=6 7 4 -5 -6 -7 -8 -9 -10 -11 -12
leaf_value=0.0270707116049691 -0.034639109177234347 -0.013925939013960465 0.018655603264968131 -0.026722028770240287 0.0060282729541226952 0.06927653765484891 0.0061194683697424262 -0.032568106627859965 0.026742162142566191 -0.026307933346536194 0.025049166923446838
leaf_weight=9.3243014663457888 17.227559797465805 7.0804460048675564 12.336908549070364 10.813546441495417 11.617137357592581 7.9471617192029944 6.8910610377788535 9.0415398105978948 5.1965001970529547 12.460670873522757 8.6911288648843747
leaf_count=47 86 38 55 55 54 39 37 45 31 69 43
internal_value=0.000285616 0.00692114 0.0201151 -0.00131812 0.0327386 0.0450738 -0.0234207 -0.00939609 -0.000825524 -0.0081411 0.00785621
internal_weight=118.628 94.5093 52.0391 20.1378 31.9012 20.2841 24.1186 42.4703 33.4287 28.2322 15.7716
internal_count=599 476 250 102 148 94 123 226 181 150 81
is_linear=0
shrinkage=0.05


Tree=39
num_leaves=11
num_cat=0
split_feature=2 16 12 15 2 17 16 16 17 13
split_gain=17.2387 18.0772 16.4492 13.5449 10.524 9.16872 4.57349 2.81597 2.81825 0.709856
threshold=5.5000000000000009 35.233333333333341 9.5000000000000018 6.5000000000000009 2.5000000000000004 1.0000000180025095e-35 11.083333333333334 11.483333333333336 0.41666666666666669 23.500000000000004
decision_type=2 2 2 2 2 2 2 2 2 2
left_child=1 4 3 7 5 -1 9 8 -2 -6
right_child=2 -3 -4 -5 6 -7 -8 -9 -10 -11
leaf_value=-0.025657644027850451 -0.00073610349686430143 -0.035646717817507917 -0.042967003963280501 0.045415768960795411 0.0055017097193682998 0.036050452432695862 0.070691923842528009 0.011641354822811138 -0.037460809577727405 0.031711117526702554
leaf_weight=9.8043081909418124 9.3136733472347313 8.69157826900482 27.252416148781776 11.431093171238897 6.580766364932062 8.3615465015172941 14.499880835413931 5.8581921458244315 10.211152449250219 5.8949679583311081
leaf_count=47 51 40 147 57 31 46 70 31 47 32
internal_value=0.00157879 0.021839 -0.015586 0.00626803 0.0345428 0.00359355 0.0527722 -0.0141226 -0.0225957 0.0219557
internal_weight=117.9 53.833 64.0665 36.8141 45.1415 18.1659 26.9756 25.383 19.5248 12.4757
internal_count=599 266 333 186 226 93 133 129 98 63
is_linear=0
shrinkage=0.05


Tree=40
num_leaves=13
num_cat=0
split_feature=12 15 2 8 0 15 1 12 13 1 17 12
split_gain=6.27366 6.86357 5.89871 3.20644 4.84544 3.04707 3.76266 3.46153 4.22342 2.67624 1.63136 0.301759
threshold=17.500000000000004 6.5000000000000009 6.5000000000000009 1.5000000000000002 4.5000000000000009 4.5000000000000009 23.500000000000004 8.5000000000000018 33.500000000000007 8.5000000000000018 1.0000000180025095e-35 7.5000000000000009
decision_type=2 2 2 2 2 2 2 2 2 2 2 2
left_child=1 3 9 5 10 7 -7 8 -1 -2 -5 -3
right_child=2 11 -4 4 -6 6 -8 -9 -10 -11 -12 -13
leaf_value=-0.0029936847390081636 -0.018375775876617532 -0.036839737650542374 0.047819516678259164 0.014088031912398227 0.041200507405715514 -0.029800094049676647 0.0086221927753356419 -0.013107710884459309 0.042876433895254529 0.015925246981844103 -0.011974114018577595 -0.0091617225611903309
leaf_weight=9.2010443583130854 6.219879209995276 10.193862438201903 10.151141211390494 7.9726351350545945 8.519237279891966 15.205241382122042 7.8468308150768271 10.839796490967272 6.7605916559696189 11.81450070440769 10.255935952067373 4.358194299042224
leaf_count=48 31 71 31 38 39 84 36 58 26 57 51 27
internal_value=0.00289307 -0.00357341 0.0222983 0.00272639 0.0158147 -0.00470034 -0.0170426 0.0063945 0.0198808 0.00292389 0 -0.031818
internal_weight=119.339 91.1534 28.1855 76.6013 26.7478 49.8535 23.0521 26.8014 15.9616 18.0344 18.2286 14.5521
internal_count=597 478 119 380 128 252 120 132 74 88 89 98
is_linear=0
shrinkage=0.05


Tree=41
num_leaves=12
num_cat=0
split_feature=12 16 16 1 16 15 14 1 12 14 20
split_gain=3.80713 6.33495 2.88101 2.48785 2.2951 2.21812 2.77094 5.22325 3.69495 1.77439 1.20334
threshold=15.500000000000002 10.550000000000002 41.017857142857146 14.500000000000002 12.516666666666667 6.5000000000000009 1.5000000000000002 9.5000000000000018 4.5000000000000009 1.0000000180025095e-35 0.83333333333333337
decision_type=2 2 2 2 2 2 2 2 2 2 2
left_child=2 3 4 -2 5 6 7 -1 -8 -3 -7
right_child=1 9 -4 -5 -6 10 8 -9 -10 -11 -12
leaf_value=-0.036377584747716456 0.0084343288057733886 -0.021026388637187157 0.020529938391551702 0.048789511209778126 -0.029160277691220027 -0.029147326544206098 0.029714546565217229 0.0032337605760225647 -0.010842783894655235 0.0062784396007047345 0
leaf_weight=8.3722875863313657 8.5419481992721575 7.929531708359721 6.6591875702142707 8.4373394846916181 8.6582365185022336 8.9127660095691663 11.348054453730585 28.843214936554432 6.9689311981201163 10.421412236988543 4.7053069770336142
leaf_count=46 35 46 27 28 54 62 49 141 36 44 29
internal_value=0.000259873 0.0134314 -0.00546389 0.0330528 -0.00843 -0.00466054 4.32571e-05 -0.00760212 0.0146951 -0.00658252 -0.0206879
internal_weight=119.798 35.3302 84.468 16.9793 77.8088 69.1506 55.5325 37.2155 18.317 18.3509 13.6181
internal_count=597 153 444 63 417 363 272 187 85 90 91
is_linear=0
shrinkage=0.05


Tree=42
num_leaves=13
num_cat=0
split_feature=1 12 0 15 12 1 2 0 12 2 12 13
split_gain=2.87125 3.78119 2.88733 3.78175 2.26639 4.142 3.26085 2.36128 2.19893 2.05983 1.87199 0.0765134
threshold=20.500000000000004 2.5000000000000004 4.5000000000000009 5.5000000000000009 10.500000000000002 13.500000000000002 2.5000000000000004 1.5000000000000002 12.500000000000002 10.500000000000002 18.500000000000004 16.500000000000004
decision_type=2 2 2 2 2 2 2 2 2 2 2 2
left_child=1 -1 3 8 6 7 -3 -6 -2 11 -9 -8
right_child=2 4 -4 -5 5 -7 9 10 -10 -11 -12 -13
leaf_value=0.027900266322011275 -0.027570577440409721 0.013553730072007074 -0.029804201855055709 0.018086170187353295 -0.0041356659218061542 -0.014446813265098815 -0.031541037782538035 0.0083681741977622761 0.0055051929682683846 0.0026390840177172455 0.041964106894656267 -0.010626584042709422
leaf_weight=10.844502091407774 10.497763589024549 8.2146662771701831 11.800933577120302 10.847006827592848 7.4180022776126888 11.983339488506315 10.933049887418752 10.65285946428776 6.2941589504480353 7.0328062176704398 7.7198148295283309 5.8113909959793082
leaf_count=54 57 40 57 59 34 52 59 53 29 36 36 31
internal_value=-0.00134474 0.00402098 -0.0119384 -0.00197578 -0.00061938 0.00734659 -0.00999145 0.0180965 -0.0159648 -0.0189198 0.0266273 -0.0272531
internal_weight=120.05 80.6104 39.4399 27.6389 69.7659 37.774 31.9919 25.7907 16.7919 23.7772 18.3727 16.7444
internal_count=597 395 202 145 341 175 166 123 86 126 89 90
is_linear=0
shrinkage=0.05


Tree=43
num_leaves=14
num_cat=0
split_feature=12 17 1 12 13 13 13 15 12 1 15 1 1
split_gain=8.63525 7.36891 5.9182 3.98434 4.29982 3.56078 4.65342 2.78437 2.38855 1.6619 0.91429 0.848326 0.52481
threshold=16.500000000000004 0.18333333333333332 11.500000000000002 13.500000000000002 15.500000000000002 31.500000000000004 14.500000000000002 6.5000000000000009 31.500000000000004 19.500000000000004 5.5000000000000009 21.500000000000004 9.5000000000000018
decision_type=2 2 2 2 2 2 2 2 2 2 2 2 2
left_child=1 2 10 4 11 6 7 9 12 -3 -1 -4 -2
right_child=8 5 3 -5 -6 -7 -8 -9 -10 -11 -12 -13 -14
leaf_value=0.051837978888025785 -0.010281107661554035 -0.0051046227470677883 0.0096279172274493299 -0.019242354391277066 0.039465826462291909 -0.031438608086121804 0.030846793706399613 0.014648075732495561 0.0026457819635754979 -0.033411907195182312 0.017167544367567886 -0.010519856672960147 -0.036484910859485652
leaf_weight=9.7394115477800387 6.319852448999888 15.106521323323255 6.8729333132505479 8.35260361433029 8.3612373769283277 8.3547386229038221 6.7477046996355048 6.857691526412963 5.9816819578409186 6.7630942910909644 7.9917243570089331 8.0216475129127485 13.775574557483194
leaf_count=49 33 71 32 34 41 43 38 42 32 37 38 38 69
internal_value=0.000314851 0.00756582 0.0203121 0.00589566 0.0162817 -0.00705804 0.000557533 -0.00864348 -0.0235274 -0.0170341 0.0411982 -0.000887999 -0.0308664
internal_weight=119.246 93.1693 49.3396 31.6084 23.2558 43.8298 35.475 28.7273 26.0771 21.8696 17.7311 14.8946 20.0954
internal_count=597 463 232 145 111 231 188 150 134 108 87 70 102
is_linear=0
shrinkage=0.05


Tree=44
num_leaves=11
num_cat=0
split_feature=2 2 15 17 1 20 1 16 16 12
split_gain=13.6895 19.3895 17.3412 7.24572 6.74702 3.64138 2.7159 3.83085 1.1527 0.693465
threshold=5.5000000000000009 2.5000000000000004 6.5000000000000009 0.18333333333333332 23.500000000000004 0.83333333333333337 20.500000000000004 11.016666666666667 9.1833333333333353 4.5000000000000009
decision_type=2 2 2 2 2 2 2 2 2 2
left_child=1 4 5 -4 8 9 7 -3 -1 -2
right_child=2 6 3 -5 -6 -7 -8 -9 -10 -11
leaf_value=-0.0074591008223088787 -0.016817077833407006 -0.0021681012457903347 -0.0085609394179586677 0.049174210401312757 0.022799907328881638 -0.0027044813774635711 0.063507109221777547 0.040396591123650447 -0.038140450935741643 -0.042922777405070139
leaf_weight=6.693973168730742 9.6225521266460401 7.8146548569202485 8.5462573021650332 8.6349836736917478 5.967473939061164 9.6416439265012723 9.6185443401336652 10.6214352697134 11.45568312704563 29.376277014613152
leaf_count=36 46 39 45 41 29 47 46 50 56 162
internal_value=-0.00218083 0.0163849 -0.0170418 0.0232044 -0.0154588 -0.031877 0.0427691 0.0243427 -0.0297241 -0.0382619
internal_weight=117.993 52.1718 65.8217 17.1812 24.1171 48.6405 28.0546 18.4361 18.1497 38.9988
internal_count=597 256 341 86 121 255 135 89 92 208
is_linear=0
shrinkage=0.05


Tree=45
num_leaves=14
num_cat=0
split_feature=15 2 12 15 12 15 1 16 1 1 13 1 13
split_gain=7.00382 6.24763 4.26428 6.30925 4.11077 5.42042 14.8358 3.13849 2.93233 2.09671 1.01528 1.01377 0.792514
threshold=6.5000000000000009 8.5000000000000018 3.5000000000000004 5.5000000000000009 12.500000000000002 3.5000000000000004 14.500000000000002 10.783333333333335 21.500000000000004 12.500000000000002 5.5000000000000009 24.500000000000004 31.500000000000004
decision_type=2 2 2 2 2 2 2 2 2 2 2 2 2
left_child=1 4 -3 -4 7 9 -7 12 10 -6 -9 -2 -1
right_child=11 2 3 -5 5 6 -8 8 -10 -11 -12 -13 -14
leaf_value=-0.031219273576090553 -0.03302996135107799 -0.0070429295707274478 0.048433623580424613 -0.0032593974726490629 0.0099164819805099176 -0.0075914026044876532 0.074128767154860734 0.0029130808386123798 0.021494792756554984 -0.023840802056152383 -0.020080614538123338 -0.0030231811249342936 -0.0039652523391688239
leaf_weight=13.1882950514555 11.370799228549005 7.1667227745056179 16.544880613684658 7.6917712539434424 5.2465895041823378 12.00584425032139 6.4779548794031134 6.333063259720805 7.7685238048434249 8.4459570050239545 8.9715383872389776 4.7917235121130934 4.8887083381414405
leaf_count=76 77 34 60 36 25 56 25 29 39 47 44 27 26
internal_value=0.00158296 0.00653801 0.0241307 0.0332927 -0.00158317 0.0111601 0.0271681 -0.0117419 0.000700311 -0.0111489 -0.0113746 -0.0262608 -0.0256995
internal_weight=120.892 104.73 31.4034 24.2367 73.3265 32.1763 18.4838 41.1501 23.0731 13.6925 15.3046 16.1625 18.077
internal_count=601 497 130 96 367 153 81 214 112 72 73 104 102
is_linear=0
shrinkage=0.05


Tree=46
num_leaves=12
num_cat=0
split_feature=15 17 2 17 12 13 1 19 13 1 2
split_gain=4.00021 3.63811 3.79969 4.56621 3.23741 4.17738 3.05132 3.14148 1.93864 1.84866 1.31815
threshold=6.5000000000000009 0.68333333333333335 7.5000000000000009 0.41666666666666669 15.500000000000002 11.500000000000002 5.5000000000000009 9.5000000000000018 13.500000000000002 15.500000000000002 9.5000000000000018
decision_type=2 2 2 2 2 2 2 2 2 2 2
left_child=1 2 6 4 5 -4 -1 8 -8 -9 -2
right_child=10 -3 3 -5 -6 -7 7 9 -10 -11 -12
leaf_value=-0.027769864677122759 -0.027910939882262072 0.031878411003978202 0.016480084377030812 0.0413370707657673 0.023231004773697255 -0.026302903832750253 -0.00093628926209333204 0.021303201213696912 -0.031414675690774128 -0.0022371981948262495 -0.00058831229091577521
leaf_weight=7.8914601206779471 8.1906406432390231 10.985580526292322 7.2116281539201799 9.4530002772808057 10.154526799917219 10.261661693453787 14.424602121114733 16.24388757348061 5.6974937319755545 13.18646404892206 8.1431510001420957
leaf_count=50 54 48 30 33 33 56 75 72 35 65 50
internal_value=0.00427348 0.00794778 0.00422024 0.0160883 0.00408325 -0.00857369 -0.00377629 0.00131679 -0.0127386 0.0113703 -0.0167529
internal_weight=121.844 105.51 94.5247 37.0808 27.6278 17.4733 57.4439 49.5524 20.1221 29.4304 16.3338
internal_count=601 497 449 152 119 86 297 247 110 137 104
is_linear=0
shrinkage=0.05


Tree=47
num_leaves=12
num_cat=0
split_feature=1 19 16 16 14 14 6 16 0 16 16
split_gain=2.69154 2.95504 6.78559 3.67281 2.84287 2.70183 2.59004 4.91315 2.90714 1.79787 2.14208
threshold=26.500000000000004 7.5000000000000009 10.550000000000002 9.4500000000000011 1.5000000000000002 1.0000000180025095e-35 3.5000000000000004 11.166666666666668 3.5000000000000004 7.5166666666666675 8.5833333333333339
decision_type=2 2 2 2 2 2 2 2 2 2 2
left_child=1 6 3 9 -2 -4 7 -1 -9 -3 -11
right_child=4 2 5 -5 -6 -7 -8 8 -10 10 -12
leaf_value=-0.026540377139372726 -0.033906002983273058 0.022861751817984461 -0.027213959310452271 0.045072978300707021 0.002957154050775184 0.0044337678925332859 0.013097032775577756 -0.010665302376081745 0.025115935546443147 -0.019449996475143078 0.013893631589773553
leaf_weight=24.110326953232288 9.6723399907350558 9.206149056553846 10.363624155521395 9.2183209210634214 7.7559250220656386 11.720940001308916 9.1196466088294965 9.3049038127064723 7.6888358891010276 6.5863800793886167 6.6647195965051651
leaf_count=123 49 44 57 38 41 55 49 45 38 30 32
internal_value=-0.00263028 0.000566654 0.00853037 0.022569 -0.0192313 -0.0116968 -0.00786421 -0.0132027 0.0066133 0.00891208 -0.002903
internal_weight=121.412 103.984 53.7601 31.6756 17.4283 22.0846 50.2237 41.1041 16.9937 22.4572 13.2511
internal_count=601 511 256 144 90 112 255 206 83 106 62
is_linear=0
shrinkage=0.05


Tree=48
num_leaves=11
num_cat=0
split_feature=19 12 2 16 15 13 12 13 16 20
split_gain=4.06851 8.1959 4.88647 6.5203 4.55659 3.53463 2.58528 2.03732 1.51873 1.91049
threshold=4.5000000000000009 13.500000000000002 5.5000000000000009 10.683333333333335 1.5000000000000002 9.5000000000000018 16.500000000000004 21.500000000000004 10.050000000000002 0.58333333333333337
decision_type=2 2 2 2 2 2 2 2 2 2
left_child=7 2 3 -2 -3 -4 -6 8 -1 -10
right_child=1 4 5 -5 6 -7 -8 -9 9 -11
leaf_value=-0.017431585448265789 0.020611944962259387 0.02123297235661226 0.0016954722874979297 -0.033401483883782432 0 0.041651846192835761 -0.028983908828785977 -0.030877800639291575 0.021614510974731854 -0.0082612752981250214
leaf_weight=12.170473054051401 10.427724406123163 5.9280416369438163 8.1321164369583148 6.5607734620571128 11.786041848361494 18.771727025508881 20.131197467446327 10.131913997232912 5.8353740051388749 10.59406903386116
leaf_count=65 55 29 36 30 52 84 108 57 31 54
internal_value=-0.00151035 0.00477686 0.0189399 -0.00187971 -0.0117114 0.0311233 -0.019272 -0.0142879 -0.00587905 0.00379156
internal_weight=120.469 81.7376 43.8923 16.9885 37.8453 26.9038 31.9172 38.7318 28.5999 16.4294
internal_count=601 394 205 85 189 120 160 207 150 85
is_linear=0
shrinkage=0.05


Tree=49
num_leaves=11
num_cat=0
split_feature=2 1 15 2 16 19 19 16 13 17
split_gain=10.9251 17.0624 15.4653 9.99861 6.70204 5.34745 2.89738 1.29306 1.26376 0.903993
threshold=5.5000000000000009 20.500000000000004 6.5000000000000009 3.5000000000000004 10.883333333333335 4.5000000000000009 3.5000000000000004 10.450000000000001 9.5000000000000018 0.18333333333333332
decision_type=2 2 2 2 2 2 2 2 2 2
left_child=1 3 6 9 -3 -4 7 -2 -8 -1
right_child=2 4 5 -5 -6 -7 8 -9 -10 -11
leaf_value=-0.033579573220144356 -0.018286927571495581 0.077855991449931217 0.047137194048349949 0.025016987226789428 0.017481772962336713 -0.0037857205971233384 -0.010444724791264967 0.0072282233445454466 -0.042133288297918528 -0.0076560709166570958
leaf_weight=14.147595778107645 9.0877623409032804 7.5952364504337337 7.7241951227188137 12.06715179979801 12.799267485737799 8.818768769502638 6.7367287054657927 5.9204485714435569 26.294659778475761 7.6269837319850913
leaf_count=72 43 39 36 59 57 46 35 30 146 38
internal_value=-0.00173138 0.0143417 -0.015341 -0.00760646 0.0472804 0.0233212 -0.0293409 -0.00841666 -0.0372169 -0.0267278
internal_weight=118.819 54.2362 64.5826 33.8417 20.3945 16.543 48.0396 15.0082 33.0314 21.7746
internal_count=601 265 336 169 96 82 254 73 181 110
is_linear=0
shrinkage=0.05


Tree=50
num_leaves=12
num_cat=0
split_feature=16 2 12 15 13 0 0 2 12 1 16
split_gain=5.51096 7.88877 8.47009 5.1965 5.5785 5.29482 4.53723 3.25259 6.62248 2.27014 0.371697
threshold=37.916666666666679 6.5000000000000009 17.500000000000004 6.5000000000000009 12.500000000000002 3.5000000000000004 2.5000000000000004 3.5000000000000004 9.5000000000000018 12.500000000000002 9.3500000000000032
decision_type=2 2 2 2 2 2 2 2 2 2 2
left_child=1 7 3 4 5 -3 -6 8 -1 -10 -5
right_child=-2 2 -4 10 6 -7 -8 -9 9 -11 -12
leaf_value=-0.027911387722799993 0.032754713422643432 -0.0015000959671943549 0.041944740110190643 -0.033614646464847908 0.014694358741148354 0.049163053299809502 -0.024702817444663183 -0.032118311325732778 -0.0041228252377097417 0.031359798944232568 -0.0064622599747255066
leaf_weight=13.810187794268133 7.8672662675380698 8.8780338019132632 10.799268603324888 7.516839034855364 9.9203051626682299 8.2282988131046277 14.232203617691992 21.951177649199963 6.5413108468055707 7.2764501869678497 3.9630116373300552
leaf_count=81 31 42 32 54 45 35 67 135 33 32 27
internal_value=-0.00127468 -0.00446958 0.00704351 -0.0018864 0.00662853 0.02632 -0.00850118 -0.0188793 -0.00608155 0.016526 -0.0278675
internal_weight=120.984 113.117 63.538 52.7387 41.2588 17.1063 24.1525 49.5791 27.6279 13.8178 11.4799
internal_count=614 583 302 270 189 77 112 281 146 65 81
is_linear=0
shrinkage=0.05


Tree=51
num_leaves=13
num_cat=0
split_feature=16 12 15 2 1 20 12 13 12 16 1 16
split_gain=4.50935 7.28151 7.00928 8.4005 3.14502 2.05911 2.96483 3.58408 2.27924 0.875374 0.466256 0.343619
threshold=12.883333333333335 20.500000000000004 4.5000000000000009 6.5000000000000009 16.500000000000004 0.83333333333333337 12.500000000000002 26.500000000000004 16.500000000000004 41.017857142857146 20.500000000000004 10.016666666666667
decision_type=2 2 2 2 2 2 2 2 2 2 2 2
left_child=1 2 3 4 -1 6 7 -4 -8 10 -2 -7
right_child=9 -3 5 -5 -6 11 8 -9 -10 -11 -12 -13
leaf_value=-0.032533739965581308 -0.03156618441696149 0.038600056249186512 -0.035703086461123627 0.036526259644011363 0.0086349273715082189 -0.0019911324000459834 0.013530554294499378 0.0033192004008754301 -0.017077063082279412 -0.0021731633306363916 -0.0080107564328570739 0.011916481344943965
leaf_weight=5.9241324737668055 10.116483375430112 9.8275289237499219 20.118267923593525 17.944971948862076 7.361310750246048 6.6685306727886182 10.216051258146765 6.9494114890694609 8.2534503787755948 6.571039304137229 6.4470529928803435 5.6069112122058868
leaf_count=36 60 37 123 67 37 36 50 36 36 27 43 26
internal_value=-0.00138881 0.00335628 -0.00161052 0.0164817 -0.0120271 -0.0117971 -0.0164971 -0.0261866 -0.000389175 -0.0199167 -0.0252876 0.00512671
internal_weight=122.005 98.8706 89.043 31.2304 13.2854 57.8126 45.5372 27.0677 18.4695 23.1346 16.5635 12.2754
internal_count=614 484 447 140 73 307 245 159 86 130 103 62
is_linear=0
shrinkage=0.05


Tree=52
num_leaves=12
num_cat=0
split_feature=12 12 0 15 16 12 13 2 17 13 0
split_gain=2.37219 2.80839 4.30373 6.85894 3.90883 2.35459 1.77208 1.5842 1.57301 2.1997 0.964584
threshold=20.500000000000004 11.500000000000002 3.5000000000000004 5.5000000000000009 40.517857142857146 2.5000000000000004 18.500000000000004 7.5000000000000009 -0.58333333333333326 11.500000000000002 2.5000000000000004
decision_type=2 2 2 2 2 2 2 2 2 2 2
left_child=1 4 3 -3 5 7 -4 -1 -7 -10 -2
right_child=10 2 6 -5 -6 8 -8 -9 9 -11 -12
leaf_value=-0.0062480116480581795 -0.024873870105479493 0.0023424089477678922 -0.020035845223283288 0.05979499834150738 0.029533275157218642 0.0084306237602605454 0.0082301786109058705 0.022129471392272924 -0.0041758497674216728 -0.026952389850859095 -0.0011418872225425582
leaf_weight=6.9722964614629728 8.9001808911561984 12.086665324866773 6.7717668712139156 6.7475680708885184 5.2970363944768897 5.9888473674654952 9.8849856704473478 7.4280102699995041 24.498137079179287 18.739640183746815 7.8843379840254775
leaf_count=38 42 55 31 31 23 34 42 38 137 101 42
internal_value=2.84951e-05 0.00299745 0.0138592 0.0285421 -0.00287086 -0.00685192 -0.00431098 0.00939405 -0.0119667 -0.0152638 -0.0158423
internal_weight=121.199 104.415 35.491 18.8342 68.924 63.6269 16.6568 14.4003 49.2266 43.2378 16.7845
internal_count=614 530 159 86 371 348 73 76 272 238 84
is_linear=0
shrinkage=0.05


Tree=53
num_leaves=13
num_cat=0
split_feature=13 1 2 2 16 16 15 15 16 16 2 1
split_gain=7.04165 8.83759 7.66423 4.66741 2.55321 4.26632 2.46742 2.20821 1.93215 4.09465 1.58265 0.793879
threshold=39.500000000000007 8.5000000000000018 8.5000000000000018 9.5000000000000018 18.283333333333335 8.3166666666666682 4.5000000000000009 5.5000000000000009 8.3166666666666682 10.450000000000001 5.5000000000000009 16.500000000000004
decision_type=2 2 2 2 2 2 2 2 2 2 2 2
left_child=1 2 7 4 5 10 -7 -1 -5 -10 -3 -2
right_child=11 3 -4 8 -6 6 -8 -9 9 -11 -12 -13
leaf_value=0.057529122223997753 -0.032520538666043562 0.020511289514374875 -0.0072949939069385968 -0.0019754041519692289 0.01062843894999968 -0.039844616433878093 -0.0092330364373662474 0.01348201407656268 0.046696296991524416 -0.00332047963196577 -0.0073008788155833953 -0.0061869997119277228
leaf_weight=11.300397068262106 11.726454921066763 5.9720833897590628 8.9270695447921735 9.3070750832557696 8.8582391217350942 13.762793466448786 15.652308017015455 6.8690862059593192 6.4137451872229558 6.2747991383075714 9.0479347407817823 6.2924483194947234
leaf_count=59 60 32 40 46 49 77 74 32 34 31 42 38
internal_value=0.000638464 0.00593245 0.028865 -0.00304695 -0.0109786 -0.0157912 -0.0260719 0.0453835 0.0149818 0.0257379 0.00505374 -0.025758
internal_weight=120.404 102.386 27.0966 75.289 53.2934 44.4351 29.4151 18.1695 21.9956 12.6885 15.02 18.0189
internal_count=614 516 131 385 274 225 151 91 111 65 74 98
is_linear=0
shrinkage=0.05


Tree=54
num_leaves=10
num_cat=0
split_feature=2 15 1 2 2 12 12 12 4
split_gain=18.9662 16.3607 15.985 11.8579 5.9479 4.73419 2.54141 0.667194 0.477824
threshold=6.5000000000000009 6.5000000000000009 23.500000000000004 3.5000000000000004 5.5000000000000009 6.5000000000000009 6.5000000000000009 9.5000000000000018 1.0000000180025095e-35
decision_type=2 2 2 2 2 2 2 2 2
left_child=2 8 3 6 -5 -3 -1 -4 -2
right_child=1 5 7 4 -6 -7 -8 -9 -10
leaf_value=0.0017206899100917835 -0.039324256663602578 0.038394745879481981 0.069491802967670824 0.044216311234229179 -0.0084800878709083132 -0.0082145202439332515 -0.029976500612888736 0.024968006136049232 -0.015492737499343136
leaf_weight=8.8483056277036685 30.212425224483013 9.8387127518653887 9.9964417666196841 14.792233243584635 6.2434879988431922 7.6727250665426245 14.926932230591772 6.7385981082916251 9.1034422069787961
leaf_count=47 170 46 50 71 36 41 76 32 45
internal_value=0.00201296 -0.0182743 0.020801 0.00389705 0.0292615 0.0195144 -0.0191221 0.0583378 -0.0354139
internal_weight=118.373 56.8273 61.546 44.811 21.0357 17.5114 23.7752 16.735 39.3159
internal_count=614 302 312 230 107 87 123 82 215
is_linear=0
shrinkage=0.05


Tree=55
num_leaves=11
num_cat=0
split_feature=12 2 15 13 13 13 2 17 19 17
split_gain=4.2315 7.22223 4.3119 2.65008 2.93283 4.34213 4.91782 2.32612 1.54042 0.224738
threshold=17.500000000000004 6.5000000000000009 6.5000000000000009 47.500000000000007 16.500000000000004 13.500000000000002 8.5000000000000018 0.41666666666666669 23.500000000000004 -0.43333333333333335
decision_type=2 2 2 2 2 2 2 2 2 2
left_child=2 8 3 4 5 6 -1 -6 -2 -4
right_child=1 -3 9 -5 7 -7 -8 -9 -10 -11
leaf_value=-0.016867454376171445 0.0073689922175925945 0.043261574871906072 -0.0090724297464330177 0.021642177487600559 -0.028806837609986032 0.030936358094884361 0.017051219382468223 0.0025711738751369923 -0.017700694440377838 -0.035171476156175573
leaf_weight=27.082904703915119 10.285562381148344 9.8392294198274595 4.397450104355813 7.5218695402145377 14.904080353677275 7.3900642544031134 13.622456192970274 7.7172410041093817 8.4508464932441694 9.0559107586741412
leaf_count=145 47 29 29 29 85 33 60 38 49 67
internal_value=-0.00156995 0.0142723 -0.00685573 -0.00182236 -0.00516521 0.00190706 -0.00501057 -0.0188595 -0.00459076 -0.0301541
internal_weight=120.268 28.5756 91.692 78.2386 70.7167 48.0954 40.7054 22.6213 18.7364 13.4534
internal_count=611 125 486 390 361 238 205 123 96 96
is_linear=0
shrinkage=0.05


Tree=56
num_leaves=11
num_cat=0
split_feature=16 16 16 15 13 16 1 13 1 16
split_gain=3.81648 5.13369 6.51609 2.54248 3.10022 4.83688 3.575 0.796323 0.5804 0.145511
threshold=41.017857142857146 12.883333333333335 11.933333333333335 6.5000000000000009 14.500000000000002 9.0833333333333339 13.500000000000002 6.5000000000000009 20.500000000000004 9.5166666666666675
decision_type=2 2 2 2 2 2 2 2 2 2
left_child=1 2 3 4 6 -6 -1 -5 -3 -9
right_child=-2 8 -4 7 5 -7 -8 9 -10 -11
leaf_value=-0.0054351881480949023 0.027810493844549967 -0.032458271289939937 0.037419801515151369 -0.00098739574033372994 0.0070965579657708252 -0.025125486328839309 0.026196451030814763 -0.031439501133124284 -0.0075900611478836285 -0.0081242191838110413
leaf_weight=14.188053250312807 7.741488352417945 11.090832367539408 8.1857742443680745 5.0858254656195632 23.464770123362541 18.076370596885681 17.00311878323555 6.0449727773666364 6.2989948838949195 4.4614471793174744
leaf_count=70 31 67 35 32 108 89 72 44 39 24
internal_value=-0.000680151 -0.00332336 0.00140129 -0.00300167 0.00110712 -0.00756032 0.0124474 -0.0195228 -0.0261377 -0.0259127
internal_weight=121.642 113.9 96.5103 88.3246 72.7323 41.5411 31.1912 15.5922 17.3898 10.5064
internal_count=611 580 474 439 339 197 142 100 106 68
is_linear=0
shrinkage=0.05


Tree=57
num_leaves=13
num_cat=0
split_feature=19 12 8 1 12 1 1 12 1 17 1 17
split_gain=3.71054 5.1372 3.90308 3.29804 8.81329 2.12452 3.63112 1.65429 1.58565 1.51268 1.1494 2.35588
threshold=10.500000000000002 2.5000000000000004 1.5000000000000002 14.500000000000002 17.500000000000004 9.5000000000000018 4.5000000000000009 7.5000000000000009 18.500000000000004 0.41666666666666669 16.500000000000004 0.41666666666666669
decision_type=2 2 2 2 2 2 2 2 2 2 2 2
left_child=1 8 10 5 -5 6 -2 9 -1 -4 -3 -12
right_child=3 2 7 4 -6 -7 -8 -9 -10 -11 11 -13
leaf_value=0.026389912213799185 0.029844011415043604 -0.033430491409107387 -0.017241268655134378 0.023536219536184108 -0.031025674774018144 0.037816539721862406 -0.011100158447695045 0.019060091566602943 -0.0011502599141548009 0.010198768930576713 -0.024752252530750918 0.0088458373892655179
leaf_weight=9.8313563764095324 6.933685712516314 15.517092391848566 9.3135603368282336 12.781195595860483 10.928401626646517 10.294683448970316 9.1987598538398725 6.6312070637941352 7.8509259670972815 5.6890452578663817 9.0826830640435201 6.7943432182073584
leaf_count=50 34 79 52 56 57 46 43 34 40 31 50 39
internal_value=0.00127301 -0.00597536 -0.0136821 0.01135 -0.00208571 0.0225578 0.00815645 0.00243112 0.0155272 -0.00659259 -0.0241748 -0.0109887
internal_weight=120.847 70.7102 53.0279 50.1367 23.7096 26.4271 16.1324 21.6338 17.6823 15.0026 31.3941 15.877
internal_count=611 375 285 236 113 123 77 117 90 83 168 89
is_linear=0
shrinkage=0.05


Tree=58
num_leaves=15
num_cat=0
split_feature=13 19 13 19 19 2 16 8 16 2 16 16 19 13
split_gain=7.39823 4.21189 5.15445 4.11875 2.57821 2.19757 2.33843 3.5012 2.18838 2.14682 1.66353 0.690468 1.18526 0.523625
threshold=36.500000000000007 16.500000000000004 10.500000000000002 3.5000000000000004 10.500000000000002 3.5000000000000004 12.516666666666667 1.5000000000000002 8.5166666666666675 7.5000000000000009 11.41666666666667 8.9833333333333361 28.500000000000004 22.500000000000004
decision_type=2 2 2 2 2 2 2 2 2 2 2 2 2 2
left_child=1 2 5 -4 9 10 7 -7 -6 -5 -1 -2 -13 -3
right_child=11 13 3 4 8 6 -8 -9 -10 -11 -12 12 -14 -15
leaf_value=0.023794213203750275 -0.0036702731553668946 -0.025733454438275905 -0.0078460062588612735 0.014099622518175318 -0.0047460576787339464 0.0072677213813635219 0.015134960356887267 -0.030527132575193461 0.025387099393659903 0.058474933382281116 -0.0049677576493806913 -0.034706391976083953 -0.004235760372702459 -0.0032191382703393302
leaf_weight=8.8436879068613035 5.7023384571075466 5.6747549995779973 7.5139819383621207 7.3042128980159751 8.1466098129749316 8.0503806322813087 4.8013171926140776 13.083783738315104 12.443606995046137 8.4740801006555539 6.8097951710224143 11.466182306408884 5.8022989481687537 5.8994651958346367
leaf_count=49 31 31 42 35 35 38 31 65 56 39 31 61 32 35
internal_value=0.00138357 0.0075615 0.0115108 0.022885 0.0294753 -0.0011108 -0.00976684 -0.0168094 0.0141654 0.043733 0.0122271 -0.0223826 -0.0268571 -0.0176256
internal_weight=120.016 97.0457 85.4715 43.8825 36.3685 41.589 25.9355 21.1342 20.5902 15.7783 15.6535 22.9708 17.2685 11.5742
internal_count=611 487 421 207 165 214 134 103 91 74 80 124 93 66
is_linear=0
shrinkage=0.05


Tree=59
num_leaves=13
num_cat=0
split_feature=16 16 12 16 1 15 13 6 16 12 20 13
split_gain=5.74943 8.8117 6.90299 5.52978 5.5063 5.62647 3.67493 2.95462 2.25109 1.80731 0.811455 0.561532
threshold=36.366666666666674 11.516666666666667 10.500000000000002 9.8833333333333346 7.5000000000000009 6.5000000000000009 32.500000000000007 1.5000000000000002 10.350000000000003 26.500000000000004 0.58333333333333337 31.500000000000004
decision_type=2 2 2 2 2 2 2 2 2 2 2 2
left_child=1 2 3 4 -1 -6 7 -3 11 -8 -5 -4
right_child=-2 6 8 10 5 -7 9 -9 -10 -11 -12 -13
leaf_value=-0.013253605600761002 -0.034747777018969937 0.0062932260639670407 -0.034904523298724024 -0.026422470058788533 0.0090615643349408938 0.057684046710915149 -0.012658349889840921 0.05115620225446324 0.0016906816285439628 0.018022406772004996 -0.0017486742527370901 -0.0082610523446223962
leaf_weight=9.8243019133806211 8.0906919166445714 6.6508752554655137 17.560042813420303 8.2935239151120168 19.162955626845363 6.9759262055158606 6.6307742148637754 10.851270630955694 6.0746804103255263 6.5477839261293411 6.021945357322692 5.2920177057385436
leaf_count=45 39 35 102 46 102 35 29 58 32 31 26 31
internal_value=-0.00036834 0.00297482 -0.00588357 0.00529547 0.0155612 0.0268124 0.0244792 0.0377674 -0.0241427 0.00279162 -0.0184332 -0.0306026
internal_weight=117.977 109.886 79.2054 50.2787 35.9632 26.1389 30.6807 17.5021 28.9267 13.1786 14.3155 22.8521
internal_count=611 572 419 254 182 137 153 93 165 60 72 133
is_linear=0
shrinkage=0.05


end of trees

feature_importances:
avg_inter_attack_interval=150
days_since_last_incident=104
days_since_last_success=84
month=76
day_of_month=72
type_inc_30d_sum=52
attack_rate_trend=31
streak_quiet_days=30
day_of_week=28
type_inc_7d_sum=20
success_ratio_7d=10
succ_30d_sum=9
inc_30d_sum=5
inc_3d_sum=2
lag_inc_1d=1
inc_7d_sum=1

parameters:
[boosting: gbdt]
[objective: multiclass]
[metric: multi_logloss]
[tree_learner: serial]
[device_type: cpu]
[data_sample_strategy: bagging]
[data: ]
[valid: ]
[num_iterations: 500]
[learning_rate: 0.05]
[num_leaves: 31]
[num_threads: 18]
[seed: 42]
[deterministic: 1]
[force_col_wise: 1]
[force_row_wise: 0]
[histogram_pool_size: -1]
[max_depth: 6]
[min_data_in_leaf: 30]
[min_sum_hessian_in_leaf: 0.01]
[bagging_fraction: 0.8]
[pos_bagging_fraction: 1]
[neg_bagging_fraction: 1]
[bagging_freq: 1]
[bagging_seed: 400]
[bagging_by_query: 0]
[feature_fraction: 0.8]
[feature_fraction_bynode: 1]
[feature_fraction_seed: 30056]
[extra_trees: 0]
[extra_seed: 12879]
[early_stopping_round: 0]
[early_stopping_min_delta: 0]
[first_metric_only: 0]
[max_delta_step: 0]
[lambda_l1: 0.1]
[lambda_l2: 3]
[linear_lambda: 0]
[min_gain_to_split: 0.01]
[drop_rate: 0.1]
[max_drop: 50]
[skip_drop: 0.5]
[xgboost_dart_mode: 0]
[uniform_drop: 0]
[drop_seed: 17869]
[top_rate: 0.2]
[other_rate: 0.1]
[min_data_per_group: 100]
[max_cat_threshold: 32]
[cat_l2: 10]
[cat_smooth: 10]
[max_cat_to_onehot: 4]
[top_k: 20]
[monotone_constraints: ]
[monotone_constraints_method: basic]
[monotone_penalty: 0]
[feature_contri: ]
[forcedsplits_filename: ]
[refit_decay_rate: 0.9]
[cegb_tradeoff: 1]
[cegb_penalty_split: 0]
[cegb_penalty_feature_lazy: ]
[cegb_penalty_feature_coupled: ]
[path_smooth: 0]
[interaction_constraints: ]
[verbosity: -1]
[saved_feature_importance_type: 0]
[use_quantized_grad: 0]
[num_grad_quant_bins: 4]
[quant_train_renew_leaf: 0]
[stochastic_rounding: 1]
[linear_tree: 0]
[max_bin: 255]
[max_bin_by_feature: ]
[min_data_in_bin: 3]
[bin_construct_sample_cnt: 200000]
[data_random_seed: 175]
[is_enable_sparse: 1]
[enable_bundle: 1]
[use_missing: 1]
[zero_as_missing: 0]
[feature_pre_filter: 1]
[pre_partition: 0]
[two_round: 0]
[header: 0]
[label_column: ]
[weight_column: ]
[group_column: ]
[ignore_column: ]
[categorical_feature: ]
[forcedbins_filename: ]
[precise_float_parser: 0]
[parser_config_file: ]
[objective_seed: 16083]
[num_class: 5]
[is_unbalance: 0]
[scale_pos_weight: 1]
[sigmoid: 1]
[boost_from_average: 1]
[reg_sqrt: 0]
[alpha: 0.9]
[fair_c: 1]
[poisson_max_delta_step: 0.7]
[tweedie_variance_power: 1.5]
[lambdarank_truncation_level: 30]
[lambdarank_norm: 1]
[label_gain: ]
[lambdarank_position_bias_regularization: 0]
[eval_at: ]
[multi_error_top_k: 1]
[auc_mu_weights: ]
[num_machines: 1]
[local_listen_port: 12400]
[time_out: 120]
[machine_list_filename: ]
[machines: ]
[gpu_platform_id: -1]
[gpu_device_id: -1]
[gpu_use_dp: 0]
[num_gpu: 1]

end of parameters

pandas_categorical:[]
