tree
version=v4
num_class=5
num_tree_per_iteration=5
label_index=0
max_feature_idx=20
objective=multiclass num_class:5
feature_names=day_of_week day_of_month month lag_inc_1d inc_3d_sum inc_7d_sum inc_30d_sum succ_7d_sum succ_30d_sum had_incident_prev_1d had_incident_prev_3d had_incident_prev_7d days_since_last_incident days_since_last_success type_inc_7d_sum type_inc_30d_sum avg_inter_attack_interval attack_rate_trend streak_active_days streak_quiet_days success_ratio_7d
feature_infos=[0:6] [1:31] [1:12] [0:2] [0:3] [0:4] [0:8] [0:4] [0:6] [0:1] [0:1] [0:1] [1:999] [1:999] [0:4] [0:8] [3.0333333333333332:999] [-1.6333333333333333:3.0666666666666664] [0:3] [0:55] [0:1]
tree_sizes=1147 1450 1328 1143 1144

Tree=0
num_leaves=10
num_cat=0
split_feature=2 13 16 13 12 16 13 13 12
split_gain=10.1358 5.17362 3.86357 3.52107 3.44639 6.60071 8.29952 6.33346 5.08341
threshold=4.5000000000000009 63.500000000000007 8.5833333333333339 72.500000000000014 34.500000000000007 12.333333333333334 3.5000000000000004 9.5000000000000018 5.5000000000000009
decision_type=2 2 2 2 2 2 2 2 2
left_child=2 4 -1 -4 5 6 -2 -8 -7
right_child=1 -3 3 -5 -6 8 7 -9 -10
leaf_value=-1.599842809971165 -1.6354695831493831 -1.5687947491550414 -1.6492647000249105 -1.6100117527157698 -1.5771579554004549 -1.5966504369507957 -1.5677344451420825 -1.6067708459583123 -1.645880121540551
leaf_weight=6.0153023451566687 10.013296142220495 8.1204136908054334 19.947832003235821 8.0724327117204648 6.3902416974306098 5.5569275021553066 15.69146119058132 25.076574146747589 14.21912372112274
leaf_count=42 44 31 123 45 22 31 66 108 81
internal_value=-1.60998 -1.60078 -1.63195 -1.63927 -1.60561 -1.60944 -1.59985 -1.5898 -1.63197
internal_weight=119.104 85.068 34.0356 28.0203 76.9476 70.5574 50.7813 40.768 19.7761
internal_count=593 383 210 168 352 330 218 174 112
is_linear=0
shrinkage=1


Tree=1
num_leaves=13
num_cat=0
split_feature=1 16 1 17 0 1 2 2 16 1 1 2
split_gain=9.56562 15.1709 9.58945 9.28096 6.96723 3.88414 1.55895 2.16563 1.46378 2.63142 1.68286 1.1684
threshold=7.5000000000000009 10.250000000000002 5.5000000000000009 -1.0000000180025095e-35 4.5000000000000009 13.500000000000002 10.500000000000002 7.5000000000000009 39.083333333333336 18.500000000000004 11.500000000000002 8.5000000000000018
decision_type=2 2 2 2 2 2 2 2 2 2 2 2
left_child=2 4 3 -1 5 -2 7 -7 9 10 -3 -6
right_child=1 8 -4 -5 11 6 -8 -9 -10 -11 -12 -13
leaf_value=-1.6324001940390462 -1.6146835798052268 -1.6351245352073376 -1.5497682553833561 -1.5746297961407856 -1.6342679245467207 -1.5915809655624966 -1.6003155506461972 -1.5469072270252686 -1.6130326633873846 -1.6498070894324286 -1.6067940556581912 -1.6080256519273615
leaf_weight=12.220097094774248 6.1950150579214123 6.8919008076190975 9.2374646067619306 9.8002098053693789 6.5552497059106809 9.2175380289554614 6.6837808787822715 6.6468062102794638 7.7104772925376883 21.972461596131325 9.4997222274541837 6.4728839844465256
leaf_count=59 35 34 37 43 33 49 27 26 43 125 54 28
internal_value=-1.60783 -1.61632 -1.58532 -1.6058 -1.59508 -1.58214 -1.57344 -1.56563 -1.63537 -1.63915 -1.62058 -1.62309
internal_weight=119.104 87.8458 31.2578 22.0203 41.7713 28.7431 22.5481 15.8643 46.0746 38.3641 16.3916 13.0281
internal_count=593 454 139 102 198 137 102 75 256 213 88 61
is_linear=0
shrinkage=1


Tree=2
num_leaves=12
num_cat=0
split_feature=2 13 12 2 0 8 12 16 16 13 2
split_gain=6.28284 3.42258 5.41108 4.01107 8.5063 4.35438 3.30673 2.16315 2.923 1.93975 1.00101
threshold=1.5000000000000002 29.500000000000004 18.500000000000004 9.5000000000000018 3.5000000000000004 1.5000000000000002 4.5000000000000009 16.766666666666669 10.15 48.500000000000007 3.5000000000000004
decision_type=2 2 2 2 2 2 2 2 2 2 2
left_child=-1 2 3 5 -5 -2 -7 8 -3 -9 -11
right_child=1 7 -4 4 -6 6 -8 9 -10 10 -12
leaf_value=-1.6425431858616226 -1.6378631083257955 -1.6102123587591415 -1.6450611465588469 -1.6179440753923491 -1.5581767286030102 -1.5862878164401528 -1.6197024772297195 -1.6211714865447702 -1.5719143737245413 -1.6098378782755496 -1.5880013957677006
leaf_weight=9.3690366148948652 11.689113184809683 6.7272583246231106 7.7812763452529898 11.141205802559854 8.0258360803127271 10.787349328398706 13.125266894698141 9.5130485594272631 12.839708149433134 7.7419541031122234 10.362553909420965
leaf_count=68 57 26 43 49 38 54 67 48 59 41 43
internal_value=-1.60874 -1.60501 -1.61261 -1.60648 -1.58959 -1.61627 -1.60391 -1.59525 -1.58366 -1.60534 -1.59631
internal_weight=119.104 109.735 62.55 54.7688 19.167 35.6017 23.9126 47.1845 19.567 27.6176 18.1045
internal_count=593 525 308 265 87 178 121 217 85 132 84
is_linear=0
shrinkage=1


Tree=3
num_leaves=10
num_cat=0
split_feature=1 13 2 6 19 19 13 16 13
split_gain=25.892 40.0317 8.92899 5.02448 4.25294 2.34126 2.11219 4.05426 1.50945
threshold=23.500000000000004 27.500000000000004 9.5000000000000018 2.5000000000000004 29.500000000000004 4.5000000000000009 7.5000000000000009 8.5166666666666675 11.500000000000002
decision_type=2 2 2 2 2 2 2 2 2
left_child=2 5 4 -4 6 -2 7 -1 -5
right_child=1 -3 3 8 -6 -7 -8 -9 -10
leaf_value=-1.6376681568355684 -1.6031825213569408 -1.5150672622117005 -1.6217037954240467 -1.6033448649658077 -1.6082259353156712 -1.6362860691257919 -1.6454218651807522 -1.5916782104619693 -1.5670256346684055
leaf_weight=8.4895756840705854 7.186805769801146 12.829484358429907 11.19141009449959 6.3683664500713331 12.83370581269264 9.8580599427223188 38.599704533815384 5.4572790861129752 6.2892173826694489
leaf_count=32 36 67 45 34 55 46 218 31 29
internal_value=-1.61065 -1.57256 -1.62424 -1.59912 -1.63352 -1.62323 -1.63952 -1.61942 -1.58031
internal_weight=119.104 29.8744 89.2293 23.849 65.3803 17.0449 52.5466 13.9469 12.6576
internal_count=593 149 444 108 336 82 281 63 63
is_linear=0
shrinkage=1


Tree=4
num_leaves=10
num_cat=0
split_feature=2 19 16 16 1 8 1 13 1
split_gain=47.3667 29.3914 15.2762 8.06432 13.6753 5.72496 3.27961 3.08596 0.985549
threshold=4.5000000000000009 22.500000000000004 39.083333333333336 19.916666666666668 10.500000000000002 1.5000000000000002 19.500000000000004 11.500000000000002 14.500000000000002
decision_type=2 2 2 2 2 2 2 2 2
left_child=1 2 -1 5 -5 -2 -3 8 -7
right_child=3 6 -4 4 -6 7 -8 -9 -10
leaf_value=-1.5008389069325847 -1.6508969890106653 -1.5982300444048834 -1.5969670430206073 -1.6387472248376431 -1.5600170480527047 -1.6128414360841099 -1.6391667582067113 -1.5993338720840544 -1.6358942959274878
leaf_weight=13.149623334407808 34.659046709537506 7.9904324710369092 6.8790601044893256 8.5182920247316378 7.677165836095809 8.0750564038753527 6.0164520293474197 9.578557685017584 16.559922516345978
leaf_count=101 138 43 37 33 50 39 29 53 70
internal_value=-1.60995 -1.56253 -1.52771 -1.62993 -1.5998 -1.63719 -1.61766 -1.62094 -1.62971
internal_weight=119.104 34.0356 20.0287 85.068 16.1955 68.8726 14.0069 34.2135 24.635
internal_count=593 210 138 383 83 300 72 162 109
is_linear=0
shrinkage=1


end of trees

feature_importances:
days_since_last_success=10
day_of_month=9
month=9
avg_inter_attack_interval=9
days_since_last_incident=4
streak_quiet_days=3
day_of_week=2
succ_30d_sum=2
inc_30d_sum=1
attack_rate_trend=1

parameters:
[boosting: gbdt]
[objective: multiclass]
[metric: multi_logloss]
[tree_learner: serial]
[device_type: cpu]
[data_sample_strategy: bagging]
[data: ]
[valid: ]
[num_iterations: 500]
[learning_rate: 0.05]
[num_leaves: 31]
[num_threads: 18]
[seed: 42]
[deterministic: 1]
[force_col_wise: 1]
[force_row_wise: 0]
[histogram_pool_size: -1]
[max_depth: 6]
[min_data_in_leaf: 30]
[min_sum_hessian_in_leaf: 0.01]
[bagging_fraction: 0.8]
[pos_bagging_fraction: 1]
[neg_bagging_fraction: 1]
[bagging_freq: 1]
[bagging_seed: 400]
[bagging_by_query: 0]
[feature_fraction: 0.8]
[feature_fraction_bynode: 1]
[feature_fraction_seed: 30056]
[extra_trees: 0]
[extra_seed: 12879]
[early_stopping_round: 0]
[early_stopping_min_delta: 0]
[first_metric_only: 0]
[max_delta_step: 0]
[lambda_l1: 0.1]
[lambda_l2: 3]
[linear_lambda: 0]
[min_gain_to_split: 0.01]
[drop_rate: 0.1]
[max_drop: 50]
[skip_drop: 0.5]
[xgboost_dart_mode: 0]
[uniform_drop: 0]
[drop_seed: 17869]
[top_rate: 0.2]
[other_rate: 0.1]
[min_data_per_group: 100]
[max_cat_threshold: 32]
[cat_l2: 10]
[cat_smooth: 10]
[max_cat_to_onehot: 4]
[top_k: 20]
[monotone_constraints: ]
[monotone_constraints_method: basic]
[monotone_penalty: 0]
[feature_contri: ]
[forcedsplits_filename: ]
[refit_decay_rate: 0.9]
[cegb_tradeoff: 1]
[cegb_penalty_split: 0]
[cegb_penalty_feature_lazy: ]
[cegb_penalty_feature_coupled: ]
[path_smooth: 0]
[interaction_constraints: ]
[verbosity: -1]
[saved_feature_importance_type: 0]
[use_quantized_grad: 0]
[num_grad_quant_bins: 4]
[quant_train_renew_leaf: 0]
[stochastic_rounding: 1]
[linear_tree: 0]
[max_bin: 255]
[max_bin_by_feature: ]
[min_data_in_bin: 3]
[bin_construct_sample_cnt: 200000]
[data_random_seed: 175]
[is_enable_sparse: 1]
[enable_bundle: 1]
[use_missing: 1]
[zero_as_missing: 0]
[feature_pre_filter: 1]
[pre_partition: 0]
[two_round: 0]
[header: 0]
[label_column: ]
[weight_column: ]
[group_column: ]
[ignore_column: ]
[categorical_feature: ]
[forcedbins_filename: ]
[precise_float_parser: 0]
[parser_config_file: ]
[objective_seed: 16083]
[num_class: 5]
[is_unbalance: 0]
[scale_pos_weight: 1]
[sigmoid: 1]
[boost_from_average: 1]
[reg_sqrt: 0]
[alpha: 0.9]
[fair_c: 1]
[poisson_max_delta_step: 0.7]
[tweedie_variance_power: 1.5]
[lambdarank_truncation_level: 30]
[lambdarank_norm: 1]
[label_gain: ]
[lambdarank_position_bias_regularization: 0]
[eval_at: ]
[multi_error_top_k: 1]
[auc_mu_weights: ]
[num_machines: 1]
[local_listen_port: 12400]
[time_out: 120]
[machine_list_filename: ]
[machines: ]
[gpu_platform_id: -1]
[gpu_device_id: -1]
[gpu_use_dp: 0]
[num_gpu: 1]

end of parameters

pandas_categorical:[]
