tree
version=v4
num_class=5
num_tree_per_iteration=5
label_index=0
max_feature_idx=20
objective=multiclass num_class:5
feature_names=day_of_week day_of_month month lag_inc_1d inc_3d_sum inc_7d_sum inc_30d_sum succ_7d_sum succ_30d_sum had_incident_prev_1d had_incident_prev_3d had_incident_prev_7d days_since_last_incident days_since_last_success type_inc_7d_sum type_inc_30d_sum avg_inter_attack_interval attack_rate_trend streak_active_days streak_quiet_days success_ratio_7d
feature_infos=[0:6] [1:31] [1:12] [0:2] [0:3] [0:5] [0:7] [0:3] [0:4] [0:1] [0:1] [0:1] [1:999] [1:999] [0:7] [4:16] [4.333333333333333:999] [-1.4000000000000001:3.5999999999999996] [0:2] [0:41] [0:1]
tree_sizes=1545 1236 1440 1244 944 1296 1292 1397 1384 978 1291 1398 1500 1372 1285 1499 1367 1607 1176 977 1578 1269 1290 1462 976 1485 1292 1710 1607 985 1397 1394 1502 1712 975 1493 1399 1286 1368 1187 1395 1396 1400 1582 1190 1382 1291 1500 1381 1172 1499 1395 1499 1375 1488 1088 1290 1200 1476 1275 1080 1604 1395 1082 882 1694 1397 1606 1395 1297 1391 1495 1189 1189 1379 1559 1396 1195 1585 1083 981 1610 1395 1486 1078 1478 1473 1493 1469 1397 1193 1603 1505 1609 1182 1397 1293 1491 1395 1186 1392 1503 1692 1291 1502 967 1285 1720 1496 1392 1502 1395 1395 1401 1081 1506 1491 1671 1603 1702 1714 1571 1399 1396 1085 1403 1394 1605 1600 1401 1381 1189 1394 1484 871 1376 1603 1505 1605 878 1098 1275 1387 1497 1293 1398 1397 1382 1612 984 1597 1502 1501 1473 1496

Tree=0
num_leaves=14
num_cat=0
split_feature=15 16 16 2 15 13 12 16 0 13 16 2 12
split_gain=5.79035 7.1875 8.17723 6.72445 4.44281 10.6345 5.96081 3.8841 2.38553 1.71496 1.16791 0.523797 0.229963
threshold=9.5000000000000018 8.1500000000000004 10.250000000000002 2.5000000000000004 11.500000000000002 15.500000000000002 2.5000000000000004 8.0166666666666675 2.5000000000000004 39.500000000000007 10.083333333333334 7.5000000000000009 12.500000000000002
decision_type=2 2 2 2 2 2 2 2 2 2 2 2 2
left_child=1 -1 -3 -4 6 7 -2 8 -6 11 12 -5 -8
right_child=4 2 3 9 5 -7 10 -9 -10 -11 -12 -13 -14
leaf_value=-1.6247008941507857 -1.5898497207579376 -1.5506915939535124 -1.564034240482338 -1.6105007402201847 -1.6230818251040717 -1.5631473515349472 -1.6493776158727103 -1.6392858912960075 -1.5889421782270468 -1.5975965533402861 -1.6182303502684035 -1.6298329777833953 -1.6230992118244956
leaf_weight=11.977677941322325 6.0825741887092581 10.089913070201872 6.177423536777499 6.3875452280044582 6.28702583909035 8.6219063103198987 12.407088726758962 10.733604609966276 8.5564423501491529 7.220343053340911 9.6258352398872358 8.4048522710800153 6.2914693355560294
leaf_count=60 31 45 28 30 31 38 68 57 44 35 49 45 32
internal_value=-1.60629 -1.59384 -1.58366 -1.60014 -1.61561 -1.60317 -1.62763 -1.61993 -1.60355 -1.6143 -1.637 -1.62335 -1.64388
internal_weight=118.864 50.2578 38.2801 28.1902 68.6059 34.199 34.407 25.5771 14.8435 22.0127 28.3244 14.7924 18.6986
internal_count=593 243 183 138 350 170 180 132 75 110 149 75 100
is_linear=0
shrinkage=1


Tree=1
num_leaves=11
num_cat=0
split_feature=1 16 13 0 16 16 16 0 16 1
split_gain=14.442 6.33143 4.7398 7.12686 5.3292 2.77951 6.02127 4.29322 3.23896 2
threshold=10.500000000000002 24.433333333333337 12.500000000000002 2.5000000000000004 9.4166666666666696 7.7166666666666677 11.383333333333335 2.5000000000000004 8.2833333333333368 24.500000000000004
decision_type=2 2 2 2 2 2 2 2 2 2
left_child=2 5 3 -1 -4 -2 7 -7 -9 -8
right_child=1 -3 4 -5 -6 6 9 8 -10 -11
leaf_value=-1.577719604319118 -1.6420634644749603 -1.5844411865360093 -1.5567540323054045 -1.6350984829258104 -1.6029064339568071 -1.5843268573360569 -1.6468641750578348 -1.5963009569998581 -1.6359112593547089 -1.6119505525122864
leaf_weight=6.6812110841274253 22.449446529150009 6.5916152745485297 13.094461113214495 9.2675449848175031 12.26449930667877 11.356103181838991 15.037011757493021 6.1191413700580588 9.6913525462150556 6.3113181591033927
leaf_count=32 124 28 55 47 58 54 83 31 49 32
internal_value=-1.61104 -1.62365 -1.58811 -1.60958 -1.57585 -1.62822 -1.62019 -1.60465 -1.62066 -1.63833
internal_weight=118.864 77.556 41.3077 15.9488 25.359 70.9644 48.5149 27.1666 15.8105 21.3483
internal_count=593 401 192 79 113 373 249 134 80 115
is_linear=0
shrinkage=1


Tree=2
num_leaves=13
num_cat=0
split_feature=0 16 13 14 16 2 8 13 2 16 16 16
split_gain=4.95664 4.23444 4.25278 3.06486 4.39681 3.17727 2.43816 2.12874 1.95536 1.02206 1.61874 1.02871
threshold=3.5000000000000004 7.116666666666668 13.500000000000002 1.5000000000000002 13.050000000000002 5.5000000000000009 1.5000000000000002 27.500000000000004 3.5000000000000004 6.7166666666666677 8.2833333333333368 7.8500000000000005
decision_type=2 2 2 2 2 2 2 2 2 2 2 2
left_child=3 -2 6 5 9 -1 -3 -4 -9 -5 11 -11
right_child=1 2 7 4 -6 -7 -8 8 -10 10 -12 -13
leaf_value=-1.5813678091628185 -1.6218428597647385 -1.6024633022617478 -1.6216544684994019 -1.6462055740368275 -1.5992202393405495 -1.6173354486430223 -1.5585042599442469 -1.6129072179163348 -1.5818905059797601 -1.6214396774394046 -1.6342084939295622 -1.5984185227538188
leaf_weight=7.7728397548198727 10.997045665979384 6.06052042543888 8.471023306250574 8.7137367278337461 11.73718850314617 11.70281085371971 9.4701589494943601 7.3118425607681301 9.0422029048204404 7.1850076317787188 14.178946390748022 6.2203816324472427
leaf_count=41 58 30 43 45 58 55 49 32 48 34 70 30
internal_value=-1.60837 -1.59701 -1.58974 -1.6171 -1.62367 -1.60137 -1.57148 -1.6042 -1.5944 -1.63188 -1.62403 -1.61039
internal_weight=118.864 51.3528 40.3557 67.5109 48.0353 19.4757 15.5307 24.8251 16.354 36.2981 27.5843 13.4054
internal_count=593 260 202 333 237 96 79 123 80 179 134 64
is_linear=0
shrinkage=1


Tree=3
num_leaves=11
num_cat=0
split_feature=1 16 13 13 14 16 13 13 16 2
split_gain=19.1873 11.8559 5.74352 9.95112 9.79191 4.00053 4.67206 2.90019 2.27831 2.19953
threshold=9.5000000000000018 21.400000000000002 20.500000000000004 49.500000000000007 2.5000000000000004 7.116666666666668 8.5000000000000018 9.5000000000000018 15.516666666666667 5.5000000000000009
decision_type=2 2 2 2 2 2 2 2 2 2
left_child=7 2 4 8 9 -6 -7 -1 -4 -2
right_child=1 -3 3 -5 5 6 -8 -9 -10 -11
leaf_value=-1.6162835201596653 -1.6023966146982227 -1.6435655614399243 -1.543231696050674 -1.6152611123359497 -1.5538605279085373 -1.5817090214255221 -1.6282022526663107 -1.6482694221308083 -1.5941626240172659 -1.6338436413095516
leaf_weight=11.968757957220076 5.9974416792392757 9.3430940210819227 12.331012874841695 8.843903034925459 6.1239188909530666 11.498281925916674 5.8918208181858054 25.531678736209869 5.4892727732658377 15.844518989324568
leaf_count=59 32 43 69 44 35 60 31 114 28 78
internal_value=-1.61116 -1.59758 -1.59042 -1.57317 -1.60229 -1.58144 -1.59815 -1.63945 -1.55422 -1.6252
internal_weight=118.864 81.3633 72.0202 26.6642 45.356 23.514 17.3901 37.5004 17.8203 21.842
internal_count=593 420 377 141 236 126 91 173 97 110
is_linear=0
shrinkage=1


Tree=4
num_leaves=8
num_cat=0
split_feature=16 2 16 13 2 12 1
split_gain=20.5348 12.88 35.0107 10.9113 11.9065 7.42582 5.27278
threshold=5.8500000000000005 10.500000000000002 10.083333333333334 57.500000000000007 1.5000000000000002 4.5000000000000009 10.500000000000002
decision_type=2 2 2 2 2 2 2
left_child=-1 3 -3 4 -2 6 -6
right_child=1 2 -4 -5 5 -7 -8
leaf_value=-1.5478694636138528 -1.5873823138483516 -1.6411543140311975 -1.5199631164602714 -1.5786155102189898 -1.6377148348362809 -1.6488804929081224 -1.5952239130321126
leaf_weight=8.9099763035774213 11.33383587002754 10.102201998233797 8.3457362055778486 8.732855945825575 9.9739064574241656 47.722564548254013 13.742624372243879
leaf_count=50 59 49 46 45 48 224 72
internal_value=-1.61029 -1.61689 -1.58171 -1.62469 -1.63052 -1.63805 -1.61407
internal_weight=118.864 109.954 18.4479 91.5058 82.7729 71.4391 23.7165
internal_count=593 543 95 448 403 344 120
is_linear=0
shrinkage=1


Tree=5
num_leaves=11
num_cat=0
split_feature=20 17 0 12 12 0 14 6 2 19
split_gain=3.21487 2.81433 2.81811 1.9086 3.57915 1.78256 1.46181 3.66674 1.4095 1.28773
threshold=0.55000000000000016 -0.20000000000000001 1.0000000180025095e-35 19.500000000000004 15.500000000000002 4.5000000000000009 3.5000000000000004 2.5000000000000004 8.5000000000000018 5.5000000000000009
decision_type=2 2 2 2 2 2 2 2 2 2
left_child=1 2 -1 4 5 -4 7 9 -2 -3
right_child=8 6 3 -5 -6 -7 -8 -9 -10 -11
leaf_value=-0.024874895507305313 -0.021987453329332912 0.0033261016029266289 0.0070631701424001894 -0.014011303855448723 0.031981903209028044 -0.016588355980730607 0.027770477484676433 -0.014503410230666312 0.00096629044617608725 0.030748937211070328
leaf_weight=8.0329243987798673 15.614180207252504 8.805771037936216 20.874453604221348 9.7244124263524991 8.3960048258304578 8.9318964481353742 12.149275317788122 9.9365381151437742 9.4299347549676877 8.5948099195957166
leaf_count=40 83 40 104 50 40 46 58 54 47 41
internal_value=0.000923496 0.00519381 -0.00199397 0.0029823 0.0081346 -0.000740747 0.0149195 0.00686194 -0.0139875 0.0196463
internal_weight=120.49 95.4461 55.9597 47.9268 38.2024 29.8064 39.4864 27.3371 25.0441 17.4006
internal_count=603 473 280 240 190 150 193 135 130 81
is_linear=0
shrinkage=0.05


Tree=6
num_leaves=11
num_cat=0
split_feature=1 0 15 1 15 0 13 0 0 13
split_gain=10.1818 7.89786 5.27126 3.8248 3.62308 4.27721 2.83457 1.25116 0.553659 1.81057
threshold=7.5000000000000009 1.5000000000000002 8.5000000000000018 18.500000000000004 12.500000000000002 2.5000000000000004 13.500000000000002 5.5000000000000009 1.0000000180025095e-35 36.500000000000007
decision_type=2 2 2 2 2 2 2 2 2 2
left_child=1 -1 3 -2 7 -6 -3 8 -4 -10
right_child=2 6 4 -5 5 -7 -8 -9 9 -11
leaf_value=0.053188712999809352 0.022726725435249822 -0.016990838219816975 -0.0086041380335356299 -0.012541051635599577 0.028827025220654803 -0.018935967644236568 0.016151003505049704 -0.0032007962269085762 -0.035366122466148793 -0.0061959625079013973
leaf_weight=9.4960061013698596 14.797398641705515 8.2232588678598422 7.6711672842502585 10.780095636844633 6.1273824572563154 6.6645338535308838 12.135585650801657 8.0244878977537137 27.414067983627319 8.7583556622266752
leaf_count=40 69 41 40 56 30 34 54 42 151 46
internal_value=-0.00207494 0.0218661 -0.0104981 0.00793141 -0.0178906 0.0047561 0.00208753 -0.0235216 -0.0266909 -0.0294463
internal_weight=120.092 29.8549 90.2375 25.5775 64.66 12.7919 20.3588 51.8681 43.8436 36.1724
internal_count=603 135 468 125 343 64 95 279 237 197
is_linear=0
shrinkage=0.05


Tree=7
num_leaves=12
num_cat=0
split_feature=1 16 16 1 1 0 12 16 13 12 6
split_gain=13.8123 12.8779 6.81888 4.78119 7.36581 3.18256 3.1356 2.75451 3.64175 1.84985 0.197709
threshold=25.500000000000004 9.9166666666666696 10.816666666666668 8.5000000000000018 20.500000000000004 3.5000000000000004 7.5000000000000009 7.2500000000000009 13.500000000000002 12.500000000000002 2.5000000000000004
decision_type=2 2 2 2 2 2 2 2 2 2 2
left_child=2 -2 5 -4 6 9 -5 -7 -9 10 -1
right_child=1 -3 3 4 -6 7 -8 8 -10 -11 -12
leaf_value=-0.015205049517478503 0.067407978064696131 -0.0059282283755947851 0.030534843112917733 -0.037543903701436718 0.028793200285679499 -0.020727219456469537 0.00048961029055625974 0.029013421086332425 -0.012918639635427831 -0.0058084183583289907 -0.038194567033778187
leaf_weight=8.1395177096128482 10.089417144656183 9.9990320056676847 12.031100019812582 9.384491249918943 8.2453891783952695 10.249390840530397 9.0464843511581403 7.6011314988136274 7.4342413693666458 9.9695694446563703 18.218191280961037
leaf_count=39 54 50 59 45 42 56 47 36 35 46 94
internal_value=-0.000267442 0.0346611 -0.00811342 0.00788106 -0.00422132 -0.0181386 -0.0211873 -0.00360067 0.00930277 -0.0270837 -0.0335447
internal_weight=120.408 20.0884 100.32 38.7075 26.6764 61.612 18.431 25.2848 15.0354 36.3273 26.3577
internal_count=603 104 499 193 134 306 92 127 71 179 133
is_linear=0
shrinkage=0.05


Tree=8
num_leaves=12
num_cat=0
split_feature=1 16 14 13 13 1 12 13 16 14 1
split_gain=15.493 12.7698 8.95126 11.0552 4.24302 4.06445 2.54546 1.91863 1.86524 1.80923 1.45859
threshold=8.5000000000000018 21.916666666666668 2.5000000000000004 19.500000000000004 9.5000000000000018 21.500000000000004 10.500000000000002 28.500000000000004 6.0500000000000007 3.5000000000000004 21.500000000000004
decision_type=2 2 2 2 2 2 2 2 2 2 2
left_child=4 2 3 8 -1 -5 9 -7 -2 -4 -11
right_child=1 -3 6 5 -6 7 -8 -9 -10 10 -12
leaf_value=-0.00077582360665724107 0.0042164301243032389 -0.034800634731459758 0.064150596027278503 0.0018809729244288573 -0.038693065955239081 0.059876357903262151 0.010244001730911187 0.012554435112556342 -0.025368825257638689 0.036341761959738338 0.0025169495760461419
leaf_weight=10.962170243263243 5.7175058722496059 10.199703842401503 8.990023106336599 9.9885748177766818 22.380858734250069 6.1055132448673231 8.8902043998241407 5.849089041352272 18.329619348049164 6.7118225097656232 5.9624440521001816
leaf_count=55 33 46 50 51 103 34 47 30 88 35 31
internal_value=4.55e-05 0.0112374 0.018516 0.00380444 -0.0274577 0.0276922 0.0381908 0.0442205 -0.0184622 0.0468155 0.0242756
internal_weight=120.088 86.7445 76.5448 45.9903 33.343 21.9432 30.5545 11.9546 24.0471 21.6643 12.6743
internal_count=603 445 399 236 158 115 163 64 121 116 66
is_linear=0
shrinkage=0.05


Tree=9
num_leaves=8
num_cat=0
split_feature=16 2 16 13 2 16 16
split_gain=25.7479 12.8847 21.6961 20.0502 6.66964 8.08945 2.77668
threshold=5.8500000000000005 10.500000000000002 10.083333333333334 57.500000000000007 1.5000000000000002 18.150000000000002 7.2166666666666677
decision_type=2 2 2 2 2 2 2
left_child=-1 3 -3 4 -2 6 -6
right_child=1 2 -4 -5 5 -7 -8
leaf_value=0.069516806843731391 0.011452380074274512 -0.025334739043790744 0.070492039798728062 0.047664870371721263 -0.0091109817618052723 0.018780825272057995 -0.037769338946601623
leaf_weight=9.4762260317802411 11.020569339394568 8.5198818445205706 10.048248142004011 8.8487501889467222 13.269649088382719 6.5054907053709021 52.391708984971046
leaf_count=52 55 42 52 46 66 36 254
internal_value=0.00133059 -0.00614886 0.0288826 -0.0139577 -0.0220015 -0.0274299 -0.0327017
internal_weight=120.081 110.604 18.5681 92.0362 83.1874 72.1668 65.6614
internal_count=603 551 94 457 411 356 320
is_linear=0
shrinkage=0.05


Tree=10
num_leaves=11
num_cat=0
split_feature=16 1 17 2 16 16 2 12 14 13
split_gain=6.1057 8.84924 5.98148 6.60847 4.12319 3.99926 3.2846 2.94076 5.89333 0.214051
threshold=24.150000000000002 10.500000000000002 0.33333333333333337 9.5000000000000018 6.7500000000000009 17.133333333333336 6.5000000000000009 19.500000000000004 1.5000000000000002 27.500000000000004
decision_type=2 2 2 2 2 2 2 2 2 2
left_child=1 2 3 6 -3 7 9 8 -6 -1
right_child=-2 4 -4 -5 5 -7 -8 -9 -10 -11
leaf_value=0.022494995852649625 0.032078312299341334 -0.036072581108231368 -0.014270479110476311 -0.010710222575937851 0.034588439685578974 -0.034832639960414129 0.061316381150902335 -0.02392246111235672 -0.0054862138203553594 0.0051985428558234759
leaf_weight=6.5736992657184654 11.353875681757925 12.615668922662733 9.8017785400152189 7.1430329084396353 9.4814660847187024 7.1939829289913169 8.1260313987731916 7.6719654053449622 31.87845279276371 6.2123955637216568
leaf_count=31 49 72 49 34 43 41 32 43 161 29
internal_value=0.00141483 -0.00259055 0.0160104 0.0271074 -0.0131305 -0.00633202 0.0399571 -0.000287053 0.00530578 0.0169929
internal_weight=118.052 106.698 37.8569 28.0552 68.8415 56.2259 20.9121 49.0319 41.3599 12.7861
internal_count=584 535 175 126 360 288 92 247 204 60
is_linear=0
shrinkage=0.05


Tree=11
num_leaves=12
num_cat=0
split_feature=16 13 16 16 16 16 17 13 14 12 16
split_gain=5.68257 5.74403 4.11909 6.017 2.99181 3.36913 3.82513 2.60784 2.26233 2.15575 2.35747
threshold=7.2833333333333341 14.500000000000002 8.6500000000000004 21.400000000000002 17.31666666666667 14.550000000000002 -0.31666666666666671 4.5000000000000009 2.5000000000000004 5.5000000000000009 8.0166666666666675
decision_type=2 2 2 2 2 2 2 2 2 2 2
left_child=1 7 9 4 5 6 -4 -1 -5 -2 -11
right_child=2 -3 3 8 -6 -7 -8 -9 -10 10 -12
leaf_value=-0.00056322594720089301 0.004235003375214666 0.011545458943274221 0.012088691481732456 0.041995137145761585 -0.033158657537250204 0.021210249776969631 -0.021408401004874952 -0.040295048090060376 0.0036669227439108305 0.0092120549285824478 0.050817928302450049
leaf_weight=5.9743818342685762 10.254523515701296 10.960439026355742 10.873959317803381 7.1523309051990491 6.2664400339126578 9.141807094216345 20.075586050748829 13.446115806698797 7.7231751829385757 7.9051351100206357 7.6589083671569824
leaf_count=31 51 52 50 30 36 43 107 78 37 37 32
internal_value=0.00246052 -0.0151755 0.00897149 0.00147345 -0.00751706 -0.00136368 -0.00946385 -0.0300061 0.0263304 0.0245764 0.0348589
internal_weight=117.433 30.3809 87.0519 61.2333 46.3578 40.0914 30.9495 19.4205 14.8755 25.8186 15.564
internal_count=584 161 423 303 236 200 157 109 67 120 69
is_linear=0
shrinkage=0.05


Tree=12
num_leaves=13
num_cat=0
split_feature=1 16 16 19 12 15 17 17 1 17 17 0
split_gain=5.71221 17.7373 8.23668 6.2102 5.42827 4.63042 7.36269 3.94904 3.4778 1.5253 2.6644 0.393546
threshold=26.500000000000004 9.1166666666666689 7.8833333333333337 13.500000000000002 27.500000000000004 9.5000000000000018 0.68333333333333335 -0.81666666666666654 13.500000000000002 -0.31666666666666671 0.56666666666666676 4.5000000000000009
decision_type=2 2 2 2 2 2 2 2 2 2 2 2
left_child=2 -2 7 5 -5 6 8 -1 -4 -7 -11 -9
right_child=1 -3 3 4 -6 9 -8 11 -10 10 -12 -13
leaf_value=0.0094394664766755763 0.074568943886946223 -0.015702221029412256 0.04073680209992725 -0.034052412815451065 0.013841985304931016 0.048184708259313563 -0.032084467427133827 -0.035576250659137741 -0.0012886524470451164 -0.004659148411634585 0.033051910434628656 -0.013399813269709515
leaf_weight=5.7209658771753302 6.3142567425966289 10.973816633224486 6.2528573572635677 12.572010219097139 7.2397865355014792 6.4846324175596264 8.391021788120268 21.098976030945781 9.6727591007947904 7.5391015261411649 6.5574162602424622 8.8546919971704465
leaf_count=30 31 54 29 61 33 30 38 108 48 39 35 48
internal_value=-0.00106357 0.0231729 -0.00583724 0.00480586 -0.0168126 0.0149052 -0.00017842 -0.0241471 0.0187894 0.0306941 0.0153123 -0.030989
internal_weight=117.672 17.2881 100.384 64.7096 19.8118 44.8978 24.3166 35.6746 15.9256 20.5812 14.0965 29.9537
internal_count=584 85 499 313 94 219 115 186 77 104 74 156
is_linear=0
shrinkage=0.05


Tree=13
num_leaves=12
num_cat=0
split_feature=1 16 17 16 16 14 1 1 13 13 1
split_gain=12.2601 10.0303 7.1796 7.1772 5.34446 3.0257 5.45631 3.01177 2.73423 1.75628 1.63484
threshold=7.5000000000000009 21.916666666666668 -0.43333333333333335 9.1166666666666689 6.7166666666666677 2.5000000000000004 22.500000000000004 19.500000000000004 19.500000000000004 11.500000000000002 12.500000000000002
decision_type=2 2 2 2 2 2 2 2 2 2 2
left_child=9 2 4 7 -2 6 -5 10 -6 -1 -4
right_child=1 -3 3 5 8 -7 -8 -9 -10 -11 -12
leaf_value=-0.0094404648417611443 0.021261376960114972 -0.032949746480151969 0.006171066499912471 -0.005637708560717207 -0.033324860323392234 0.061327824536303512 0.048449963877863052 0.021075634286399306 0 -0.039752718372612267 -0.023584381619603613
leaf_weight=9.9282913058996218 9.3401336818933505 11.459013521671293 6.1227068006992358 8.7748437225818652 11.266829475760462 9.626025125384329 5.5276874601840964 9.8936477303504926 10.419615373015402 17.551866486668587 7.4231929183006287
leaf_count=48 51 54 33 45 54 51 30 49 50 82 37
internal_value=-0.00350149 0.00557537 0.0122749 0.0239899 -0.00600146 0.0416327 0.0197534 0.00310951 -0.0191027 -0.0309723 -0.0111525
internal_weight=117.334 89.8537 78.3947 47.3681 31.0266 23.9286 14.3025 23.4395 21.6864 27.4802 13.5459
internal_count=584 454 400 245 155 126 75 119 104 130 70
is_linear=0
shrinkage=0.05


Tree=14
num_leaves=11
num_cat=0
split_feature=16 12 13 13 6 1 8 1 17 1
split_gain=24.8928 6.22227 5.92776 7.75219 7.74532 10.4215 5.06477 2.98716 4.61852 1.56242
threshold=6.116666666666668 8.5000000000000018 57.500000000000007 25.500000000000004 2.5000000000000004 11.500000000000002 1.5000000000000002 21.500000000000004 -1.0000000180025095e-35 13.500000000000002
decision_type=2 2 2 2 2 2 2 2 2 2
left_child=1 -1 3 4 5 -2 -7 8 -6 -5
right_child=2 -3 -4 9 7 6 -8 -9 -10 -11
leaf_value=0.079315608035564811 -0.022238969588374593 0.0075028122996076826 0.022311872099059851 -0.015019133755052117 -0.026656259918398817 0.056411714027651542 0.0033152072742292024 -0.033877090024669418 0.014500038057753441 -0.041722518525805476
leaf_weight=8.1710331141948682 8.6476469933986682 5.2951071709394446 11.188637390732763 16.07952469587326 9.2282112836837733 10.210635632276537 7.7229916751384726 12.132487088441847 12.420049220323566 16.364514052867889
leaf_count=42 38 28 55 75 43 55 40 62 64 82
internal_value=0.00064 0.057893 -0.00814226 -0.0124497 -0.00139295 0.0176379 0.0375369 -0.016721 -0.00395026 -0.0310206
internal_weight=117.461 13.4661 103.995 92.8061 60.362 26.5813 17.9336 33.7807 21.6483 32.444
internal_count=584 70 514 459 302 133 95 169 107 157
is_linear=0
shrinkage=0.05


Tree=15
num_leaves=13
num_cat=0
split_feature=1 0 16 19 12 13 20 15 17 16 8 12
split_gain=5.0175 9.53097 7.88962 7.00871 4.57498 3.90089 3.15521 2.96617 2.57366 1.39171 3.71445 0.718261
threshold=12.500000000000002 3.5000000000000004 24.266666666666669 2.5000000000000004 5.5000000000000009 10.500000000000002 0.55000000000000016 12.500000000000002 0.33333333333333337 7.616666666666668 1.5000000000000002 10.500000000000002
decision_type=2 2 2 2 2 2 2 2 2 2 2 2
left_child=1 3 4 -1 6 -5 -2 9 11 -6 -11 -3
right_child=2 8 -4 5 7 -7 -8 -9 -10 10 -12 -13
leaf_value=-0.0098742318851276541 0.023605285266892748 0.012729407019192849 0.03539587901351595 0.008477304612795656 -0.039072864033767946 0.055344511049929379 -0.012877493478768764 0.0072432350274109396 -0.029664007306973557 -0.024483559299375235 0.014174047395920573 -0.0070427200694721335
leaf_weight=6.8825100809335735 10.518479689955713 6.0989123582839984 7.1855863630771628 7.8179547190666225 11.590241163969038 15.633951038122175 7.8033643811941138 6.9734602868556967 7.6028294116258612 22.248778462409977 5.8751352876424781 6.2343437522649765
leaf_count=33 53 31 28 39 69 66 42 31 38 118 28 29
internal_value=0.00248648 0.0142045 -0.0058476 0.0307614 -0.0118401 0.0426432 0.00820695 -0.0198284 -0.0114986 -0.0248739 -0.0156595 0.00298625
internal_weight=122.466 50.2705 72.195 30.3344 65.0095 23.4519 18.3218 46.6876 19.9361 39.7142 28.1239 12.3333
internal_count=605 236 369 138 341 105 95 246 98 215 146 60
is_linear=0
shrinkage=0.05


Tree=16
num_leaves=12
num_cat=0
split_feature=16 2 0 13 13 16 16 12 17 15 15
split_gain=6.50968 4.20958 4.27155 8.06702 5.43961 5.08101 6.21873 2.41724 2.1865 1.98408 0.456272
threshold=23.233333333333338 1.5000000000000002 2.5000000000000004 13.500000000000002 49.500000000000007 11.483333333333336 8.0166666666666675 10.500000000000002 -0.31666666666666671 11.500000000000002 9.5000000000000018
decision_type=2 2 2 2 2 2 2 2 2 2 2
left_child=1 -1 5 10 7 6 9 -5 -8 -3 -4
right_child=-2 2 3 4 -6 -7 8 -9 -10 -11 -12
leaf_value=-0.033686251723213795 0.031362819115538502 -0.013917652430138774 -0.0085066931935055528 0 -0.025799630663676805 -0.01401435650513555 0.057953144839717224 0.029438241046232869 0.014384923093217991 0.015381562717778227 -0.032182769298742066
leaf_weight=6.6411652266979209 13.715611964464186 9.2092694342136401 5.9430953413248089 11.459497421979906 6.3893581479787818 11.291329964995382 7.5805432498455039 15.080812633037565 8.1311739683151227 7.9692799150943747 18.439267545938492
leaf_count=39 59 49 30 58 34 59 30 71 38 37 101
internal_value=0.00229267 -0.00209662 0.000830357 -0.00795938 0.00796013 0.0121194 0.021652 0.0180515 0.0415941 0 -0.0281587
internal_weight=121.85 108.135 101.494 57.312 32.9297 44.1816 32.8903 26.5403 15.7117 17.1785 24.3824
internal_count=605 546 507 294 163 213 154 129 68 86 131
is_linear=0
shrinkage=0.05


Tree=17
num_leaves=14
num_cat=0
split_feature=1 16 16 12 16 15 1 13 1 13 17 14 2
split_gain=12.7425 8.76554 7.87337 4.09632 6.00844 3.70881 5.81184 5.0559 4.66689 3.93418 2.30919 1.96599 0.499218
threshold=27.500000000000004 7.2500000000000009 9.2500000000000018 14.500000000000002 16.750000000000004 9.5000000000000018 11.500000000000002 11.500000000000002 10.500000000000002 10.500000000000002 -1.0000000180025095e-35 1.5000000000000002 7.5000000000000009
decision_type=2 2 2 2 2 2 2 2 2 2 2 2 2
left_child=1 11 -2 5 12 8 9 -8 -3 -7 -10 -1 -5
right_child=2 3 -4 4 -6 6 7 -9 10 -11 -12 -13 -14
leaf_value=-0.0067112231537613878 0.068473045140431982 0.022728618453494501 0.00081198501439112489 -0.037657671128782613 0.019061650820007419 -0.026279913384052885 0.053720699384142034 0.002728276314557708 0.0025420106398950371 0.01649989438430954 -0.031526740305272215 -0.03966457962073737 -0.011315270855195025
leaf_weight=8.1352823227643984 6.7383520752191535 6.6215190887451199 8.1015017032623273 9.6617951691150719 6.4757998436689368 7.3385522365570059 10.421607628464701 8.4887092113494855 6.7675526291132035 8.2181596606969816 10.643405944108958 17.509120404720306 7.0438312143087378
leaf_count=42 31 29 41 50 28 40 51 41 31 38 53 96 34
internal_value=-0.00102329 -0.00737736 0.0381634 0.000877502 -0.0156538 0.00795365 0.0179028 0.0345665 -0.00653359 -0.00439721 -0.0196122 -0.031183 -0.0302179
internal_weight=122.165 107.325 14.8399 81.6809 23.1814 58.4995 34.467 18.9103 24.0325 15.5567 17.411 25.6444 16.7056
internal_count=605 533 72 395 112 283 170 92 113 78 84 138 84
is_linear=0
shrinkage=0.05


Tree=18
num_leaves=10
num_cat=0
split_feature=1 15 15 2 2 13 2 6 14
split_gain=15.2722 6.48251 5.6677 7.84391 5.56195 7.27336 5.14732 3.93529 2.73652
threshold=9.5000000000000018 12.500000000000002 8.5000000000000018 10.500000000000002 3.5000000000000004 17.500000000000004 6.5000000000000009 3.5000000000000004 2.5000000000000004
decision_type=2 2 2 2 2 2 2 2 2
left_child=7 2 6 4 5 -4 -2 -1 -6
right_child=1 -3 3 -5 8 -7 -8 -9 -10
leaf_value=-0.034429551004514163 -0.02186476592014612 -0.018449879058274294 -0.024786125893592012 -0.012693693893388492 0.023658629503722182 0.032249765888066897 0.02124592063241702 0.0017088893830424106 0.066155163263410477
leaf_weight=26.718361243605614 12.738552555441858 12.154415011405943 6.4349614083766964 8.8241935819387418 12.817440837621691 11.082136645913122 9.3571693897247297 9.3787967562675458 11.876111000776289
leaf_count=127 57 58 33 46 68 55 50 47 64
internal_value=0.00048507 0.0120334 0.0176929 0.0264375 0.035028 0.0104932 -0.00305153 -0.0255015 0.0492299
internal_weight=121.382 85.285 73.1306 51.0348 42.2106 17.5171 22.0957 36.0972 24.6936
internal_count=605 431 373 266 220 88 107 174 132
is_linear=0
shrinkage=0.05


Tree=19
num_leaves=8
num_cat=0
split_feature=16 2 16 13 2 16 16
split_gain=16.6113 16.5285 25.8646 6.19622 7.52636 6.57971 2.66794
threshold=5.8500000000000005 10.500000000000002 10.083333333333334 57.500000000000007 1.5000000000000002 18.150000000000002 7.8833333333333337
decision_type=2 2 2 2 2 2 2
left_child=-1 3 -3 4 -2 6 -6
right_child=1 2 -4 -5 5 -7 -8
leaf_value=0.048886725873745415 0.010853532567932282 -0.026736108004184023 0.076700233370608592 0.015260076748311591 -0.01606211565889918 0.015076510092034839 -0.041332390431041699
leaf_weight=10.193486228585241 11.838957235217093 9.2643836587667483 9.6555525064468366 9.4411337673664075 21.791700065135956 5.7323611229658118 43.515204653143883
leaf_count=51 59 46 48 45 111 31 214
internal_value=-0.00430322 -0.0103769 0.029096 -0.0191801 -0.0235576 -0.0295673 -0.0340491
internal_weight=121.433 111.239 18.9199 92.3194 82.8782 71.0393 65.3069
internal_count=605 554 94 460 415 356 325
is_linear=0
shrinkage=0.05


Tree=20
num_leaves=14
num_cat=0
split_feature=15 1 13 2 19 15 13 0 13 0 1 1 1
split_gain=8.41229 6.32216 5.39098 2.76714 2.58149 2.50083 5.56766 4.3025 2.56581 1.75612 1.08608 0.99951 0.526068
threshold=9.5000000000000018 16.500000000000004 17.500000000000004 7.5000000000000009 6.5000000000000009 10.500000000000002 10.500000000000002 3.5000000000000004 19.500000000000004 2.5000000000000004 16.500000000000004 23.500000000000004 16.500000000000004
decision_type=2 2 2 2 2 2 2 2 2 2 2 2 2
left_child=1 2 -1 11 -4 8 9 12 -2 -7 -11 -3 -8
right_child=5 3 4 -5 -6 6 7 -9 -10 10 -12 -13 -14
leaf_value=0.0013095142911102239 0 0.020423932378025353 0.012733371776831951 -0.02288448959076702 0.057953403425991069 -0.027796004149270227 0.037644930319099143 -0.011714716782036469 -0.034771590889469926 -0.012637676250503951 0.0098004736002909772 -0.0029631504020636522 0.010338854578502137
leaf_weight=10.46784943342209 8.5667546838521975 6.7703985869884509 7.0079866647720364 7.3962869942188254 12.315352469682692 12.382570475339891 8.2989972829818743 7.4293907135725012 11.225881040096281 9.3313773572444898 6.5624178797006598 6.7424749732017517 6.4577032029628745
leaf_count=49 45 31 32 43 50 66 38 39 59 52 34 34 30
internal_value=0.00307257 0.018071 0.0317966 -0.00281198 0.0456926 -0.00797972 -0.00156639 0.0159197 -0.0217532 -0.0156571 -0.00302341 0.0100335 0.0297427
internal_weight=120.955 50.7003 29.7912 20.9092 19.3233 70.2551 50.4625 22.1861 19.7926 28.2764 15.8938 13.5129 14.7567
internal_count=602 239 131 108 82 363 259 107 104 152 86 65 68
is_linear=0
shrinkage=0.05


Tree=21
num_leaves=11
num_cat=0
split_feature=1 0 2 8 0 19 19 15 19 16
split_gain=8.8168 6.25969 5.86024 5.28251 2.96689 2.58739 3.96303 1.79957 1.67295 1.06218
threshold=9.5000000000000018 1.5000000000000002 3.5000000000000004 1.0000000180025095e-35 3.5000000000000004 9.5000000000000018 15.500000000000002 11.500000000000002 9.5000000000000018 8.2166666666666668
decision_type=2 2 2 2 2 2 2 2 2 2
left_child=1 -1 3 -2 -3 -4 9 -5 -6 -7
right_child=2 4 5 7 8 6 -8 -9 -10 -11
leaf_value=0.039995520326919602 0.03297322021586907 -0.015758372473821006 -0.029083327521207427 -0.022818208671091592 0 -0.0034557176726759788 -0.02669204806865004 0.008247977034433673 0.029816060363985104 0.020550523428759657
leaf_weight=13.574560374021528 9.1171304732561129 11.865712299942972 32.478583440184593 8.0935661941766721 10.022303998470305 6.5229106843471545 9.962996691465376 5.6529691070318213 5.9226310998201361 7.1723789572715759
leaf_count=55 39 56 181 45 51 35 55 28 24 33
internal_value=-0.00229968 0.0156625 -0.0119991 0.00842011 0.000885217 -0.0204053 -0.00637212 -0.0105554 0.0140689 0.0102507
internal_weight=120.386 41.3852 79.0005 22.8637 27.8106 56.1369 23.6583 13.7465 15.9449 13.6953
internal_count=602 186 416 112 131 304 123 73 75 68
is_linear=0
shrinkage=0.05


Tree=22
num_leaves=11
num_cat=0
split_feature=16 14 0 15 2 16 6 8 2 12
split_gain=4.20058 4.82511 4.51042 3.38227 2.98306 2.7443 2.67646 2.58641 4.02453 0.476214
threshold=5.5166666666666675 3.5000000000000004 2.5000000000000004 6.5000000000000009 3.5000000000000004 7.0500000000000007 3.5000000000000004 1.5000000000000002 3.5000000000000004 13.500000000000002
decision_type=2 2 2 2 2 2 2 2 2 2
left_child=-1 2 7 -4 -5 -6 -3 8 -2 -10
right_child=1 6 3 4 5 -7 -8 -9 9 -11
leaf_value=-0.033262539296528455 0.013575795027499629 -0.028606232638755821 -0.010300236420932732 -0.00069076684103637942 0.0019743067650888945 0.03725314140651758 0.002353937966540313 0.011351814648803542 -0.012810463634327394 -0.034911453613438094
leaf_weight=6.7640758305788031 7.2996674776077297 15.23846845328808 7.9053669422864905 10.494248434901236 7.8770139813423183 22.415213212370872 10.165968701243399 12.209784522652624 12.403536528348925 7.4597706347703925
leaf_count=42 36 79 38 51 41 112 48 59 61 35
internal_value=-0.00177635 0.000866088 0.00649665 0.0162815 0.0219006 0.0292342 -0.0171009 -0.00578219 -0.0140127 -0.0248211
internal_weight=120.233 113.469 88.0646 48.6918 40.7865 30.2922 25.4044 39.3728 27.163 19.8633
internal_count=602 560 433 242 204 153 127 191 132 96
is_linear=0
shrinkage=0.05


Tree=23
num_leaves=13
num_cat=0
split_feature=14 16 5 19 12 12 16 16 16 0 19 19
split_gain=9.54395 5.15652 9.12045 2.94571 2.66962 4.69607 1.8194 3.05813 1.81261 1.34458 0.862993 0.780084
threshold=2.5000000000000004 6.4166666666666679 1.0000000180025095e-35 24.500000000000004 11.500000000000002 4.5000000000000009 15.883333333333335 7.6500000000000012 8.0500000000000025 3.5000000000000004 18.500000000000004 13.500000000000002
decision_type=2 2 2 2 2 2 2 2 2 2 2 2
left_child=3 -2 11 4 5 -1 7 -4 -7 -9 -6 -3
right_child=1 2 6 -5 10 8 -8 9 -10 -11 -12 -13
leaf_value=-0.027624641979166226 0.046423042472369669 -0.028742511289725905 0 0.014910297353297406 -0.031459474271570753 0.020797609200717982 0 0.052699398976718652 -0.0046099953851614439 0.015140353664437787 -0.0054172744522469748 -0.0047004118841317355
leaf_weight=11.421773001551626 8.5885966122150403 8.2614102214574796 6.480995446443564 6.8485696017742148 18.911701902747158 10.579294905066492 6.5665306746959677 8.280572637915613 12.216216161847113 7.9103697836399069 5.9786039292812339 7.6354216486215583
leaf_count=58 45 41 31 35 90 58 35 43 59 39 31 37
internal_value=0.00113799 0.0163399 0.00797506 -0.0113442 -0.01504 -0.00500107 0.0238086 0.0298165 0.00803513 0.0398452 -0.026639 -0.0200389
internal_weight=119.68 53.7239 45.1353 65.9562 59.1076 34.2173 29.2385 22.6719 22.7955 16.1909 24.8903 15.8968
internal_count=602 271 226 331 296 175 148 113 117 82 121 78
is_linear=0
shrinkage=0.05


Tree=24
num_leaves=8
num_cat=0
split_feature=16 2 16 13 2 16 12
split_gain=20.2088 10.9616 25.0497 12.9363 7.10732 14.063 1.60641
threshold=5.8500000000000005 10.500000000000002 10.083333333333334 57.500000000000007 1.5000000000000002 18.150000000000002 2.5000000000000004
decision_type=2 2 2 2 2 2 2
left_child=-1 3 -3 4 -2 6 -6
right_child=1 2 -4 -5 5 -7 -8
leaf_value=0.054872822300222591 0.012844883274706715 -0.027962286766881356 0.071434922409096754 0.033668472262727157 -0.012786585812554284 0.034610123359690215 -0.038943135544539896
leaf_weight=11.729851007461546 10.678973093628882 10.099404856562616 9.7753154486417753 9.2145003378391248 11.610516577959059 5.696756735444068 50.501730054616928
leaf_count=57 53 52 47 45 61 31 256
internal_value=-0.000104791 -0.00747066 0.0236643 -0.0151308 -0.0219498 -0.0278121 -0.0349449
internal_weight=119.307 107.577 19.8747 87.7025 78.488 67.809 62.1122
internal_count=602 545 99 446 401 348 317
is_linear=0
shrinkage=0.05


Tree=25
num_leaves=13
num_cat=0
split_feature=1 19 15 16 1 13 16 16 6 6 19 19
split_gain=10.0546 6.84014 5.40404 8.41633 5.22356 5.03509 2.67853 1.64864 3.52609 1.98617 0.586821 0.267037
threshold=12.500000000000002 2.5000000000000004 9.5000000000000018 9.4500000000000011 4.5000000000000009 50.500000000000007 8.1500000000000004 6.6833333333333345 2.5000000000000004 3.5000000000000004 11.500000000000002 18.500000000000004
decision_type=2 2 2 2 2 2 2 2 2 2 2 2
left_child=1 6 4 -4 -3 7 -1 -2 10 -10 -9 -12
right_child=5 2 3 -5 -6 -7 -8 8 9 -11 11 -13
leaf_value=0.010722611818014056 -0.033622819235561589 0.008095158159470808 0.029263041434874709 -0.032965463492191566 0.06088987874504842 0.016164905522116645 -0.025827068072849915 -0.030237856057812391 0.014731766262589355 -0.011526052731137828 -0.0026962999753863421 -0.017135146930037651
leaf_weight=6.4072436839342108 10.691397935152052 8.7116933166980761 10.28908993303776 6.1974559277296057 11.903436943888662 11.096628978848456 8.430719241499899 14.109653264284136 12.346585854887964 10.536794245243071 7.9627427756786329 7.3857426047325134
leaf_count=32 64 37 48 36 48 53 42 75 58 53 40 40
internal_value=0 0.0163562 0.0272547 0.00414033 0.0426539 -0.0116336 -0.0106151 -0.0171152 -0.0120131 0.00251345 -0.0226408 -0.0115824
internal_weight=126.069 51.9396 37.1017 16.4865 20.6151 74.1295 14.838 63.0329 52.3415 22.8834 29.4581 15.3485
internal_count=626 243 169 84 85 383 74 330 266 111 155 80
is_linear=0
shrinkage=0.05


Tree=26
num_leaves=11
num_cat=0
split_feature=16 16 16 13 15 16 16 16 6 17
split_gain=7.61978 5.48778 7.3681 9.23175 3.2587 3.12818 4.14865 3.92863 1.38252 1.27373
threshold=7.7166666666666677 8.6500000000000004 21.400000000000002 13.500000000000002 12.500000000000002 17.216666666666672 14.550000000000002 11.316666666666668 2.5000000000000004 0.18333333333333332
decision_type=2 2 2 2 2 2 2 2 2 2
left_child=4 8 5 -4 9 6 7 -3 -2 -1
right_child=1 2 3 -5 -6 -7 -8 -9 -10 -11
leaf_value=-0.031457754084936437 0.039251610778515036 0.0023292333909722108 -0.0101508661600965 0.05621091102205264 0.0050259145372300376 -0.034133345429964095 0.023240689676343195 -0.030251640783463568 0.0092169985058572629 -0.0037253695048351855
leaf_weight=21.129743695259098 11.372851043939592 21.68229965865612 8.0299934297800082 8.4534209668636304 10.115167930722235 7.038214072585105 8.7466151565313321 12.352716758847235 9.1595123559236509 6.5808464139699927
leaf_count=118 48 107 41 32 50 42 39 69 46 34
internal_value=2.06684e-05 0.00819811 0.000725086 0.0270406 -0.0178526 -0.00892832 -0.00270752 -0.0108534 0.0289487 -0.0260418
internal_weight=124.661 86.8356 66.3033 16.4834 37.8258 49.8198 42.7816 34.035 20.5324 27.7106
internal_count=626 424 330 73 202 257 215 176 94 152
is_linear=0
shrinkage=0.05


Tree=27
num_leaves=15
num_cat=0
split_feature=0 20 13 14 16 2 14 16 16 15 2 16 17 12
split_gain=5.0069 3.2827 3.11592 3.96953 3.85472 3.01658 2.69749 2.99873 1.84722 1.70969 1.72626 1.69702 1.51063 0.664237
threshold=3.5000000000000004 0.55000000000000016 11.500000000000002 1.5000000000000002 13.183333333333335 3.5000000000000004 3.5000000000000004 14.083333333333334 16.750000000000004 9.5000000000000018 5.5000000000000009 8.0500000000000025 0.33333333333333337 12.500000000000002
decision_type=2 2 2 2 2 2 2 2 2 2 2 2 2 2
left_child=2 5 11 4 -4 -2 7 13 9 -5 -11 -1 -13 -7
right_child=1 -3 3 8 -6 6 -8 -9 -10 10 -12 12 -14 -15
leaf_value=-0.032477841520424343 -0.014110228633159161 0.033329453500941117 0.035622582993355238 -0.029456657958700717 -0.0084927298693534513 0.035667683505873148 -0.012152167369036558 -0.0071409161377562801 0.010777127047555901 -0.018797590720431752 0.0098621955207104425 -0.019733187887749255 0.0078240882988250306 0.0082331311202361781
leaf_weight=11.479381263256075 11.73407346010208 11.379550427198408 9.4771258085966092 9.33333164453507 6.3701193779706946 12.098372101783761 5.9821992367506018 6.0026268810033789 6.2507403641939154 6.528974160552024 8.6991290897130948 6.5926025658845884 7.5464201271533966 5.8265140801668158
leaf_count=62 57 57 45 48 33 60 30 30 28 35 42 30 40 29
internal_value=0.00124414 0.0125682 -0.00716667 0.000655355 0.0190951 0.00492459 0.0131497 0.0203103 -0.0095334 -0.0154942 -0.00322264 -0.0201631 -0.00593829 0.0294479
internal_weight=125.301 53.0233 72.2778 46.6594 15.8472 41.6438 29.9097 23.9275 30.8122 24.5614 15.2281 25.6184 14.139 17.9249
internal_count=626 263 363 231 78 206 149 119 153 125 77 132 70 89
is_linear=0
shrinkage=0.05


Tree=28
num_leaves=14
num_cat=0
split_feature=16 14 12 12 12 16 12 16 13 12 16 16 13
split_gain=4.01971 4.76022 5.10693 4.21406 2.88406 2.65118 8.3667 3.11398 3.89847 2.62412 2.57445 1.20523 0.123851
threshold=21.916666666666668 2.5000000000000004 21.500000000000004 11.500000000000002 5.5000000000000009 9.2166666666666668 9.5000000000000018 7.1833333333333345 8.5000000000000018 5.5000000000000009 8.0833333333333339 33.250000000000007 19.500000000000004
decision_type=2 2 2 2 2 2 2 2 2 2 2 2 2
left_child=1 2 3 4 -1 7 -7 8 -3 -9 -6 -2 -5
right_child=11 5 -4 12 10 6 -8 9 -10 -11 -12 -13 -14
leaf_value=-0.018086130025490442 -0.034524058529435672 -0.0063296712730536251 0.020700334363016409 -0.037492785381188498 0.023664549356006429 0.048432753437070625 -0.015118049350031271 0.006855893425866422 0.040016253262585955 -0.027389084218222268 -0.0081178829300639164 -0.0031892866417334853 -0.014912200386513395
leaf_weight=13.529721215367315 7.7682037949562055 6.9073905795812625 10.614803791046141 10.02879010140896 10.549499779939653 11.548667803406717 6.1049455255269995 9.4886658042669314 6.6995154768228531 7.6224865466356269 9.5479336977004987 5.7566609978675842 8.4112491607665998
leaf_count=70 38 33 56 50 57 60 29 44 34 38 46 30 41
internal_value=-0.00144694 0.00188588 -0.00703389 -0.0135985 -0.00218905 0.0132776 0.0272099 0.00341385 0.0192948 -0.0099606 0.00925558 -0.0244897 -0.0309539
internal_weight=124.579 111.054 62.682 52.0672 33.6272 48.3717 17.6536 30.7181 13.6069 17.1112 20.0974 13.5249 18.44
internal_count=626 558 320 264 173 238 89 149 67 82 103 68 91
is_linear=0
shrinkage=0.05


Tree=29
num_leaves=8
num_cat=0
split_feature=16 12 1 12 0 16 16
split_gain=17.0092 7.90858 6.98748 9.85389 4.96826 4.59918 5.9665
threshold=5.8500000000000005 27.500000000000004 22.500000000000004 18.500000000000004 1.5000000000000002 18.150000000000002 8.0500000000000025
decision_type=2 2 2 2 2 2 2
left_child=-1 2 3 5 -4 6 -2
right_child=1 -3 4 -5 -6 -7 -8
leaf_value=0.049426300576042026 0.011765977747079562 -0.04034809174018944 0.0097812213904577526 0.055086741263075389 -0.032394445416639654 0.025914627542393182 -0.020167584050505175
leaf_weight=12.420730844140051 23.440079346299171 12.015613466501234 7.9876662790775326 6.3585608601570121 21.062808200716972 10.904801294207571 29.986008524894714
leaf_count=58 120 54 45 32 107 53 157
internal_value=8.66942e-05 -0.00650221 -0.00131704 0.00714778 -0.0208118 9.18305e-05 -0.00618782
internal_weight=124.176 111.756 99.7399 70.6895 29.0505 64.3309 53.4261
internal_count=626 568 514 362 152 330 277
is_linear=0
shrinkage=0.05


Tree=30
num_leaves=12
num_cat=0
split_feature=16 16 13 1 16 20 15 16 16 16 16
split_gain=4.80213 2.94291 7.03862 6.9924 6.76813 4.2202 5.21572 6.35791 0.996427 0.83955 1.84035
threshold=5.8500000000000005 9.2500000000000018 39.500000000000007 26.500000000000004 13.050000000000002 0.55000000000000016 11.500000000000002 8.2833333333333368 10.716666666666667 14.216666666666669 17.81666666666667
decision_type=2 2 2 2 2 2 2 2 2 2 2
left_child=-1 3 8 5 -4 6 7 -2 -3 -10 -11
right_child=1 2 4 -5 -6 -7 -8 -9 9 10 -12
leaf_value=-0.031226994242035719 -0.0063425335966683111 -0.0010635713656370453 -0.01688348424527716 -0.028539339947059861 0.036904571967455758 -0.011157556946022273 0.048593129398725059 0.039198672176708839 -0.033536711427897804 0.0057379694666392818 -0.022756543000286872
leaf_weight=9.1072892695665342 19.84323172271252 7.6246798932552329 7.2144296169281033 7.2611587047576895 11.869076028466223 8.8592338860034925 11.316897943615912 8.7234551906585676 10.093017667531969 7.2111888676881817 11.719887569546698
leaf_count=57 98 40 38 39 52 46 48 35 53 36 62
internal_value=-0.00127884 0.00187124 -0.00605285 0.00974843 0.0168126 0.0168727 0.0235606 0.00980971 -0.0184565 -0.0223419 -0.0123743
internal_weight=120.844 111.736 55.7323 56.004 19.0835 48.7428 39.8836 28.5667 36.6488 29.0241 18.9311
internal_count=604 547 281 266 90 227 181 133 191 151 98
is_linear=0
shrinkage=0.05


Tree=31
num_leaves=12
num_cat=0
split_feature=1 16 16 16 1 16 13 12 13 15 13
split_gain=6.34844 12.409 7.2796 8.9921 6.62732 6.56361 4.58128 3.01908 1.63312 1.08781 0.953423
threshold=7.5000000000000009 7.7166666666666677 25.100000000000005 11.383333333333335 13.500000000000002 9.1166666666666689 12.500000000000002 8.5000000000000018 13.500000000000002 9.5000000000000018 36.500000000000007
decision_type=2 2 2 2 2 2 2 2 2 2 2
left_child=5 9 3 4 -3 8 -6 -7 -1 -2 -5
right_child=1 2 -4 10 6 7 -8 -9 -10 -11 -12
leaf_value=0.010101076465229012 -0.0071305459269563626 -0.021131943363048106 0.041516214412356089 -0.033871645704582912 0.047921196467018201 -0.026132518015188455 0.0050439147130743357 0.013266450178575929 0.048250856236224604 -0.037416505492234409 -0.0086312303787517072
leaf_weight=6.5610862523317399 5.7005126178264645 7.2923713028430965 8.6805066764354688 11.739250093698503 10.16350142657757 6.4695268422365171 13.910848423838614 7.1341638267040253 9.9801730960607511 22.445434525609016 9.503045514225958
leaf_count=30 31 39 35 70 44 35 68 31 38 133 50
internal_value=-0.000186606 -0.00695337 0.00577669 -0.00195201 0.0145085 0.0185507 0.0266343 -0.00650567 0.0372485 -0.0327207 -0.0252517
internal_weight=119.58 89.4355 61.2895 52.609 31.3667 30.145 24.0743 13.6037 16.5413 28.1459 21.2423
internal_count=604 470 306 271 151 134 112 66 68 164 120
is_linear=0
shrinkage=0.05


Tree=32
num_leaves=13
num_cat=0
split_feature=1 16 16 2 16 2 15 16 16 12 17 16
split_gain=10.0951 13.6601 6.21872 4.51208 3.62612 3.44861 3.886 1.43581 3.36958 1.4342 0.679737 0.0287805
threshold=26.500000000000004 9.5666666666666682 11.383333333333335 10.500000000000002 13.116666666666669 9.5000000000000018 11.500000000000002 7.7500000000000009 8.2833333333333368 10.500000000000002 -0.81666666666666654 8.7666666666666675
decision_type=2 2 2 2 2 2 2 2 2 2 2 2
left_child=2 -2 5 4 -4 7 -7 10 -9 -6 -1 -10
right_child=1 -3 3 -5 9 6 -8 8 11 -11 -12 -13
leaf_value=-0.0082209138987454425 0.063486033750182844 -0.012147585684386106 0.043078757248185079 -0.022768706311008476 -0.0066624763928571813 0.017633524752004588 -0.022169357071314847 0.013804037324744348 -0.029568257203060708 0.01656368814767304 -0.036349419807852328 -0.012237172070073741
leaf_weight=5.2379504144191769 9.4767316281795519 9.7283710092306119 6.4636661112308529 6.3065574318170539 11.195018634200098 11.425807744264604 7.6560648232698432 6.4962019920349148 6.8380374163389233 9.5931025594472867 19.946627169847488 9.6455719321966154
leaf_count=28 43 49 33 35 57 55 40 33 29 45 111 46
internal_value=-0.00212143 0.0284835 -0.00865506 0.00833733 0.0172452 -0.0172 0.000595046 -0.0239693 -0.0121076 0.00458272 -0.0321743 -0.0231292
internal_weight=120.01 19.2051 100.805 33.5583 27.2518 67.2463 19.0819 48.1644 22.9798 20.7881 25.1846 16.4836
internal_count=604 92 512 170 135 342 95 247 108 102 139 75
is_linear=0
shrinkage=0.05


Tree=33
num_leaves=15
num_cat=0
split_feature=15 15 12 19 2 13 17 13 13 17 17 6 14 17
split_gain=6.5008 7.92398 3.20975 2.86779 2.56151 2.9894 2.45989 2.95416 4.83588 1.92848 2.51997 0.995918 0.943356 0.70896
threshold=12.500000000000002 9.5000000000000018 10.500000000000002 3.5000000000000004 8.5000000000000018 18.500000000000004 0.18333333333333332 30.500000000000004 18.500000000000004 0.18333333333333332 0.33333333333333337 3.5000000000000004 1.5000000000000002 0.18333333333333332
decision_type=2 2 2 2 2 2 2 2 2 2 2 2 2 2
left_child=1 3 9 -1 5 -4 7 8 -5 11 -11 -3 -9 -2
right_child=13 2 4 6 -6 -7 -8 12 -10 10 -12 -13 -14 -15
leaf_value=-0.027206669795506646 -0.030660264929985238 0.012758910060237378 -0.0090470328734766816 -0.017044465561568422 -0.017705908169646727 0.032425829368537808 0.021212764221750578 -0.0056745736914630392 0.029887955471329254 -0.0074844504395713682 0.025901220793212498 0.049749028820702382 -0.032886636446184107 -0.0064243492310671075
leaf_weight=11.067148894071577 11.4166416823864 5.7722756117582312 5.7629864066839236 8.1100589036941582 6.9275434613227835 6.6542831063270569 6.945222705602645 7.9582956582307798 7.9639786034822455 7.2916389554739025 11.180111959576605 9.4478480070829374 6.3800868093967438 7.0401721298694602
leaf_count=53 53 30 30 41 35 36 34 39 42 36 57 51 31 36
internal_value=0.0012108 0.00636932 0.0192631 -0.00795515 0.00214783 0.0148385 -0.000529555 -0.00710326 0.00698991 0.0279748 0.0132851 0.0404055 -0.0216666 -0.0238395
internal_weight=119.918 101.461 53.0367 48.4248 19.3448 12.4173 37.3576 30.4124 16.074 33.6919 18.4718 15.2201 14.3384 18.4568
internal_count=604 515 275 240 101 66 187 153 83 174 93 81 70 89
is_linear=0
shrinkage=0.05


Tree=34
num_leaves=8
num_cat=0
split_feature=16 2 16 13 2 19 1
split_gain=17.7623 6.96428 18.9518 7.91922 10.159 9.12814 7.01425
threshold=5.8500000000000005 10.500000000000002 10.083333333333334 59.500000000000007 1.5000000000000002 4.5000000000000009 11.500000000000002
decision_type=2 2 2 2 2 2 2
left_child=-1 3 -3 4 -2 6 -6
right_child=1 2 -4 -5 5 -7 -8
leaf_value=0.053079339279293661 0.023426760654190287 -0.027239530394101444 0.057260539244546708 0.027213212027254026 -0.023883270645802188 -0.038163901421326349 0.022832117546300025
leaf_weight=12.201379254460333 10.984998062252997 9.781373932957651 11.309856504201887 9.1231131106615049 13.054904222488405 39.604210197925568 13.079112306237219
leaf_count=57 56 51 51 44 66 206 73
internal_value=0.00244293 -0.0045799 0.0193527 -0.010971 -0.0164274 -0.0238916 -0.000388667
internal_weight=119.139 106.938 21.0912 85.8463 76.7232 65.7382 26.134
internal_count=604 547 102 445 401 345 139
is_linear=0
shrinkage=0.05


Tree=35
num_leaves=13
num_cat=0
split_feature=1 17 0 15 12 1 1 14 1 19 17 14
split_gain=5.21725 5.90084 3.3784 2.02443 4.23058 3.70326 3.52789 3.13949 1.76463 2.6089 1.21868 1.0412
threshold=9.5000000000000018 0.33333333333333337 1.5000000000000002 9.5000000000000018 15.500000000000002 17.500000000000004 16.500000000000004 2.5000000000000004 2.5000000000000004 10.500000000000002 0.33333333333333337 1.5000000000000002
decision_type=2 2 2 2 2 2 2 2 2 2 2 2
left_child=1 8 10 5 6 -4 -5 -8 -1 -10 -2 -7
right_child=2 -3 3 4 -6 11 7 -9 9 -11 -12 -13
leaf_value=0.0014677396184029317 -0.028533149714117547 -0.014912469875528314 0.03226994476265279 -0.036976987504598866 0.02043557105904498 0.0068612482855346466 0.02207093982505378 -0.014854617544453115 0.011139285623240375 0.047907321308948314 -0.0016571554447811368 -0.016099933752338976
leaf_weight=6.7761662304401424 15.884406685829164 10.053534835577009 8.317592382431032 9.3764248788356799 7.6868732124567023 6.9801446646451932 5.7875842750072506 13.639972642064093 12.180159062147142 10.083020359277723 6.455125778913497 6.9353654235601425
leaf_count=29 86 49 40 56 38 34 29 74 57 39 32 36
internal_value=0.00034356 0.0147426 -0.0068192 -0.000141681 -0.00727968 0.0108483 -0.0160632 -0.00215049 0.0256003 0.031701 -0.0220801 -0.00511261
internal_weight=120.156 39.0929 81.0635 58.724 36.4909 22.2331 28.804 19.4276 29.0393 22.2632 22.3395 13.9155
internal_count=599 174 425 307 197 110 159 103 125 96 118 70
is_linear=0
shrinkage=0.05


Tree=36
num_leaves=12
num_cat=0
split_feature=1 16 2 0 6 15 4 12 19 15 15
split_gain=7.40491 5.78452 5.49033 4.49754 4.13466 4.0143 4.60174 3.60694 5.54679 2.76506 1.95773
threshold=10.500000000000002 7.8166666666666673 4.5000000000000009 4.5000000000000009 2.5000000000000004 11.500000000000002 1.0000000180025095e-35 10.500000000000002 16.500000000000004 12.500000000000002 11.500000000000002
decision_type=2 2 2 2 2 2 2 2 2 2 2
left_child=2 9 10 4 -4 6 7 -3 -9 -2 -1
right_child=1 5 3 -5 -6 -7 -8 8 -10 -11 -12
leaf_value=0.0088652298767223168 -0.037947638921734063 -0.034967328899500855 0.027696826543442646 0.051326239607428062 -0.013012204743836629 0.022983463466634657 0.02053939006886123 0.018877342197049257 -0.026218028457023285 0.00035018275911792264 -0.022481843499740702
leaf_weight=6.6199367344379407 17.764187410473827 12.108239993453024 10.719354242086416 8.9704640507698041 8.7844250202178937 10.684135884046553 8.2365261018276197 11.505104541778566 9.8564172834157926 5.6939718276262274 7.879901334643364
leaf_count=28 111 65 43 38 42 48 40 52 58 31 43
internal_value=-0.0011035 -0.0104143 0.0148284 0.0267215 0.00984907 -0.000654385 -0.00795762 -0.0162202 -0.00239115 -0.029477 -0.00881821
internal_weight=118.823 75.8486 42.9741 28.4742 19.5038 52.3904 41.7063 33.4698 21.3615 23.4582 14.4998
internal_count=599 405 194 123 85 263 215 175 110 142 71
is_linear=0
shrinkage=0.05


Tree=37
num_leaves=11
num_cat=0
split_feature=1 16 16 14 12 12 16 1 2 14
split_gain=8.24471 14.2755 7.53939 6.16906 4.96473 8.26623 7.16951 5.58863 1.65108 0.971053
threshold=26.500000000000004 9.7833333333333368 7.9500000000000011 1.5000000000000002 13.500000000000002 5.5000000000000009 16.750000000000004 7.5000000000000009 5.5000000000000009 1.5000000000000002
decision_type=2 2 2 2 2 2 2 2 2 2
left_child=2 -2 3 -1 5 7 -6 -4 -9 -7
right_child=1 -3 4 -5 6 9 -8 8 -10 -11
leaf_value=0.008696937943506072 0.0615901425506378 -0.017937180804888399 0.026633843780810851 -0.034951261965943205 -0.030853980369086483 0.013610139720430351 0.020341249428986727 8.3836030039711172e-05 -0.028642433961797577 0.046635643919880482
leaf_weight=9.811908543109892 10.430111363530161 7.7433293014764777 7.2319301962852505 24.398183196783066 15.091956689953806 7.2099099606275585 8.2877259999513608 7.2978014051914242 10.737139895558355 11.321045577526091
leaf_count=52 47 39 35 136 77 34 36 35 52 56
internal_value=0.00127628 0.0297286 -0.00448363 -0.0226061 0.00524585 0.0148884 -0.0122671 -0.00389453 -0.0184266 0.0377052
internal_weight=119.561 18.1734 101.388 34.2101 67.1775 43.7978 23.3797 25.2669 18.0349 18.531
internal_count=599 86 513 188 325 212 113 122 87 90
is_linear=0
shrinkage=0.05


Tree=38
num_leaves=12
num_cat=0
split_feature=1 16 14 13 16 12 13 13 13 6 14
split_gain=10.497 7.17521 5.88532 10.805 6.30285 8.88763 4.71921 3.76298 2.81022 2.2214 1.97126
threshold=9.5000000000000018 21.400000000000002 2.5000000000000004 19.500000000000004 7.116666666666668 8.5000000000000018 42.500000000000007 11.500000000000002 10.500000000000002 3.5000000000000004 3.5000000000000004
decision_type=2 2 2 2 2 2 2 2 2 2 2
left_child=7 2 3 8 -4 10 -5 9 -2 -1 -6
right_child=1 -3 4 6 5 -7 -8 -9 -10 -11 -12
leaf_value=-0.017347923368395846 0 -0.028020117382983486 0.061748333362303745 0.042285107523547694 0.0499783721761555 -0.022621274220144205 -0.0031450175951714555 -0.034008981107273746 -0.034140660558784827 0.016438006436654658 0.011313481003846805
leaf_weight=6.8788060992956144 9.824690595269205 8.5169643014669401 7.9704009741544715 12.51299323141575 6.8112419992685345 8.5951577275991422 8.1274003833532316 21.388049811124802 12.552780389785765 6.5685126036405563 9.1199699044227582
leaf_count=36 52 44 40 65 33 44 40 105 64 33 43
internal_value=-0.000274607 0.00924994 0.0144272 0.0017421 0.0295119 0.0132663 0.0260559 -0.022294 -0.0209164 -0.000552643 0.0334088
internal_weight=118.867 84.0316 75.5146 43.0179 32.4968 24.5264 20.6404 34.8354 22.3775 13.4473 15.9312
internal_count=599 425 381 221 160 120 105 174 116 69 76
is_linear=0
shrinkage=0.05


Tree=39
num_leaves=10
num_cat=0
split_feature=16 2 16 13 2 16 4 2 5
split_gain=11.0135 7.52249 16.7702 8.20685 8.50597 17.4521 8.89411 2.03232 0.968552
threshold=6.116666666666668 10.500000000000002 10.083333333333334 57.500000000000007 1.5000000000000002 13.583333333333334 1.0000000180025095e-35 7.5000000000000009 1.0000000180025095e-35
decision_type=2 2 2 2 2 2 2 2 2
left_child=8 3 -3 4 5 -2 -6 -8 -1
right_child=1 2 -4 -5 6 -7 7 -9 -10
leaf_value=0.013045261239091062 0.06454396602425054 -0.030398919399031499 0.053605440470174938 0.027372643871035301 -0.036534654489128647 -0.033556773654761028 -0.0078710258154356377 0.022104834060087564 0.047804719570024953
leaf_weight=6.8825966864824277 5.9386855214834195 7.5502994954586056 11.280827492475508 8.544319421052931 45.680751621723175 6.4384086430072784 11.921469122171404 6.113590106368064 7.5375204980373383
leaf_count=33 31 41 49 41 247 30 62 32 33
internal_value=-0.000213722 -0.00627887 0.0201461 -0.0127037 -0.0181345 0.0165971 -0.0253992 0.00375597 0.0366051
internal_weight=117.888 103.468 18.8311 84.6372 76.0929 12.3771 63.7158 18.0351 14.4201
internal_count=599 533 90 443 402 61 341 94 66
is_linear=0
shrinkage=0.05


Tree=40
num_leaves=12
num_cat=0
split_feature=1 17 13 13 2 13 6 13 0 13 1
split_gain=2.99907 4.35945 3.74732 3.46193 2.9079 2.16649 1.34522 2.80885 2.16423 0.953938 0.67576
threshold=8.5000000000000018 0.33333333333333337 42.500000000000007 25.500000000000004 3.5000000000000004 2.5000000000000004 3.5000000000000004 19.500000000000004 4.5000000000000009 10.500000000000002 18.500000000000004
decision_type=2 2 2 2 2 2 2 2 2 2 2
left_child=1 3 5 9 -4 -2 7 8 -7 -1 -9
right_child=2 -3 4 -5 -6 6 -8 10 -10 -11 -12
leaf_value=0.014876059275632856 0.014461379301036987 -0.016589528956992311 0.032297439791667638 0.00084029295395823009 -0.0030542091514388463 0.0096903463543447782 -0.024094460773517574 -0.0049041631931059908 -0.017344196100304767 0.048149292037882728 -0.030405007977723737
leaf_weight=8.5705121159553546 5.8790642917156211 7.1668840497732154 8.2291786670684832 12.555385395884512 10.625523641705511 22.829566493630413 15.310629457235335 5.7845676243305197 7.3554450422525397 6.9943415820598593 8.4857506901025754
leaf_count=41 30 38 31 52 55 114 88 31 38 27 52
internal_value=0.00146118 0.0131311 -0.00363815 0.0217355 0.0144618 -0.00931453 -0.0123124 -0.00688257 0.00197953 0.0354619 -0.0230051
internal_weight=119.787 35.2871 84.4997 28.1202 18.8547 65.645 59.766 44.4553 30.185 15.5649 14.2703
internal_count=597 158 439 120 86 353 323 235 152 68 83
is_linear=0
shrinkage=0.05


Tree=41
num_leaves=12
num_cat=0
split_feature=0 16 16 1 0 15 12 1 17 13 13
split_gain=10.1668 5.98476 3.31443 2.64358 3.97534 2.42687 2.77034 2.26002 0.875396 0.395295 0.33339
threshold=2.5000000000000004 24.750000000000004 7.0500000000000007 24.500000000000004 1.5000000000000002 8.5000000000000018 10.500000000000002 7.5000000000000009 0.33333333333333337 11.500000000000002 12.500000000000002
decision_type=2 2 2 2 2 2 2 2 2 2 2
left_child=2 5 9 4 8 6 -2 -7 -4 -1 -9
right_child=1 -3 3 -5 -6 7 -8 10 -10 -11 -12
leaf_value=-0.014641281313203103 -0.02117250995180258 0.023531504749090288 0.043823063426529391 -0.0036116580617868137 0.00066677207234948908 -0.0041507503655750276 0.013890572867460023 -0.017547600897382925 0.013176263060049343 0.001224684257524809 -0.03829917252029591
leaf_weight=5.5733390003442747 7.3975244164466885 6.6787116527557364 15.866188243031504 7.967523217201232 11.084089636802672 11.201163217425345 9.2663257569074613 13.298839539289476 7.1966443806886664 5.4905300438404083 17.706032380461693
leaf_count=33 40 28 66 40 53 53 42 76 34 29 103
internal_value=-0.0011435 -0.0140772 0.0146103 0.0207452 0.0263957 -0.0193589 -0.00227602 -0.0253943 0.0370692 -0.00783045 -0.0318787
internal_weight=118.727 65.5486 53.1783 42.1144 34.1469 58.8699 16.6639 42.206 23.0628 11.0639 31.0049
internal_count=597 342 255 193 153 314 82 232 100 62 179
is_linear=0
shrinkage=0.05


Tree=42
num_leaves=12
num_cat=0
split_feature=1 14 2 0 1 15 1 11 15 13 17
split_gain=10.449 2.63559 2.34162 2.27063 6.48617 4.37328 4.03874 2.15931 2.09728 1.05142 0.559051
threshold=27.500000000000004 3.5000000000000004 3.5000000000000004 2.5000000000000004 11.500000000000002 10.500000000000002 20.500000000000004 1.0000000180025095e-35 10.500000000000002 20.500000000000004 -0.31666666666666671
decision_type=2 2 2 2 2 2 2 2 2 2 2
left_child=1 3 -3 6 8 10 9 -2 -5 -1 -6
right_child=7 2 -4 4 5 -7 -8 -9 -10 -11 -12
leaf_value=-0.02635525598437783 0.050303330282447149 0.002469178145363279 -0.029370818999761801 0.036471020937843789 -0.0060363412643053976 0.015889676719857953 0.014770248148984906 0.0080498713881033569 0.0018577378366187839 -0.004466221280938704 -0.028562767323304167
leaf_weight=15.693275794386865 8.4222076535224897 7.6899185031652477 13.921395137906073 13.073748707771303 6.7085330784320858 8.9743762165307981 9.9229940846562368 6.3715984374284735 6.9085692912340155 10.682994231581686 10.884234219789507
leaf_count=79 40 39 73 60 32 46 50 29 38 52 59
internal_value=0.0013189 -0.00454844 -0.0189181 -0.000211712 0.00685631 -0.00895951 -0.00923431 0.0368114 0.0265262 -0.0190214 -0.0223465
internal_weight=119.254 104.46 21.6113 82.8487 46.5495 26.5671 36.2993 14.7938 19.9823 26.3763 17.5928
internal_count=597 528 112 416 235 137 181 69 98 131 91
is_linear=0
shrinkage=0.05


Tree=43
num_leaves=14
num_cat=0
split_feature=1 12 13 1 12 15 15 1 19 13 15 1 15
split_gain=7.35081 5.92204 5.26235 9.93724 3.93772 2.1308 1.91927 3.47978 1.42628 1.04083 0.935439 1.67854 0.502755
threshold=20.500000000000004 9.5000000000000018 33.500000000000007 26.500000000000004 4.5000000000000009 10.500000000000002 9.5000000000000018 6.5000000000000009 23.500000000000004 8.5000000000000018 11.500000000000002 13.500000000000002 11.500000000000002
decision_type=2 2 2 2 2 2 2 2 2 2 2 2 2
left_child=1 4 3 9 6 -5 -1 -8 12 -2 11 -6 -3
right_child=2 8 -4 5 10 -7 7 -9 -10 -11 -12 -13 -14
leaf_value=-0.027414040013288073 0.015755516983033947 -0.038743575603976989 -0.014990809954824068 0.0085626338103363866 0.00046588798177871405 -0.024106286053439688 -0.02444310984684531 0.015400780888219699 -0.0046478765109660867 0.055488465329775728 0 0.034493227089271682 -0.011971036526530775
leaf_weight=9.602530315518381 5.9117395132780137 16.285353422164924 9.6510804146528226 8.3419227898120862 6.3566539287567156 6.0850671082735053 6.3401942551136043 10.23223230242729 6.9130621850490561 10.997912853956221 7.9884569793939582 6.8233608305454254 6.5543795675039283
leaf_count=48 29 86 45 42 31 29 32 52 36 57 41 37 32
internal_value=-0.00267652 -0.0116694 0.0137673 0.0233058 -0.000239179 -0.00670744 -0.0126822 -0.000997152 -0.028017 0.0463158 0.0146042 0.0215203 -0.0335359
internal_weight=118.084 77.0962 40.9877 31.3366 47.3434 14.427 26.175 16.5724 29.7528 16.9097 21.1685 13.18 22.8397
internal_count=597 395 202 157 241 71 132 84 154 86 109 68 118
is_linear=0
shrinkage=0.05


Tree=44
num_leaves=10
num_cat=0
split_feature=16 1 12 2 17 1 2 12 2
split_gain=16.1229 7.12241 7.25342 11.2204 11.3718 8.96625 4.70419 1.1942 1.0506
threshold=5.8500000000000005 21.500000000000004 27.500000000000004 1.5000000000000002 -0.31666666666666671 10.500000000000002 10.500000000000002 3.5000000000000004 5.5000000000000009
decision_type=2 2 2 2 2 2 2 2 2
left_child=-1 2 3 -2 8 -6 7 -3 -5
right_child=1 6 -4 4 5 -7 -8 -9 -10
leaf_value=0.048369542488744643 0.061892102643153125 -0.0060275386183555246 -0.035571865807106251 -0.0048712458362288663 -0.007445575596522671 0.038387238407673961 0.010921051509935409 -0.037387327536930678 -0.032831533455125426
leaf_weight=12.678662985563276 5.7295411080121985 5.4111935794353512 7.5612977743148795 6.1699428558349636 18.499989688396454 19.44036591053009 6.100302428007125 21.482019409537315 14.677938669919966
leaf_count=56 27 29 34 32 92 104 32 117 74
internal_value=0.000974103 -0.00588258 0.00300864 0.00898387 0.000991791 0.0170087 -0.0240774 -0.0324828 -0.0264201
internal_weight=117.751 105.073 72.0791 64.5178 58.7882 37.9404 32.9935 26.8932 20.8479
internal_count=597 541 363 329 302 196 178 146 106
is_linear=0
shrinkage=0.05


Tree=45
num_leaves=12
num_cat=0
split_feature=16 1 16 15 16 16 12 15 12 12 13
split_gain=5.41549 4.99915 6.64108 3.0804 2.84138 5.98798 5.51617 5.05362 2.09861 1.42984 0.930785
threshold=24.150000000000002 9.5000000000000018 10.083333333333334 11.500000000000002 8.0833333333333339 17.133333333333336 16.500000000000004 9.5000000000000018 14.500000000000002 3.5000000000000004 31.500000000000004
decision_type=2 2 2 2 2 2 2 2 2 2 2
left_child=1 2 3 -1 8 6 7 -6 9 -3 -4
right_child=-2 4 10 -5 5 -7 -8 -9 -10 -11 -12
leaf_value=0.0065398030477413112 0.027949196397606124 -0.0039106622618264846 -0.024633411253445512 0.042849244751965304 0.037217574066967365 -0.035812596869255156 -0.022379441764389125 -0.0035740836478530894 0.0023924377499525955 -0.035709485448660913 0
leaf_weight=14.122759357094766 11.235209703445433 5.6704833358526292 7.7662200778722745 9.5440846532583219 12.404969647526743 8.0921784937381727 9.3955055028200132 13.636693641543387 5.5086229890584937 17.82128694653511 5.9140025526285172
leaf_count=58 47 31 39 39 51 47 55 72 27 109 26
internal_value=-0.00109066 -0.00476827 0.00953257 0.024543 -0.0122844 -0.00356269 0.00589196 0.0175222 -0.0236581 -0.0295346 -0.0158795
internal_weight=121.112 109.877 37.3471 23.6668 72.5297 43.5293 35.4372 26.0417 29.0004 23.4918 13.6802
internal_count=601 554 162 97 392 225 178 123 167 140 65
is_linear=0
shrinkage=0.05


Tree=46
num_leaves=11
num_cat=0
split_feature=1 17 15 15 19 13 13 2 1 13
split_gain=8.02527 7.00135 5.56288 4.96056 3.57912 2.66167 1.28658 2.748 0.727347 0.213058
threshold=7.5000000000000009 1.0000000180025095e-35 8.5000000000000018 12.500000000000002 6.5000000000000009 8.5000000000000018 4.5000000000000009 2.5000000000000004 19.500000000000004 32.500000000000007
decision_type=2 2 2 2 2 2 2 2 2 2
left_child=1 -1 4 6 -2 -5 -4 8 -8 -6
right_child=2 -3 3 5 9 -7 7 -9 -10 -11
leaf_value=0.036989370339642606 0.02813600496481072 -0.0089485687054629958 -0.0015900698530168034 -0.010526612782611605 -0.011117690241227876 0.026706154268645151 -0.012938962231107548 -0.033055981402428776 0.00674777686765123 0.000260411018064609
leaf_weight=20.466152206063274 12.576746106147768 11.07158939540386 7.7087535113096228 6.4985412359237653 6.5639927238225919 7.2190022170543671 7.0880852639675123 28.836684301495552 5.8351235538721085 5.5445948988199234
leaf_count=80 57 55 41 38 35 30 38 172 28 27
internal_value=0.000807381 0.0213412 -0.00696859 -0.014692 0.01207 0.0100447 -0.0218289 -0.0250962 -0.00413936 -0.00655947
internal_weight=119.409 31.5377 87.8715 63.1862 24.6853 13.7175 49.4686 41.7599 12.9232 12.1086
internal_count=601 135 466 347 119 68 279 238 66 62
is_linear=0
shrinkage=0.05


Tree=47
num_leaves=13
num_cat=0
split_feature=1 16 16 0 16 14 19 16 16 12 12 12
split_gain=10.1444 8.30425 7.26271 3.8425 3.86413 3.48281 2.25282 4.54093 2.71213 1.32861 0.409589 3.10068
threshold=26.500000000000004 9.9166666666666696 7.4500000000000011 2.5000000000000004 16.750000000000004 1.5000000000000002 11.500000000000002 15.050000000000002 12.750000000000002 3.5000000000000004 5.5000000000000009 13.500000000000002
decision_type=2 2 2 2 2 2 2 2 2 2 2 2
left_child=2 -2 5 4 10 -1 7 9 -8 -5 -4 -12
right_child=1 -3 3 6 -6 -7 8 -9 -10 -11 11 -13
leaf_value=0.00060742420666324572 0.052917782179541711 -0.0081850000339180936 -0.030277409740667418 0.011131467641046017 0.013714972061124662 -0.036955148792091351 -0.023056925412857025 -0.0073858435517373602 0.014339685017827753 0.042265755623740374 0.010213520004011272 -0.029438520164184658
leaf_weight=8.1780217140913027 12.237914532423021 7.434035211801528 7.3729201257228913 9.0621419698000008 9.4384956657886487 18.369490057229996 6.2751654237508756 9.3312635719776136 7.1691979467868805 10.886322826147078 7.0603325963020307 7.2301151156425476
leaf_count=44 52 38 36 43 46 107 31 47 36 51 32 38
internal_value=0.00128592 0.0315788 -0.0053469 0.00286616 -0.00987863 -0.0263279 0.0122927 0.0195203 -0.00383315 0.0316442 -0.0207787 -0.0111858
internal_weight=120.045 19.6719 100.373 73.826 31.1019 26.5475 42.7241 29.2797 13.4444 19.9485 21.6634 14.2904
internal_count=601 90 511 360 152 151 208 141 67 94 106 70
is_linear=0
shrinkage=0.05


Tree=48
num_leaves=12
num_cat=0
split_feature=15 15 17 16 16 16 12 15 13 2 20
split_gain=6.22176 5.64072 5.1547 4.51843 2.86591 5.93725 6.17546 5.43879 1.69405 0.669073 0.579307
threshold=12.500000000000002 10.500000000000002 -0.43333333333333335 7.3166666666666673 21.916666666666668 17.466666666666672 17.500000000000004 8.5000000000000018 10.500000000000002 5.5000000000000009 0.41666666666666669
decision_type=2 2 2 2 2 2 2 2 2 2 2
left_child=1 4 3 -3 5 6 7 -1 -4 -8 -2
right_child=10 2 8 -5 -6 -7 9 -9 -10 -11 -12
leaf_value=-0.035032926460706951 -0.033568839690024936 0.021925888947726145 0.045821340021525908 -0.028279921763684504 -0.028646524456178542 0.037831756419355933 0.030254913685225718 0 0.010650766648514724 0.0055227130591433849 -0.010039389648287343
leaf_weight=16.302363574504852 9.4347717463970202 5.7123337090015429 11.533792689442636 6.2451432049274445 6.991236373782157 6.079100936651229 6.3536576181650144 26.37341383099556 8.0617987811565381 7.0379252880811691 8.9008076190948469
leaf_count=78 44 30 60 31 37 35 33 130 40 37 46
internal_value=-0.000793484 0.00424408 0.0207897 -0.00437415 -0.00378826 0.000121844 -0.00559599 -0.014865 0.0349083 0.0209516 -0.0253988
internal_weight=119.026 100.691 31.5531 11.9575 69.1377 62.1465 56.0674 42.6758 19.5956 13.3916 18.3356
internal_count=601 511 161 61 350 313 278 208 100 70 90
is_linear=0
shrinkage=0.05


Tree=49
num_leaves=10
num_cat=0
split_feature=16 2 16 13 2 16 19 1 16
split_gain=17.8856 6.8491 14.7735 5.94384 7.42975 12.6609 4.69046 5.02317 0.323187
threshold=5.8500000000000005 10.500000000000002 10.15 57.500000000000007 1.5000000000000002 14.633333333333335 3.5000000000000004 10.500000000000002 7.8833333333333337
decision_type=2 2 2 2 2 2 2 2 2
left_child=-1 3 -3 4 5 -2 7 -6 -8
right_child=1 2 -4 -5 6 -7 8 -9 -10
leaf_value=0.05048857790880576 0.051062533844457331 -0.025336995552991289 0.051328403216780318 0.022729010118504492 -0.028201957349862111 -0.029381164738465276 -0.019255220146708912 0.013090500176735305 -0.039750716728794613
leaf_weight=12.250583335757254 7.0290011167526227 8.9916147887706774 10.695892632007597 7.5131242573261252 10.413594827055933 6.7430535554885864 13.833161741495131 13.447907969355581 26.476117342710495
leaf_count=53 35 50 46 36 54 32 77 71 147
internal_value=-0.00016502 -0.00734994 0.0173733 -0.0134983 -0.0177651 0.0131674 -0.0247697 -0.00588122 -0.0346536
internal_weight=117.394 105.143 19.6875 85.456 77.9428 13.7721 64.1708 23.8615 40.3093
internal_count=601 548 96 452 416 67 349 125 224
is_linear=0
shrinkage=0.05


Tree=50
num_leaves=13
num_cat=0
split_feature=16 1 15 6 15 6 16 13 2 14 13 0
split_gain=5.57405 5.06834 4.09858 3.84761 2.78873 1.6275 4.03123 1.82374 1.05715 1.02744 0.882328 0.859725
threshold=24.150000000000002 13.500000000000002 9.5000000000000018 3.5000000000000004 7.5000000000000009 2.5000000000000004 7.4500000000000011 48.500000000000007 5.5000000000000009 3.5000000000000004 14.500000000000002 2.5000000000000004
decision_type=2 2 2 2 2 2 2 2 2 2 2 2
left_child=1 2 4 9 -1 7 8 10 -7 -4 -3 -8
right_child=-2 5 3 -5 -6 6 11 -9 -10 -11 -12 -13
leaf_value=-0.001754089344773175 0.027138248580558091 -0.0093606256398931307 -0.0070957489616923679 0.014905601944599634 0.031645149903439244 -0.003597894919935095 -0.0027478547042933499 0.0014753932587410696 -0.033848548233929361 -0.032865888832284564 -0.034828020504895321 0.017699117240067633
leaf_weight=8.7440538257360476 12.105627104640005 8.4265583753585869 11.856461942195898 10.395924210548399 14.815073147416113 5.7176136597991007 6.7438928335905102 5.6991746425628653 7.1272374391555786 6.0595578998327246 15.624460920691488 9.9201075285673124
leaf_count=39 49 46 60 51 59 34 32 29 46 33 88 48
internal_value=-0.00138969 -0.00517277 0.00600802 -0.00649892 0.0202627 -0.0148579 -0.0054526 -0.0226801 -0.0239294 -0.0195146 -0.0281177 0.0100132
internal_weight=123.236 111.13 51.8711 28.3119 23.5591 59.259 29.5089 29.7502 12.8449 17.916 24.051 16.664
internal_count=614 565 242 144 98 323 160 163 80 93 134 80
is_linear=0
shrinkage=0.05


Tree=51
num_leaves=12
num_cat=0
split_feature=16 1 13 15 17 16 15 16 13 16 16
split_gain=5.62685 5.19662 5.28477 5.14767 3.80253 3.26935 3.07307 4.36973 1.91056 1.47573 2.53313
threshold=25.100000000000005 10.500000000000002 12.500000000000002 12.500000000000002 0.18333333333333332 9.4166666666666696 8.5000000000000018 9.9500000000000011 33.500000000000007 7.7166666666666677 8.3500000000000032
decision_type=2 2 2 2 2 2 2 2 2 2 2
left_child=1 2 4 6 -1 -4 7 -3 -7 -8 -11
right_child=-2 3 5 -5 -6 8 9 -9 -10 10 -12
leaf_value=0.014024614302935454 0.033727998877984257 0.026571198240805501 0.040659395036368368 0.018315082839719096 -0.0288822040808311 -0.011462744060402985 -0.034690762144892785 -0.016721791767878327 0.019883379815057941 0.0084675658950118457 -0.021745936799242069
leaf_weight=7.0680102556943876 10.493409708142279 7.2743252068758038 13.207552567124369 11.655205920338629 7.9416660666465759 6.3723988234996778 13.740793228149412 10.447417512536047 7.2251524180173874 8.0191839784383792 18.43133382499218
leaf_count=32 41 32 49 56 46 29 92 58 32 40 107
internal_value=0.00322888 -0.000409983 0.0129432 -0.00870824 -0.00942935 0.0253268 -0.014863 0.00208169 0.00547534 -0.022076 -0.0124867
internal_weight=121.876 111.383 41.8148 69.5683 15.0097 26.8051 57.9131 17.7217 13.5976 40.1913 26.4505
internal_count=614 573 188 385 78 110 329 90 61 239 147
is_linear=0
shrinkage=0.05


Tree=52
num_leaves=13
num_cat=0
split_feature=16 0 12 13 13 15 12 2 20 17 19 19
split_gain=6.44658 6.06638 3.89902 2.99802 6.0947 4.49592 2.41403 2.07729 2.0378 4.6142 1.48192 0.76841
threshold=6.7833333333333341 4.5000000000000009 10.500000000000002 25.500000000000004 36.500000000000007 10.500000000000002 6.5000000000000009 5.5000000000000009 0.55000000000000016 0.18333333333333332 14.500000000000002 12.500000000000002
decision_type=2 2 2 2 2 2 2 2 2 2 2 2
left_child=2 3 -1 5 -5 -2 -6 -7 9 11 -8 -3
right_child=1 8 -4 4 6 7 10 -9 -10 -11 -12 -13
leaf_value=-0.037279518869427923 -0.026687955373036323 0.034251470305248166 0.0041650159167009575 0.038017876894647903 -0.025531809091580333 -0.0099033463354774153 0.018056766149560501 0.0186288401025144 0.041763058194776798 -0.016989583146513335 -0.0093887839010178987 0.0084074247431407852
leaf_weight=14.279238745570185 21.468656852841377 8.3685000091791242 7.3240623921155921 8.0901335030794161 7.2720022052526501 9.8381024152040499 7.2761852294206601 9.7553760260343534 6.9653866142034522 7.1754876524209967 6.5657582581043243 8.1618122309446317
leaf_count=87 108 37 38 41 35 47 34 48 33 33 32 41
internal_value=-0.00121124 0.00422467 -0.024231 -0.00392318 0.00776623 -0.0123131 -0.0069055 0.0046685 0.0217259 0.0116212 0.00538797 0.0249986
internal_weight=122.541 100.937 21.6033 70.2662 29.2041 41.0621 21.1139 19.5935 30.6712 23.7058 13.8419 16.5303
internal_count=614 489 125 345 142 203 101 95 144 111 66 78
is_linear=0
shrinkage=0.05


Tree=53
num_leaves=12
num_cat=0
split_feature=1 16 16 1 17 13 19 14 13 16 13
split_gain=10.4391 8.16204 5.27863 8.21793 7.44652 2.8165 2.65104 3.54211 1.99253 0.597415 0.505156
threshold=9.5000000000000018 21.916666666666668 7.116666666666668 22.500000000000004 -0.43333333333333335 11.500000000000002 18.500000000000004 2.5000000000000004 19.500000000000004 8.0166666666666675 10.500000000000002
decision_type=2 2 2 2 2 2 2 2 2 2 2
left_child=5 2 3 10 8 9 7 -6 -4 -1 -2
right_child=1 -3 4 -5 6 -7 -8 -9 -10 -11 -12
leaf_value=-0.012480503652537613 0.013503558710119705 -0.03164408266590208 -0.029660630477092984 0.070144078512727179 -0.0090223764688673967 -0.034742425156799484 0.039538280315795746 0.022223679004549322 0 0.0048878721614248818 -0.0032457955448411731
leaf_weight=7.6913945227861387 6.1874942332506198 8.8800181001424772 11.173271447420122 6.1768985241651526 13.674051985144617 20.503080874681473 7.570443093776702 17.551593244075775 9.5276501327753049 6.4185340404510498 6.2956832498311996
leaf_count=37 33 47 56 31 69 107 40 81 45 36 32
internal_value=-0.00191995 0.00732619 0.0128216 0.0340533 0.00476766 -0.0240329 0.0173277 0.00880312 -0.0177742 -0.00481577 0.0057412
internal_weight=121.65 87.0371 78.1571 18.6601 59.497 34.613 38.7961 31.2256 20.7009 14.1099 12.4832
internal_count=614 434 387 96 291 180 190 150 101 73 65
is_linear=0
shrinkage=0.05


Tree=54
num_leaves=13
num_cat=0
split_feature=12 1 2 2 1 15 2 15 8 20 2 0
split_gain=10.1989 10.3633 9.53531 7.97583 4.06659 4.17945 5.49359 4.16707 3.44142 3.41209 3.25698 0.557818
threshold=27.500000000000004 21.500000000000004 1.5000000000000002 9.5000000000000018 10.500000000000002 10.500000000000002 6.5000000000000009 10.500000000000002 1.0000000180025095e-35 1.0000000180025095e-35 8.5000000000000018 1.5000000000000002
decision_type=2 2 2 2 2 2 2 2 2 2 2 2
left_child=1 2 -1 11 7 6 -6 8 -4 -9 -7 -3
right_child=-2 3 4 -5 5 10 -8 9 -10 -11 -12 -13
leaf_value=0.064362473316114041 -0.039251875813062755 -0.01079912671559043 0.004737177532089804 0.021761140473862992 0.00076763220943052097 0.015969141786640568 0.050202498368133244 -0.010098690736136763 -0.036277481031999424 0.02949991295113762 -0.022970871990091627 -0.035119251636604752
leaf_weight=6.1959038823842993 10.771250560879706 7.5049038529396084 7.5087502151727703 7.734878957271575 9.1001607477664965 10.155469074845316 13.095652453601359 7.330835789442065 8.9936707317829114 9.4713479131460172 6.0733153969049445 16.93577878177166
leaf_count=28 51 42 38 41 48 48 64 37 44 44 35 94
internal_value=0.00136109 0.00631427 0.0160533 -0.0164879 0.00939723 0.0198913 0.0326376 -0.00321564 -0.0195011 0.0130579 0 -0.0298307
internal_weight=120.872 110.101 77.9251 32.1756 71.7292 38.4246 22.1958 33.3046 16.5024 16.8022 16.2288 24.4407
internal_count=614 563 386 177 358 195 112 163 82 81 83 136
is_linear=0
shrinkage=0.05


Tree=55
num_leaves=9
num_cat=0
split_feature=16 16 16 16 16 12 1 1
split_gain=4.84547 3.34045 6.32468 6.70227 3.60812 3.69399 2.35008 0.428909
threshold=6.4500000000000011 24.150000000000002 17.133333333333336 14.816666666666668 11.700000000000001 11.500000000000002 7.5000000000000009 12.500000000000002
decision_type=2 2 2 2 2 2 2 2
left_child=6 2 3 4 5 -2 -1 -6
right_child=1 -3 -4 -5 7 -7 -8 -9
leaf_value=0.0044824703150657301 -0.0033760311233817122 0.025324014832288185 -0.030246095728280055 0.043014188577354895 -0.0065980824275764256 0.021143653332732718 -0.031450218017887464 -0.030528405351112238
leaf_weight=5.1084068864583996 40.436730861663818 13.220016747713087 11.154581695795057 7.6163817197084418 6.0161263495683652 20.898783758282661 12.913124188780783 5.3344654217362404
leaf_count=23 200 55 62 32 29 93 82 35
internal_value=7.87708e-05 0.0044023 0.000616904 0.00589889 0.000392896 0.00549718 -0.0218407 -0.022224
internal_weight=122.699 104.677 91.4571 80.3025 72.6861 61.3355 18.0215 11.3506
internal_count=611 506 451 389 357 293 105 64
is_linear=0
shrinkage=0.05


Tree=56
num_leaves=11
num_cat=0
split_feature=1 15 13 16 15 15 16 16 6 12
split_gain=7.44386 7.64882 7.47341 4.43489 3.64192 2.48994 2.03329 3.95094 1.71855 1.25549
threshold=10.500000000000002 10.500000000000002 45.500000000000007 8.6500000000000004 12.500000000000002 8.5000000000000018 7.8500000000000005 8.3500000000000032 2.5000000000000004 22.500000000000004
decision_type=2 2 2 2 2 2 2 2 2 2
left_child=1 9 4 -3 6 -4 -2 -8 -9 -1
right_child=2 3 5 -5 -6 -7 7 8 -10 -11
leaf_value=0.037188957051402897 -0.036692356693587051 0.00916559027330641 0.033588862683039546 -0.034032578888123499 0.0084205781553731394 -0.0021483556918856757 0.01265076456320067 -0.030708472738835282 -0.0014393682517361472 0.0084624507470113953
leaf_weight=19.519892528653148 16.690715409815311 12.583950340747835 8.0530753880739194 6.7515355944633475 9.2400528937578184 7.6733011901378623 8.3637922257184965 17.116777993738655 7.5796605795621863 7.76911537349224
leaf_count=77 111 58 33 40 45 39 39 102 37 30
internal_value=-8.63146e-05 0.0150045 -0.00978318 -0.00823953 -0.0178841 0.018334 -0.0230654 -0.0135668 -0.0230349 0.0308239
internal_weight=121.342 46.6245 74.7174 19.3355 58.991 15.7264 49.7509 33.0602 24.6964 27.289
internal_count=611 205 406 98 334 72 289 178 139 107
is_linear=0
shrinkage=0.05


Tree=57
num_leaves=10
num_cat=0
split_feature=1 19 14 1 14 8 12 0 6
split_gain=6.16716 2.86056 4.72171 2.48302 3.51882 1.73524 2.35082 1.31764 0.255445
threshold=27.500000000000004 13.500000000000002 1.0000000180025095e-35 22.500000000000004 3.5000000000000004 1.5000000000000002 27.500000000000004 2.5000000000000004 2.5000000000000004
decision_type=2 2 2 2 2 2 2 2 2
left_child=1 2 -1 4 7 6 -3 -4 -6
right_child=-2 5 3 -5 8 -7 -8 -9 -10
leaf_value=0.032297689420643559 0.027419693080859217 -0.035888077210838552 -0.010317984686203145 0.01496300729219191 -0.0089992393350018171 0.0025411044573305603 -0.00089753561061967221 0.0056903840250936595 -0.032626111620145747
leaf_weight=7.1353024244308463 14.346799477934836 12.275985002517706 18.737281829118729 11.244351543486117 5.365407481789588 6.8396941721439353 7.6658749729394904 28.307452514767647 9.1917340978980047
leaf_count=34 65 68 97 57 30 32 35 143 50
internal_value=-0.000248575 -0.00465999 0.000196435 -0.00403509 -0.00811408 -0.0178901 -0.0245315 -0.000821935 -0.0272283
internal_weight=121.11 106.763 79.9815 72.8462 61.6019 26.7816 19.9419 47.0447 14.5571
internal_count=611 546 411 377 320 135 103 240 80
is_linear=0
shrinkage=0.05


Tree=58
num_leaves=13
num_cat=0
split_feature=15 15 16 13 20 13 2 13 13 2 2 6
split_gain=5.82778 7.40956 6.5437 4.18611 9.12604 2.54837 2.13972 1.98408 4.4181 4.33777 2.10246 0.376541
threshold=12.500000000000002 9.5000000000000018 6.616666666666668 32.500000000000007 0.70833333333333337 50.500000000000007 6.5000000000000009 18.500000000000004 25.500000000000004 7.5000000000000009 8.5000000000000018 3.5000000000000004
decision_type=2 2 2 2 2 2 2 2 2 2 2 2
left_child=1 5 -3 4 6 7 -4 10 -9 -10 -1 -2
right_child=11 2 3 -5 -6 -7 -8 8 9 -11 -12 -13
leaf_value=0 -0.0083755524769199407 0.048259292215026332 -0.0019819337318206522 0.029531832254965414 0.030641964535864465 -0.030204749934778116 -0.033041423009751048 0.034851216575951804 -0.028791777278399246 0.014340560744834278 -0.031764259557641061 -0.030669154597180365
leaf_weight=11.452742993831636 6.6646040752530125 10.623589739203451 10.380437061190607 11.987035766243933 10.6509493291378 7.6482418179512015 11.160112246870993 6.2701342552900341 8.1884264945983904 9.3154029995203 6.2104643434286109 9.4633487015962583
leaf_count=60 34 55 54 60 52 43 57 32 37 47 33 47
internal_value=0.000917614 0.00548303 0.017715 0.00766232 -0.00216238 -0.00831124 -0.0203496 -0.0023914 0.00663146 -0.00685359 -0.0139774 -0.0244766
internal_weight=120.015 103.888 54.8021 44.1785 32.1915 49.0854 21.5405 41.4372 23.774 17.5038 17.6632 16.128
internal_count=611 530 278 223 163 252 111 209 116 84 93 81
is_linear=0
shrinkage=0.05


Tree=59
num_leaves=11
num_cat=0
split_feature=12 1 16 17 17 13 16 0 0 16
split_gain=8.88483 9.18365 7.35113 7.29688 8.08826 8.64509 3.51312 2.18064 1.65412 0.169093
threshold=26.500000000000004 22.500000000000004 24.150000000000002 -0.31666666666666671 0.18333333333333332 23.500000000000004 5.8500000000000005 1.5000000000000002 2.5000000000000004 10.250000000000002
decision_type=2 2 2 2 2 2 2 2 2 2
left_child=1 2 3 6 -5 -6 -1 -3 -8 -9
right_child=-2 7 -4 4 5 -7 8 9 -10 -11
leaf_value=0.022000711866894149 -0.038674260023139354 0.0010334618071162975 -0.030358692572737857 0.055857526878371602 0.029258771947311604 -0.021350707383801334 -0.02571968240657398 -0.03438050320981665 0 -0.012960328847458397
leaf_weight=7.5002077519893673 10.680138766765593 8.1904460191726702 6.3290798813104621 15.01397582888603 20.698818221688274 10.366038888692854 9.1056048572063464 10.411025382578375 12.830093890428541 8.1031107157468778
leaf_count=30 53 47 27 73 107 56 46 62 69 41
internal_value=-0.000623414 0.00401503 0.0123319 0.0169968 0.0288157 0.0118311 -0.00230418 -0.0199771 -0.0124621 -0.0283524
internal_weight=119.229 108.548 81.8438 75.5147 46.0788 31.0649 29.4359 26.7046 21.9357 18.5141
internal_count=611 558 408 381 236 163 145 150 115 103
is_linear=0
shrinkage=0.05


Tree=60
num_leaves=9
num_cat=0
split_feature=16 16 16 1 0 16 15 2
split_gain=5.16019 6.49499 6.17856 6.77839 9.38428 3.60897 3.5384 4.33916
threshold=24.150000000000002 17.133333333333336 14.816666666666668 9.5000000000000018 4.5000000000000009 10.083333333333334 8.5000000000000018 10.500000000000002
decision_type=2 2 2 2 2 2 2 2
left_child=1 2 3 4 5 -1 -5 -8
right_child=-2 -3 -4 6 -6 -7 7 -9
leaf_value=0.04018519268116616 0.02820819661167695 -0.034537406386209606 0.037650709897034979 0.0085917483866981541 -0.023156119607384743 -0.0014729397947269088 -0.025894545418021331 0.011787034484785531
leaf_weight=17.680280253291134 11.826282307505606 11.40688633918762 7.5322766602039328 12.738935172557829 9.2865903675556165 6.3656587153673163 37.588211096823215 7.3551989123225203
leaf_count=72 49 65 31 58 43 31 219 41
internal_value=0.000450383 -0.00316079 0.00133487 -0.00272292 0.0143876 0.0300321 -0.0129153 -0.0192718
internal_weight=121.78 109.954 98.5472 91.0149 33.3325 24.0459 57.6823 44.9434
internal_count=609 560 495 464 146 103 318 260
is_linear=0
shrinkage=0.05


Tree=61
num_leaves=14
num_cat=0
split_feature=15 15 12 8 0 16 13 13 16 12 12 2 12
split_gain=3.05412 4.09463 9.70774 3.14139 3.52637 3.93081 2.95951 3.77181 2.31989 1.31708 1.1541 0.831341 0.724785
threshold=8.5000000000000018 12.500000000000002 4.5000000000000009 1.5000000000000002 4.5000000000000009 7.616666666666668 17.500000000000004 37.500000000000007 7.7166666666666677 6.5000000000000009 10.500000000000002 6.5000000000000009 8.5000000000000018
decision_type=2 2 2 2 2 2 2 2 2 2 2 2 2
left_child=6 3 -3 4 5 -2 9 -8 -5 -1 -7 -10 -6
right_child=1 2 -4 8 12 10 7 -9 11 -11 -12 -13 -14
leaf_value=0.0068317978433903781 0.017956043711872507 -0.026415215437954373 0.03895947790822174 -0.037864286721518502 0.026677040880527709 -0.029811070143883064 -0.023227156018109194 0.014689619404943323 -0.016139442323025589 0.040307011733276166 -0.0069000653161075971 0.0056216583901819595 0.0016018923262878832
leaf_weight=7.0328187644481641 6.4693146646022823 6.6637043654918697 11.340292796492575 11.908495813608171 6.3263177424669248 11.74521027505398 7.9423297643661526 13.356047615408896 5.8130821287631971 6.4548557102680206 13.718242153525351 6.0385961532592773 5.4122646674513817
leaf_count=32 32 37 48 80 30 62 40 58 32 28 71 29 30
internal_value=-0.000197873 -0.00531604 0.0142078 -0.010983 -0.00241308 -0.0110182 0.0116642 -0.000366077 -0.0245113 0.0275745 -0.0196718 -0.0058193 0.0181343
internal_weight=120.222 85.4355 18.004 67.4315 43.6713 31.9328 34.7861 21.2984 23.7602 13.4877 25.4635 11.8517 11.7386
internal_count=609 451 85 366 225 165 158 98 141 60 133 61 60
is_linear=0
shrinkage=0.05


Tree=62
num_leaves=12
num_cat=0
split_feature=12 16 6 16 16 15 6 16 16 17 13
split_gain=4.15532 2.83144 4.28965 2.77743 3.95811 3.32365 4.7431 3.19245 1.50397 0.596946 0.281522
threshold=32.500000000000007 6.1500000000000012 3.5000000000000004 8.2166666666666668 11.516666666666667 10.500000000000002 2.5000000000000004 13.766666666666667 8.1500000000000004 -0.31666666666666671 9.5000000000000018
decision_type=2 2 2 2 2 2 2 2 2 2 2
left_child=1 10 3 5 9 6 -3 -6 -4 -5 -1
right_child=-2 2 8 4 7 -7 -8 -9 -10 -11 -12
leaf_value=-0.030523375802632098 0.031395130906458131 0.017724912900109611 0.0044040084064785731 -0.010368530474803267 0.023179431598934874 0.027502615459447224 -0.029747452362536498 -0.0085427926252514188 0.031122774393164965 -0.030863064039866245 -0.0068180951533633573
leaf_weight=5.8149045854806882 6.7333720773458472 7.7604653835296649 12.10854856669903 11.072572916746141 8.3856067359447497 9.4977415502071363 7.3732470124959946 23.061878621578217 9.3650200366973859 15.005085080862044 4.7798224985599518
leaf_count=42 30 37 58 45 46 47 40 116 44 78 26
internal_value=0 -0.00260349 0.000158584 -0.00510192 -0.0109927 0.00817442 -0.00622318 0.00105293 0.0186475 -0.0243006 -0.0240611
internal_weight=120.958 114.225 103.63 82.1566 57.5251 24.6315 15.1337 31.4475 21.4736 26.0777 10.5947
internal_count=609 579 511 409 285 124 77 162 102 123 68
is_linear=0
shrinkage=0.05


Tree=63
num_leaves=9
num_cat=0
split_feature=1 16 15 12 12 6 12 16
split_gain=6.5698 6.11765 5.59109 4.03369 10.3196 3.48876 3.08419 2.23677
threshold=7.5000000000000009 21.400000000000002 12.500000000000002 19.500000000000004 11.500000000000002 3.5000000000000004 2.5000000000000004 7.1833333333333345
decision_type=2 2 2 2 2 2 2 2
left_child=5 2 3 4 6 -1 -2 -6
right_child=1 -3 -4 -5 7 -7 -8 -9
leaf_value=-0.031696460794072907 -0.0016920387285085945 -0.028079340215913358 -0.019082826498284661 0.040570967410515107 0.0027267511832704391 0.0049612929297847847 0.028730667468955407 -0.030664356455394611
leaf_weight=18.803852245211605 9.9370653480291349 8.9564841613173467 11.276148572564123 10.43420949578285 6.4811337143182781 7.8942508697509757 34.10913573205471 11.903735190629957
leaf_count=102 45 51 58 52 33 40 167 61
internal_value=-0.000708952 0.00561926 0.0101069 0.015266 0.00929405 -0.0212827 0.0220906 -0.0199281
internal_weight=119.796 93.0979 84.1414 72.8653 62.4311 26.6981 44.0462 18.3849
internal_count=609 467 416 358 306 142 212 94
is_linear=0
shrinkage=0.05


Tree=64
num_leaves=7
num_cat=0
split_feature=16 16 2 16 13 2
split_gain=9.71307 4.98961 7.64162 10.7996 9.28867 8.38993
threshold=5.8500000000000005 24.150000000000002 1.5000000000000002 18.150000000000002 57.500000000000007 9.5000000000000018
decision_type=2 2 2 2 2 2
left_child=-1 2 -2 4 5 -4
right_child=1 -3 3 -5 -6 -7
leaf_value=0.036384689919940642 0.036471870656283677 -0.033034187412461717 -0.028998244884479871 0.039436329066638125 0.031123325395057286 0.0082896545076402411
leaf_weight=13.360656350851057 9.0980892628431302 10.805834904313086 49.409729026257992 8.5652691274881345 8.0150253474712354 19.350157633423805
leaf_count=55 46 49 276 40 41 102
internal_value=0.000451082 -0.00494645 -0.000763141 -0.00589312 -0.0123058 -0.0185273
internal_weight=118.605 105.244 94.4383 85.3402 76.7749 68.7599
internal_count=609 554 505 459 419 378
is_linear=0
shrinkage=0.05


Tree=65
num_leaves=15
num_cat=0
split_feature=1 0 17 13 13 19 13 2 0 17 13 1 6 13
split_gain=4.62117 5.34917 3.34535 2.93013 2.48111 1.83291 2.49405 3.17079 1.76826 1.7271 1.93123 0.971916 0.455591 0.357478
threshold=9.5000000000000018 4.5000000000000009 0.68333333333333335 25.500000000000004 9.5000000000000018 12.500000000000002 45.500000000000007 3.5000000000000004 2.5000000000000004 0.18333333333333332 13.500000000000002 19.500000000000004 2.5000000000000004 18.500000000000004
decision_type=2 2 2 2 2 2 2 2 2 2 2 2 2 2
left_child=1 3 5 4 -1 9 7 -7 -4 11 -11 12 -2 -9
right_child=2 -3 8 -5 -6 6 -8 13 -10 10 -12 -13 -14 -15
leaf_value=0.00969849082444906 0.00010985335157418205 -0.013210426468966039 -0.0039476778013492813 0.0049619524150020982 0.052934216808718272 -0.032111848614964779 0.022528272581649494 0.012414003948478804 0.024786536600606379 -0.015278325279541273 0.015923816007798589 -0.03279324979139725 -0.016500669858444526 -0.0022145646458621871
leaf_weight=7.5174834132194546 5.8120255619287509 10.906210899353026 8.1538185626268405 13.40335428714752 8.1980311721563321 5.951392248272902 5.6542621552944174 6.0306993722915632 8.5967731624841672 8.6784960925579053 5.594895362854003 14.053470052778719 7.389371931552887 5.4519525095820427
leaf_count=36 25 52 40 53 32 34 27 28 41 48 28 83 46 33
internal_value=0.000526589 0.0138861 -0.00624585 0.0244764 0.0373894 -0.011393 0 -0.0094967 0.0120711 -0.0173208 -0.0021168 -0.0241185 -0.0102129 0.00610315
internal_weight=121.392 40.0251 81.3672 29.1189 15.7155 64.6166 23.0883 17.434 16.7506 41.5283 14.2734 27.2549 13.2014 11.4827
internal_count=606 173 433 121 68 352 122 95 81 230 76 154 71 61
is_linear=0
shrinkage=0.05


Tree=66
num_leaves=12
num_cat=0
split_feature=0 1 16 16 13 0 13 1 1 16 16
split_gain=7.65325 7.40975 4.79537 4.98389 5.11449 3.7246 3.51969 1.73864 1.38621 2.15661 0.211084
threshold=1.5000000000000002 22.500000000000004 7.7166666666666677 8.6500000000000004 28.500000000000004 3.5000000000000004 14.500000000000002 24.500000000000004 21.500000000000004 14.550000000000002 7.3166666666666673
decision_type=2 2 2 2 2 2 2 2 2 2 2
left_child=1 10 6 5 7 -4 -2 -5 9 -6 -1
right_child=2 -3 3 4 8 -7 -8 -9 -10 -11 -12
leaf_value=0.012266131313344506 -0.039152094676975141 -0.017693824598638712 -0.0057825777422492704 -0.034987695613878232 -0.01907815721669516 0.037087001493299049 -0.0012295622290930226 -0.0018424315558838431 0.021629416086940446 0.013047743012009356 0.033463519329068991
leaf_weight=7.2560528963804272 13.755817718803884 8.5010162144899351 6.8244338184595135 12.794502072036268 6.7105252444744137 10.055203750729559 10.394612498581408 6.1831651777029029 6.9774402379989615 8.2691664397716504 22.199201188981533
leaf_count=35 88 48 32 75 38 45 55 31 31 36 92
internal_value=0.000923225 0.0186921 -0.0076158 0.000417988 -0.00892113 0.0212463 -0.0249534 -0.0261417 0.00711558 -0.00184774 0.0300123
internal_weight=119.921 37.9563 81.9649 57.8144 40.9348 16.8796 24.1504 18.9777 21.9571 14.9797 29.4553
internal_count=606 175 431 288 211 77 143 106 105 74 127
is_linear=0
shrinkage=0.05


Tree=67
num_leaves=14
num_cat=0
split_feature=1 16 16 19 14 16 12 13 14 14 1 12 1
split_gain=5.87684 9.83235 4.38859 5.02014 4.46764 4.41293 3.90738 3.00213 2.11198 1.52917 0.86447 0.248832 0.207701
threshold=26.500000000000004 9.1166666666666689 7.8833333333333337 12.500000000000002 1.5000000000000002 16.750000000000004 5.5000000000000009 37.500000000000007 3.5000000000000004 2.5000000000000004 14.500000000000002 11.500000000000002 5.5000000000000009
decision_type=2 2 2 2 2 2 2 2 2 2 2 2 2
left_child=2 -2 4 6 -1 12 7 8 -4 10 -8 -6 -5
right_child=1 -3 3 5 11 -7 9 -9 -10 -11 -12 -13 -14
leaf_value=0.0084933921286699608 0.051767683451406421 -0.012231520502861628 0.019235961550249359 -0.011694082744400433 -0.034386717392662407 0.012557021110296772 -0.0018345826135107018 -0.02730694191148611 -0.010255690165167645 0.040128554447832851 0.019435655273544489 -0.010897115498237315 -0.036380824359062279
leaf_weight=8.2434934526681882 9.5361407399177569 9.5494076013565046 10.946095347404485 6.0212036818265942 17.976948931813244 6.6405832916498175 6.8343002051115063 6.0860699117183676 7.9797799885272971 7.1641030460596076 8.1730737537145597 5.8522880822420111 9.2770171537995321
leaf_count=45 37 46 52 27 107 28 30 30 44 35 36 34 55
internal_value=-0.0012036 0.0222077 -0.00617928 0.00101838 -0.0205943 -0.0172857 0.0101534 -0.00330043 0.00687139 0.024114 0.0107797 -0.0306678 -0.0304479
internal_weight=120.281 19.0855 101.195 69.1222 32.0727 21.9388 47.1834 25.0119 18.9259 22.1715 15.0074 23.8292 15.2982
internal_count=606 83 523 337 186 110 227 126 96 101 66 141 82
is_linear=0
shrinkage=0.05


Tree=68
num_leaves=12
num_cat=0
split_feature=1 14 13 16 1 1 12 16 12 13 13
split_gain=10.3376 6.85438 8.74514 6.81195 4.49774 3.47638 0.69987 1.28225 0.606968 0.59794 0.555058
threshold=7.5000000000000009 2.5000000000000004 20.500000000000004 15.050000000000002 22.500000000000004 25.500000000000004 2.5000000000000004 7.4166666666666679 9.5000000000000018 11.500000000000002 10.500000000000002
decision_type=2 2 2 2 2 2 2 2 2 2 2
left_child=9 2 10 5 8 6 -3 -8 -4 -1 -2
right_child=1 3 4 -5 -6 -7 7 -9 -10 -11 -12
leaf_value=-0.01191020426126068 -0.011470908841581536 0.014001331249373068 0.0038941026133440674 -0.015070047287476476 0.033513722311460936 -0.0004102338057756029 0.061678877947816513 0.023974453479739043 -0.014542486129836467 -0.034684286789249619 -0.031037845531332077
leaf_weight=9.7927780300378817 12.825878232717516 7.2681445628404644 6.3049103468656558 8.6393717303872091 11.971285343170164 7.1717536300420752 6.3854389041662243 13.321998015046118 5.9745522812008858 15.263694271445273 14.595810122787951
leaf_count=50 66 34 29 46 57 34 31 65 31 84 79
internal_value=-0.00144188 0.00625057 -0.00585684 0.0204073 0.0149525 0.0300099 0.0374959 0.042946 -0.00584301 -0.028187 -0.0240839
internal_weight=119.516 94.4591 51.6724 42.7867 24.2507 34.1473 26.9756 19.7074 12.2795 25.0565 27.4217
internal_count=606 472 262 210 117 164 130 96 60 134 145
is_linear=0
shrinkage=0.05


Tree=69
num_leaves=11
num_cat=0
split_feature=16 12 13 16 13 8 17 1 12 16
split_gain=10.9829 5.95274 7.27911 8.72846 10.1344 7.55034 2.94931 2.31246 0.632331 0.474477
threshold=6.1500000000000012 27.500000000000004 57.500000000000007 11.266666666666667 37.500000000000007 1.5000000000000002 -0.31666666666666671 20.500000000000004 6.5000000000000009 7.8166666666666673
decision_type=2 2 2 2 2 2 2 2 2 2
left_child=8 2 3 6 5 -5 9 -8 -1 -2
right_child=1 -3 -4 4 -6 -7 7 -9 -10 -11
leaf_value=0.046419571474128639 -0.014714106711898987 -0.037506262246770401 0.03743786610506921 0.047760464921594817 -0.028579353146710857 -0.010485406688254706 0.002780717606662471 -0.024184231805893797 0.015021905213113218 -0.037405408343198596
leaf_weight=8.1826306581497175 11.422579772770399 9.497059300541876 8.1055334061384183 15.722255721688276 7.0384100824594489 6.4098398983478537 23.028064094483863 8.5620443820953351 7.4967302381992331 12.023121170699595
leaf_count=34 66 47 38 73 40 37 120 50 34 67
internal_value=0.00117062 -0.00511147 -0.000650601 -0.00553604 0.0154995 0.0314545 -0.0169965 -0.00584683 0.0364988 -0.0294627
internal_weight=117.488 101.809 92.3118 84.2063 29.1705 22.1321 55.0358 31.5901 15.6794 23.4457
internal_count=606 538 491 453 150 110 303 170 68 133
is_linear=0
shrinkage=0.05


Tree=70
num_leaves=12
num_cat=0
split_feature=16 16 1 16 12 14 16 6 15 2 15
split_gain=3.60655 6.286 5.1736 5.30107 4.6801 7.92412 3.07848 4.68371 5.76211 2.70602 0.13678
threshold=24.266666666666669 17.066666666666674 10.500000000000002 8.2833333333333368 19.500000000000004 2.5000000000000004 9.9166666666666696 2.5000000000000004 11.500000000000002 10.500000000000002 12.500000000000002
decision_type=2 2 2 2 2 2 2 2 2 2 2
left_child=1 2 6 9 5 -5 7 -1 -9 10 -4
right_child=-2 -3 3 4 -6 -7 -8 8 -10 -11 -12
leaf_value=0.046819940886293945 0.021857583611717545 -0.034298599732685849 -0.032423010204677964 0.038397525135542121 -0.025339246055957859 -0.01316140107821274 -0.0067478936433510196 -0.021181007128746782 0.028212667933076307 0.007077649513678036 -0.010856922336308257
leaf_weight=9.426612854003908 12.997264683246611 11.453544847667215 17.640431493520744 13.532131984829908 6.183253936469554 11.258435085415838 10.179163023829458 8.2185774594545382 9.5137502700090391 4.9016434252262107 5.85031834244728
leaf_count=34 51 67 114 56 40 62 49 37 41 25 33
internal_value=-0.000303809 -0.00352994 0.00098647 -0.00801639 0.00601743 0.0159094 0.0149563 0.0231188 0.00532625 -0.0225974 -0.0290785
internal_weight=121.155 108.158 96.7043 59.3662 30.9738 24.7906 37.3381 27.1589 17.7323 28.3924 23.4907
internal_count=609 558 491 330 158 118 161 112 78 172 147
is_linear=0
shrinkage=0.05


Tree=71
num_leaves=13
num_cat=0
split_feature=0 13 1 1 12 16 13 16 16 17 1 17
split_gain=5.3346 5.26249 4.153 3.5371 3.48321 3.75905 3.22358 2.08433 1.6992 1.47382 1.39399 1.09902
threshold=2.5000000000000004 12.500000000000002 5.5000000000000009 10.500000000000002 15.500000000000002 8.1500000000000004 45.500000000000007 9.4166666666666696 13.050000000000002 0.68333333333333335 24.500000000000004 0.18333333333333332
decision_type=2 2 2 2 2 2 2 2 2 2 2 2
left_child=2 9 -1 7 5 11 10 -3 -7 -2 -5 -4
right_child=1 3 4 6 -6 8 -8 -9 -10 -11 -12 -13
leaf_value=0.034443384254765459 -0.031879848529480427 0.0333765476131581 -0.019582284756815407 -0.030728339770674153 -0.022099853572034308 0.032410937407748155 0.011581305755651411 -0.00050097095938842786 0.0031901745502913195 -0.0024295805675188338 -0.00050223552136972448 0.0048902192247197726
leaf_weight=11.848521232604979 18.845210358500484 7.8415400683879835 7.1425839811563474 9.7459312751889247 7.6412997767329207 12.378882557153704 9.6499238014221174 7.171381026506424 9.0237922072410566 6.3974471762776366 6.0765168070793143 6.148246631026268
leaf_count=45 113 29 44 64 42 51 43 32 43 35 35 33
internal_value=0.000300808 -0.00905328 0.011615 0.00223157 0.00325915 0.0102915 -0.00877051 0.0195281 0.0222026 -0.025644 -0.021316 -0.00913876
internal_weight=119.911 65.728 54.1833 40.4853 42.3348 34.6935 25.4724 15.0129 21.4027 25.2427 15.8224 13.2908
internal_count=609 351 258 203 213 171 142 61 94 148 99 77
is_linear=0
shrinkage=0.05


Tree=72
num_leaves=10
num_cat=0
split_feature=1 16 16 14 16 6 16 1 14
split_gain=7.50261 9.78679 5.78324 5.00335 4.3982 3.97193 3.2836 4.25604 3.28928
threshold=26.500000000000004 9.7833333333333368 7.8833333333333337 1.5000000000000002 8.2166666666666668 3.5000000000000004 11.516666666666667 8.5000000000000018 2.5000000000000004
decision_type=2 2 2 2 2 2 2 2 2
left_child=2 -2 3 -1 -4 6 8 -8 -6
right_child=1 -3 4 -5 5 -7 7 -9 -10
leaf_value=0.0073147203327702387 0.05054817118199887 -0.012612918898061926 0.031715681539710439 -0.034519046238107094 -0.03453268547456665 0.027190448850347923 0.026257681066824842 -0.0092350685458151578 0.0013586242409775471
leaf_weight=8.4850044623017329 11.745200410485269 8.642469570040701 7.7228606045246115 21.954520910978317 13.436339154839517 6.4873187988996497 9.6583763509988767 22.343365631997585 9.6551214605569822
leaf_count=46 46 43 39 133 61 31 44 116 50
internal_value=-0.000145516 0.0253765 -0.00599959 -0.0230983 0.00208817 -0.00285072 -0.00769566 0.00266649 -0.0209033
internal_weight=120.131 20.3877 99.7429 30.4395 69.3034 61.5805 55.0932 32.0017 23.0915
internal_count=609 89 520 179 341 302 271 160 111
is_linear=0
shrinkage=0.05


Tree=73
num_leaves=10
num_cat=0
split_feature=1 15 16 13 12 17 1 16 15
split_gain=9.3383 5.79078 5.12601 4.4326 2.09325 5.75391 2.91993 1.46788 0.422179
