tree
version=v4
num_class=5
num_tree_per_iteration=5
label_index=0
max_feature_idx=20
objective=multiclass num_class:5
feature_names=day_of_week day_of_month month lag_inc_1d inc_3d_sum inc_7d_sum inc_30d_sum succ_7d_sum succ_30d_sum had_incident_prev_1d had_incident_prev_3d had_incident_prev_7d days_since_last_incident days_since_last_success type_inc_7d_sum type_inc_30d_sum avg_inter_attack_interval attack_rate_trend streak_active_days streak_quiet_days success_ratio_7d
feature_infos=[0:6] [1:31] [1:12] [0:2] [0:3] [0:3] [0:5] [0:3] [0:4] [0:1] [0:1] [0:1] [1:999] [1:999] [0:4] [1:9] [4.6333333333333337:999] [-0.93333333333333335:2.2999999999999998] [0:2] [0:67] [0:1]
tree_sizes=1356 1351 1348 1247 1138 1615 1295 1601 1391 1080 1490 1601 1601 1486 1382 1599 1498 1606 1385 1283 1381 1489 1588 1402 1599 1604 1607 1474 1472 1400

Tree=0
num_leaves=12
num_cat=0
split_feature=16 15 13 17 16 15 15 15 15 13 12
split_gain=12.6162 5.5875 9.19967 3.38371 3.92212 3.28015 4.52862 2.95805 1.55103 0.676039 0.629072
threshold=10.666666666666668 1.5000000000000002 40.500000000000007 -0.34999999999999992 14.716666666666667 4.5000000000000009 3.5000000000000004 3.5000000000000004 4.5000000000000009 60.500000000000007 13.500000000000002
decision_type=2 2 2 2 2 2 2 2 2 2 2
left_child=5 -2 3 -3 8 6 10 -6 -5 -4 -1
right_child=1 2 9 4 7 -7 -8 -9 -10 -11 -12
leaf_value=-1.6163974307771829 -1.5718129882887517 -1.6164672540898557 -1.6416676726419133 -1.5693469734705348 -1.5887426181790549 -1.6472418404054732 -1.5946151880643245 -1.6287073756858652 -1.6001385361866292 -1.6155412373702724 -1.6434338404946991
leaf_weight=5.9591513872146606 13.567979648709295 11.340304709970949 10.048156186938284 17.380645208060745 5.575001545250414 16.011772245168686 9.9093368873000145 7.0466033965349197 8.5191934630274755 5.7844053804874411 6.6850432530045509
leaf_count=38 51 53 64 65 26 101 51 42 41 23 38
internal_value=-1.60925 -1.59787 -1.60473 -1.59417 -1.58745 -1.63167 -1.61727 -1.61015 -1.57729 -1.63488 -1.63479
internal_weight=117.828 79.2623 65.6943 49.8617 38.5214 38.5653 22.5535 12.6216 25.8998 15.8326 12.6442
internal_count=593 365 314 227 174 228 127 68 106 87 76
is_linear=0
shrinkage=1


Tree=1
num_leaves=12
num_cat=0
split_feature=16 16 6 1 13 13 13 1 16 16 16
split_gain=19.3128 15.3845 8.57757 4.61575 3.65612 5.85763 1.94562 1.07173 0.818078 0.584945 0.502598
threshold=11.050000000000002 13.800000000000002 2.5000000000000004 6.5000000000000009 22.500000000000004 66.500000000000014 53.500000000000007 4.5000000000000009 15.516666666666667 12.550000000000002 7.6833333333333345
decision_type=2 2 2 2 2 2 2 2 2 2 2
left_child=6 2 9 -3 -5 8 7 -1 -6 -2 -9
right_child=1 3 -4 4 5 -7 -8 10 -10 -11 -12
leaf_value=-1.6185059471343648 -1.5785431973115209 -1.6444413498117543 -1.613102843022618 -1.5888221909781004 -1.6185193588298807 -1.5874018804378855 -1.6123978002760762 -1.6266679705911233 -1.6445010149193082 -1.5400965455025346 -1.6523289737167648
leaf_weight=7.1977428644895545 11.768022269010549 7.3356932103633872 7.8963883370161048 13.917690604925154 9.3387766033411079 7.5127764344215384 7.7330720275640479 9.7376980781555194 7.3769788742065421 9.2092515677213651 18.803497388958931
leaf_count=39 44 43 46 59 44 27 42 60 48 31 110
internal_value=-1.61182 -1.5965 -1.56982 -1.61474 -1.60702 -1.61841 -1.63728 -1.64189 -1.63383 -1.55489 -1.6462
internal_weight=117.828 74.3556 28.8737 45.4819 38.1462 24.2285 43.472 35.7389 16.7158 20.9773 28.5412
internal_count=593 342 121 221 178 119 251 209 92 75 170
is_linear=0
shrinkage=1


Tree=2
num_leaves=12
num_cat=0
split_feature=16 14 16 13 19 2 19 0 15 13 0
split_gain=7.38495 8.95624 12.226 8.93468 4.85264 5.44424 4.98455 1.30317 0.559516 0.683241 0.331684
threshold=9.4166666666666696 1.5000000000000002 11.716666666666667 18.500000000000004 20.500000000000004 9.5000000000000018 5.5000000000000009 4.5000000000000009 5.5000000000000009 58.500000000000007 3.5000000000000004
decision_type=2 2 2 2 2 2 2 2 2 2 2
left_child=8 2 3 -2 5 6 -4 -3 9 -1 -6
right_child=1 7 4 -5 10 -7 -8 -9 -10 -11 -12
leaf_value=-1.6384809990935509 -1.6094378850206641 -1.6349685567844672 -1.6291624306765549 -1.5383514337105435 -1.6143664167505309 -1.5620251016482654 -1.5899189991318341 -1.6094378850206641 -1.6134498214383273 -1.6136125780712702 -1.6302667116465086
leaf_weight=14.921542249619966 6.53819212317467 14.602634675800802 11.226859845221044 11.404608659446238 9.0034807994961756 6.4138466864824286 15.743734098970888 6.5357532799243918 6.3660096153616896 5.195901818573474 9.8750294595956785
leaf_count=92 34 75 55 53 39 27 75 34 40 28 41
internal_value=-1.60803 -1.6012 -1.59267 -1.56036 -1.60592 -1.59483 -1.60676 -1.62789 -1.62987 -1.63365 -1.62463
internal_weight=117.828 91.3441 70.2058 17.9428 52.263 33.3844 26.9706 21.1384 26.4835 20.1174 18.8785
internal_count=593 433 324 87 237 157 130 109 160 120 80
is_linear=0
shrinkage=1


Tree=3
num_leaves=11
num_cat=0
split_feature=1 13 16 16 19 19 16 2 2 2
split_gain=17.8766 9.5632 8.47027 8.11953 9.35434 8.55314 3.15386 0.859209 0.761775 1.13489
threshold=16.500000000000004 54.500000000000007 8.6333333333333346 11.550000000000002 9.5000000000000018 10.500000000000002 30.000000000000004 7.5000000000000009 2.5000000000000004 10.500000000000002
decision_type=2 2 2 2 2 2 2 2 2 2
left_child=1 3 -2 4 -1 -5 8 -6 -4 -10
right_child=2 -3 6 5 7 -7 -8 -9 9 -11
leaf_value=-1.6177928158287935 -1.5864007892123932 -1.5529248257858086 -1.6187092694730361 -1.5898212444651598 -1.5456612837603307 -1.6419366767403749 -1.6043534012784697 -1.5894088414923586 -1.6483366588815418 -1.6209490555231008
leaf_weight=9.7088761031627673 7.5257508754730216 10.073896646499632 6.9317884147167197 11.029601216316225 7.0462887883186323 15.360926821827887 5.6717236042022696 6.1964158564805984 29.692134961485863 8.5901849716901761
leaf_count=53 44 58 28 57 40 68 25 33 147 40
internal_value=-1.60997 -1.59116 -1.62915 -1.60185 -1.58174 -1.62021 -1.6365 -1.55834 -1.6407 -1.6436
internal_weight=117.828 59.416 58.4116 49.3421 22.9516 26.3905 50.8858 13.2427 45.2141 38.2823
internal_count=593 309 284 251 126 125 240 73 215 187
is_linear=0
shrinkage=1


Tree=4
num_leaves=10
num_cat=0
split_feature=6 2 1 16 16 16 2 1 16
split_gain=46.8172 15.9596 12.119 7.75865 6.70965 12.5846 5.7414 4.3477 1.13212
threshold=2.5000000000000004 8.5000000000000018 24.500000000000004 11.050000000000002 15.683333333333335 38.56666666666667 5.5000000000000009 19.500000000000004 9.2833333333333368
decision_type=2 2 2 2 2 2 2 2 2
left_child=2 7 4 -3 8 -6 -4 -2 -1
right_child=1 3 6 -5 5 -7 -8 -9 -10
leaf_value=-1.6226463497830477 -1.5214577961875442 -1.5701685083835306 -1.6228118760292183 -1.6272506214895897 -1.5692659913827842 -1.6460319355837272 -1.5692537369722965 -1.5821931113752146 -1.6523315435404238
leaf_weight=7.7275866270065299 12.816208630800249 7.3504222631454494 6.95805476605892 11.123767882585524 6.9145654886960974 8.5619781911373121 7.909866064786911 8.5737933367490751 39.891345009207726
leaf_count=39 90 48 32 53 41 35 46 47 162
internal_value=-1.60815 -1.56589 -1.63051 -1.60246 -1.63987 -1.61051 -1.59264 -1.53925 -1.64868
internal_weight=117.828 39.8642 77.9634 18.4742 63.0955 15.4765 14.8679 21.39 47.6189
internal_count=593 238 355 101 277 76 78 137 201
is_linear=0
shrinkage=1


Tree=5
num_leaves=14
num_cat=0
split_feature=6 12 7 4 12 12 2 8 14 17 12 0 12
split_gain=10.3507 4.96833 7.05227 4.67666 4.03689 2.43679 1.78413 1.73117 2.53783 1.66202 1.40278 0.84065 0.249644
threshold=2.5000000000000004 22.500000000000004 1.0000000180025095e-35 1.0000000180025095e-35 4.5000000000000009 34.500000000000007 10.500000000000002 1.0000000180025095e-35 1.0000000180025095e-35 0.95000000000000007 14.500000000000002 2.5000000000000004 18.500000000000004
decision_type=2 2 2 2 2 2 2 2 2 2 2 2 2
left_child=1 2 6 -4 9 11 7 8 -1 -2 -9 -3 -6
right_child=4 5 3 -5 12 -7 -8 10 -10 -11 -12 -13 -14
leaf_value=-0.0188251093155982 -0.015037158913445049 0.014652763755789812 0.049104996759387037 -0.00069754872711912368 -0.035537860849245803 0.001686439364862764 0.0091496810115417986 -0.036095932069494616 0.01259047983855072 0.014298290015086847 -0.0045237537748189912 0.047600625789827565 -0.010030303864535819
leaf_weight=9.3681090995669383 5.83893273770809 7.5413159877061906 7.7530397325754148 7.899819403886795 18.719137191772464 7.2294488474726668 8.5533735379576665 8.1465331688523275 10.360393561422823 7.6037402525544167 7.1619295328855506 8.7052833586931211 4.7616298273205748
leaf_count=48 39 28 30 31 125 39 36 44 50 39 34 34 26
internal_value=4.96728e-05 0.00988217 0.00165806 0.0276325 -0.0209401 0.0279078 -0.00874048 -0.0136165 -0.00262302 0.000833375 -0.0247598 0.0372345 -0.0322764
internal_weight=119.643 82.7192 59.2432 15.6529 36.9234 23.476 43.5903 35.037 19.7285 13.4427 15.3085 16.2466 23.4808
internal_count=603 374 273 61 229 101 212 176 98 78 78 62 151
is_linear=0
shrinkage=0.05


Tree=6
num_leaves=11
num_cat=0
split_feature=6 1 13 12 12 1 12 12 1 13
split_gain=9.51837 7.16542 10.5082 4.80513 5.65099 5.34299 3.17388 2.56458 0.931743 0.052349
threshold=2.5000000000000004 25.500000000000004 4.5000000000000009 32.500000000000007 21.500000000000004 17.500000000000004 2.5000000000000004 18.500000000000004 5.5000000000000009 23.500000000000004
decision_type=2 2 2 2 2 2 2 2 2 2
left_child=1 2 -1 4 5 -4 -2 8 -8 -3
right_child=6 9 3 -5 -6 -7 7 -9 -10 -11
leaf_value=0.059767041564951898 0.0050168201738732751 -0.027329755509070405 -0.011194558292355675 -0.026035606378339689 0.033194740365187707 0.026699308438184296 -0.0072259456790980921 0.0026914469174329982 -0.039124172700331895 -0.008114225164662486
leaf_weight=7.8673889264464369 7.6064762100577346 7.7050332799553853 28.091830901801586 7.1590028926730147 16.548409223556519 10.272230289876459 4.7436043918132844 4.7605277970433226 19.682312428951263 4.8874093070626259
leaf_count=28 43 42 134 38 61 45 32 26 128 26
internal_value=-0.00151752 0.00787611 0.0142615 0.00592746 0.0113137 3.14296e-05 -0.0217195 -0.028661 -0.0345798 -0.0231886
internal_weight=119.324 82.5313 69.9389 62.0715 54.9125 38.3641 36.7929 29.1864 24.4259 12.5924
internal_count=603 374 306 278 240 179 229 186 160 68
is_linear=0
shrinkage=0.05


Tree=7
num_leaves=14
num_cat=0
split_feature=14 16 19 13 16 1 16 1 15 13 1 16 16
split_gain=5.23831 7.92141 4.16088 5.40174 7.99672 6.7438 5.30473 2.79991 1.46884 0.852803 0.44155 0.434195 0.398058
threshold=1.5000000000000002 9.1500000000000004 25.500000000000004 17.500000000000004 12.983333333333336 9.5000000000000018 16.600000000000005 16.500000000000004 5.5000000000000009 4.5000000000000009 17.500000000000004 10.450000000000001 11.716666666666667
decision_type=2 2 2 2 2 2 2 2 2 2 2 2 2
left_child=1 10 3 6 5 -5 12 -6 9 -2 -1 -10 -3
right_child=8 2 -4 4 7 -7 -8 -9 11 -11 -12 -13 -14
leaf_value=-0.0098767093173030771 -0.0080262376115673006 -0.0083483233560065154 -0.012227928533118609 0.006336493935846549 0.016820207745986953 0.069114700891596076 0.022483691914250134 -0.017660782666660407 0.005038644246356843 -0.034912804695404358 -0.031526473957467743 -0.010971338561484151 -0.030192823299731775
leaf_weight=9.1639642119407672 7.3008632808923783 8.6658577397465724 12.804528437554834 7.349229164421561 11.515320397913458 11.128542304039 9.6191398054361326 6.896240420639514 5.6526719108223897 11.067850977182387 8.4586480408906919 5.2363193929195404 4.8586553931236258
leaf_count=57 37 46 59 28 55 51 43 30 35 60 50 27 25
internal_value=-0.00203504 0.00396806 0.0113697 0.0168246 0.0279885 0.0487512 -0.00194848 0.00300657 -0.0193935 -0.0270875 -0.0235853 -0.00300711 -0.0205552
internal_weight=119.718 90.4601 72.8375 60.033 36.8893 18.4778 23.1437 18.4116 29.2577 18.3687 17.6226 10.889 13.5245
internal_count=603 444 337 278 164 79 114 85 159 97 107 62 71
is_linear=0
shrinkage=0.05


Tree=8
num_leaves=12
num_cat=0
split_feature=1 13 12 16 6 16 16 12 1 14 1
split_gain=13.3591 7.96481 6.8273 7.19573 7.65365 6.61457 8.99925 1.76468 1.75541 1.26183 0.321462
threshold=14.500000000000002 53.500000000000007 20.500000000000004 14.683333333333335 3.5000000000000004 15.433333333333335 8.5500000000000025 11.500000000000002 17.500000000000004 1.0000000180025095e-35 27.500000000000004
decision_type=2 2 2 2 2 2 2 2 2 2 2
left_child=1 2 3 4 -1 6 -2 -5 -8 -7 -10
right_child=5 -3 -4 7 -6 9 8 -9 10 -11 -12
leaf_value=0.053922244980816103 0.017129472544640194 0.058428989884985252 -0.023354657396797394 0.0081420289257477154 -0.0052416244660661981 -0.0017110857851923421 -0.006542605670659514 -0.021173939606896966 -0.039757331974758003 0.024802900008999911 -0.014800890384954935
leaf_weight=14.7662475630641 10.259552873671053 8.2617965340614301 9.105901934206484 8.042681507766245 6.9711611047387114 6.2513421252369872 8.220889672636984 6.7841405719518653 24.999687194824219 8.4101012647151929 7.3613788709044448
leaf_count=82 55 46 41 37 45 30 35 29 111 49 43
internal_value=0.00247557 0.0203534 0.0101858 0.0198025 0.0364117 -0.0124179 -0.0207616 -0.00629719 -0.0309753 0.0148444 -0.0359591
internal_weight=119.435 53.9319 45.6701 36.5642 21.7374 65.503 50.8415 14.8268 40.582 14.6614 32.3611
internal_count=603 280 234 193 127 323 244 66 189 79 154
is_linear=0
shrinkage=0.05


Tree=9
num_leaves=9
num_cat=0
split_feature=6 19 19 16 13 17 8 16
split_gain=52.0925 8.44224 5.07162 4.862 6.74721 4.75449 4.15518 9.44605
threshold=2.5000000000000004 30.500000000000004 13.500000000000002 9.4500000000000011 18.500000000000004 0.95000000000000007 1.0000000180025095e-35 15.616666666666669
decision_type=2 2 2 2 2 2 2 2
left_child=1 3 5 4 -1 -2 7 -5
right_child=2 -3 -4 6 -6 -7 -8 -9
leaf_value=0.032260278838466862 0.069339037466909489 0.024677201570287299 0.0092833533819679463 -0.030469967343188999 -0.027768747725211141 0.018396490110604968 -0.043221025416115541 0.029395558516978101
leaf_weight=6.0388672798871976 19.95392452925444 6.5313069596886626 8.9664349555969221 20.687003664672378 6.7002666816115379 9.5679436847567541 34.804534621536732 6.3733151182532302
leaf_count=39 129 36 50 91 32 50 139 37
internal_value=0.0009882 -0.0216047 0.0468541 -0.0265183 0.00109486 0.0562025 -0.0320691 -0.0146774
internal_weight=119.624 81.1353 38.4883 74.604 12.7391 29.5219 61.8649 27.0603
internal_count=603 374 229 338 71 179 267 128
is_linear=0
shrinkage=0.05


Tree=10
num_leaves=13
num_cat=0
split_feature=16 19 2 1 16 13 12 17 1 12 12 1
split_gain=7.35786 13.388 16.9302 4.80221 4.11075 4.00641 4.10062 3.41372 3.17004 2.71552 1.40493 0.0330461
threshold=12.183333333333335 11.500000000000002 6.5000000000000009 19.500000000000004 15.550000000000002 13.500000000000002 4.5000000000000009 -0.34999999999999992 6.5000000000000009 3.5000000000000004 9.5000000000000018 20.500000000000004
decision_type=2 2 2 2 2 2 2 2 2 2 2 2
left_child=3 5 -3 8 -4 6 -2 -5 10 -9 -1 -7
right_child=1 2 4 7 -6 11 -8 9 -10 -11 -12 -13
leaf_value=0.0096961153163851298 -0.016122194740045743 0.075026542952868855 0.021503707725491494 -0.02036409284955969 -0.019607553386484341 -0.036876801368434312 0.026081013097342537 -0.0069442694742550097 -0.037805352161505081 0.03234785831110238 -0.01791268568876777 -0.012184229241943382
leaf_weight=5.9190168529748899 10.579743474721914 9.8009302914142626 8.6729863286018389 7.5120184049010303 9.6911452487111074 8.743144787847994 6.9758139327168456 5.9056586101651174 22.873270332813263 7.1391903162002563 6.6675149723887444 5.1389078050851813
leaf_count=30 51 31 34 43 55 46 32 29 130 38 37 28
internal_value=-0.00464647 0.00737361 0.0308865 -0.0172455 0 -0.014402 0.00176322 0.00178589 -0.0276871 0.0162755 -0.00524115 -0.0318217
internal_weight=115.619 59.6027 28.1651 56.0167 18.3641 31.4376 17.5556 20.5569 35.4598 13.0448 12.5865 13.8821
internal_count=584 277 120 307 89 157 83 110 197 67 67 74
is_linear=0
shrinkage=0.05


Tree=11
num_leaves=14
num_cat=0
split_feature=16 15 16 6 16 15 12 6 13 13 13 16 14
split_gain=12.0125 4.77658 3.93533 12.2594 3.08965 2.62593 2.99048 2.31673 2.30136 4.68231 2.6302 1.35817 0.0113322
threshold=10.483333333333336 3.5000000000000004 13.116666666666669 2.5000000000000004 13.91666666666667 3.5000000000000004 9.5000000000000018 1.5000000000000002 14.500000000000002 66.500000000000014 51.500000000000007 8.5500000000000025 1.5000000000000002
decision_type=2 2 2 2 2 2 2 2 2 2 2 2 2
left_child=5 4 3 -3 -2 -1 12 -4 -6 10 -10 -8 -7
right_child=1 2 7 -5 8 6 11 -9 9 -11 -12 -13 -14
leaf_value=-0.03859957465029161 0.037621931580609141 0.046466557396630664 -0.03446919169732076 -0.027101066709528856 0.028766216530824763 -0.030730405522359956 0.019432163049546595 0.0002850025996065406 0.0042440061951587275 0.026504245543324607 -0.033239130542494409 -0.0086896283575811726 -0.0099284729758846307
leaf_weight=10.977522991597651 18.48536978662014 9.3234167098999041 6.9985406622290602 7.718739613890647 8.8185991272330302 5.2229274809360522 6.6850260943174344 8.5812300369143468 7.7486934587359446 8.0317833721637708 6.3817528262734413 5.0530410632491112 5.2924974709749222
leaf_count=68 65 32 42 53 35 34 33 46 42 29 38 31 36
internal_value=0.00299132 0.0132246 -0.00152163 0.0138277 0.0225757 -0.0211512 -0.00878305 -0.0181025 0.0109221 0.00103986 -0.0152491 0.00768236 -0.0251583
internal_weight=115.319 82.0881 32.6219 17.0422 49.4662 33.231 22.2535 15.5798 30.9808 22.1622 14.1304 11.7381 10.5154
internal_count=584 382 173 85 209 202 134 88 144 109 80 64 70
is_linear=0
shrinkage=0.05


Tree=12
num_leaves=14
num_cat=0
split_feature=1 13 13 6 16 0 12 12 1 12 13 13 2
split_gain=10.3107 9.56977 6.088 4.42526 6.83615 6.79538 4.50971 1.98456 1.93585 2.21857 0.35284 0.0623321 0.0399791
threshold=22.500000000000004 61.500000000000007 48.500000000000007 2.5000000000000004 12.316666666666668 3.5000000000000004 17.500000000000004 3.5000000000000004 13.500000000000002 9.5000000000000018 72.500000000000014 10.500000000000002 2.5000000000000004
decision_type=2 2 2 2 2 2 2 2 2 2 2 2 2
left_child=1 2 3 4 6 -6 -1 -2 11 -10 -3 -5 -9
right_child=7 10 -4 8 5 -7 -8 12 9 -11 -12 -13 -14
leaf_value=0.004521512338903833 -0.0026591115165950038 0.052537235580730736 -0.035567480082318068 -0.030182047479544519 0.019401375415568602 -0.029970556726001643 0.053364587400818786 -0.012729088600054717 0.019677372566038329 -0.015046569775544591 0.018631642946742671 -0.010101404756395089 -0.036009093830190984
leaf_weight=8.7248099371790904 8.4377437159419078 6.4781272411346418 7.643253080546855 4.9240958169102687 11.77091706544161 10.207861386239527 10.076151534914969 5.5929758399724987 6.2101007327437383 6.1678836196660995 7.1526427194476128 6.4364495202898979 16.068761184811592
leaf_count=42 46 29 45 36 51 41 40 23 36 34 33 40 88
internal_value=-0.00145121 0.00742076 -0.000375308 0.00511484 0.0147682 -0.00417438 0.034669 -0.0252706 -0.0110777 0.00248962 0.0416165 -0.0236402 -0.0324807
internal_weight=115.892 85.7923 72.1615 64.5183 40.7797 21.9788 18.801 30.0995 23.7385 12.378 13.6308 11.3605 21.6617
internal_count=584 427 365 320 174 92 82 157 146 70 62 76 111
is_linear=0
shrinkage=0.05


Tree=13
num_leaves=13
num_cat=0
split_feature=1 13 16 16 6 2 1 12 16 1 16 2
split_gain=12.975 7.12314 5.79464 6.27383 5.27967 6.45805 6.8934 5.87176 5.86338 1.23381 1.53078 0.68459
threshold=17.500000000000004 56.500000000000007 28.666666666666668 8.9166666666666696 2.5000000000000004 8.5000000000000018 9.5000000000000018 17.500000000000004 14.716666666666667 26.500000000000004 14.583333333333334 7.5000000000000009
decision_type=2 2 2 2 2 2 2 2 2 2 2 2
left_child=1 4 3 -2 7 6 -6 8 -1 -5 -11 -9
right_child=2 -3 -4 9 5 -7 -8 11 -10 10 -12 -13
leaf_value=0.034854322617587689 0.011290595219769658 0.047981608636811918 0.023210975128074206 -0.038111426664126861 -0.031481012887441172 0.057626214742169113 0.031687944298221367 -0.0088647478480355559 -0.011966993069038 -0.024535949396357191 0.0065166920770346227 -0.034895056572710643
leaf_weight=10.375904873013498 8.8094229102134687 10.67669641971588 5.2178959921002379 25.415609776973724 5.3912287503480929 6.445149950683116 5.8917713239789009 7.8468362390995008 10.900128118693827 6.4976285472512227 4.7283187508583069 7.3739872798323631
leaf_count=48 49 56 24 117 35 36 40 31 45 38 27 38
internal_value=0.000997523 0.0155346 -0.0173573 -0.0232667 0.00687804 0.0271074 0.000881998 -0.00413425 0.0121464 -0.0319268 -0.0124892 -0.025419
internal_weight=115.571 64.9017 50.6689 45.451 54.225 17.7282 11.283 36.4969 21.276 36.6416 11.2259 15.2208
internal_count=584 329 255 231 273 111 75 162 93 182 65 69
is_linear=0
shrinkage=0.05


Tree=14
num_leaves=12
num_cat=0
split_feature=6 1 6 1 16 16 12 13 16 1 12
split_gain=38.5112 11.6536 9.09658 8.85774 7.49265 11.2012 4.26444 2.83815 1.93599 1.42507 0.849548
threshold=2.5000000000000004 24.500000000000004 3.5000000000000004 10.500000000000002 15.683333333333335 36.06666666666667 9.5000000000000018 10.500000000000002 9.2833333333333368 21.500000000000004 6.5000000000000009
decision_type=2 2 2 2 2 2 2 2 2 2 2
left_child=1 4 3 -2 8 -6 9 -4 -1 -5 -3
right_child=2 10 7 6 5 -7 -8 -9 -10 -11 -12
leaf_value=-0.0089241080455242042 0.063940818157402643 0.0025341127240635993 0.097042625832658436 0.00097763306238054333 0.035717515367141094 -0.033857574407028225 -0.02107737393355831 0.029959417564936659 -0.042370520264622596 0.031517184215268453 0.028478957108097537
leaf_weight=7.3816800042986861 5.3116582781076458 6.059589318931101 5.2625789716839773 7.3481334894895571 8.4157305732369441 8.7253181040287 8.3346285298466665 7.2902206480503082 37.615187078714371 6.4272007346153259 7.5839604735374451
leaf_count=39 37 31 38 40 46 37 36 41 162 34 43
internal_value=0.00207562 -0.0187024 0.0401378 0.0198801 -0.0277532 0.000285521 0.00272128 0.0716984 -0.0378886 0.0186128 0.0197901
internal_weight=115.756 75.7815 39.9744 27.4216 62.1379 17.141 22.11 12.5528 44.9969 13.7753 13.6435
internal_count=584 358 226 147 284 83 110 79 201 74 74
is_linear=0
shrinkage=0.05


Tree=15
num_leaves=14
num_cat=0
split_feature=15 0 1 1 0 19 2 16 2 16 1 16 1
split_gain=11.2767 5.93584 6.89235 7.22474 5.54149 3.61773 3.23522 2.87529 2.54345 1.51673 1.3608 1.2128 1.60067
threshold=4.5000000000000009 1.5000000000000002 14.500000000000002 26.500000000000004 4.5000000000000009 11.500000000000002 2.5000000000000004 12.750000000000002 5.5000000000000009 11.950000000000001 24.500000000000004 12.41666666666667 7.5000000000000009
decision_type=2 2 2 2 2 2 2 2 2 2 2 2 2
left_child=1 6 4 5 8 7 -1 -4 -3 -8 11 12 -2
right_child=10 2 3 -5 -6 -7 9 -9 -10 -11 -12 -13 -14
leaf_value=-0.033526714811993277 -0.0054304047787319268 0.0042228547413252345 0.035546179067263761 -0.0055858437147524318 0.022483824186776042 0.060207125418207365 -0.01218899052546484 -0.0037259710553726824 -0.031584028456794179 0.013445657469861143 -0.00085232131781291787 -0.0026639471262385386 -0.040372682256621342
leaf_weight=6.3836628869175938 5.7646169140935042 6.7500280737876954 7.6629486605525035 9.1133462712168676 11.675457283854483 13.591230526566504 7.2365894988179233 6.9948870614171028 9.662076957523821 10.167278438806532 6.4075271487236014 5.0794069319963446 14.314516879618166
leaf_count=32 33 33 31 51 54 52 37 32 49 50 37 23 91
internal_value=0.00145992 0.0105913 0.0181775 0.0314162 -0.000604295 0.0429036 -0.00979315 0.0190729 -0.018223 0.00231667 -0.0228886 -0.0276347 -0.0325675
internal_weight=120.804 89.2375 65.45 37.3624 28.0876 28.2491 23.7875 14.6578 16.4121 17.4039 31.5661 25.1585 20.0791
internal_count=605 421 302 166 136 115 119 63 82 87 184 147 124
is_linear=0
shrinkage=0.05


Tree=16
num_leaves=13
num_cat=0
split_feature=16 6 16 16 13 0 16 0 15 13 13 2
split_gain=9.12047 6.19329 7.77217 6.68671 6.16742 4.55159 3.82009 3.80114 4.95175 3.76236 3.09395 0.602946
threshold=10.483333333333336 2.5000000000000004 13.516666666666667 12.483333333333336 66.500000000000014 2.5000000000000004 11.450000000000001 3.5000000000000004 3.5000000000000004 14.500000000000002 13.500000000000002 5.5000000000000009
decision_type=2 2 2 2 2 2 2 2 2 2 2 2
left_child=7 2 3 6 9 -3 -2 8 -1 -4 -10 -11
right_child=1 5 4 -5 -6 -7 -8 -9 10 11 -12 -13
leaf_value=-0.033648624711186147 0.028977186744208253 0.0097912397049082309 0.01079642994521952 0.061788085027511146 0.031154232940544497 -0.037277148912385233 -0.012493831693082788 -0.037615111497123668 -0.012451603917579773 -0.0048353866022141073 0.027870487070884839 -0.02703456274918194
leaf_weight=6.7909751981496838 8.7451682686805778 6.7773271352052715 10.832816168665884 9.1009291559457761 8.4507347941398603 9.4749981909990293 7.9110485762357703 17.542997464537621 5.8969908431172353 6.216482117772105 7.8750887289643288 15.347870670258997
leaf_count=44 33 38 44 27 29 57 31 106 40 25 37 94
internal_value=-0.00291991 0.00638158 0.0131773 0.0330949 -0.000672963 -0.0189224 0.0101251 -0.0222563 -0.00582016 -0.0110531 0.0111681 -0.0222107
internal_weight=120.963 82.8574 66.605 25.7571 40.8479 16.2523 16.6562 38.1061 20.5631 32.3972 13.7721 21.5644
internal_count=605 378 283 91 192 95 64 227 121 163 77 119
is_linear=0
shrinkage=0.05


Tree=17
num_leaves=14
num_cat=0
split_feature=14 16 16 0 12 13 13 13 16 2 1 1 2
split_gain=7.8558 6.25876 13.068 7.5525 4.74246 3.7741 9.0667 4.34464 3.14776 1.67701 1.42969 0.675605 0.28311
threshold=1.0000000180025095e-35 9.0166666666666675 12.683333333333335 2.5000000000000004 16.500000000000004 28.500000000000004 16.500000000000004 21.500000000000004 14.016666666666667 9.5000000000000018 16.500000000000004 14.500000000000002 4.5000000000000009
decision_type=2 2 2 2 2 2 2 2 2 2 2 2 2
left_child=1 10 4 -4 -3 6 8 -8 9 -2 -1 -5 -7
right_child=5 2 3 11 -6 12 7 -9 -10 -11 -12 -13 -14
leaf_value=0.0011633900719354166 -0.033961788282424549 0.017157040622889606 0.029143617309654531 -0.0040837552569622949 0.080284525279120611 -0.010687872071513711 0.049873748767774853 -0.00067594966600872778 0.0049393500747009376 -0.0031989718127367612 -0.028809187038236025 -0.026365122097763934 -0.031531450375883008
leaf_weight=7.4081196188926679 13.999898888170721 7.3029462620615941 12.025517754256727 7.5894386172294608 7.7562655881047249 7.9096222445368793 7.2652826085686666 6.7923654690384865 11.710782274603842 7.4217334166169158 4.4609396457672119 8.3237315714359266 11.344110146164892
leaf_count=44 80 34 51 33 32 36 36 32 58 40 30 33 66
internal_value=0.0025503 0.0161335 0.0247062 0.00278298 0.0578835 -0.00880664 -0.000651028 0.0293328 -0.0148903 -0.0252107 -0.0133051 -0.0183362 -0.0257885
internal_weight=121.311 54.867 42.9979 27.9387 15.0592 66.4438 47.1901 14.0576 33.1324 21.4216 11.8691 15.9132 19.2537
internal_count=605 257 183 117 66 348 246 68 178 120 74 66 102
is_linear=0
shrinkage=0.05


Tree=18
num_leaves=12
num_cat=0
split_feature=1 13 6 13 12 2 13 2 13 2 6
split_gain=11.8305 8.85027 7.29908 7.59931 6.43613 5.94346 8.27175 4.06075 3.54988 2.77172 4.98092
threshold=16.500000000000004 55.500000000000007 1.5000000000000002 19.500000000000004 16.500000000000004 2.5000000000000004 46.500000000000007 8.5000000000000018 10.500000000000002 3.5000000000000004 2.5000000000000004
decision_type=2 2 2 2 2 2 2 2 2 2 2
left_child=1 2 4 9 -1 6 -2 -7 -9 -4 -11
right_child=5 -3 3 -5 -6 7 -8 8 -10 10 -12
leaf_value=0.012839807188178901 0.042023940123726025 0.052988598167823114 -0.021954111665697849 0.050369237689489726 -0.036276476342786843 -0.033879950908566762 -0.023837557495767214 -0.02199020270778182 0.017182867775567337 -0.016402632069483232 0.033033177998469575
leaf_weight=9.8342231810092944 7.1523190364241582 9.9397095739841443 5.5409405902028146 10.365755312144755 11.731365002691744 28.13284083455801 6.2199623584747314 8.660894528031351 8.4598460420966131 6.4032971113920203 8.7192816808819753
leaf_count=43 38 51 30 53 55 142 23 48 41 25 56
internal_value=0.000984307 0.0157878 0.00618739 0.0209702 -0.0148424 -0.0147249 0.0123293 -0.0230924 -0.00270926 0.00149502 0.0125747
internal_weight=121.16 62.5346 52.5949 31.0293 21.5656 58.6259 13.3723 45.2536 17.1207 20.6635 15.1226
internal_count=605 313 262 164 98 292 61 231 89 111 81
is_linear=0
shrinkage=0.05


Tree=19
num_leaves=11
num_cat=0
split_feature=6 13 1 1 16 16 2 2 16 15
split_gain=25.8952 8.33783 8.14983 6.55248 6.50287 12.1157 6.28293 5.39708 2.11315 1.62212
threshold=2.5000000000000004 9.5000000000000018 24.500000000000004 9.5000000000000018 15.750000000000002 37.31666666666667 9.5000000000000018 5.5000000000000009 9.2833333333333368 5.5000000000000009
decision_type=2 2 2 2 2 2 2 2 2 2
left_child=2 6 4 -3 8 -6 -2 -4 -1 -5
right_child=1 3 7 9 5 -7 -8 -9 -10 -11
leaf_value=-0.0098406167878794942 0.074962507120112876 0.04014490929695852 -0.014887353345523151 -0.019337025191089204 0.033895047721132492 -0.036513589351731122 0.0094944619983847907 0.034528879009020519 -0.041650400261887897 0.0074804739487029648
leaf_weight=9.1284499764442426 9.5043769180774706 7.4032615572214153 8.2698441445827502 10.476031035184862 9.3237594217062014 9.1123901754617673 6.8472537994384757 8.1869058907031995 35.698880642652512 7.2006664648652068
leaf_count=48 59 42 40 48 49 39 36 45 160 39
internal_value=-0.00211856 0.028678 -0.018644 0.00831046 -0.0265716 -0.000912124 0.053528 0.0109727 -0.0363009 -0.00867066
internal_weight=121.152 41.4316 79.7202 25.08 63.2635 18.4361 16.3516 16.4568 44.8273 17.6767
internal_count=605 224 381 129 296 88 95 85 208 87
is_linear=0
shrinkage=0.05


Tree=20
num_leaves=12
num_cat=0
split_feature=1 19 1 15 0 0 13 13 19 0 13
split_gain=12.0123 13.361 5.59236 5.0699 3.3203 2.68061 2.58041 1.62587 1.58867 3.88075 0.728038
threshold=15.500000000000002 22.500000000000004 27.500000000000004 4.5000000000000009 1.5000000000000002 4.5000000000000009 10.500000000000002 12.500000000000002 19.500000000000004 3.5000000000000004 20.500000000000004
decision_type=2 2 2 2 2 2 2 2 2 2 2
left_child=1 5 3 4 -2 -1 -4 -5 9 -6 -7
right_child=2 -3 6 7 8 10 -8 -9 -10 -11 -12
leaf_value=-0.03510852373255343 0.002628528459507124 0.033622204278112147 0.006314739953721709 0.011497140479863483 0.067571988767479316 0.003931462722198787 -0.032459559482432621 -0.016185623895372023 0.012871310055443123 0.016985741055820843 -0.015966146339788184
leaf_weight=34.59734470397234 9.940676271915434 7.8427574858069411 6.3589027747511846 6.8437292203307143 7.9993092194199624 6.8216939046978933 5.9387841522693634 8.516507685184477 8.8974420279264432 10.540429063141344 6.0767988786101341
leaf_count=199 41 34 33 37 33 36 37 43 33 45 31
internal_value=-0.00146404 -0.0181139 0.0128037 0.019774 0.0291098 -0.0282458 -0.0147767 -0.00371603 0.0373351 0.0454156 -0.00637217
internal_weight=120.374 55.3386 65.0358 52.7381 37.3779 47.4958 12.2977 15.3602 27.4372 18.5397 12.8985
internal_count=602 300 302 232 152 266 70 80 111 78 67
is_linear=0
shrinkage=0.05


Tree=21
num_leaves=13
num_cat=0
split_feature=16 16 1 19 1 1 17 15 16 1 0 2
split_gain=7.14574 8.46384 5.1872 5.09778 4.91724 9.562 5.6015 3.17492 1.85151 1.82375 0.600484 0.105479
threshold=11.050000000000002 21.516666666666669 12.500000000000002 11.500000000000002 17.500000000000004 24.500000000000004 0.41666666666666669 3.5000000000000004 47.333333333333336 21.500000000000004 3.5000000000000004 6.5000000000000009
decision_type=2 2 2 2 2 2 2 2 2 2 2 2
left_child=4 2 3 -2 6 -6 -1 10 -3 -9 -4 -7
right_child=1 8 7 -5 5 11 -8 9 -10 -11 -12 -13
leaf_value=-0.038520980241380398 -0.032430936285774502 -0.034159159143363746 0.045922576597496489 0.014817243261227173 0.037163900066513822 -0.0088270877775626418 0.013776306831332828 0.020659177795913058 -0.0017846861849808813 -0.0086022119774138168 0.018622415278681245 -0.030728772850180792
leaf_weight=19.66746569424868 5.9856322109699276 6.9083821699023273 15.700672425329687 12.633709408342837 8.7119044139981288 5.0981626212596876 4.774546042084693 8.8020685985684377 9.2313843816518766 7.0862085819244376 10.42537998408079 5.2719881236553192
leaf_count=129 38 39 60 57 41 28 22 34 41 42 39 32
internal_value=0.00145436 0.0105398 0.0190322 -0.0025331 -0.0141105 0.00450994 -0.0277337 0.0282322 -0.0190855 0.00805035 0.0382405 -0.024732
internal_weight=120.298 76.7734 60.6337 18.6193 43.5241 19.0821 24.442 42.0143 16.1398 15.8883 26.1261 10.3702
internal_count=602 350 270 95 252 101 151 175 80 76 99 60
is_linear=0
shrinkage=0.05


Tree=22
num_leaves=14
num_cat=0
split_feature=14 16 16 16 12 13 15 13 0 13 16 2 2
split_gain=6.77525 8.28466 6.91112 6.43287 2.62006 3.80991 2.27543 1.72346 1.79014 1.00215 0.832412 0.733933 0.666735
threshold=1.5000000000000002 9.7166666666666668 12.316666666666668 16.483333333333338 17.500000000000004 17.500000000000004 5.5000000000000009 47.500000000000007 2.5000000000000004 59.500000000000007 45.06666666666667 4.5000000000000009 8.5000000000000018
decision_type=2 2 2 2 2 2 2 2 2 2 2 2 2
left_child=1 9 4 7 5 -3 -2 8 -4 12 -5 -8 -1
right_child=6 2 3 10 -6 -7 11 -9 -10 -11 -12 -13 -14
leaf_value=-0.028130056826365719 -0.029974980459548467 -0.010107580461976559 0 0.0098817785528877797 0.052801558946308724 0.035279328308901597 0.0086359688172627149 0.0052883576725246051 -0.030245794350314204 0.00065084189293695808 0.034117128409119922 -0.011803849345863208 -0.0034578968678146572
leaf_weight=11.861031755805021 16.278904110193256 6.4239688590168971 7.6207544580102029 11.397481501102449 10.501222878694533 6.9970054030418396 6.0823961496353132 8.5675545930862409 10.65159400552511 5.2923666536808005 8.5582193210720998 5.4361717849969864 5.1072134971618643
leaf_count=73 88 35 32 56 40 28 28 42 47 29 37 38 29
internal_value=0.000933328 0.00749702 0.0158066 0.00381381 0.0360416 0.0153727 -0.0194506 -0.0116185 -0.0194087 -0.0174453 0.0235935 -0.00111196 -0.0225896
internal_weight=120.776 92.9784 70.7178 46.7956 23.9222 13.421 27.7975 26.8399 18.2723 22.2606 19.9557 11.5186 16.9682
internal_count=602 448 317 214 103 63 154 121 79 131 93 66 102
is_linear=0
shrinkage=0.05


Tree=23
num_leaves=12
num_cat=0
split_feature=16 12 16 16 17 20 16 17 12 16 16
split_gain=8.79072 8.03143 2.46774 3.38514 2.84794 5.26395 1.91076 6.35844 1.24905 1.24225 0.213517
threshold=9.0166666666666675 9.5000000000000018 18.533333333333335 45.06666666666667 0.65000000000000002 0.41666666666666669 10.383333333333335 -0.58333333333333326 5.5000000000000009 11.550000000000002 8.0500000000000025
decision_type=2 2 2 2 2 2 2 2 2 2 2
left_child=1 -1 4 -4 6 -6 7 -2 -8 -10 -3
right_child=2 10 3 -5 5 -7 8 -9 9 -11 -12
leaf_value=-0.011565078374933485 -0.031519994523158172 0.022823526598663033 0.025192235844287737 -0.01111111243333731 0.034432137400169434 -0.019316043837397101 -0.0035267075768552099 0.026873224540648222 -0.005737318319858362 -0.028781356160140506 0.056219607769437033
leaf_weight=8.5367730259895342 5.3841789960861206 9.0941169261932355 9.4684700667858142 10.454831548035143 6.0867186263203603 6.2813722193241119 11.131685964763163 7.4911890253424627 9.9342678561806661 30.232097931206226 6.1181959956884375
leaf_count=54 34 46 54 45 38 27 52 43 43 135 31
internal_value=-0.00092858 0.0244953 -0.0077881 0.00696281 -0.0118083 0.00836771 -0.0159713 0.000797638 -0.0200838 -0.0239926 0.0435778
internal_weight=120.214 23.7491 96.4648 19.9233 76.5415 12.3681 64.1734 12.8754 51.2981 40.1664 15.2123
internal_count=602 131 471 99 372 65 307 77 230 178 77
is_linear=0
shrinkage=0.05


Tree=24
num_leaves=14
num_cat=0
split_feature=17 12 16 17 20 2 1 13 1 16 17 13 2
split_gain=15.3793 11.6416 14.0904 6.22934 6.36131 7.81796 5.67651 7.579 5.13369 1.86497 1.35233 0.267053 0.184003
threshold=-0.81666666666666654 9.5000000000000018 9.7166666666666668 0.41666666666666669 0.83333333333333337 3.5000000000000004 9.5000000000000018 27.500000000000004 25.500000000000004 13.116666666666669 -0.34999999999999992 11.500000000000002 7.5000000000000009
decision_type=2 2 2 2 2 2 2 2 2 2 2 2 2
left_child=-1 2 11 9 5 -5 7 10 12 -4 -3 -2 -8
right_child=1 6 3 4 -6 -7 8 -9 -10 -11 -12 -13 -14
leaf_value=0.061092078496589264 0.069390871114657457 -0.00025365124646855463 0.0019632027769494252 -0.02972440890488582 -0.037474330579471499 0.030090305501463757 -0.040903429880727316 0.03713219711092805 0.0070652405718993633 0.040463789609295114 -0.031747868352587784 0.02168161603616036 -0.020167191531020322
leaf_weight=6.5226870328187934 5.3667391762137395 6.1462120115756997 5.9728152602910978 6.3138324394822147 12.442584626376631 10.278835222125052 23.234672859311104 6.8934747278690329 7.2783483117818824 5.4763237982988358 5.8639105558395395 4.7778005599975586 13.291651576757429
leaf_count=42 35 34 30 30 50 55 101 41 37 35 28 25 59
internal_value=0 -0.00499895 0.0123781 -0.00196357 -0.0142338 0.00600817 -0.0190294 0.00336183 -0.0283952 0.0253025 -0.0192357 0.0573782 -0.0355875
internal_weight=119.86 113.337 50.6289 40.4844 29.0353 16.5927 62.7083 18.9036 43.8047 11.4491 12.0101 10.1445 36.5263
internal_count=602 560 260 200 135 85 300 103 197 65 62 60 160
is_linear=0
shrinkage=0.05


Tree=25
num_leaves=14
num_cat=0
split_feature=17 19 13 16 16 15 1 1 13 15 15 16 13
split_gain=9.21361 12.6125 4.26058 3.88041 8.15658 3.63953 3.57887 2.04613 1.08133 4.41201 4.16404 0.042214 0.0293602
threshold=0.41666666666666669 21.500000000000004 11.500000000000002 12.983333333333336 15.433333333333335 4.5000000000000009 19.500000000000004 27.500000000000004 14.500000000000002 2.5000000000000004 3.5000000000000004 14.016666666666667 14.500000000000002
decision_type=2 2 2 2 2 2 2 2 2 2 2 2 2
left_child=1 6 5 -3 -5 11 8 12 -1 -10 -11 -2 -8
right_child=2 3 -4 4 -6 -7 7 -9 9 10 -12 -13 -14
leaf_value=-0.040547965465803346 0.050719023653811736 -0.0060443675776699589 -0.005484090017760789 0.062759298734053989 -0.0011236964665919779 0.0015246498111726129 0.0033138900091358803 -0.021619494348750171 -0.039311266579711582 0.02446902405368015 -0.018277476684913942 0.021357217363093307 0.012192149590660921
leaf_weight=14.78830550611019 8.2741757333278709 9.2098539173603076 10.873875081539152 7.0159755945205715 9.4654049575328809 8.7136028334498388 6.902468755841257 5.266796648502349 12.016391314566137 6.2112801671028164 11.902862973511217 8.655927397310732 5.5155555307865143
leaf_count=93 29 37 58 21 48 47 39 36 62 34 68 31 23
internal_value=-0.000722618 -0.00947355 0.0194224 0.0185 0.0312908 0.0296265 -0.0213505 -0.00155115 -0.0284562 -0.0192363 -0.00198898 0.0414325 0.00918656
internal_weight=124.812 88.2949 36.5176 25.6912 16.4814 25.6437 62.6037 17.6848 44.9188 30.1305 18.1141 16.9301 12.418
internal_count=626 461 165 106 69 107 355 98 257 164 102 60 62
is_linear=0
shrinkage=0.05


Tree=26
num_leaves=14
num_cat=0
split_feature=16 16 12 13 13 13 6 15 7 17 17 16 12
split_gain=15.2662 5.61638 6.31841 7.73238 4.24191 8.47461 2.64359 1.70204 3.30567 4.72124 2.27686 0.99153 0.340793
threshold=11.050000000000002 13.616666666666669 20.500000000000004 9.5000000000000018 66.500000000000014 32.500000000000007 2.5000000000000004 3.5000000000000004 1.0000000180025095e-35 -0.81666666666666654 -0.34999999999999992 17.916666666666668 16.500000000000004
decision_type=2 2 2 2 2 2 2 2 2 2 2 2 2
left_child=7 2 3 -2 5 6 11 -1 9 -9 -11 -3 -7
right_child=1 4 -4 -5 -6 12 -8 8 -10 10 -12 -13 -14
leaf_value=-0.034575664823369476 0.034970565588194849 0.033546561884769496 0.055917437236264404 -0.021772571230604956 0.030744956119144441 -0.012312075859756166 -0.0083885284720817341 -0.031860976123914884 -0.035153530054081256 0.025541099748700353 -0.0059655284014688923 0.0070765970818435974 -0.03608140395754824
leaf_weight=13.709244847297667 9.8712130188942009 9.0978476181626373 11.36284828186035 8.4092115759849531 8.4617120176553708 8.1052830219268817 7.1490155756473532 5.9231618493795422 7.7938691824674597 9.380502171814447 8.5822171792387945 8.681378707289694 8.5480660200119001
leaf_count=86 41 31 37 41 29 49 41 46 49 42 46 36 52
internal_value=0.00154472 0.0145997 0.0307824 0.00924351 0.00372075 -0.00336527 0.0144431 -0.0207559 -0.0121577 -0.001383 0.0115499 0.02375 -0.0284124
internal_weight=125.076 79.6866 29.6433 18.2804 50.0433 41.5816 24.9282 45.389 31.6798 23.8859 17.9627 17.7792 16.6533
internal_count=626 357 119 82 238 209 108 269 183 134 88 67 101
is_linear=0
shrinkage=0.05


Tree=27
num_leaves=13
num_cat=0
split_feature=14 16 19 19 13 2 13 15 0 15 12 15
split_gain=7.24057 5.66109 5.66052 9.20306 7.87325 2.94891 2.5049 2.46404 1.70886 1.73185 0.906279 0.373455
threshold=1.5000000000000002 9.0166666666666675 24.500000000000004 5.5000000000000009 17.500000000000004 3.5000000000000004 11.500000000000002 2.5000000000000004 4.5000000000000009 5.5000000000000009 11.500000000000002 2.5000000000000004
decision_type=2 2 2 2 2 2 2 2 2 2 2 2
left_child=1 10 3 5 6 -3 -5 -6 9 -2 -1 -4
right_child=8 2 11 4 7 -7 -8 -9 -10 -11 -12 -13
leaf_value=-0.028120338690661884 -0.036367001318213125 -0.028887560913691303 -0.018977255550189816 0.017229428254508669 0.058580427415664132 0.0062207830843091852 -0.017973645878761175 0.022112697484535683 0 -0.0047299430527890322 -0.0044658398472154923 -0.0026996517283125847
leaf_weight=6.9002190530300167 13.354121379554277 7.0701227635145214 7.2814318016171447 7.3249702602624875 15.360570684075357 12.313030250370501 6.8970451876521111 14.769126154482363 7.8268598169088355 7.7907994315028182 10.229484438896177 8.4157479405403119
leaf_count=50 68 38 25 34 61 59 35 65 44 46 59 42
internal_value=0.000296561 0.00697505 0.0126398 0.0191483 0.0311182 -0.00851722 0 0.0444765 -0.020372 -0.0269535 -0.0170136 -0.0123512
internal_weight=125.534 96.5617 79.432 63.7349 44.3517 19.3832 14.222 30.1297 28.9718 21.1449 17.1297 15.6972
internal_count=626 468 359 292 195 97 69 126 158 114 109 67
is_linear=0
shrinkage=0.05


Tree=28
num_leaves=13
num_cat=0
split_feature=16 14 13 13 14 13 16 12 13 16 12 12
split_gain=12.4906 6.80288 4.47041 17.8894 4.12827 7.43977 5.28023 5.00985 4.48746 3.73473 2.68083 0.345608
threshold=9.0166666666666675 1.5000000000000002 53.500000000000007 63.500000000000007 1.0000000180025095e-35 14.500000000000002 18.783333333333335 11.500000000000002 17.500000000000004 11.65 14.500000000000002 9.5000000000000018
decision_type=2 2 2 2 2 2 2 2 2 2 2 2
left_child=1 10 4 -4 8 6 -6 -7 -2 -9 11 -1
right_child=2 -3 3 -5 5 7 -8 9 -10 -11 -12 -13
leaf_value=0.0043551920896013636 0 -0.013393475074408393 0.062323520472117505 -0.022703241870020801 -0.031018869534002159 0.042260934424667711 0.011466742391822998 0.018954198396684014 -0.041713571341508118 -0.024822546504334062 0.064033508430520705 0.025327492197951974
leaf_weight=4.9634754806757035 9.1747601032257098 5.7627568840980521 7.0684858411550548 13.247256904840468 23.355360589921478 7.5526563152670887 8.1105006188154203 6.8574868738651258 17.924330398440361 6.6236340552568436 6.5327348560094824 8.094800688326357
leaf_count=32 43 30 36 54 117 44 39 39 82 33 31 46
internal_value=-0.000659258 0.0286994 -0.00877718 0.0108784 -0.0140672 -0.0051566 -0.019878 0.0163904 -0.0289294 -0.00285432 0.0414369 0.0199701
internal_weight=125.268 25.3538 99.9145 20.3157 79.5987 52.4996 31.4659 21.0338 27.0991 13.4811 19.591 13.0583
internal_count=626 139 487 90 397 272 156 116 125 72 109 78
is_linear=0
shrinkage=0.05


Tree=29
num_leaves=12
num_cat=0
split_feature=6 1 6 1 16 16 16 12 14 16 12
split_gain=33.7373 7.69791 7.51883 9.58916 6.88914 4.72166 10.1293 4.13569 3.10302 2.16339 0.958798
threshold=2.5000000000000004 24.500000000000004 3.5000000000000004 10.500000000000002 9.2500000000000018 15.683333333333335 36.06666666666667 9.5000000000000018 1.0000000180025095e-35 9.3500000000000032 3.5000000000000004
decision_type=2 2 2 2 2 2 2 2 2 2 2
left_child=1 5 3 -2 -4 9 -7 10 -3 -1 -5
right_child=2 8 4 7 -6 6 -8 -9 -10 -11 -12
leaf_value=-0.0097316740811129454 0.057914281441119125 0.030296627520782923 0.018096643347506654 -0.00011586178019229362 0.087008663299678435 0.029309150471114861 -0.036156445932338757 -0.025721223551040718 -0.0076593634966799972 -0.041803810564290944 0.022287897070701567
leaf_weight=9.1410005614161474 6.2143383473157909 6.1520730108022716 9.2106336355209368 7.6837382018566149 7.0606690049171439 8.4932001307606715 9.1770363450050336 8.2180376499891263 10.561518907546995 35.113759778439999 7.8684080541133881
leaf_count=49 40 34 47 36 46 44 40 36 50 162 42
internal_value=-0.000422518 -0.0201678 0.0322283 0.0145855 0.0571491 -0.0280304 -0.00476155 -0.00177606 0.00854255 -0.0363234 0.0127207
internal_weight=124.894 78.6386 46.2558 29.9845 16.2713 61.925 17.6702 23.7702 16.7136 44.2548 15.5521
internal_count=626 379 247 154 93 295 84 114 84 211 78
is_linear=0
shrinkage=0.05


end of trees

feature_importances:
avg_inter_attack_interval=82
days_since_last_success=55
day_of_month=46
days_since_last_incident=36
month=27
type_inc_30d_sum=22
inc_30d_sum=19
day_of_week=15
streak_quiet_days=15
attack_rate_trend=13
type_inc_7d_sum=11
succ_7d_sum=2
succ_30d_sum=2
success_ratio_7d=2
inc_3d_sum=1

parameters:
[boosting: gbdt]
[objective: multiclass]
[metric: multi_logloss]
[tree_learner: serial]
[device_type: cpu]
[data_sample_strategy: bagging]
[data: ]
[valid: ]
[num_iterations: 500]
[learning_rate: 0.05]
[num_leaves: 31]
[num_threads: 18]
[seed: 42]
[deterministic: 1]
[force_col_wise: 1]
[force_row_wise: 0]
[histogram_pool_size: -1]
[max_depth: 6]
[min_data_in_leaf: 30]
[min_sum_hessian_in_leaf: 0.01]
[bagging_fraction: 0.8]
[pos_bagging_fraction: 1]
[neg_bagging_fraction: 1]
[bagging_freq: 1]
[bagging_seed: 400]
[bagging_by_query: 0]
[feature_fraction: 0.8]
[feature_fraction_bynode: 1]
[feature_fraction_seed: 30056]
[extra_trees: 0]
[extra_seed: 12879]
[early_stopping_round: 0]
[early_stopping_min_delta: 0]
[first_metric_only: 0]
[max_delta_step: 0]
[lambda_l1: 0.1]
[lambda_l2: 3]
[linear_lambda: 0]
[min_gain_to_split: 0.01]
[drop_rate: 0.1]
[max_drop: 50]
[skip_drop: 0.5]
[xgboost_dart_mode: 0]
[uniform_drop: 0]
[drop_seed: 17869]
[top_rate: 0.2]
[other_rate: 0.1]
[min_data_per_group: 100]
[max_cat_threshold: 32]
[cat_l2: 10]
[cat_smooth: 10]
[max_cat_to_onehot: 4]
[top_k: 20]
[monotone_constraints: ]
[monotone_constraints_method: basic]
[monotone_penalty: 0]
[feature_contri: ]
[forcedsplits_filename: ]
[refit_decay_rate: 0.9]
[cegb_tradeoff: 1]
[cegb_penalty_split: 0]
[cegb_penalty_feature_lazy: ]
[cegb_penalty_feature_coupled: ]
[path_smooth: 0]
[interaction_constraints: ]
[verbosity: -1]
[saved_feature_importance_type: 0]
[use_quantized_grad: 0]
[num_grad_quant_bins: 4]
[quant_train_renew_leaf: 0]
[stochastic_rounding: 1]
[linear_tree: 0]
[max_bin: 255]
[max_bin_by_feature: ]
[min_data_in_bin: 3]
[bin_construct_sample_cnt: 200000]
[data_random_seed: 175]
[is_enable_sparse: 1]
[enable_bundle: 1]
[use_missing: 1]
[zero_as_missing: 0]
[feature_pre_filter: 1]
[pre_partition: 0]
[two_round: 0]
[header: 0]
[label_column: ]
[weight_column: ]
[group_column: ]
[ignore_column: ]
[categorical_feature: ]
[forcedbins_filename: ]
[precise_float_parser: 0]
[parser_config_file: ]
[objective_seed: 16083]
[num_class: 5]
[is_unbalance: 0]
[scale_pos_weight: 1]
[sigmoid: 1]
[boost_from_average: 1]
[reg_sqrt: 0]
[alpha: 0.9]
[fair_c: 1]
[poisson_max_delta_step: 0.7]
[tweedie_variance_power: 1.5]
[lambdarank_truncation_level: 30]
[lambdarank_norm: 1]
[label_gain: ]
[lambdarank_position_bias_regularization: 0]
[eval_at: ]
[multi_error_top_k: 1]
[auc_mu_weights: ]
[num_machines: 1]
[local_listen_port: 12400]
[time_out: 120]
[machine_list_filename: ]
[machines: ]
[gpu_platform_id: -1]
[gpu_device_id: -1]
[gpu_use_dp: 0]
[num_gpu: 1]

end of parameters

pandas_categorical:[]
