tree
version=v4
num_class=5
num_tree_per_iteration=5
label_index=0
max_feature_idx=20
objective=multiclass num_class:5
feature_names=day_of_week day_of_month month lag_inc_1d inc_3d_sum inc_7d_sum inc_30d_sum succ_7d_sum succ_30d_sum had_incident_prev_1d had_incident_prev_3d had_incident_prev_7d days_since_last_incident days_since_last_success type_inc_7d_sum type_inc_30d_sum avg_inter_attack_interval attack_rate_trend streak_active_days streak_quiet_days success_ratio_7d
feature_infos=[0:6] [1:31] [1:12] [0:2] [0:3] [0:4] [0:8] [0:4] [0:5] [0:1] [0:1] [0:1] [1:999] [1:61] [0:4] [0:8] [3.2999999999999998:999] [-1.6333333333333333:3.0666666666666664] [0:2] [0:51] [0:1]
tree_sizes=1553 1549 1340 1442 1245

Tree=0
num_leaves=14
num_cat=0
split_feature=12 6 13 16 12 12 16 2 0 12 2 19 13
split_gain=8.69743 7.60319 4.54556 4.46151 4.09063 2.87069 2.58132 1.99824 1.42706 3.81827 0.615801 0.399109 0.352703
threshold=12.500000000000002 1.5000000000000002 46.500000000000007 7.7500000000000009 9.5000000000000018 4.5000000000000009 12.766666666666667 8.5000000000000018 2.5000000000000004 20.500000000000004 4.5000000000000009 21.500000000000004 10.500000000000002
decision_type=2 2 2 2 2 2 2 2 2 2 2 2 2
left_child=1 -1 8 7 5 6 -5 -3 9 -2 -7 -10 -9
right_child=2 3 -4 4 -6 10 -8 12 11 -11 -12 -13 -14
leaf_value=-1.5575373693008487 -1.5927895271597261 -1.6094379316235063 -1.5926460238649305 -1.6282456841415351 -1.585047359121317 -1.6184403049176761 -1.5965766573653466 -1.5731403747403745 -1.6462778301249756 -1.6344450386799179 -1.6452608162959705 -1.6235513275977267 -1.5970935263057016
leaf_weight=6.7871880978345862 6.4831975102424648 8.585122227668764 6.4628227353095999 7.8244843184947994 6.3146208971738806 6.7205624729394895 12.865411296486853 8.5567578822374362 13.404128640890123 10.509440243244169 7.9331127256155014 9.8014339059591276 8.1143891364335996
leaf_count=27 35 44 27 39 30 31 66 36 72 55 42 50 39
internal_value=-1.60941 -1.59881 -1.62567 -1.60512 -1.61507 -1.62205 -1.60944 -1.58967 -1.63189 -1.61819 -1.63686 -1.63958 -1.58088
internal_weight=120.363 73.7016 46.661 66.9145 41.6582 35.3436 20.6899 25.2563 40.1982 16.9926 14.6537 23.2056 16.6711
internal_count=593 354 239 327 208 178 105 119 212 90 73 122 75
is_linear=0
shrinkage=1


Tree=1
num_leaves=14
num_cat=0
split_feature=1 13 16 16 2 2 17 2 17 0 6 13 13
split_gain=12.4977 5.43529 3.53003 4.18742 2.76968 2.30128 2.18276 1.89848 2.92593 1.13217 0.234266 0.17476 1.34232
threshold=13.500000000000002 38.500000000000007 7.366666666666668 6.2166666666666677 10.500000000000002 7.5000000000000009 0.099999999999999992 2.5000000000000004 -0.54999999999999993 3.5000000000000004 2.5000000000000004 17.500000000000004 28.500000000000004
decision_type=2 2 2 2 2 2 2 2 2 2 2 2 2
left_child=4 2 3 -2 7 6 9 -1 -9 -4 -8 -10 -13
right_child=1 -3 5 -5 -6 -7 10 8 11 -11 -12 12 -14
leaf_value=-1.6046570390396282 -1.6260795895673277 -1.5892769630113122 -1.6193027179897903 -1.5821701357116424 -1.6135716885552478 -1.6490152146673489 -1.6197642147401976 -1.6056829196006399 -1.5619643847950622 -1.5963326957530981 -1.6424314579287391 -1.6055075402157659 -1.5741276032931784
leaf_weight=9.7762798815965635 8.7755454182624799 10.365102276206015 8.7623269259929675 7.0839786976575843 7.2926128357648841 11.871383532881735 6.901079982519148 8.5454381257295555 13.93942734599114 6.834764599800109 6.1141843050718307 7.0380193144083005 7.0625288486480713
leaf_count=48 50 45 48 32 38 68 34 40 62 35 33 31 29
internal_value=-1.60429 -1.61855 -1.62477 -1.60551 -1.58692 -1.63217 -1.62194 -1.58263 -1.57768 -1.60902 -1.63491 -1.57049 -1.58606
internal_weight=120.363 66.7084 56.3433 15.8595 53.6543 40.4837 28.6124 46.3617 36.5854 15.5971 13.0153 28.04 14.1005
internal_count=593 345 300 82 248 218 150 210 162 83 67 122 60
is_linear=0
shrinkage=1


Tree=2
num_leaves=12
num_cat=0
split_feature=2 5 2 16 5 6 16 0 19 6 16
split_gain=4.2735 6.50922 9.69599 6.27194 5.06561 5.35598 3.99523 3.97159 1.80176 1.53453 2.31984
threshold=10.500000000000002 1.0000000180025095e-35 9.5000000000000018 20.116666666666671 1.5000000000000002 3.5000000000000004 19.466666666666672 3.5000000000000004 15.500000000000002 2.5000000000000004 7.8166666666666673
decision_type=2 2 2 2 2 2 2 2 2 2 2
left_child=1 3 4 9 5 7 -2 -3 -5 -1 -11
right_child=6 2 -4 8 -6 -7 -8 -9 -10 10 -12
leaf_value=-1.6346128228064769 -1.6472589627761121 -1.602417403415433 -1.5504646601246617 -1.6118903418441304 -1.6294648476958755 -1.6249887464014967 -1.6031754656273078 -1.5599673145085178 -1.5797385606075167 -1.6307370733680444 -1.599429976427136
leaf_weight=22.402762033045292 9.7269118875265139 13.445116423070436 8.0297237038612348 5.8171995207667342 10.98711087554693 7.6356491371989241 7.0916004180908194 8.5521338135004026 8.7655756920576078 7.9244900867342976 9.9844013601541501
leaf_count=112 61 59 35 35 59 34 34 41 37 39 47
internal_value=-1.609 -1.605 -1.59217 -1.6166 -1.60402 -1.59346 -1.63028 -1.58176 -1.59108 -1.62658 -1.61411
internal_weight=120.363 103.544 48.6497 54.8944 40.62 29.6329 16.8185 21.9973 14.5828 40.3117 17.9089
internal_count=593 498 228 270 193 134 95 100 72 198 86
is_linear=0
shrinkage=1


Tree=3
num_leaves=13
num_cat=0
split_feature=16 16 16 2 2 16 1 19 2 13 16 16
split_gain=10.1965 15.9627 11.3564 8.5577 6.5682 11.3984 6.13639 3.91431 2.79688 2.70331 1.71947 1.59565
threshold=10.950000000000001 18.700000000000006 14.250000000000002 5.5000000000000009 6.5000000000000009 7.2500000000000009 13.500000000000002 3.5000000000000004 5.5000000000000009 16.500000000000004 8.0500000000000025 8.6500000000000004
decision_type=2 2 2 2 2 2 2 2 2 2 2 2
left_child=4 2 8 -4 5 -1 -3 -8 -2 -9 -7 -6
right_child=1 6 3 -5 11 10 7 9 -10 -11 -12 -13
leaf_value=-1.5710096812249807 -1.6262552776117156 -1.6425139406969707 -1.5923561556510981 -1.5106159838292774 -1.6490644835210126 -1.6117834876101069 -1.6288002326530058 -1.5696207345323265 -1.5901063901428452 -1.6094379073430336 -1.6456730230627099 -1.6185659286954956
leaf_weight=9.1775230467319506 6.3514627814292934 15.335307165980337 7.6505238860845548 5.9750238060951233 21.923055529594425 6.770599588751792 7.1282532066106823 5.5309354960918418 9.5449717640876752 8.3225104659795743 8.2605378180742246 8.3919675350189191
leaf_count=47 28 68 36 30 111 31 39 34 50 38 38 43
internal_value=-1.61244 -1.59943 -1.5738 -1.54485 -1.62794 -1.60844 -1.62126 -1.60374 -1.60519 -1.5894 -1.63362 -1.64235
internal_weight=120.363 65.839 29.522 13.6255 54.5237 24.2087 36.317 20.9817 15.8964 13.8534 15.0311 30.315
internal_count=593 323 144 66 270 116 179 111 78 72 69 154
is_linear=0
shrinkage=1


Tree=4
num_leaves=11
num_cat=0
split_feature=2 6 2 13 2 16 16 6 13 16
split_gain=12.9162 19.4694 14.0785 11.2507 14.1345 8.63664 26.0371 9.27387 5.51364 2.08595
threshold=10.500000000000002 1.5000000000000002 8.5000000000000018 28.500000000000004 6.5000000000000009 17.516666666666669 29.750000000000004 3.5000000000000004 16.500000000000004 11.683333333333335
decision_type=2 2 2 2 2 2 2 2 2 2
left_child=2 -2 3 4 5 7 -7 -1 -3 -5
right_child=1 8 -4 9 -6 6 -8 -9 -10 -11
leaf_value=-1.6385347743229794 -1.636321717809031 -1.5867116997851798 -1.6494984849060048 -1.6096480974440399 -1.5466412204478446 -1.5235140137279606 -1.6330555429666194 -1.5817253768281019 -1.5057888149458121 -1.6437404395014295
leaf_weight=23.422292619943622 6.3494781702756908 6.5580437630414945 24.893817469477654 6.2513367086648968 8.5815919041633588 6.8358533084392574 9.8257356882095319 7.1245835423469535 3.9109897613525391 16.608949154615402
leaf_count=104 28 36 104 31 55 47 44 41 31 72
internal_value=-1.6121 -1.57502 -1.61897 -1.60825 -1.59615 -1.60846 -1.58211 -1.62384 -1.53976 -1.63572
internal_weight=120.363 16.8185 103.544 78.6503 55.7901 47.2085 16.6616 30.5469 10.469 22.8603
internal_count=593 95 498 394 291 236 91 145 67 103
is_linear=0
shrinkage=1


end of trees

feature_importances:
avg_inter_attack_interval=16
month=13
days_since_last_success=8
inc_30d_sum=6
days_since_last_incident=4
day_of_week=3
streak_quiet_days=3
day_of_month=2
inc_7d_sum=2
attack_rate_trend=2

parameters:
[boosting: gbdt]
[objective: multiclass]
[metric: multi_logloss]
[tree_learner: serial]
[device_type: cpu]
[data_sample_strategy: bagging]
[data: ]
[valid: ]
[num_iterations: 500]
[learning_rate: 0.05]
[num_leaves: 31]
[num_threads: 18]
[seed: 42]
[deterministic: 1]
[force_col_wise: 1]
[force_row_wise: 0]
[histogram_pool_size: -1]
[max_depth: 6]
[min_data_in_leaf: 30]
[min_sum_hessian_in_leaf: 0.01]
[bagging_fraction: 0.8]
[pos_bagging_fraction: 1]
[neg_bagging_fraction: 1]
[bagging_freq: 1]
[bagging_seed: 400]
[bagging_by_query: 0]
[feature_fraction: 0.8]
[feature_fraction_bynode: 1]
[feature_fraction_seed: 30056]
[extra_trees: 0]
[extra_seed: 12879]
[early_stopping_round: 0]
[early_stopping_min_delta: 0]
[first_metric_only: 0]
[max_delta_step: 0]
[lambda_l1: 0.1]
[lambda_l2: 3]
[linear_lambda: 0]
[min_gain_to_split: 0.01]
[drop_rate: 0.1]
[max_drop: 50]
[skip_drop: 0.5]
[xgboost_dart_mode: 0]
[uniform_drop: 0]
[drop_seed: 17869]
[top_rate: 0.2]
[other_rate: 0.1]
[min_data_per_group: 100]
[max_cat_threshold: 32]
[cat_l2: 10]
[cat_smooth: 10]
[max_cat_to_onehot: 4]
[top_k: 20]
[monotone_constraints: ]
[monotone_constraints_method: basic]
[monotone_penalty: 0]
[feature_contri: ]
[forcedsplits_filename: ]
[refit_decay_rate: 0.9]
[cegb_tradeoff: 1]
[cegb_penalty_split: 0]
[cegb_penalty_feature_lazy: ]
[cegb_penalty_feature_coupled: ]
[path_smooth: 0]
[interaction_constraints: ]
[verbosity: -1]
[saved_feature_importance_type: 0]
[use_quantized_grad: 0]
[num_grad_quant_bins: 4]
[quant_train_renew_leaf: 0]
[stochastic_rounding: 1]
[linear_tree: 0]
[max_bin: 255]
[max_bin_by_feature: ]
[min_data_in_bin: 3]
[bin_construct_sample_cnt: 200000]
[data_random_seed: 175]
[is_enable_sparse: 1]
[enable_bundle: 1]
[use_missing: 1]
[zero_as_missing: 0]
[feature_pre_filter: 1]
[pre_partition: 0]
[two_round: 0]
[header: 0]
[label_column: ]
[weight_column: ]
[group_column: ]
[ignore_column: ]
[categorical_feature: ]
[forcedbins_filename: ]
[precise_float_parser: 0]
[parser_config_file: ]
[objective_seed: 16083]
[num_class: 5]
[is_unbalance: 0]
[scale_pos_weight: 1]
[sigmoid: 1]
[boost_from_average: 1]
[reg_sqrt: 0]
[alpha: 0.9]
[fair_c: 1]
[poisson_max_delta_step: 0.7]
[tweedie_variance_power: 1.5]
[lambdarank_truncation_level: 30]
[lambdarank_norm: 1]
[label_gain: ]
[lambdarank_position_bias_regularization: 0]
[eval_at: ]
[multi_error_top_k: 1]
[auc_mu_weights: ]
[num_machines: 1]
[local_listen_port: 12400]
[time_out: 120]
[machine_list_filename: ]
[machines: ]
[gpu_platform_id: -1]
[gpu_device_id: -1]
[gpu_use_dp: 0]
[num_gpu: 1]

end of parameters

pandas_categorical:[]
