tree
version=v4
num_class=5
num_tree_per_iteration=5
label_index=0
max_feature_idx=20
objective=multiclass num_class:5
feature_names=day_of_week day_of_month month lag_inc_1d inc_3d_sum inc_7d_sum inc_30d_sum succ_7d_sum succ_30d_sum had_incident_prev_1d had_incident_prev_3d had_incident_prev_7d days_since_last_incident days_since_last_success type_inc_7d_sum type_inc_30d_sum avg_inter_attack_interval attack_rate_trend streak_active_days streak_quiet_days success_ratio_7d
feature_infos=[0:6] [1:31] [1:12] [0:2] [0:2] [0:3] [0:6] [0:2] [0:4] [0:1] [0:1] [0:1] [1:999] [1:999] [0:5] [0:10] [4:999] [-1.4000000000000001:1.8333333333333333] [0:2] [0:60] [0:1]
tree_sizes=1546 1345 1345 1342 1247 1376 1498 1393 1289 1502 1383 1390 1395 1267 1386 1294 1291 1290 1603 1187

Tree=0
num_leaves=14
num_cat=0
split_feature=2 19 6 13 12 12 16 6 2 13 13 16 13
split_gain=8.64113 12.6144 8.38666 11.6319 5.1114 5.7862 15.1168 6.80428 6.50469 3.89788 2.49188 0.846161 0.819776
threshold=10.500000000000002 13.500000000000002 1.5000000000000002 61.500000000000007 12.500000000000002 4.5000000000000009 10.116666666666669 3.5000000000000004 3.5000000000000004 36.500000000000007 11.500000000000002 15.91666666666667 60.500000000000007
decision_type=2 2 2 2 2 2 2 2 2 2 2 2 2
left_child=1 4 3 9 5 7 10 11 -8 -3 -7 -1 -2
right_child=12 2 -4 -5 -6 6 8 -9 -10 -11 -12 -13 -14
leaf_value=-1.6482186625236426 -1.6467487262980343 -1.5999753661658602 -1.5444815362670057 -1.5642884554746022 -1.6452113663951407 -1.6022670478312684 -1.6077529761610021 -1.5881785588849107 -1.5459469107599859 -1.6447690755285618 -1.6374429046960037 -1.6199186111483672 -1.6152441951550327
leaf_weight=10.815517216920858 9.2151073142886144 6.8791878595948237 9.8076872378587705 11.5438235104084 7.8951107859611502 5.7274054735898998 6.6537470147013691 6.4854922071099272 10.752752564847468 7.5666047260165215 12.093263916671274 7.6394824013113967 4.5118505433201781
leaf_count=67 71 27 33 44 39 30 33 29 48 52 62 34 24
internal_value=-1.60613 -1.60094 -1.57815 -1.59644 -1.61367 -1.60811 -1.59546 -1.62539 -1.56561 -1.62519 -1.62649 -1.63984 -1.63959
internal_weight=117.587 103.86 35.7973 25.9896 68.0628 60.1677 35.2272 24.9405 17.4065 14.4458 17.8207 18.455 13.727
internal_count=593 498 156 123 342 303 173 130 81 79 92 101 95
is_linear=0
shrinkage=1


Tree=1
num_leaves=12
num_cat=0
split_feature=13 13 17 14 17 13 2 16 1 0 2
split_gain=4.95879 6.85616 6.2353 4.75391 4.19083 3.92032 2.8181 2.26279 1.99337 2.07959 1.52965
threshold=5.5000000000000009 57.500000000000007 -0.43333333333333335 1.5000000000000002 0.41666666666666669 18.500000000000004 1.5000000000000002 28.400000000000002 20.500000000000004 3.5000000000000004 8.5000000000000018
decision_type=2 2 2 2 2 2 2 2 2 2 2
left_child=4 2 5 7 -1 -2 -4 10 -8 -10 -3
right_child=1 3 6 -5 -6 -7 8 -9 9 -11 -12
leaf_value=-1.5728958155022561 -1.6255546980760402 -1.6083837612101974 -1.6061152289842706 -1.5739277188481196 -1.6173488380862202 -1.5901948286209722 -1.6529897141991057 -1.5953668029913848 -1.608202209273021 -1.6416080785739735 -1.6356396299938962
leaf_weight=9.531545005738737 12.665647916495802 9.0411973297596031 5.005071021616458 8.5840641185641271 7.3792226910591117 12.662303477525709 21.03773421049118 9.5275548771023733 8.9985297620296461 5.693296216428279 7.4608661457896224
leaf_count=38 59 40 20 31 43 50 143 45 53 37 34
internal_value=-1.61374 -1.61807 -1.62727 -1.60063 -1.59081 -1.60789 -1.63871 -1.61203 -1.64331 -1.62412 -1.62259
internal_weight=117.587 100.676 66.0626 34.6137 16.9108 25.328 40.7346 26.0296 35.7296 14.6918 16.5021
internal_count=593 512 362 150 81 109 253 119 233 90 74
is_linear=0
shrinkage=1


Tree=2
num_leaves=12
num_cat=0
split_feature=14 16 13 13 16 16 13 16 12 12 12
split_gain=4.18858 4.67916 6.92004 9.83199 7.07986 6.30986 3.68422 3.22 3.28471 3.17368 2.32156
threshold=2.5000000000000004 14.316666666666668 12.500000000000002 19.500000000000004 11.666666666666668 17.266666666666669 4.5000000000000009 29.183333333333337 20.500000000000004 50.500000000000007 12.500000000000002
decision_type=2 2 2 2 2 2 2 2 2 2 2
left_child=1 2 6 -4 10 -3 -1 8 -7 -9 -5
right_child=-2 5 3 4 -6 7 -8 9 -10 -11 -12
leaf_value=-1.6011407653396239 -1.5801889761679853 -1.6497273309871598 -1.5557531170004566 -1.6074603404692223 -1.5767747603902436 -1.5801241574738858 -1.6413181959471761 -1.6418404640515103 -1.6177799252319569 -1.6017317685155346 -1.6360747692118081
leaf_weight=7.339174352586272 8.2157290130853635 12.961970284581183 9.9872364550828916 12.999526739120485 9.8290381357073766 8.9279769286513346 11.869774691760538 9.0595923811197263 8.9618904516100866 6.4535223692655554 10.981600970029829
leaf_count=35 41 72 47 75 49 45 58 57 45 25 44
internal_value=-1.60936 -1.61223 -1.6035 -1.59276 -1.60731 -1.62384 -1.6267 -1.61117 -1.59772 -1.62634 -1.62188
internal_weight=117.587 109.371 63.0064 43.7974 33.8102 46.365 19.2089 33.403 17.8899 15.5131 23.9811
internal_count=593 552 308 215 168 244 93 172 90 82 119
is_linear=0
shrinkage=1


Tree=3
num_leaves=12
num_cat=0
split_feature=1 13 16 19 14 13 16 19 13 20 13
split_gain=10.4876 10.4127 9.57752 5.82085 4.80706 4.28374 7.13954 3.48072 3.17361 8.07359 3.08216
threshold=5.5000000000000009 60.500000000000007 23.366666666666671 4.5000000000000009 2.5000000000000004 48.500000000000007 12.066666666666668 14.500000000000002 18.500000000000004 0.58333333333333337 12.500000000000002
decision_type=2 2 2 2 2 2 2 2 2 2 2
left_child=1 3 4 -1 5 8 -7 10 9 -2 -4
right_child=2 -3 7 -5 -6 6 -8 -9 -10 -11 -12
leaf_value=-1.6038362180048737 -1.5969332185666667 -1.6281146764498238 -1.6075476611133408 -1.5379586064746134 -1.5898751859627602 -1.576952500384488 -1.6323003715271978 -1.6127715571159 -1.648300019009145 -1.6485009850797296 -1.559314274508663
leaf_weight=5.829033330082896 13.846920296549797 6.0896111950278273 5.62725777924061 8.159777030348776 5.9218056052923194 7.1450462564826038 10.678224369883536 9.586938373744486 26.444971956312656 11.172188840806484 7.0852594375610352
leaf_count=29 70 22 33 51 30 32 53 42 138 51 42
internal_value=-1.61046 -1.58009 -1.61746 -1.55928 -1.62594 -1.62978 -1.60887 -1.59047 -1.63674 -1.6215 -1.57591
internal_weight=117.587 20.0784 97.5086 13.9888 75.2092 69.2874 17.8233 22.2995 51.4641 25.0191 12.7125
internal_count=593 102 491 80 374 344 85 117 259 121 75
is_linear=0
shrinkage=1


Tree=4
num_leaves=11
num_cat=0
split_feature=2 13 8 13 2 20 2 16 12 12
split_gain=30.5676 33.9718 14.2879 51.149 21.403 5.0774 5.33529 3.51796 1.59603 0.406354
threshold=9.5000000000000018 49.500000000000007 1.0000000180025095e-35 62.500000000000007 3.5000000000000004 0.58333333333333337 5.5000000000000009 12.250000000000002 7.5000000000000009 4.5000000000000009
decision_type=2 2 2 2 2 2 2 2 2 2
left_child=2 7 3 4 -1 9 -7 -2 -5 -4
right_child=1 -3 5 8 -6 6 -8 -9 -10 -11
leaf_value=-1.608083437048544 -1.5771774792608115 -1.6216964596081143 -1.6233071080425907 -1.617767372769835 -1.4900284225312237 -1.5860113186438267 -1.6348251622213852 -1.4872844948570316 -1.6486876482343973 -1.6482179685327312
leaf_weight=6.0629112869501105 4.605498209595682 11.011770263314245 7.2022096067666999 8.4090448617935198 8.258612319827078 7.7024180591106441 8.7219236567616445 6.9934321120381355 16.385897800326347 32.233314596116543
leaf_count=30 30 53 38 39 70 41 32 63 65 132
internal_value=-1.60753 -1.5589 -1.62025 -1.59767 -1.53083 -1.63594 -1.61159 -1.50867 -1.64041 -1.64509
internal_weight=117.587 22.6107 94.9763 39.1165 14.3215 55.8599 16.4243 11.5989 24.7949 39.4355
internal_count=593 146 447 204 100 243 73 93 104 170
is_linear=0
shrinkage=1


Tree=5
num_leaves=12
num_cat=0
split_feature=8 19 19 12 0 2 12 12 20 0 0
split_gain=4.94212 3.65501 3.69637 3.50693 3.05081 2.08031 1.8158 1.99254 1.1514 1.94561 0.53645
threshold=1.5000000000000002 13.500000000000002 18.500000000000004 44.500000000000007 1.5000000000000002 5.5000000000000009 32.500000000000007 26.500000000000004 0.58333333333333337 1.5000000000000002 1.0000000180025095e-35
decision_type=2 2 2 2 2 2 2 2 2 2 2
left_child=1 8 -3 6 -2 -6 7 -4 9 10 -1
right_child=4 2 3 -5 5 -7 -8 -9 -10 -11 -12
leaf_value=-0.011457445569999551 0.034469502256210954 0.021258568090793486 -0.017724715298851904 0.017794408013502114 -0.014270105780693793 0.012855689515363204 -0.034460313831741834 0.012590571513644913 0 -0.028084967512985417 0.0059854120780435298
leaf_weight=5.6394576802849752 8.1015191823244113 12.641590371727942 10.011956699192533 6.9456588253378859 8.7330900430679339 14.709932036697863 6.9366381615400305 6.3885554298758498 7.0708104148507109 28.4305434897542 5.9281978011131287
leaf_count=33 33 60 50 26 42 55 43 32 41 155 33
internal_value=-0.00336775 -0.00932666 0.00118998 -0.00819848 0.0128213 0.00208906 -0.0172701 -0.00553727 -0.0185138 -0.0215886 -0.00278337
internal_weight=121.538 89.9934 42.9244 30.2828 31.5445 23.443 23.3372 16.4005 47.069 39.9982 11.5677
internal_count=603 473 211 151 130 97 125 82 262 221 66
is_linear=0
shrinkage=0.05


Tree=6
num_leaves=13
num_cat=0
split_feature=1 12 6 12 12 13 13 1 13 13 17 1
split_gain=6.24447 8.21256 5.80993 8.10303 5.55067 5.42869 5.27548 5.12068 5.10344 2.56485 1.60249 0.529337
threshold=7.5000000000000009 4.5000000000000009 1.5000000000000002 19.500000000000004 12.500000000000002 9.5000000000000018 59.500000000000007 21.500000000000004 36.500000000000007 64.500000000000014 0.41666666666666669 19.500000000000004
decision_type=2 2 2 2 2 2 2 2 2 2 2 2
left_child=1 -1 3 11 5 7 8 -4 -5 -3 -7 -2
right_child=2 9 4 6 -6 10 -8 -9 -10 -11 -12 -13
leaf_value=0.025859902047377037 -0.036075197054105126 -0.04056688662703492 0.042607113985221393 0.023961128838500691 0.045617361254856326 -0.018886903951665847 0.035035026961261227 -0.0060804368624165356 -0.027772503870096402 -0.00083401975332297287 0.0071067603737587377 -0.01107056823130486
leaf_weight=6.322257578372958 8.2618841677904147 13.757382042706015 12.768703989684584 5.3139489516615894 14.219513989984987 11.084932923316957 11.943985536694525 6.9420627877116194 8.2837098836898786 5.874062553048133 7.7501827627420417 8.2586407214403135
leaf_count=31 59 83 49 24 48 57 44 41 58 21 42 46
internal_value=0.00508683 -0.0154082 0.0110478 -0.00269664 0.0216495 0.0100319 0.0143439 0.0267013 -0.00657715 -0.0305856 -0.00845527 -0.0274539
internal_weight=120.781 25.9537 94.8276 42.0622 52.7654 38.5459 25.5416 19.7108 13.5977 19.6314 18.8351 16.5205
internal_count=603 135 468 231 237 189 126 90 82 104 99 105
is_linear=0
shrinkage=0.05


Tree=7
num_leaves=12
num_cat=0
split_feature=6 16 0 16 15 0 12 16 1 1 16
split_gain=4.55204 5.49317 9.65416 4.9133 4.60647 8.17986 5.56325 4.60044 4.45827 3.17695 0.383539
threshold=3.5000000000000004 8.5500000000000025 2.5000000000000004 9.7333333333333361 2.5000000000000004 4.5000000000000009 40.500000000000007 7.5166666666666675 23.500000000000004 22.500000000000004 15.483333333333336
decision_type=2 2 2 2 2 2 2 2 2 2 2
left_child=1 2 -1 -3 6 9 8 -4 -5 -6 -7
right_child=-2 3 7 4 5 10 -8 -9 -10 -11 -12
leaf_value=-0.0095224118271007348 -0.024000487177589399 -0.032189799025087472 0.0098591968473337385 -0.040376311865867785 0.035540002460241978 -0.023462878912349269 0.014497260804252477 0.073046582839231197 0.005000366583260695 0.0001610513699133354 -0.0042317635723984363
leaf_weight=10.739868879318239 13.946354329586027 8.8650771006941778 6.1114729419350606 13.30341006070376 21.426900044083599 7.1604332849383336 10.790696032345293 6.0749242156744003 6.9312075600028029 8.9948034882545453 6.6399302929639816
leaf_count=45 64 45 31 93 104 36 47 30 36 45 27
internal_value=8.40785e-05 0.00383633 0.0239868 -0.00223552 0.00232841 0.0124068 -0.0117173 0.0498949 -0.025979 0.0261825 -0.0169155
internal_weight=120.985 107.039 22.9263 84.1125 75.2474 44.2221 31.0253 12.1864 20.2346 30.4217 13.8004
internal_count=603 539 106 433 388 212 176 61 129 149 63
is_linear=0
shrinkage=0.05


Tree=8
num_leaves=11
num_cat=0
split_feature=1 17 13 19 8 14 13 13 13 13
split_gain=14.1089 14.4676 7.98888 5.06334 3.72192 3.36357 3.7753 16.408 4.53317 0.825755
threshold=5.5000000000000009 0.18333333333333332 79.500000000000014 11.500000000000002 1.0000000180025095e-35 2.5000000000000004 8.5000000000000018 16.500000000000004 48.500000000000007 11.500000000000002
decision_type=2 2 2 2 2 2 2 2 2 2
left_child=1 4 5 -4 -1 6 -2 9 -9 -8
right_child=2 -3 3 -5 -6 -7 7 8 -10 -11
leaf_value=0.020619601459354285 -0.039243031741256353 -0.022682968403732753 0.039802185760139316 -0.010706337840104716 0.084362502318592297 0.011849187579675947 0.011207582832443129 -0.036170835501966973 -0.0047704738649032097 0.044315525652257999
leaf_weight=6.9954553321003932 15.760289542376993 5.8335478454828253 9.1691640615463239 6.4272750169038764 5.7700302600860596 7.7212511599063864 6.4112386107444745 30.886872671544552 19.552776619791985 6.3181175738573074
leaf_count=38 81 29 47 23 30 36 28 160 97 34
internal_value=-0.00230158 0.0345197 -0.00984004 0.0203495 0.0603194 -0.0158288 -0.0189322 -0.0122397 -0.0250433 0.0332763
internal_weight=120.846 18.599 102.247 15.5964 12.7655 86.6505 78.9293 63.169 50.4396 12.7294
internal_count=603 97 506 70 68 436 400 319 257 62
is_linear=0
shrinkage=0.05


Tree=9
num_leaves=13
num_cat=0
split_feature=2 13 13 8 20 2 2 19 13 5 17 13
split_gain=22.8194 25.0675 8.87902 28.5228 11.6871 7.99438 3.81774 2.59435 3.61054 2.17236 1.58665 0.0298446
threshold=10.500000000000002 51.500000000000007 64.500000000000014 1.0000000180025095e-35 0.58333333333333337 3.5000000000000004 8.5000000000000018 7.5000000000000009 11.500000000000002 1.0000000180025095e-35 0.41666666666666669 15.500000000000002
decision_type=2 2 2 2 2 2 2 2 2 2 2 2
left_child=2 -2 3 5 7 -1 -7 8 -5 -4 -6 -9
right_child=1 -3 9 4 10 6 -8 11 -10 -11 -12 -13
leaf_value=0.0024885879708887379 0.10913553377577784 -0.0084934547135712326 -0.041707261546916424 -0.02578297408867606 0.0011717065570023169 0.083312428396333058 0.014809988008813744 -0.019333728912070865 0.016257805370291471 -0.0057652831582762345 0.029970065998459208 -0.0429617517157906
leaf_weight=7.386880666017535 6.4141102880239469 7.8204520419239998 16.618930861353878 10.116417676210402 10.269002571702005 8.6143894642591459 4.5596215426921836 9.1110335662961024 5.6448359787464133 7.1662770211696616 7.1315495669841757 20.092783749103546
leaf_count=37 54 40 66 42 45 62 26 48 38 34 40 71
internal_value=0.000479043 0.053991 -0.00789465 0.000124852 -0.0168239 0.0473424 0.067057 -0.0297903 -0.0102677 -0.0329235 0.0158913 -0.0382333
internal_weight=120.946 14.2346 106.712 82.9265 62.3656 20.5609 13.174 44.9651 15.7613 23.7852 17.4006 29.2038
internal_count=603 94 509 409 284 125 88 199 80 100 85 119
is_linear=0
shrinkage=0.05


Tree=10
num_leaves=12
num_cat=0
split_feature=19 12 1 13 13 1 14 19 16 0 2
split_gain=7.35719 5.82186 5.84931 9.27297 4.79554 6.93978 6.64294 3.48021 4.37004 2.04291 0.621198
threshold=20.500000000000004 24.500000000000004 9.5000000000000018 59.500000000000007 13.500000000000002 5.5000000000000009 1.5000000000000002 13.500000000000002 9.2833333333333368 1.5000000000000002 5.5000000000000009
decision_type=2 2 2 2 2 2 2 2 2 2 2
left_child=4 -2 -3 -4 5 -1 10 9 -9 -6 -7
right_child=1 2 3 -5 7 6 -8 8 -10 -11 -12
leaf_value=-0.032729787150034953 0.051999479385330484 -0.025905848319982334 -0.010056911398478703 0.056133391310813824 -0.0047293822362157985 0.013749333256386474 -0.01025011764499164 0.022996777764415697 -0.01892177207066165 -0.033379729581180392 0.04285892296820977
leaf_weight=6.0559384003281584 7.0743150711059597 7.0790942534804371 9.7890596464276332 6.6893112882971755 10.231759563088415 7.5988806709647241 11.972330518066881 8.5770875215530413 10.420432806015013 22.893979087471962 9.9586691185832006
leaf_count=29 28 34 56 24 57 44 57 30 54 126 45
internal_value=0 0.0200116 0.00542853 0.0210631 -0.00736817 0.00638201 0.0168354 -0.0166829 0.000331735 -0.0257963 0.0343486
internal_weight=118.341 30.6318 23.5575 16.4784 87.7091 35.5858 29.5299 52.1233 18.9975 33.1257 17.5575
internal_count=584 142 114 80 442 175 146 267 84 183 89
is_linear=0
shrinkage=0.05


Tree=11
num_leaves=12
num_cat=0
split_feature=2 19 13 16 13 14 2 12 13 12 13
split_gain=6.13327 4.30871 9.36002 6.64274 7.02577 4.75311 4.45683 4.21173 3.14716 2.24311 0.5576
threshold=9.5000000000000018 11.500000000000002 9.5000000000000018 9.0166666666666675 73.500000000000014 1.5000000000000002 3.5000000000000004 42.500000000000007 2.5000000000000004 4.5000000000000009 34.500000000000007
decision_type=2 2 2 2 2 2 2 2 2 2 2
left_child=1 2 8 -3 6 10 -5 -2 -1 -10 -4
right_child=7 3 5 4 -6 -7 -8 -9 9 -11 -12
leaf_value=-0.0071020346923514645 -0.032078776919174413 0.04737759695607411 -0.039436850991739658 0.0074178673316325303 0.033541323446210622 0.0079835617885529921 -0.035808581796140659 0.012221759170208043 0.042224266097270181 0.0067017794693650769 -0.013965785204126564
leaf_weight=7.1085142642259624 16.442519269883636 10.96756850928068 12.073596939444547 10.96681415289641 9.9450735300779325 9.1820221170783025 7.9500202089548102 5.3874245211482039 9.7334585711359995 9.486811511218546 9.1570887491106969
leaf_count=32 113 39 65 44 31 45 55 23 42 42 53
internal_value=0.00143188 0.0069801 -0.00188192 0.0189693 0.00457268 -0.0199619 -0.0129353 -0.0207887 0.0187377 0.028188 -0.0317465
internal_weight=118.401 96.571 56.7415 39.8295 28.8619 30.4127 18.9168 21.8299 26.3288 19.2203 21.2307
internal_count=584 448 279 169 130 163 99 136 116 84 118
is_linear=0
shrinkage=0.05


Tree=12
num_leaves=12
num_cat=0
split_feature=13 13 16 16 16 13 13 12 15 8 12
split_gain=4.98412 5.66635 6.6151 8.20678 5.3888 4.69084 13.3394 4.66489 4.34032 1.93165 1.11508
threshold=2.5000000000000004 13.500000000000002 14.316666666666668 20.966666666666672 27.216666666666672 55.500000000000007 34.500000000000007 48.500000000000007 4.5000000000000009 1.5000000000000002 6.5000000000000009
decision_type=2 2 2 2 2 2 2 2 2 2 2
left_child=-1 9 5 -4 -5 6 8 -6 -3 10 -2
right_child=1 2 3 4 7 -7 -8 -9 -10 -11 -12
leaf_value=0.035729337435716137 0.010130464349585762 0.042119673155491831 -0.032775429948155549 0.037785488186076868 -0.029916297350238947 0.047328127255015284 -0.036714729338449596 0.015864993977456488 0.0012070136854302584 -0.029145584484909975 -0.014537978204224644
leaf_weight=7.3649638816714278 6.063354820013048 14.676780670881273 16.183980442583561 7.7621754482388523 7.6834801360964802 8.4543640315532667 8.6993655860424024 8.7280012965202314 10.931136161088942 15.542148642241953 6.2169991880655289
leaf_count=36 32 68 91 37 43 34 58 34 44 70 37
internal_value=0.0025638 -0.000476797 0.00607617 -0.00808749 0.0100505 0.0192067 0.00889414 -0.00662214 0.0267882 -0.0189018 -0.00243323
internal_weight=118.307 110.942 83.1193 40.3576 24.1737 42.7616 34.3073 16.4115 25.6079 27.8225 12.2804
internal_count=584 548 409 205 114 204 170 77 112 139 69
is_linear=0
shrinkage=0.05


Tree=13
num_leaves=11
num_cat=0
split_feature=1 17 13 14 19 6 13 13 16 13
split_gain=17.0574 15.6511 8.4826 4.84073 4.51749 2.24841 1.41444 5.43962 2.13367 1.11666
threshold=6.5000000000000009 0.18333333333333332 79.500000000000014 2.5000000000000004 10.500000000000002 3.5000000000000004 48.500000000000007 59.500000000000007 7.8833333333333337 50.500000000000007
decision_type=2 2 2 2 2 2 2 2 2 2
left_child=1 9 3 5 -4 6 8 -8 -2 -1
right_child=2 -3 4 -5 -6 -7 7 -9 -10 -11
leaf_value=0.07137438289616245 -0.0068753475374146548 -0.019399868525141899 0.040787016071106033 0.013780833901673496 -0.0080187383393131462 0 0.017165644947413478 -0.031484648959714728 -0.036423726237376129 0.022750801560741708
leaf_weight=9.1308968663215655 9.7226272001862508 7.7925892025232306 7.5634868890047056 8.0593691170215589 6.8456562161445618 9.5974588468670827 7.5303030759096172 10.103068888187407 35.164990983903408 6.1075121015310279
leaf_count=51 48 37 39 38 25 45 45 40 189 27
internal_value=-0.00280891 0.0331783 -0.0123733 -0.0187475 0.0199265 -0.0228543 -0.0261652 -0.0109912 -0.0309596 0.0591081
internal_weight=117.618 23.031 94.587 80.1778 14.4091 72.1184 62.521 17.6334 44.8876 15.2384
internal_count=584 115 469 405 64 367 322 85 237 78
is_linear=0
shrinkage=0.05


Tree=14
num_leaves=12
num_cat=0
split_feature=17 13 13 1 6 12 13 13 13 1 13
split_gain=12.2943 21.464 20.084 6.86904 5.47551 4.0397 3.28845 2.58743 2.44345 1.64054 1.43875
threshold=-0.31666666666666671 54.500000000000007 29.500000000000004 22.500000000000004 2.5000000000000004 9.5000000000000018 10.500000000000002 64.500000000000014 26.500000000000004 15.500000000000002 46.500000000000007
decision_type=2 2 2 2 2 2 2 2 2 2 2
left_child=8 2 3 4 9 -3 -5 -7 -1 -2 -4
right_child=1 5 10 6 -6 7 -8 -9 -10 -11 -12
leaf_value=-0.036861169650857256 0.028901677747833088 0.0065961740014315526 0.083165447921190877 0.05531760310924342 -0.024559621394662522 -0.0066880300383042775 0.0033439921726910135 -0.041443505417540383 -0.0022112988963110588 -0.0012307924216504436 0.024124791478645664
leaf_weight=20.08697617799044 6.2620164379477519 8.086927652359007 9.7706543281674367 5.458515599370001 15.818356856703756 9.725508391857149 5.7379686012864113 16.632608681917191 7.4457120001316062 7.7752648964524269 4.9825242161750785
leaf_count=86 39 42 68 37 66 47 27 67 33 39 33
internal_value=-0.0012477 0.00775773 0.0264267 0.006569 -0.00632299 -0.0220489 0.0353696 -0.0307837 -0.0287925 0.01464 0.0709537
internal_weight=117.783 90.2503 55.8053 41.0521 29.8556 34.445 11.1965 26.3581 27.5327 14.0373 14.7532
internal_count=584 465 309 208 144 156 64 114 119 78 101
is_linear=0
shrinkage=0.05


Tree=15
num_leaves=11
num_cat=0
split_feature=8 17 16 17 19 1 13 13 1 12
split_gain=6.1656 9.03736 6.64806 10.2377 6.57182 5.11571 5.06655 5.04493 2.34456 0.206896
threshold=1.5000000000000002 -0.31666666666666671 9.1333333333333346 1.0000000180025095e-35 21.500000000000004 11.500000000000002 61.500000000000007 40.500000000000007 7.5000000000000009 2.5000000000000004
decision_type=2 2 2 2 2 2 2 2 2 2
left_child=1 5 3 -2 8 -1 7 -6 -3 -10
right_child=2 4 -4 -5 6 -7 -8 -9 9 -11
leaf_value=-0.0075167488070672882 -0.03206398607429975 -0.0022280089373077831 0.040071488478085948 0.03483927329499642 0.019318384333538757 0.043272682957921603 0.028130014955585533 -0.03092377742330249 -0.010554922005947506 -0.033131107214410191
leaf_weight=6.9020475521683684 10.342533983290201 9.5689642131328565 13.239963233470915 7.0076305121183387 5.4595637992024448 8.9859399572014791 10.087051436305044 9.9382389187812787 5.4855095744132987 32.960243597626686
leaf_count=35 44 55 50 30 27 35 39 63 36 191
internal_value=-0.00131463 -0.00799104 0.017017 -0.00364401 -0.0154577 0.0232546 0.00461525 -0.0125925 -0.0258547 -0.0310277
internal_weight=119.978 89.3876 30.5901 17.3502 73.4996 15.888 25.4849 15.3978 48.0147 38.4458
internal_count=605 481 124 74 411 70 129 90 282 227
is_linear=0
shrinkage=0.05


Tree=16
num_leaves=11
num_cat=0
split_feature=13 13 0 13 12 17 16 12 12 0
split_gain=3.4325 9.89423 6.27616 4.29295 6.38141 6.35381 4.44412 5.16558 4.24432 0.712553
threshold=58.500000000000007 29.500000000000004 2.5000000000000004 16.500000000000004 9.5000000000000018 -0.31666666666666671 6.9166666666666679 2.5000000000000004 19.500000000000004 4.5000000000000009
decision_type=2 2 2 2 2 2 2 2 2 2
left_child=1 3 -2 4 6 -5 -1 -8 -4 -3
right_child=2 9 8 5 -6 -7 7 -9 -10 -11
leaf_value=-0.024654866573850569 -0.01297927668505236 -0.040624434742536242 0.002356143190715399 0.040601504177004442 -0.037005721785408306 -0.0069487835728492715 -0.016478574238190366 0.027607119596882015 0.046224184279123004 -0.010577062503304114
leaf_weight=6.7404740229248992 13.809621654450892 14.5365107357502 10.498521201312544 11.967806279659273 9.4417226463556272 11.544436156749724 7.1739221140742329 18.165129207074642 10.182423017919062 5.807374380528926
leaf_count=35 59 110 49 38 55 59 37 79 39 45
internal_value=-0.00138239 -0.00676447 0.0112822 0.00305351 -0.00648923 0.0189214 0.00474654 0.0145261 0.0272857 -0.0347229
internal_weight=119.868 85.3774 34.4906 65.0335 41.5212 23.5122 32.0795 25.3391 20.6809 20.3439
internal_count=605 458 147 303 206 97 151 116 88 155
is_linear=0
shrinkage=0.05


Tree=17
num_leaves=11
num_cat=0
split_feature=2 1 16 16 13 16 15 2 16 13
split_gain=8.38766 5.40012 4.10993 6.91213 5.85789 3.14305 3.64332 2.72241 2.47555 1.80237
threshold=9.5000000000000018 28.500000000000004 23.550000000000004 8.5500000000000025 12.500000000000002 9.7333333333333361 2.5000000000000004 11.500000000000002 31.866666666666671 25.500000000000004
decision_type=2 2 2 2 2 2 2 2 2 2
left_child=1 2 3 4 -1 -5 -7 -2 -4 -6
right_child=7 -3 8 5 9 6 -8 -9 -10 -11
leaf_value=-0.0060548076123612665 -0.037371591921978801 -0.026361245065912677 0.051123296189487778 -0.030723038402343996 0.053883758765427697 -0.020358869570954868 0.009993833742333905 -0.0014013331341334451 0.010982928892719158 0.014003646760541747
leaf_weight=9.6795828416943568 13.949339047074318 8.3683670163154584 5.7864074409008053 8.0211653485894185 8.2464235126972216 11.983938746154307 26.036633029580116 8.4084710478782654 11.569495446979998 8.1602969691157323
leaf_count=43 97 39 28 41 34 73 111 46 54 39
internal_value=-6.37105e-05 0.00636139 0.0102315 0.0043531 0.0235682 -0.00720758 -0.000240581 -0.0258071 0.0301734 0.039537
internal_weight=120.21 97.8523 89.4839 72.128 26.0863 46.0417 38.0206 22.3578 17.3559 16.4067
internal_count=605 462 423 341 116 225 184 143 82 73
is_linear=0
shrinkage=0.05


Tree=18
num_leaves=14
num_cat=0
split_feature=1 13 12 14 13 13 1 19 13 8 15 20 1
split_gain=12.2321 8.1387 7.54297 5.38029 6.88933 12.5116 3.94346 3.75424 5.85998 2.06166 1.32941 0.831526 0.176931
threshold=5.5000000000000009 48.500000000000007 6.5000000000000009 2.5000000000000004 18.500000000000004 9.5000000000000018 21.500000000000004 24.500000000000004 105.50000000000001 1.0000000180025095e-35 1.5000000000000002 0.58333333333333337 19.500000000000004
decision_type=2 2 2 2 2 2 2 2 2 2 2 2 2
left_child=2 3 -1 4 5 11 -7 8 12 -4 -9 -2 -3
right_child=1 7 9 -5 -6 6 -8 10 -10 -11 -12 -13 -14
leaf_value=-0.0067363673274619664 -0.0083731695678074067 0.057867469993419574 0.02089790306840543 0.017738407439121383 -0.038955118784556327 0.046981250649354614 -0.0015007778434853547 0.007014355431592254 -0.0017295690329134955 0.071982190737294949 -0.019308778909233923 -0.038072264691001466 0.019769479596609754
leaf_weight=6.5949566438794163 5.938889436423783 5.1166634485125559 7.4812789931893331 8.037149064242838 25.197315104305744 7.3857470229268056 6.4093522429466248 7.1573516726493818 10.760400682687758 6.1860358566045761 6.3304610103368759 10.934898465871811 5.8804608210921288
leaf_count=30 28 34 39 39 144 37 30 38 40 30 26 60 30
internal_value=0.00236057 -0.005107 0.0350625 -0.0155331 -0.0210646 -0.00405615 0.0279137 0.0134014 0.0251016 0.053114 -0.00630238 -0.0307128 0.0464562
internal_weight=119.411 99.1487 20.2623 63.9034 55.8662 30.6689 13.7951 35.2453 21.7575 13.6673 13.4878 16.8738 10.9971
internal_count=605 506 99 338 299 155 67 168 104 69 64 88 64
is_linear=0
shrinkage=0.05


Tree=19
num_leaves=10
num_cat=0
split_feature=2 13 13 13 2 20 2 16 13
split_gain=22.5275 24.6713 11.9189 43.0436 14.3552 6.52915 4.12811 0.366993 0.0210295
threshold=9.5000000000000018 46.500000000000007 29.500000000000004 62.500000000000007 3.5000000000000004 0.58333333333333337 5.5000000000000009 12.850000000000003 87.500000000000014
decision_type=2 2 2 2 2 2 2 2 2
left_child=2 7 5 4 -4 -1 -7 -2 -5
right_child=1 -3 3 8 -6 6 -8 -9 -10
leaf_value=-0.035485475378176173 0.033364342327065123 -0.010449440869449158 0.0042760149034402391 -0.016525806469957976 0.093300983232865731 0.022061982238078162 -0.02152919833926439 0.098849539775894488 -0.039004185181381365
leaf_weight=39.174046948552132 5.0848254486918467 11.680766090750692 7.4625038206577328 8.1818176135420817 10.453985579311846 8.5745710954070073 7.2171429172158232 6.9656689316034317 14.820475220680235
leaf_count=175 31 58 38 39 74 45 27 54 64
internal_value=0.000451916 0.0412042 -0.0105277 0.00945259 0.0623913 -0.0252076 0.00161726 0.083708 -0.0340301
internal_weight=119.616 23.7313 95.8845 40.9188 17.9165 54.9658 15.7917 12.0505 23.0023
internal_count=605 143 462 215 112 247 72 85 103
is_linear=0
shrinkage=0.05


end of trees

feature_importances:
days_since_last_success=64
avg_inter_attack_interval=27
days_since_last_incident=25
day_of_month=19
month=19
streak_quiet_days=13
attack_rate_trend=10
day_of_week=9
type_inc_7d_sum=8
succ_30d_sum=7
inc_30d_sum=6
success_ratio_7d=6
type_inc_30d_sum=4
inc_7d_sum=1

parameters:
[boosting: gbdt]
[objective: multiclass]
[metric: multi_logloss]
[tree_learner: serial]
[device_type: cpu]
[data_sample_strategy: bagging]
[data: ]
[valid: ]
[num_iterations: 500]
[learning_rate: 0.05]
[num_leaves: 31]
[num_threads: 18]
[seed: 42]
[deterministic: 1]
[force_col_wise: 1]
[force_row_wise: 0]
[histogram_pool_size: -1]
[max_depth: 6]
[min_data_in_leaf: 30]
[min_sum_hessian_in_leaf: 0.01]
[bagging_fraction: 0.8]
[pos_bagging_fraction: 1]
[neg_bagging_fraction: 1]
[bagging_freq: 1]
[bagging_seed: 400]
[bagging_by_query: 0]
[feature_fraction: 0.8]
[feature_fraction_bynode: 1]
[feature_fraction_seed: 30056]
[extra_trees: 0]
[extra_seed: 12879]
[early_stopping_round: 0]
[early_stopping_min_delta: 0]
[first_metric_only: 0]
[max_delta_step: 0]
[lambda_l1: 0.1]
[lambda_l2: 3]
[linear_lambda: 0]
[min_gain_to_split: 0.01]
[drop_rate: 0.1]
[max_drop: 50]
[skip_drop: 0.5]
[xgboost_dart_mode: 0]
[uniform_drop: 0]
[drop_seed: 17869]
[top_rate: 0.2]
[other_rate: 0.1]
[min_data_per_group: 100]
[max_cat_threshold: 32]
[cat_l2: 10]
[cat_smooth: 10]
[max_cat_to_onehot: 4]
[top_k: 20]
[monotone_constraints: ]
[monotone_constraints_method: basic]
[monotone_penalty: 0]
[feature_contri: ]
[forcedsplits_filename: ]
[refit_decay_rate: 0.9]
[cegb_tradeoff: 1]
[cegb_penalty_split: 0]
[cegb_penalty_feature_lazy: ]
[cegb_penalty_feature_coupled: ]
[path_smooth: 0]
[interaction_constraints: ]
[verbosity: -1]
[saved_feature_importance_type: 0]
[use_quantized_grad: 0]
[num_grad_quant_bins: 4]
[quant_train_renew_leaf: 0]
[stochastic_rounding: 1]
[linear_tree: 0]
[max_bin: 255]
[max_bin_by_feature: ]
[min_data_in_bin: 3]
[bin_construct_sample_cnt: 200000]
[data_random_seed: 175]
[is_enable_sparse: 1]
[enable_bundle: 1]
[use_missing: 1]
[zero_as_missing: 0]
[feature_pre_filter: 1]
[pre_partition: 0]
[two_round: 0]
[header: 0]
[label_column: ]
[weight_column: ]
[group_column: ]
[ignore_column: ]
[categorical_feature: ]
[forcedbins_filename: ]
[precise_float_parser: 0]
[parser_config_file: ]
[objective_seed: 16083]
[num_class: 5]
[is_unbalance: 0]
[scale_pos_weight: 1]
[sigmoid: 1]
[boost_from_average: 1]
[reg_sqrt: 0]
[alpha: 0.9]
[fair_c: 1]
[poisson_max_delta_step: 0.7]
[tweedie_variance_power: 1.5]
[lambdarank_truncation_level: 30]
[lambdarank_norm: 1]
[label_gain: ]
[lambdarank_position_bias_regularization: 0]
[eval_at: ]
[multi_error_top_k: 1]
[auc_mu_weights: ]
[num_machines: 1]
[local_listen_port: 12400]
[time_out: 120]
[machine_list_filename: ]
[machines: ]
[gpu_platform_id: -1]
[gpu_device_id: -1]
[gpu_use_dp: 0]
[num_gpu: 1]

end of parameters

pandas_categorical:[]
